{"learner":{"attributes":{"best_iteration":"64","best_ntree_limit":"65","best_score":"0.3037528637264456","scikit_learn":"{\"use_label_encoder\": false, \"n_estimators\": 100, \"objective\": \"multi:softprob\", \"max_depth\": 4, \"max_leaves\": null, \"max_bin\": null, \"grow_policy\": null, \"learning_rate\": null, \"verbosity\": null, \"booster\": null, \"tree_method\": null, \"gamma\": 0.25, \"min_child_weight\": null, \"max_delta_step\": null, \"subsample\": null, \"sampling_method\": null, \"colsample_bytree\": null, \"colsample_bylevel\": null, \"colsample_bynode\": null, \"reg_alpha\": null, \"reg_lambda\": null, \"scale_pos_weight\": null, \"base_score\": null, \"missing\": NaN, \"num_parallel_tree\": null, \"random_state\": null, \"n_jobs\": null, \"monotone_constraints\": null, \"interaction_constraints\": null, \"importance_type\": null, \"gpu_id\": null, \"validate_parameters\": null, \"predictor\": null, \"enable_categorical\": false, \"max_cat_to_onehot\": null, \"eval_metric\": null, \"early_stopping_rounds\": null, \"callbacks\": null, \"kwargs\": {\"learn_rate\": 0.1, \"seed\": 42}, \"classes_\": [0.0, 1.0, 2.0], \"n_classes_\": 3, \"evals_result_\": {\"validation_0\": {\"mlogloss\": [0.8511710882186889, 0.6849699786731175, 0.5672838108880179, 0.5089499635355813, 0.4560303032398224, 0.44235319708074844, 0.40266990129436764, 0.39574090093374253, 0.3693616752113615, 0.3502214715949127, 0.3424286021717957, 0.3340380865548338, 0.3310800370361124, 0.3326733506683792, 0.3277660098459039, 0.3243775172957352, 0.324193328831877, 0.32232653136764255, 0.32026392750974214, 0.3204259858599731, 0.3160316297784448, 0.31187166082007545, 0.30714602712541816, 0.30499691574701243, 0.30469631773552724, 0.30446866785309146, 0.30429609306156635, 0.3041651747056416, 0.3040657910651394, 0.30399032442697455, 0.3039330149601613, 0.30388949122279885, 0.3038564308413437, 0.3038313536505614, 0.30381228907832075, 0.30379784232271567, 0.30378687756934336, 0.303778541673507, 0.30377225024359567, 0.3037674964006458, 0.30376387935663973, 0.30376115598316705, 0.30375909517918315, 0.3037575427708881, 0.3037563685061676, 0.3037554921316249, 0.3037548261295472, 0.30375432545053105, 0.30375394834471603, 0.30375367889979055, 0.30375347009726933, 0.3037533003304686, 0.3037531943725688, 0.3037531004952533, 0.30375304355153016, 0.30375298942838397, 0.30375296053077494, 0.3037529395627124, 0.30375291114406927, 0.3037529027355569, 0.3037528956575053, 0.3037528752216271, 0.3037528904420989, 0.3037528764988695, 0.3037528637264456, 0.30375287011265756, 0.30375287437013215, 0.30375287085771563, 0.3037528709641525, 0.30375287437013215, 0.3037528777761119, 0.30375288033059666, 0.30375288714255605, 0.30375288373657633, 0.30375289054853577]}}, \"_estimator_type\": \"classifier\"}"},"feature_names":[],"feature_types":[],"gradient_booster":{"model":{"gbtree_model_param":{"num_parallel_tree":"1","num_trees":"225","size_leaf_vector":"0"},"tree_info":[0,1,2,0,1,2,0,1,2,0,1,2,0,1,2,0,1,2,0,1,2,0,1,2,0,1,2,0,1,2,0,1,2,0,1,2,0,1,2,0,1,2,0,1,2,0,1,2,0,1,2,0,1,2,0,1,2,0,1,2,0,1,2,0,1,2,0,1,2,0,1,2,0,1,2,0,1,2,0,1,2,0,1,2,0,1,2,0,1,2,0,1,2,0,1,2,0,1,2,0,1,2,0,1,2,0,1,2,0,1,2,0,1,2,0,1,2,0,1,2,0,1,2,0,1,2,0,1,2,0,1,2,0,1,2,0,1,2,0,1,2,0,1,2,0,1,2,0,1,2,0,1,2,0,1,2,0,1,2,0,1,2,0,1,2,0,1,2,0,1,2,0,1,2,0,1,2,0,1,2,0,1,2,0,1,2,0,1,2,0,1,2,0,1,2,0,1,2,0,1,2,0,1,2,0,1,2,0,1,2,0,1,2,0,1,2,0,1,2,0,1,2,0,1,2],"trees":[{"base_weights":[-8.49558E-2,-2.6966298E-1,5.581395E-1,-4.0720227E-1,2.9032254E-1,9.896907E-1,-5.853659E-1,-2.530121E-1,-6.9421494E-1,1.0408163E0,-4.5283023E-1,-2.5544848E-8,1.1294117E0,-4.4776124E-1,4.736842E-1,-5.853659E-1,-2.5544848E-8,4.137931E-1,1.2923077E0],"categories":[],"categories_nodes":[],"categories_segments":[],"categories_sizes":[],"default_left":[1,1,1,1,1,1,0,1,0,0,1,0,1,0,0,0,0,0,0],"id":0,"left_children":[1,3,5,7,9,11,-1,13,-1,-1,15,-1,17,-1,-1,-1,-1,-1,-1],"loss_changes":[7.6075244E0,3.9264317E0,7.65256E0,1.5994534E0,6.2345386E0,1.4903584E0,0E0,4.1275806E0,0E0,0E0,3.5342848E-1,0E0,5.662041E-1,0E0,0E0,0E0,0E0,0E0,0E0],"parents":[2147483647,0,0,1,1,2,2,3,3,4,4,5,5,7,7,10,10,12,12],"right_children":[2,4,6,8,10,12,-1,14,-1,-1,16,-1,18,-1,-1,-1,-1,-1,-1],"split_conditions":[6.178173E-1,5.9542483E-1,5.39205E-1,5.101052E-1,6.559657E-1,2.5095642E-1,-1.7560977E-1,5.476513E-1,-2.0826449E-1,3.122449E-1,7.141644E-1,-7.663455E-9,4.0339214E-1,-1.3432838E-1,1.4210527E-1,-1.7560977E-1,-7.663455E-9,1.2413793E-1,3.8769233E-1],"split_indices":[24,25,0,14,27,29,0,22,0,0,1,0,15,0,0,0,0,0,0],"split_type":[0,0,0,0,0,0,0,0,0,0,0,0,0,0,0,0,0,0,0],"sum_hessian":[6.1777775E1,4.8444443E1,1.3333332E1,3.9111107E1,9.333333E0,9.777777E0,3.5555553E0,2.6666664E1,1.2444444E1,4.444444E0,4.8888884E0,1.3333333E0,8.444444E0,2.1333332E1,5.333333E0,3.5555553E0,1.3333333E0,2.222222E0,6.222222E0],"tree_param":{"num_deleted":"0","num_feature":"34","num_nodes":"19","size_leaf_vector":"0"}},{"base_weights":[9.0265445E-2,5.88785E-1,-5.454546E-1,-2.2556396E-1,1.1116751E0,-7.0909095E-1,-2.1649489E-1,8.181818E-1,-5.229358E-1,1.2324324E0,-4.2857146E-1,8.571428E-1,-4.588236E-1,-8.1081115E-2,-6.6666675E-1,1.3090909E0,4.137931E-1,2.3999998E-1,-6.52174E-1],"categories":[],"categories_nodes":[],"categories_segments":[],"categories_sizes":[],"default_left":[1,1,1,1,1,0,1,0,1,1,0,0,1,0,0,0,0,0,0],"id":1,"left_children":[1,3,5,7,9,-1,11,-1,13,15,-1,-1,17,-1,-1,-1,-1,-1,-1],"loss_changes":[2.021662E1,1.5438155E1,1.3596992E0,5.014592E0,4.599432E0,0E0,3.1973665E0,0E0,7.151005E-1,7.482853E-1,0E0,0E0,1.4326342E0,0E0,0E0,0E0,0E0,0E0,0E0],"parents":[2147483647,0,0,1,1,2,2,3,3,4,4,6,6,8,8,9,9,12,12],"right_children":[2,4,6,8,10,-1,12,-1,14,16,-1,-1,18,-1,-1,-1,-1,-1,-1],"split_conditions":[5.052661E-1,5.5202115E-1,6.419846E-1,2.8428027E-1,5.9368694E-1,-2.127273E-1,6.1754566E-1,2.4545455E-1,4.4232297E-1,5.248368E-1,-1.2857145E-1,2.5714284E-1,3.87568E-1,-2.4324335E-2,-2.0000003E-1,3.927273E-1,1.2413793E-1,7.2E-2,-1.956522E-1],"split_indices":[16,28,28,4,22,0,24,0,22,20,0,0,23,0,0,0,0,0,0],"split_type":[0,0,0,0,0,0,0,0,0,0,0,0,0,0,0,0,0,0,0],"sum_hessian":[6.1777775E1,3.4666664E1,2.7111109E1,1.3777777E1,2.0888887E1,1.7333332E1,9.777777E0,2.6666665E0,1.1111111E1,1.9555553E1,1.3333333E0,1.3333333E0,8.444444E0,3.111111E0,7.9999995E0,1.7333332E1,2.222222E0,1.7777777E0,6.666666E0],"tree_param":{"num_deleted":"0","num_feature":"34","num_nodes":"19","size_leaf_vector":"0"}},{"base_weights":[-5.3097787E-3,-4.5605707E-1,1.2352941E0,7.35849E-1,-6.127322E-1,1.392E0,4.0540537E-1,-1.2000003E-1,1.1351352E0,2.7272725E-1,-6.7988676E-1,9.6E-1,-4.2857146E-1,8.571428E-1,-4.2857146E-1,4.285714E-1,-7.3020536E-1],"categories":[],"categories_nodes":[],"categories_segments":[],"categories_sizes":[],"default_left":[1,1,1,1,1,0,1,0,0,1,1,0,0,0,0,0,0],"id":2,"left_children":[1,3,5,7,9,-1,11,-1,-1,13,15,-1,-1,-1,-1,-1,-1],"loss_changes":[3.5668625E1,9.186254E0,1.6464996E0,2.148618E0,2.6762495E0,0E0,2.3128955E0,0E0,0E0,1.8701298E0,2.5006065E0,0E0,0E0,0E0,0E0,0E0,0E0],"parents":[2147483647,0,0,1,1,2,2,3,3,4,4,6,6,9,9,10,10],"right_children":[2,4,6,8,10,-1,12,-1,-1,14,16,-1,-1,-1,-1,-1,-1],"split_conditions":[4.428383E-1,4.8146045E-1,6.420016E-1,4.3237215E-1,5.806148E-1,4.176E-1,4.1071466E-1,-3.600001E-2,3.4054056E-1,4.416834E-1,1.23530954E-1,2.8800002E-1,-1.2857145E-1,2.5714284E-1,-1.2857145E-1,1.2857142E-1,-2.1906161E-1],"split_indices":[6,26,28,14,30,0,11,0,0,17,33,0,0,0,0,0,0],"split_type":[0,0,0,0,0,0,0,0,0,0,0,0,0,0,0,0,0],"sum_hessian":[6.1777775E1,4.5777775E1,1.5999999E1,4.8888884E0,4.0888885E1,1.2888888E1,3.111111E0,1.7777777E0,3.111111E0,2.6666665E0,3.822222E1,1.7777777E0,1.3333333E0,1.3333333E0,1.3333333E0,1.3333333E0,3.6888885E1],"tree_param":{"num_deleted":"0","num_feature":"34","num_nodes":"17","size_leaf_vector":"0"}},{"base_weights":[-6.59728E-2,8.589508E-2,-5.730838E-1,-1.8824154E-1,6.469511E-1,-6.285621E-1,-2.3271345E-2,1.1730653E-1,-3.848217E-1,7.98575E-1,5.4915678E-2,-1.2564182E-1,8.832748E-1,1.6476092E-1,-5.421736E-1,9.408727E-1,8.824263E-2,-4.3302518E-1,4.249085E-1],"categories":[],"categories_nodes":[],"categories_segments":[],"categories_sizes":[],"default_left":[1,1,1,1,1,0,0,1,1,1,1,0,0,0,0,0,0,0,0],"id":3,"left_children":[1,3,5,7,9,-1,-1,11,13,15,17,-1,-1,-1,-1,-1,-1,-1,-1],"loss_changes":[4.6929636E0,7.3923426E0,4.132166E-1,1.9990323E0,1.3691835E0,0E0,0E0,2.6234963E0,1.8213227E0,1.1762037E0,9.57281E-1,0E0,0E0,0E0,0E0,0E0,0E0,0E0,0E0],"parents":[2147483647,0,0,1,1,2,2,3,3,4,4,7,7,8,8,9,9,10,10],"right_children":[2,4,6,8,10,-1,-1,12,14,16,18,-1,-1,-1,-1,-1,-1,-1,-1],"split_conditions":[4.8334292E-1,5.7175136E-1,7.274765E-1,5.5202115E-1,7.707312E-1,-1.8856864E-1,-6.9814036E-3,6.5098894E-1,6.4948744E-1,4.3809968E-1,5.8725893E-1,-3.7692547E-2,2.6498246E-1,4.9428277E-2,-1.6265209E-1,2.8226182E-1,2.647279E-2,-1.2990756E-1,1.2747255E-1],"split_indices":[2,24,30,28,32,0,0,32,30,0,19,0,0,0,0,0,0,0,0],"split_type":[0,0,0,0,0,0,0,0,0,0,0,0,0,0,0,0,0,0,0],"sum_hessian":[5.9297432E1,4.6270977E1,1.3026456E1,3.1529762E1,1.4741217E1,1.1702406E1,1.3240497E0,1.2501587E1,1.9028175E1,1.1457911E1,3.283306E0,1.0125856E1,2.3757298E0,4.2248755E0,1.4803299E1,9.275282E0,2.1826284E0,1.3424898E0,1.940816E0],"tree_param":{"num_deleted":"0","num_feature":"34","num_nodes":"19","size_leaf_vector":"0"}},{"base_weights":[6.8456136E-2,4.3568683E-1,-4.7532555E-1,-2.8157187E-1,7.665444E-1,-6.361821E-1,-1.753876E-1,1.9992027E-1,-6.198234E-1,8.4201616E-1,-3.9555785E-1,6.7854923E-1,-3.9761072E-1,-4.929603E-1,7.202115E-1,2.0052369E-1,8.839222E-1,1.9524834E-1,-5.848146E-1],"categories":[],"categories_nodes":[],"categories_segments":[],"categories_sizes":[],"default_left":[1,1,1,1,1,0,1,1,0,1,0,0,1,0,0,0,0,0,0],"id":4,"left_children":[1,3,5,7,9,-1,11,13,-1,15,-1,-1,17,-1,-1,-1,-1,-1,-1],"loss_changes":[1.2499935E1,9.059444E0,1.1087146E0,2.1589289E0,2.5933266E0,0E0,2.2072754E0,2.4862974E0,0E0,4.818802E-1,0E0,0E0,1.0833235E0,0E0,0E0,0E0,0E0,0E0,0E0],"parents":[2147483647,0,0,1,1,2,2,3,3,4,4,6,6,7,7,9,9,12,12],"right_children":[2,4,6,8,10,-1,12,14,-1,16,-1,-1,18,-1,-1,-1,-1,-1,-1],"split_conditions":[5.052661E-1,5.467766E-1,6.419846E-1,4.4633043E-1,5.9368694E-1,-1.9085465E-1,6.1754566E-1,4.297499E-1,-1.8594703E-1,5.5202115E-1,-1.1866736E-1,2.0356478E-1,3.87568E-1,-1.478881E-1,2.1606345E-1,6.015711E-2,2.6517668E-1,5.85745E-2,-1.754444E-1],"split_indices":[16,28,28,24,22,0,24,24,0,28,0,0,23,0,0,0,0,0,0],"split_type":[0,0,0,0,0,0,0,0,0,0,0,0,0,0,0,0,0,0,0],"sum_hessian":[6.05586E1,3.6265976E1,2.4292625E1,1.1495059E1,2.4770916E1,1.5082724E1,9.209902E0,4.911966E0,6.5830936E0,2.3518936E1,1.2519803E0,1.4777794E0,7.7321224E0,2.1291163E0,2.7828496E0,1.7969238E0,2.1722013E1,1.8452859E0,5.8868365E0],"tree_param":{"num_deleted":"0","num_feature":"34","num_nodes":"19","size_leaf_vector":"0"}},{"base_weights":[-3.9204764E-3,-3.939305E-1,8.8676697E-1,8.521829E-1,-5.079363E-1,9.4986737E-1,1.883721E-1,-6.3508325E-3,-6.030394E-1,9.8879737E-1,3.069628E-1,6.177916E-1,-5.604281E-1,3.7466973E-1,-6.5735805E-1],"categories":[],"categories_nodes":[],"categories_segments":[],"categories_sizes":[],"default_left":[1,1,1,0,1,1,0,1,1,1,1,0,0,0,0],"id":5,"left_children":[1,3,5,-1,7,-1,-1,11,13,-1,-1,-1,-1,-1,-1],"loss_changes":[2.126665E1,6.4805565E0,6.427307E-1,0E0,1.8865423E0,1.1826515E-1,0E0,2.8800137E0,2.0148716E0,0E0,0E0,0E0,0E0,0E0,0E0],"parents":[2147483647,0,0,1,1,2,2,4,4,5,5,7,7,8,8],"right_children":[2,4,6,-1,8,-1,-1,12,14,-1,-1,-1,-1,-1,-1],"split_conditions":[4.428383E-1,4.6140456E-1,7.274765E-1,2.556549E-1,5.947296E-1,2.849602E-1,5.6511633E-2,3.9051253E-1,1.23530954E-1,2.9663923E-1,9.208884E-2,1.8533748E-1,-1.6812843E-1,1.1240093E-1,-1.9720742E-1],"split_indices":[6,26,30,0,30,21,0,17,33,2147483647,2147483647,0,0,0,0],"split_type":[0,0,0,0,0,0,0,0,0,0,0,0,0,0,0],"sum_hessian":[5.9215054E1,4.157021E1,1.7644844E1,2.9417045E0,3.8628506E1,1.5852489E1,1.7923539E0,6.326825E0,3.2301678E1,1.4440079E1,1.4124106E0,2.9212172E0,3.4056082E0,1.3897223E0,3.0911957E1],"tree_param":{"num_deleted":"2","num_feature":"34","num_nodes":"15","size_leaf_vector":"0"}},{"base_weights":[-4.802786E-2,6.848066E-2,-5.7468694E-1,-1.3471055E-1,5.6531507E-1,-2.1908054E-1,5.183742E-1,-7.610358E-2,6.426073E-1,5.6318495E-2,-4.188501E-1,7.7981377E-1,-4.768688E-2,7.3383635E-1,-5.7488266E-2],"categories":[],"categories_nodes":[],"categories_segments":[],"categories_sizes":[],"default_left":[1,1,0,1,1,1,1,0,1,0,0,0,0,0,0],"id":6,"left_children":[1,3,-1,5,7,9,11,-1,13,-1,-1,-1,-1,-1,-1],"loss_changes":[3.487708E0,4.8120074E0,0E0,1.9926441E0,7.335167E-1,1.723811E0,6.585485E-1,0E0,8.360772E-1,0E0,0E0,0E0,0E0,0E0,0E0],"parents":[2147483647,0,0,1,1,3,3,4,4,5,5,6,6,8,8],"right_children":[2,4,-1,6,8,10,12,-1,14,-1,-1,-1,-1,-1,-1],"split_conditions":[4.9922305E-1,5.808617E-1,-1.7240609E-1,7.1027523E-1,5.986161E-1,5.5202115E-1,7.360059E-1,-2.2831075E-2,7.9981446E-1,1.689555E-2,-1.2565504E-1,2.3394413E-1,-1.4306064E-2,2.2015092E-1,-1.7246481E-2],"split_indices":[8,24,0,25,30,28,17,0,30,0,0,0,0,0,0],"split_type":[0,0,0,0,0,0,0,0,0,0,0,0,0,0,0],"sum_hessian":[5.5198467E1,4.591175E1,9.286713E0,3.3102592E1,1.280916E1,2.990394E1,3.1986518E0,1.3791869E0,1.1429974E1,1.2874059E1,1.7029882E1,1.9297624E0,1.2688894E0,1.0069613E1,1.3603601E0],"tree_param":{"num_deleted":"0","num_feature":"34","num_nodes":"15","size_leaf_vector":"0"}},{"base_weights":[5.256445E-2,3.3966276E-1,-4.1829675E-1,-2.5113583E-1,5.952479E-1,-5.856152E-1,-1.3090347E-1,1.7145602E-1,-5.731104E-1,6.598201E-1,-3.837292E-1,6.0523266E-1,-3.448453E-1,-4.3887675E-1,5.765023E-1,7.0907533E-1,1.6161929E-1,1.9009145E-1,-5.3671443E-1],"categories":[],"categories_nodes":[],"categories_segments":[],"categories_sizes":[],"default_left":[1,1,1,1,1,0,1,1,0,1,0,0,1,0,0,0,0,0,0],"id":7,"left_children":[1,3,5,7,9,-1,11,13,-1,15,-1,-1,17,-1,-1,-1,-1,-1,-1],"loss_changes":[7.919731E0,5.6297517E0,9.9281454E-1,1.6851599E0,1.8734102E0,0E0,1.7004162E0,1.6900952E0,0E0,4.8445034E-1,0E0,0E0,9.206523E-1,0E0,0E0,0E0,0E0,0E0,0E0],"parents":[2147483647,0,0,1,1,2,2,3,3,4,4,6,6,7,7,9,9,12,12],"right_children":[2,4,6,8,10,-1,12,14,-1,16,-1,-1,18,-1,-1,-1,-1,-1,-1],"split_conditions":[5.052661E-1,5.467766E-1,6.419846E-1,4.4633043E-1,5.9368694E-1,-1.7568457E-1,6.1754566E-1,4.297499E-1,-1.7193313E-1,5.248368E-1,-1.15118764E-1,1.815698E-1,3.87568E-1,-1.3166302E-1,1.729507E-1,2.1272261E-1,4.848579E-2,5.7027437E-2,-1.6101433E-1],"split_indices":[16,28,28,24,22,0,24,24,0,20,0,0,23,0,0,0,0,0,0],"split_type":[0,0,0,0,0,0,0,0,0,0,0,0,0,0,0,0,0,0,0],"sum_hessian":[5.6534042E1,3.5293293E1,2.1240751E1,1.0662883E1,2.463041E1,1.2769029E1,8.471723E0,4.8131313E0,5.849752E0,2.341218E1,1.2182289E0,1.4958405E0,6.9758825E0,1.8866948E0,2.9264362E0,2.0920568E1,2.4916117E0,1.8440057E0,5.131877E0],"tree_param":{"num_deleted":"0","num_feature":"34","num_nodes":"19","size_leaf_vector":"0"}},{"base_weights":[-5.914438E-3,-3.4795344E-1,7.0142037E-1,7.10013E-1,-4.5887986E-1,7.954054E-1,2.0481889E-1,-2.2630306E-2,-5.514355E-1,6.027193E-1,-4.0581268E-1,5.0539494E-1,-5.239504E-1,3.2143357E-1,-6.0899913E-1],"categories":[],"categories_nodes":[],"categories_segments":[],"categories_sizes":[],"default_left":[1,1,1,0,1,0,1,1,1,0,0,0,0,0,0],"id":8,"left_children":[1,3,5,-1,7,-1,9,11,13,-1,-1,-1,-1,-1,-1],"loss_changes":[1.3544831E1,4.753137E0,6.8891144E-1,0E0,1.3907466E0,0E0,1.2775139E0,2.1509907E0,1.6341467E0,0E0,0E0,0E0,0E0,0E0,0E0],"parents":[2147483647,0,0,1,1,2,2,4,4,6,6,7,7,8,8],"right_children":[2,4,6,-1,8,-1,10,12,14,-1,-1,-1,-1,-1,-1],"split_conditions":[4.428383E-1,4.6140456E-1,6.420016E-1,2.130039E-1,5.947296E-1,2.3862162E-1,4.1071466E-1,3.9051253E-1,1.23530954E-1,1.808158E-1,-1.21743806E-1,1.5161848E-1,-1.5718512E-1,9.643008E-2,-1.8269974E-1],"split_indices":[6,26,28,0,30,0,11,17,33,0,0,0,0,0,0],"split_type":[0,0,0,0,0,0,0,0,0,0,0,0,0,0,0],"sum_hessian":[5.3976376E1,3.6725475E1,1.7250902E1,2.972675E0,3.37528E1,1.3999677E1,3.2512255E0,6.125501E0,2.7627298E1,1.976351E0,1.2748744E0,2.9793324E0,3.1461687E0,1.4256366E0,2.6201662E1],"tree_param":{"num_deleted":"0","num_feature":"34","num_nodes":"15","size_leaf_vector":"0"}},{"base_weights":[-3.2577977E-2,7.850928E-2,-4.7830638E-1,-1.3348235E-1,4.0657842E-1,-5.3681767E-1,-1.857067E-2,2.4709916E-1,-2.8709397E-1,-3.8393262E-1,4.9216217E-1,-2.9967842E-1,7.76002E-1,-3.8168997E-1,2.2934523E-1,-1.15434386E-1,5.579001E-1],"categories":[],"categories_nodes":[],"categories_segments":[],"categories_sizes":[],"default_left":[1,1,1,1,1,0,0,1,1,0,1,0,0,0,0,0,0],"id":9,"left_children":[1,3,5,7,9,-1,-1,11,13,-1,15,-1,-1,-1,-1,-1,-1],"loss_changes":[2.5940344E0,2.9884405E0,2.7090645E-1,1.6132418E0,1.326087E0,0E0,0E0,2.5818372E0,1.0283395E0,0E0,6.876621E-1,0E0,0E0,0E0,0E0,0E0,0E0],"parents":[2147483647,0,0,1,1,2,2,3,3,4,4,7,7,8,8,10,10],"right_children":[2,4,6,8,10,-1,-1,12,14,-1,16,-1,-1,-1,-1,-1,-1],"split_conditions":[4.8334292E-1,5.607378E-1,7.274765E-1,4.335386E-1,1.9939107E-1,-1.6104531E-1,-5.5712014E-3,3.919174E-1,6.607995E-1,-1.1517979E-1,5.9072775E-1,-8.9903526E-2,2.328006E-1,-1.14507E-1,6.880357E-2,-3.4630317E-2,1.6737002E-1],"split_indices":[2,24,30,19,33,0,0,7,17,0,30,0,0,0,0,0,0],"split_type":[0,0,0,0,0,0,0,0,0,0,0,0,0,0,0,0,0],"sum_hessian":[5.0630745E1,4.118918E1,9.441565E0,2.5381376E1,1.5807802E1,8.226854E0,1.2147107E0,7.123616E0,1.8257761E1,1.2036846E0,1.4604118E1,3.715718E0,3.4078982E0,1.5651754E1,2.6060061E0,1.351999E0,1.3252119E1],"tree_param":{"num_deleted":"0","num_feature":"34","num_nodes":"17","size_leaf_vector":"0"}},{"base_weights":[3.8954105E-2,4.095043E-1,-2.2617905E-1,-9.387987E-2,6.1365116E-1,-4.6061847E-1,2.5170837E-2,4.864273E-1,-4.714246E-1,6.8517107E-1,-1.2750773E-1,-5.390272E-1,3.1502154E-2,5.232393E-1,-3.1598258E-1,-4.4662594E-3,-5.985458E-1,7.2272855E-1,1.8451932E-1,-1.7977118E-1,-5.7625645E-1,-1.5774434E-2,6.659621E-2,-8.206259E-2,6.6998005E-1,-4.6245408E-1,2.1584149E-1],"categories":[],"categories_nodes":[],"categories_segments":[],"categories_sizes":[],"default_left":[1,1,1,1,1,1,1,0,1,1,0,1,1,1,1,0,0,1,1,1,1,1,1,0,0,0,0],"id":10,"left_children":[1,3,5,7,9,11,13,-1,15,-1,-1,-1,-1,23,25,-1,-1,-1,-1,-1,-1,-1,-1,-1,-1,-1,-1],"loss_changes":[5.2268834E0,2.3340936E0,1.8446287E0,1.819715E0,9.298358E-1,6.400323E-1,2.8772855E0,0E0,2.8852916E-1,1.4214039E-1,0E0,8.342552E-2,6.2997835E-3,6.647104E-1,8.8624835E-1,0E0,0E0,0E0,0E0,0E0,0E0,0E0,0E0,0E0,0E0,0E0,0E0],"parents":[2147483647,0,0,1,1,2,2,3,3,4,4,5,5,6,6,8,8,9,9,11,11,12,12,13,13,14,14],"right_children":[2,4,6,8,10,12,14,-1,16,-1,-1,-1,-1,24,26,-1,-1,-1,-1,-1,-1,-1,-1,-1,-1,-1,-1],"split_conditions":[4.5354024E-1,5.438509E-1,6.127351E-1,4.4232297E-1,7.344476E-1,7.074305E-1,5.9650993E-1,1.459282E-1,3.8436833E-1,2.0555133E-1,-3.825232E-2,-1.6170818E-1,9.450646E-3,4.6501118E-1,7.4151444E-1,-1.3398778E-3,-1.7956375E-1,2.1681857E-1,5.53558E-2,-5.393136E-2,-1.7287694E-1,-4.7323303E-3,1.9978864E-2,-2.4618777E-2,2.0099403E-1,-1.3873623E-1,6.475245E-2],"split_indices":[14,26,28,22,28,1,22,0,14,21,0,18,0,15,28,0,0,2147483647,2147483647,2147483647,2147483647,2147483647,2147483647,0,0,0,0],"split_type":[0,0,0,0,0,0,0,0,0,0,0,0,0,0,0,0,0,0,0,0,0,0,0,0,0,0,0],"sum_hessian":[5.1259705E1,2.1152475E1,3.010723E1,6.2590594E0,1.4893415E1,1.5146855E1,1.4960374E1,2.353383E0,3.9056764E0,1.3651612E1,1.2418034E0,1.2982984E1,2.1638718E0,5.8645954E0,9.095778E0,1.057235E0,2.8484414E0,1.2286348E1,1.3652638E0,1.7663889E0,1.1216595E1,1.1564637E0,1.007408E0,1.2303202E0,4.634275E0,7.2339025E0,1.861876E0],"tree_param":{"num_deleted":"6","num_feature":"34","num_nodes":"27","size_leaf_vector":"0"}},{"base_weights":[-7.257678E-3,-3.1299976E-1,6.008513E-1,6.2338036E-1,-4.2248887E-1,6.845348E-1,1.7263582E-1,2.8545153E-1,-4.6755895E-1,5.292075E-1,-3.7387228E-1,-3.6755934E-2,-5.755365E-1],"categories":[],"categories_nodes":[],"categories_segments":[],"categories_sizes":[],"default_left":[1,1,1,0,1,0,1,0,1,0,0,0,0],"id":11,"left_children":[1,3,5,-1,7,-1,9,-1,11,-1,-1,-1,-1],"loss_changes":[9.249149E0,3.6556334E0,4.783845E-1,0E0,1.0976892E0,0E0,9.887798E-1,0E0,1.3180804E0,0E0,0E0,0E0,0E0],"parents":[2147483647,0,0,1,1,2,2,4,4,6,6,8,8],"right_children":[2,4,6,-1,8,-1,10,-1,12,-1,-1,-1,-1],"split_conditions":[4.428383E-1,4.6140456E-1,6.420016E-1,1.8701412E-1,1.23530954E-1,2.0536044E-1,4.1071466E-1,8.563546E-2,5.947296E-1,1.5876226E-1,-1.1216169E-1,-1.1026781E-2,-1.7266095E-1],"split_indices":[6,26,28,0,33,0,11,0,30,0,0,0,0],"split_type":[0,0,0,0,0,0,0,0,0,0,0,0,0],"sum_hessian":[4.7735287E1,3.2087685E1,1.5647601E1,2.867816E0,2.9219868E1,1.2588861E1,3.0587392E0,1.429676E0,2.7790194E1,1.8701849E0,1.1885543E0,5.8380914E0,2.19521E1],"tree_param":{"num_deleted":"0","num_feature":"34","num_nodes":"13","size_leaf_vector":"0"}},{"base_weights":[-2.44357E-2,6.087654E-2,-4.98462E-1,-1.506326E-1,2.911531E-1,-2.4319229E-1,4.416213E-1,-3.9258337E-1,3.6595964E-1,4.4715202E-1,-3.0706695E-1,5.189836E-1,5.5357505E-2],"categories":[],"categories_nodes":[],"categories_segments":[],"categories_sizes":[],"default_left":[1,1,0,1,1,1,0,0,1,0,0,0,0],"id":12,"left_children":[1,3,-1,5,7,9,-1,-1,11,-1,-1,-1,-1],"loss_changes":[1.9279802E0,2.0241547E0,0E0,1.3052945E0,1.156738E0,9.990761E-1,0E0,0E0,8.444295E-1,0E0,0E0,0E0,0E0],"parents":[2147483647,0,0,1,1,3,3,4,4,5,5,8,8],"right_children":[2,4,-1,6,8,10,-1,-1,12,-1,-1,-1,-1],"split_conditions":[4.9922305E-1,5.476513E-1,-1.495386E-1,7.1027523E-1,1.9939107E-1,4.061111E-1,1.324864E-1,-1.17775016E-1,4.947462E-1,1.3414562E-1,-9.212009E-2,1.5569508E-1,1.6607253E-2],"split_indices":[8,22,0,25,33,24,0,0,33,0,0,0,0],"split_type":[0,0,0,0,0,0,0,0,0,0,0,0,0],"sum_hessian":[4.592443E1,3.965852E1,6.265913E0,2.08519E1,1.8806618E1,1.8543266E1,2.3086333E0,1.4357543E0,1.7370865E1,1.0622482E0,1.7481018E1,1.1187995E1,6.1828694E0],"tree_param":{"num_deleted":"0","num_feature":"34","num_nodes":"13","size_leaf_vector":"0"}},{"base_weights":[3.446936E-2,3.4551027E-1,-1.963457E-1,-1.0529623E-1,5.401798E-1,-5.2901226E-1,-2.8282128E-2,4.0784118E-1,-4.483087E-1,6.0872966E-1,-1.19575486E-1,2.6299128E-1,-3.0955637E-1,-1.5394524E-2,-5.6614906E-1,6.494912E-1,1.3111301E-1,-4.9149078E-1,4.321603E-1,-4.4318837E-1,1.9613522E-1],"categories":[],"categories_nodes":[],"categories_segments":[],"categories_sizes":[],"default_left":[1,1,1,1,1,0,1,0,1,1,0,1,1,1,1,1,1,0,0,0,0],"id":13,"left_children":[1,3,5,7,9,-1,11,-1,-1,-1,-1,17,19,-1,-1,-1,-1,-1,-1,-1,-1],"loss_changes":[3.4483654E0,1.8489156E0,1.5318784E0,1.4141157E0,7.251644E-1,0E0,1.6738752E0,0E0,2.2947687E-1,1.7243433E-1,0E0,1.5001951E0,7.861927E-1,0E0,0E0,0E0,0E0,0E0,0E0,0E0,0E0],"parents":[2147483647,0,0,1,1,2,2,3,3,4,4,6,6,8,8,9,9,11,11,12,12],"right_children":[2,4,6,8,10,-1,12,-1,-1,-1,-1,18,20,-1,-1,-1,-1,-1,-1,-1,-1],"split_conditions":[4.5354024E-1,5.438509E-1,5.563561E-1,4.4232297E-1,5.700005E-1,-1.5870368E-1,5.9650993E-1,1.22352354E-1,-1.3449262E-1,1.826189E-1,-3.5872646E-2,3.5392183E-1,7.4151444E-1,-4.6183574E-3,-1.6984472E-1,1.9484736E-1,3.9333902E-2,-1.4744724E-1,1.2964809E-1,-1.3295652E-1,5.884057E-2],"split_indices":[14,26,28,22,22,0,22,0,14,21,0,2,28,2147483647,2147483647,2147483647,2147483647,0,0,0,0],"split_type":[0,0,0,0,0,0,0,0,0,0,0,0,0,0,0,0,0,0,0,0,0],"sum_hessian":[4.6087177E1,1.9420141E1,2.6667036E1,5.9953938E0,1.3424747E1,8.2296E0,1.8437437E1,2.3263054E0,3.6690884E0,1.2231238E1,1.193509E0,9.089652E0,9.347785E0,1.0269575E0,2.6421309E0,1.09379E1,1.2933393E0,1.3158276E0,7.773824E0,7.491667E0,1.856118E0],"tree_param":{"num_deleted":"4","num_feature":"34","num_nodes":"21","size_leaf_vector":"0"}},{"base_weights":[-1.1174341E-2,-2.838287E-1,5.277076E-1,5.2280354E-1,-3.9701435E-1,6.135892E-1,1.24695204E-1,3.7300968E-1,-4.8631194E-1,4.5978177E-1,-3.5827148E-1,-5.373281E-1,-9.028486E-3],"categories":[],"categories_nodes":[],"categories_segments":[],"categories_sizes":[],"default_left":[1,1,1,0,1,0,1,0,1,0,0,0,0],"id":14,"left_children":[1,3,5,-1,7,-1,9,-1,11,-1,-1,-1,-1],"loss_changes":[6.4142737E0,2.851762E0,4.313898E-1,0E0,1.966888E0,0E0,7.850164E-1,0E0,5.722785E-1,0E0,0E0,0E0,0E0],"parents":[2147483647,0,0,1,1,2,2,4,4,6,6,8,8],"right_children":[2,4,6,-1,8,-1,10,-1,12,-1,-1,-1,-1],"split_conditions":[4.428383E-1,4.53169E-1,6.420016E-1,1.5684107E-1,1.23530954E-1,1.8407677E-1,4.1071466E-1,1.1190291E-1,4.3991888E-1,1.3793454E-1,-1.0748145E-1,-1.6119844E-1,-2.708546E-3],"split_indices":[6,28,28,0,33,0,11,0,0,0,0,0,0],"split_type":[0,0,0,0,0,0,0,0,0,0,0,0,0],"sum_hessian":[4.163635E1,2.796194E1,1.3674409E1,2.9954543E0,2.4966486E1,1.0841572E1,2.8328376E0,2.2642682E0,2.2702219E1,1.7008076E0,1.13203E0,2.0396282E1,2.305937E0],"tree_param":{"num_deleted":"0","num_feature":"34","num_nodes":"13","size_leaf_vector":"0"}},{"base_weights":[-1.661829E-2,1.010967E-1,-3.1160733E-1,-3.2156977E-1,2.3375444E-1,-3.8319042E-1,1.742112E-1,2.5571987E-1,-5.0508606E-1,3.6563998E-1,-1.1327005E-1,-1.0871642E-1,-4.516456E-1,-2.2632669E-1,4.64762E-1,-3.6873505E-1,4.7797307E-1,-3.800825E-1,2.7859288E-1,-5.121793E-1,-1.09458454E-1],"categories":[],"categories_nodes":[],"categories_segments":[],"categories_sizes":[],"default_left":[1,1,1,1,1,1,0,0,0,1,1,1,1,0,0,0,0,0,0,1,1],"id":15,"left_children":[1,3,5,7,9,11,-1,-1,-1,13,15,17,-1,-1,-1,-1,-1,-1,-1,-1,-1],"loss_changes":[1.5144372E0,1.8290234E0,4.9888086E-1,9.653768E-1,1.1575302E0,1.6025865E-1,0E0,0E0,0E0,1.1559379E0,1.3059233E0,4.7808772E-1,1.2210369E-1,0E0,0E0,0E0,0E0,0E0,0E0,0E0,0E0],"parents":[2147483647,0,0,1,1,2,2,3,3,4,4,5,5,9,9,10,10,11,11,12,12],"right_children":[2,4,6,8,10,12,-1,-1,-1,14,16,18,-1,-1,-1,-1,-1,-1,-1,-1,-1],"split_conditions":[4.20761E-1,4.0611792E-1,7.1690893E-1,5.175725E-1,5.777887E-1,4.6950936E-1,5.2263364E-2,7.671596E-2,-1.5152583E-1,5.86484E-1,7.001841E-1,4.6302444E-1,-1.354937E-1,-6.789801E-2,1.394286E-1,-1.1062052E-1,1.4339192E-1,-1.1402475E-1,8.357787E-2,-1.536538E-1,-3.2837536E-2],"split_indices":[4,14,28,26,7,10,0,0,0,30,17,10,22,0,0,0,0,0,0,2147483647,2147483647],"split_type":[0,0,0,0,0,0,0,0,0,0,0,0,0,0,0,0,0,0,0,0,0],"sum_hessian":[4.170556E1,3.0279749E1,1.1425808E1,6.8931465E0,2.3386602E1,1.0142592E1,1.283216E0,1.5678129E0,5.3253336E0,1.6907368E1,6.4792337E0,2.5412965E0,7.6012955E0,2.2409396E0,1.4666429E1,4.7871404E0,1.6920936E0,1.5052857E0,1.0360107E0,6.036622E0,1.5646734E0],"tree_param":{"num_deleted":"2","num_feature":"34","num_nodes":"21","size_leaf_vector":"0"}},{"base_weights":[2.7487345E-2,4.5076978E-1,-1.04506426E-1,-1.7426598E-1,6.049232E-1,-4.9203047E-1,6.0469717E-2,-6.92926E-2,-5.5837655E-1,2.2452873E-1,-3.82336E-1,-2.6941698E-2,5.717088E-1,-4.782661E-1,8.4098116E-2],"categories":[],"categories_nodes":[],"categories_segments":[],"categories_sizes":[],"default_left":[1,1,1,0,0,1,1,1,1,1,1,0,0,0,0],"id":16,"left_children":[1,3,5,-1,-1,-1,9,-1,-1,11,13,-1,-1,-1,-1],"loss_changes":[2.4200487E0,1.0963109E0,2.151528E0,0E0,0E0,2.4232054E-1,1.8416009E0,0E0,0E0,1.6100277E0,3.491267E-1,0E0,0E0,0E0,0E0],"parents":[2147483647,0,0,1,1,2,2,5,5,6,6,9,9,10,10],"right_children":[2,4,6,-1,-1,-1,10,-1,-1,12,14,-1,-1,-1,-1],"split_conditions":[4.0611792E-1,5.987769E-1,5.534847E-1,-5.2279796E-2,1.8147697E-1,-1.4760914E-1,4.8476243E-1,-2.078778E-2,-1.6751297E-1,3.5392183E-1,6.949318E-1,-8.08251E-3,1.7151265E-1,-1.4347984E-1,2.5229435E-2],"split_indices":[14,30,26,0,0,22,12,2147483647,2147483647,2,27,0,0,0,0],"split_type":[0,0,0,0,0,0,0,0,0,0,0,0,0,0,0],"sum_hessian":[4.1472042E1,9.284163E0,3.2187878E1,1.81095E0,7.4732137E0,9.019323E0,2.3168554E1,1.5008368E0,7.518486E0,1.7264877E1,5.903677E0,1.054749E1,6.717388E0,4.875567E0,1.0281099E0],"tree_param":{"num_deleted":"2","num_feature":"34","num_nodes":"15","size_leaf_vector":"0"}},{"base_weights":[-1.2296421E-2,-2.5704452E-1,4.7814578E-1,3.3029145E-1,-3.9642608E-1,5.652544E-1,9.679026E-2,-1.4929754E-1,5.5209494E-1,-5.075658E-1,4.9428016E-2,4.1257104E-1,-3.3908105E-1,5.6400965E-3,-5.4379666E-1,-3.4197792E-1,3.0553672E-1],"categories":[],"categories_nodes":[],"categories_segments":[],"categories_sizes":[],"default_left":[1,1,1,1,1,0,1,0,0,1,1,0,0,0,0,0,0],"id":17,"left_children":[1,3,5,7,9,-1,11,-1,-1,13,15,-1,-1,-1,-1,-1,-1],"loss_changes":[4.591341E0,2.217136E0,3.6858273E-1,6.6037947E-1,1.0681891E0,0E0,6.3209444E-1,0E0,0E0,3.180294E-1,6.16885E-1,0E0,0E0,0E0,0E0,0E0,0E0],"parents":[2147483647,0,0,1,1,2,2,3,3,4,4,6,6,9,9,10,10],"right_children":[2,4,6,8,10,-1,12,-1,-1,14,16,-1,-1,-1,-1,-1,-1],"split_conditions":[4.428383E-1,4.8146045E-1,6.420016E-1,4.3237215E-1,5.74676E-1,1.6957632E-1,4.1071466E-1,-4.4789262E-2,1.656285E-1,2.4350676E-1,5.5313617E-1,1.2377132E-1,-1.0172432E-1,1.6920291E-3,-1.63139E-1,-1.02593385E-1,9.166102E-2],"split_indices":[6,26,28,14,18,0,11,0,0,1,15,0,0,0,0,0,0],"split_type":[0,0,0,0,0,0,0,0,0,0,0,0,0,0,0,0,0],"sum_hessian":[3.6226173E1,2.4483788E1,1.1742389E1,4.4331923E0,2.0050594E1,9.166391E0,2.5759964E0,1.5052961E0,2.927896E0,1.5939007E1,4.111588E0,1.5247788E0,1.0512176E0,1.1067239E0,1.4832283E1,1.4936252E0,2.6179626E0],"tree_param":{"num_deleted":"0","num_feature":"34","num_nodes":"17","size_leaf_vector":"0"}},{"base_weights":[-1.0396158E-2,5.2864607E-2,-4.4009498E-1,-6.456179E-2,3.246698E-1,6.9843985E-2,-3.6043745E-1,-1.4441699E-1,4.0369204E-1,-4.0485457E-1,1.5959238E-1,-5.0508183E-1,1.634719E-1,-1.2020203E-1,4.8435932E-1],"categories":[],"categories_nodes":[],"categories_segments":[],"categories_sizes":[],"default_left":[1,1,0,1,1,1,1,0,1,0,0,0,0,0,0],"id":18,"left_children":[1,3,-1,5,7,9,11,-1,13,-1,-1,-1,-1,-1,-1],"loss_changes":[1.0834072E0,1.1344854E0,0E0,1.0271875E0,4.546026E-1,8.384545E-1,6.913111E-1,0E0,4.560361E-1,0E0,0E0,0E0,0E0,0E0,0E0],"parents":[2147483647,0,0,1,1,3,3,4,4,5,5,6,6,8,8],"right_children":[2,4,-1,6,8,10,12,-1,14,-1,-1,-1,-1,-1,-1],"split_conditions":[4.9922305E-1,5.808617E-1,-1.320285E-1,6.056534E-1,5.986161E-1,5.346428E-1,6.9652057E-1,-4.3325096E-2,2.5095642E-1,-1.2145638E-1,4.7877714E-2,-1.5152456E-1,4.9041573E-2,-3.606061E-2,1.4530781E-1],"split_indices":[8,24,0,28,30,30,23,0,29,0,0,0,0,0,0],"split_type":[0,0,0,0,0,0,0,0,0,0,0,0,0,0,0],"sum_hessian":[3.800006E1,3.3888E1,4.1120586E0,2.419685E1,9.691152E0,1.716386E1,7.032989E0,1.2778871E0,8.413264E0,2.1708376E0,1.4993023E1,5.539534E0,1.4934552E0,1.0571972E0,7.356067E0],"tree_param":{"num_deleted":"0","num_feature":"34","num_nodes":"15","size_leaf_vector":"0"}},{"base_weights":[2.6259206E-2,1.7825966E-1,-2.6879665E-1,-1.708653E-1,3.6606267E-1,-4.8134458E-1,-7.402009E-3,2.0588025E-1,-5.05576E-1,4.2753723E-1,-2.0882685E-1,4.6272972E-1,-2.0412064E-1,-3.2714194E-1,4.2768604E-1,2.4659774E-4,5.093776E-1,2.1592677E-1,-4.2685983E-1],"categories":[],"categories_nodes":[],"categories_segments":[],"categories_sizes":[],"default_left":[1,1,1,1,1,0,1,1,0,1,0,0,1,0,0,0,0,0,0],"id":19,"left_children":[1,3,5,7,9,-1,11,13,-1,15,-1,-1,17,-1,-1,-1,-1,-1,-1],"loss_changes":[1.7665907E0,1.7602968E0,7.424946E-1,1.3321346E0,6.9555235E-1,0E0,7.4532914E-1,7.6560116E-1,0E0,5.5329657E-1,0E0,0E0,6.213082E-1,0E0,0E0,0E0,0E0,0E0,0E0],"parents":[2147483647,0,0,1,1,2,2,3,3,4,4,6,6,7,7,9,9,12,12],"right_children":[2,4,6,8,10,-1,12,14,-1,16,-1,-1,18,-1,-1,-1,-1,-1,-1],"split_conditions":[5.052661E-1,5.5202115E-1,6.419846E-1,4.511262E-1,5.574453E-1,-1.4440338E-1,6.1754566E-1,4.297499E-1,-1.5167281E-1,6.429317E-1,-6.264806E-2,1.3881892E-1,3.87568E-1,-9.814259E-2,1.2830582E-1,7.3979325E-5,1.5281329E-1,6.477803E-2,-1.2805796E-1],"split_indices":[16,28,28,24,18,0,24,24,0,30,0,0,23,0,0,0,0,0,0],"split_type":[0,0,0,0,0,0,0,0,0,0,0,0,0,0,0,0,0,0,0],"sum_hessian":[3.732169E1,2.4893463E1,1.2428228E1,8.738612E0,1.6154852E1,6.390484E0,6.0377445E0,4.292235E0,4.446377E0,1.4825801E1,1.3290505E0,1.3822078E0,4.6555367E0,1.121721E0,3.170514E0,2.544406E0,1.2281395E1,1.6238403E0,3.0316963E0],"tree_param":{"num_deleted":"0","num_feature":"34","num_nodes":"19","size_leaf_vector":"0"}},{"base_weights":[-1.8624315E-2,-2.3649797E-1,4.2909035E-1,4.3991452E-1,-3.4556922E-1,5.2494615E-1,5.6162875E-2,3.0648488E-1,-4.3384507E-1,3.663749E-1,-3.293561E-1,-4.9312288E-1,2.536332E-2],"categories":[],"categories_nodes":[],"categories_segments":[],"categories_sizes":[],"default_left":[1,1,1,0,1,0,1,0,1,0,0,0,0],"id":20,"left_children":[1,3,5,-1,7,-1,9,-1,11,-1,-1,-1,-1],"loss_changes":[3.248422E0,1.8006167E0,3.6072588E-1,0E0,1.2728276E0,0E0,5.215227E-1,0E0,4.985497E-1,0E0,0E0,0E0,0E0],"parents":[2147483647,0,0,1,1,2,2,4,4,6,6,8,8],"right_children":[2,4,6,-1,8,-1,10,-1,12,-1,-1,-1,-1],"split_conditions":[4.428383E-1,4.53169E-1,6.420016E-1,1.3197437E-1,1.23530954E-1,1.5748385E-1,4.1071466E-1,9.194547E-2,4.3991888E-1,1.0991248E-1,-9.8806836E-2,-1.4793687E-1,7.6089962E-3],"split_indices":[6,28,28,0,33,0,11,0,0,0,0,0,0],"split_type":[0,0,0,0,0,0,0,0,0,0,0,0,0],"sum_hessian":[3.1261372E1,2.1345613E1,9.915758E0,2.5428274E0,1.8802786E1,7.563922E0,2.3518364E0,1.9472708E0,1.6855516E1,1.3307178E0,1.0211186E0,1.4863037E1,1.9924783E0],"tree_param":{"num_deleted":"0","num_feature":"34","num_nodes":"13","size_leaf_vector":"0"}},{"base_weights":[-8.103391E-3,8.570421E-2,-2.6427725E-1,-2.633695E-1,1.906422E-1,-3.9358437E-1,5.752283E-5,1.9709557E-1,-4.5491782E-1,-3.4821534E-1,2.5058424E-1,-2.0630512E-2,-4.6098468E-1,-3.3678985E-1,2.6334876E-1,5.061581E-1,2.2894373E-2],"categories":[],"categories_nodes":[],"categories_segments":[],"categories_sizes":[],"default_left":[1,1,1,1,1,1,1,0,0,0,1,1,1,0,0,0,0],"id":21,"left_children":[1,3,5,7,9,-1,13,-1,-1,-1,15,-1,-1,-1,-1,-1,-1],"loss_changes":[8.740034E-1,1.0277678E0,3.3296174E-1,6.7074203E-1,7.687424E-1,1.549145E-1,4.611472E-1,0E0,0E0,0E0,1.1271021E0,0E0,0E0,0E0,0E0,0E0,0E0],"parents":[2147483647,0,0,1,1,2,2,3,3,4,4,5,5,6,6,10,10],"right_children":[2,4,6,8,10,-1,14,-1,-1,-1,16,-1,-1,-1,-1,-1,-1],"split_conditions":[4.20761E-1,4.0611792E-1,6.4796865E-1,5.175725E-1,3.4405315E-1,-1.1807532E-1,4.130037E-1,5.9128676E-2,-1.3647535E-1,-1.04464605E-1,4.6710247E-1,-6.189154E-3,-1.3829541E-1,-1.0103696E-1,7.900463E-2,1.5184744E-1,6.868312E-3],"split_indices":[4,14,26,26,27,25,11,0,0,0,33,2147483647,2147483647,0,0,0,0],"split_type":[0,0,0,0,0,0,0,0,0,0,0,0,0,0,0,0,0],"sum_hessian":[3.442723E1,2.5686577E1,8.740652E0,5.588108E0,2.0098469E1,5.541099E0,3.199553E0,1.633165E0,3.954943E0,1.5305121E0,1.8567957E1,1.0480258E0,4.493073E0,1.2812301E0,1.9183229E0,8.172075E0,1.0395883E1],"tree_param":{"num_deleted":"2","num_feature":"34","num_nodes":"17","size_leaf_vector":"0"}},{"base_weights":[2.3088427E-2,-2.9309344E-1,1.482592E-1,8.108852E-2,-5.1912695E-1,3.0781755E-1,-2.3287728E-1,-1.9410288E-1,2.67665E-1,-2.6757503E-1,3.8115948E-1,-4.5920035E-1,1.03831604E-1,3.836914E-1,7.782512E-3,5.255443E-1,1.0845206E-1,3.8176122E-1,-2.9946193E-1],"categories":[],"categories_nodes":[],"categories_segments":[],"categories_sizes":[],"default_left":[1,1,1,1,0,1,1,0,1,0,1,0,1,1,1,0,0,0,0],"id":22,"left_children":[1,3,5,7,-1,9,11,-1,-1,-1,15,-1,17,-1,-1,-1,-1,-1,-1],"loss_changes":[1.3957746E0,8.901269E-1,1.6007138E0,2.9023364E-1,0E0,8.6809456E-1,6.564773E-1,0E0,9.308362E-2,0E0,5.932417E-1,0E0,5.6568897E-1,0E0,0E0,0E0,0E0,0E0,0E0],"parents":[2147483647,0,0,1,1,2,2,3,3,5,5,6,6,8,8,10,10,12,12],"right_children":[2,4,6,8,-1,10,12,-1,-1,-1,16,-1,18,-1,-1,-1,-1,-1,-1],"split_conditions":[5.4704916E-1,4.586857E-1,5.9650993E-1,5.045491E-1,-1.5573809E-1,6.0298616E-1,5.90585E-1,-5.8230866E-2,8.0299504E-2,-8.027251E-2,5.554093E-1,-1.3776012E-1,6.0802525E-1,1.15107425E-1,2.3347537E-3,1.5766329E-1,3.253562E-2,1.1452837E-1,-8.983858E-2],"split_indices":[26,22,22,1,0,32,31,0,0,0,31,0,14,2147483647,2147483647,0,0,0,0],"split_type":[0,0,0,0,0,0,0,0,0,0,0,0,0,0,0,0,0,0,0],"sum_hessian":[3.3169598E1,9.026662E0,2.4142935E1,3.6408148E0,5.3858476E0,1.7153986E1,6.988948E0,1.4547654E0,2.1860492E0,1.6399212E0,1.5514065E1,3.9620297E0,3.026918E0,1.1819539E0,1.0040953E0,9.537374E0,5.976692E0,1.8235855E0,1.2033324E0],"tree_param":{"num_deleted":"2","num_feature":"34","num_nodes":"19","size_leaf_vector":"0"}},{"base_weights":[-1.7989174E-2,-2.1357271E-1,3.9852518E-1,2.7641186E-1,-3.497924E-1,4.955693E-1,5.8773596E-2,-1.2950894E-1,4.8306468E-1,-4.6745276E-1,5.57373E-2,3.0963907E-1,-2.1425116E-1,-6.5090484E-3,-5.081964E-1,-2.9332742E-1,2.638286E-1],"categories":[],"categories_nodes":[],"categories_segments":[],"categories_sizes":[],"default_left":[1,1,1,1,1,0,1,0,0,1,1,0,0,1,1,0,0],"id":23,"left_children":[1,3,5,7,9,-1,11,-1,-1,-1,15,-1,-1,-1,-1,-1,-1],"loss_changes":[2.3576903E0,1.4071753E0,2.7627695E-1,4.6769425E-1,7.8016055E-1,0E0,2.8500298E-1,0E0,0E0,2.2875786E-1,4.0045977E-1,0E0,0E0,0E0,0E0,0E0,0E0],"parents":[2147483647,0,0,1,1,2,2,3,3,4,4,6,6,9,9,10,10],"right_children":[2,4,6,8,10,-1,12,-1,-1,-1,16,-1,-1,-1,-1,-1,-1],"split_conditions":[4.428383E-1,4.8146045E-1,6.408248E-1,4.3237215E-1,5.74676E-1,1.486708E-1,4.1109538E-1,-3.8852684E-2,1.4491941E-1,-1.4023584E-1,5.5313617E-1,9.289172E-2,-6.4275354E-2,-1.9527146E-3,-1.5245894E-1,-8.799823E-2,7.914858E-2],"split_indices":[6,26,26,14,18,0,15,0,0,7,15,0,0,2147483647,2147483647,0,0],"split_type":[0,0,0,0,0,0,0,0,0,0,0,0,0,0,0,0,0],"sum_hessian":[2.6896917E1,1.86341E1,8.262816E0,3.8296432E0,1.4804457E1,6.0703144E0,2.1925023E0,1.4178711E0,2.411772E0,1.1356722E1,3.447735E0,1.0727305E0,1.1197717E0,1.0165032E0,1.0340219E1,1.1347046E0,2.3130305E0],"tree_param":{"num_deleted":"2","num_feature":"34","num_nodes":"17","size_leaf_vector":"0"}},{"base_weights":[-3.7583187E-3,1.4779924E-1,-1.4238115E-1,-2.2958632E-1,3.3645904E-1,-2.7389568E-1,2.1752286E-1,1.7463833E-1,-4.2919815E-1,-1.6086115E-1,4.62404E-1,-1.190154E-3,-4.7866282E-1,-2.1717516E-1,3.8328585E-1,5.503281E-1,-1.0909043E-2,-2.4174394E-1,3.1851253E-1],"categories":[],"categories_nodes":[],"categories_segments":[],"categories_sizes":[],"default_left":[1,1,1,1,1,1,1,0,0,0,1,1,0,0,0,0,0,0,0],"id":24,"left_children":[1,3,5,7,9,11,13,-1,-1,-1,15,17,-1,-1,-1,-1,-1,-1,-1],"loss_changes":[7.014445E-1,1.2136786E0,8.842994E-1,5.5217135E-1,7.663331E-1,7.367316E-1,4.5940527E-1,0E0,0E0,0E0,3.8358486E-1,5.895686E-1,0E0,0E0,0E0,0E0,0E0,0E0,0E0],"parents":[2147483647,0,0,1,1,2,2,3,3,4,4,5,5,6,6,10,10,11,11],"right_children":[2,4,6,8,10,12,14,-1,-1,-1,16,18,-1,-1,-1,-1,-1,-1,-1],"split_conditions":[3.4437516E-1,4.0611792E-1,6.2818766E-1,5.175725E-1,3.9226463E-1,6.0298616E-1,3.1999028E-1,5.2391503E-2,-1.2875944E-1,-4.8258346E-2,5.842308E-1,5.412753E-1,-1.4359885E-1,-6.515255E-2,1.1498576E-1,1.6509843E-1,-3.2727132E-3,-7.2523184E-2,9.555376E-2],"split_indices":[6,14,22,26,23,32,33,0,0,0,7,24,0,0,0,0,0,0,0],"split_type":[0,0,0,0,0,0,0,0,0,0,0,0,0,0,0,0,0,0,0],"sum_hessian":[3.1385635E1,1.496169E1,1.6423944E1,4.914346E0,1.0047343E1,1.2203552E1,4.220393E0,1.6659064E0,3.2484398E0,1.9742742E0,8.07307E0,5.6649184E0,6.538634E0,1.0794587E0,3.1409345E0,6.671109E0,1.4019601E0,3.3717563E0,2.2931619E0],"tree_param":{"num_deleted":"0","num_feature":"34","num_nodes":"19","size_leaf_vector":"0"}},{"base_weights":[1.9502386E-2,-2.7310956E-1,1.3495341E-1,1.4829487E-1,-4.5203972E-1,2.4374554E-1,-3.165125E-1,-1.7315684E-1,4.0161854E-1,-5.0715303E-1,-7.8683905E-2,3.5933653E-1,-8.062983E-3,-4.0557557E-1,1.2011173E-2,4.768407E-1,-1.2700321E-2,-4.4777933E-1,2.2264875E-1],"categories":[],"categories_nodes":[],"categories_segments":[],"categories_sizes":[],"default_left":[1,1,1,1,1,1,1,0,0,1,1,1,1,1,1,0,0,0,0],"id":25,"left_children":[1,3,5,7,-1,11,-1,-1,-1,-1,-1,15,17,-1,-1,-1,-1,-1,-1],"loss_changes":[1.0768752E0,7.487284E-1,1.1942934E0,3.502851E-1,9.576249E-2,5.5282104E-1,1.4683017E-1,0E0,0E0,0E0,0E0,5.7309735E-1,8.019446E-1,0E0,0E0,0E0,0E0,0E0,0E0],"parents":[2147483647,0,0,1,1,2,2,3,3,4,4,5,5,6,6,11,11,12,12],"right_children":[2,4,6,8,-1,12,-1,-1,-1,-1,-1,16,18,-1,-1,-1,-1,-1,-1],"split_conditions":[5.4704916E-1,4.4232297E-1,5.444856E-1,4.322464E-1,-1.3561192E-1,5.248368E-1,-9.495375E-2,-5.1947054E-2,1.2048557E-1,-1.5214592E-1,-2.3605173E-2,5.4909575E-1,3.988334E-1,-1.21672675E-1,3.603352E-3,1.4305222E-1,-3.8100965E-3,-1.343338E-1,6.679463E-2],"split_indices":[26,22,14,24,19,20,21,0,0,2147483647,2147483647,22,10,2147483647,2147483647,0,0,0,0],"split_type":[0,0,0,0,0,0,0,0,0,0,0,0,0,0,0,0,0,0,0],"sum_hessian":[2.9785847E1,8.040789E0,2.1745058E1,2.4475932E0,5.593195E0,1.7893314E1,3.8517444E0,1.2182152E0,1.2293781E0,4.561483E0,1.0317118E0,1.1971059E1,5.922255E0,2.8457255E0,1.0060186E0,8.883568E0,3.087491E0,1.7142273E0,4.208028E0],"tree_param":{"num_deleted":"4","num_feature":"34","num_nodes":"19","size_leaf_vector":"0"}},{"base_weights":[-1.9655863E-2,-1.9694534E-1,3.6915588E-1,3.874901E-1,-3.06866E-1,4.659191E-1,3.4983627E-2,2.6023647E-1,-3.933588E-1,-4.653922E-1,1.6798802E-2],"categories":[],"categories_nodes":[],"categories_segments":[],"categories_sizes":[],"default_left":[1,1,1,0,1,1,1,0,1,0,0],"id":26,"left_children":[1,3,-1,-1,7,-1,-1,-1,9,-1,-1],"loss_changes":[1.7514224E0,1.2353251E0,2.4156809E-1,0E0,8.472141E-1,0E0,0E0,0E0,4.0886283E-1,0E0,0E0],"parents":[2147483647,0,0,1,1,2,2,4,4,8,8],"right_children":[2,4,-1,-1,8,-1,-1,-1,10,-1,-1],"split_conditions":[4.428383E-1,4.53169E-1,1.1074677E-1,1.16247036E-1,1.23530954E-1,1.3977574E-1,1.0495089E-2,7.8070946E-2,7.0643973E-1,-1.3961767E-1,5.0396407E-3],"split_indices":[6,28,28,0,33,2147483647,2147483647,0,31,0,0],"split_type":[0,0,0,0,0,0,0,0,0,0,0],"sum_hessian":[2.3353176E1,1.6378443E1,6.974735E0,2.1930525E0,1.41853895E1,5.1028895E0,1.8718454E0,1.6113807E0,1.2574009E1,1.0581058E1,1.992951E0],"tree_param":{"num_deleted":"2","num_feature":"34","num_nodes":"11","size_leaf_vector":"0"}},{"base_weights":[-1.3495258E-3,8.619807E-2,-2.1066433E-1,-3.4243903E-1,1.4091241E-1,-3.9089695E-1,2.065664E-1,2.8752172E-1,-4.660266E-2,-4.6516773E-1,-6.8767434E-3,3.7929195E-1,-6.598474E-2,1.2758265E-1,4.9212748E-1,-2.4212906E-1,3.7554324E-1],"categories":[],"categories_nodes":[],"categories_segments":[],"categories_sizes":[],"default_left":[1,1,1,0,1,1,1,1,1,1,1,1,1,0,0,0,0],"id":27,"left_children":[1,3,5,-1,7,-1,-1,13,15,-1,-1,-1,-1,-1,-1,-1,-1],"loss_changes":[5.5653065E-1,5.507151E-1,7.541147E-1,0E0,5.5519515E-1,1.850152E-1,1.829935E-1,3.0371898E-1,8.7572986E-1,0E0,0E0,0E0,0E0,0E0,0E0,0E0,0E0],"parents":[2147483647,0,0,1,1,2,2,4,4,5,5,6,6,7,7,8,8],"right_children":[2,4,6,-1,8,-1,-1,14,16,-1,-1,-1,-1,-1,-1,-1,-1],"split_conditions":[5.753031E-1,2.890334E-1,6.653302E-1,-1.0273171E-1,4.6483392E-1,-1.1726909E-1,6.196992E-2,5.233557E-1,5.7806265E-1,-1.3955033E-1,-2.0630232E-3,1.1378759E-1,-1.9795423E-2,3.82748E-2,1.4763825E-1,-7.263872E-2,1.1266298E-1],"split_indices":[7,3,17,0,29,24,20,27,25,2147483647,2147483647,2147483647,2147483647,0,0,0,0],"split_type":[0,0,0,0,0,0,0,0,0,0,0,0,0,0,0,0,0],"sum_hessian":[2.8379078E1,2.042454E1,7.954538E0,1.7167442E0,1.8707796E1,5.599024E0,2.3555143E0,1.0199757E1,8.508039E0,4.514579E0,1.0844451E0,1.2020779E0,1.1534364E0,6.635995E0,3.5637617E0,6.1062326E0,2.4018068E0],"tree_param":{"num_deleted":"4","num_feature":"34","num_nodes":"17","size_leaf_vector":"0"}},{"base_weights":[1.4519649E-2,-2.4138738E-1,1.2613551E-1,8.4360845E-2,-4.7437334E-1,2.5903714E-1,-1.8274572E-1,-1.7844464E-1,2.3626174E-1,3.3457294E-1,-1.5703355E-1,-4.1704294E-1,1.1838568E-1,3.6753115E-1,-3.7885776E-3,4.7057264E-2,4.581316E-1,3.52798E-1,-1.0690605E-1],"categories":[],"categories_nodes":[],"categories_segments":[],"categories_sizes":[],"default_left":[1,1,1,1,0,1,1,1,1,1,0,0,1,1,1,0,0,1,1],"id":28,"left_children":[1,3,5,-1,-1,9,11,-1,-1,15,-1,-1,-1,-1,-1,-1,-1,-1,-1],"loss_changes":[8.200248E-1,7.032132E-1,8.644438E-1,2.2151425E-1,0E0,5.0291985E-1,5.132161E-1,0E0,1.04669005E-1,4.2065716E-1,0E0,0E0,2.3077945E-1,0E0,0E0,0E0,0E0,0E0,0E0],"parents":[2147483647,0,0,1,1,2,2,3,3,5,5,6,6,8,8,9,9,12,12],"right_children":[2,4,6,-1,-1,10,12,-1,-1,16,-1,-1,-1,-1,-1,-1,-1,-1,-1],"split_conditions":[5.508119E-1,4.5907345E-1,5.9650993E-1,2.5308255E-2,-1.42312E-1,5.587013E-1,5.90585E-1,-5.3533394E-2,7.087853E-2,4.5857865E-1,-4.7110066E-2,-1.2511289E-1,3.5515707E-2,1.1025935E-1,-1.1365734E-3,1.4117179E-2,1.3743949E-1,1.0583941E-1,-3.2071818E-2],"split_indices":[26,22,22,24,0,18,31,2147483647,2147483647,5,0,0,27,2147483647,2147483647,0,0,2147483647,2147483647],"split_type":[0,0,0,0,0,0,0,0,0,0,0,0,0,0,0,0,0,0,0],"sum_hessian":[2.6643084E1,7.738346E0,1.8904737E1,3.4928076E0,4.2455387E0,1.3330447E1,5.574291E0,1.2153583E0,2.2774494E0,1.144799E1,1.8824571E0,2.9185638E0,2.6557274E0,1.1290044E0,1.148445E0,3.8560288E0,7.591961E0,1.0241526E0,1.6315746E0],"tree_param":{"num_deleted":"6","num_feature":"34","num_nodes":"19","size_leaf_vector":"0"}},{"base_weights":[-1.6773073E-2,-1.8272248E-1,3.2644692E-1,3.5207707E-1,-2.8968814E-1,4.5814526E-1,-3.0785311E-2,2.3892754E-1,-3.779809E-1,-4.5568967E-1,1.3364378E-2],"categories":[],"categories_nodes":[],"categories_segments":[],"categories_sizes":[],"default_left":[1,1,1,0,1,0,0,0,1,0,0],"id":29,"left_children":[1,3,5,-1,7,-1,-1,-1,9,-1,-1],"loss_changes":[1.2879578E0,9.702505E-1,3.616643E-1,0E0,7.0624316E-1,0E0,0E0,0E0,3.6175692E-1,0E0,0E0],"parents":[2147483647,0,0,1,1,2,2,4,4,8,8],"right_children":[2,4,6,-1,8,-1,-1,-1,10,-1,-1],"split_conditions":[4.4131756E-1,4.53169E-1,6.420016E-1,1.05623126E-1,1.23530954E-1,1.3744359E-1,-9.2355935E-3,7.1678266E-2,7.0643973E-1,-1.367069E-1,4.009314E-3],"split_indices":[8,28,28,0,33,0,0,0,31,0,0],"split_type":[0,0,0,0,0,0,0,0,0,0,0],"sum_hessian":[2.0565485E1,1.4177959E1,6.387525E0,1.9811659E0,1.2196794E1,4.460586E0,1.9269391E0,1.5014446E0,1.0695349E1,8.786258E0,1.9090915E0],"tree_param":{"num_deleted":"0","num_feature":"34","num_nodes":"11","size_leaf_vector":"0"}},{"base_weights":[2.3381154E-3,7.828683E-2,-2.1781301E-1,-3.3983406E-1,1.3074581E-1,-3.297692E-1,7.718157E-2,-2.9389718E-1,1.7226084E-1,-7.649936E-2,-4.1715726E-1,3.351049E-1,5.3179547E-2],"categories":[],"categories_nodes":[],"categories_segments":[],"categories_sizes":[],"default_left":[1,1,1,0,1,1,0,0,1,1,1,0,0],"id":30,"left_children":[1,3,5,-1,7,-1,-1,-1,11,-1,-1,-1,-1],"loss_changes":[4.7032672E-1,5.026711E-1,2.6383308E-1,0E0,3.9059946E-1,8.808774E-2,0E0,0E0,3.3506483E-1,0E0,0E0,0E0,0E0],"parents":[2147483647,0,0,1,1,2,2,4,4,5,5,8,8],"right_children":[2,4,6,-1,8,-1,-1,-1,12,-1,-1,-1,-1],"split_conditions":[4.20761E-1,3.2050973E-1,6.163583E-1,-1.0195022E-1,5.3419656E-1,-9.893076E-2,2.3154471E-2,-8.816916E-2,5.5202115E-1,-2.2949807E-2,-1.2514718E-1,1.0053148E-1,1.5953865E-2],"split_indices":[4,10,18,0,30,14,0,0,28,2147483647,2147483647,0,0],"split_type":[0,0,0,0,0,0,0,0,0,0,0,0,0],"sum_hessian":[2.6109423E1,1.9891544E1,6.217878E0,1.6067731E0,1.8284771E1,4.421827E0,1.7960511E0,1.0869932E0,1.7197777E1,1.6154107E0,2.806416E0,6.4978547E0,1.06999235E1],"tree_param":{"num_deleted":"2","num_feature":"34","num_nodes":"13","size_leaf_vector":"0"}},{"base_weights":[1.0276262E-2,-2.1889186E-1,1.2008684E-1,1.2243601E-1,-4.617933E-1,3.1134328E-1,-1.1003347E-1,-1.8711378E-1,2.9338697E-1,3.9857462E-1,-1.962253E-1,2.2563344E-2,-3.6363065E-1,3.5942885E-1,8.283021E-2,-1.4517873E-2,4.5672655E-1,-2.1112536E-1,3.7843522E-1],"categories":[],"categories_nodes":[],"categories_segments":[],"categories_sizes":[],"default_left":[1,1,1,1,0,1,1,0,1,1,0,1,0,1,1,1,1,0,0],"id":31,"left_children":[1,3,5,7,-1,9,11,-1,-1,-1,-1,17,-1,-1,-1,-1,-1,-1,-1],"loss_changes":[6.6377497E-1,7.6628584E-1,8.1642807E-1,2.8506774E-1,0E0,5.194883E-1,3.0428973E-1,0E0,1.4608353E-2,2.188611E-1,0E0,6.3905126E-1,0E0,0E0,0E0,0E0,0E0,0E0,0E0],"parents":[2147483647,0,0,1,1,2,2,3,3,5,5,6,6,8,8,9,9,11,11],"right_children":[2,4,6,8,-1,10,12,-1,-1,-1,-1,18,-1,-1,-1,-1,-1,-1,-1],"split_conditions":[5.5202115E-1,4.511262E-1,5.248368E-1,4.322464E-1,-1.38538E-1,5.7950234E-1,6.043276E-1,-5.6134135E-2,8.801609E-2,1.1957239E-1,-5.8867592E-2,5.3177446E-1,-1.090892E-1,1.0782866E-1,2.4849065E-2,-4.355362E-3,1.3701797E-1,-6.333761E-2,1.1353057E-1],"split_indices":[28,24,20,24,0,24,18,0,28,26,0,14,0,2147483647,2147483647,2147483647,2147483647,0,0],"split_type":[0,0,0,0,0,0,0,0,0,0,0,0,0,0,0,0,0,0,0],"sum_hessian":[2.4332277E1,7.5605345E0,1.6771744E1,3.3495924E0,4.210942E0,8.96655E0,7.8051934E0,1.1580694E0,2.191523E0,7.8347907E0,1.131759E0,5.7235713E0,2.0816221E0,1.1300414E0,1.0614817E0,1.0594122E0,6.7753787E0,3.7003908E0,2.0231805E0],"tree_param":{"num_deleted":"4","num_feature":"34","num_nodes":"19","size_leaf_vector":"0"}},{"base_weights":[-1.678397E-2,-2.5284517E-1,2.0197363E-1,2.669283E-1,-3.741919E-1,2.8390372E-1,-2.7600932E-1,-1.4870138E-3,-4.5692426E-1,3.4029168E-1,-9.6670516E-2,1.1444787E-1,4.045228E-1],"categories":[],"categories_nodes":[],"categories_segments":[],"categories_sizes":[],"default_left":[1,1,1,0,1,1,0,0,0,1,1,1,1],"id":32,"left_children":[1,3,5,-1,7,-1,-1,-1,-1,-1,-1,-1,-1],"loss_changes":[1.0470307E0,7.1298105E-1,4.9214107E-1,0E0,2.5515687E-1,2.3704213E-1,0E0,0E0,0E0,7.710141E-2,0E0,0E0,0E0],"parents":[2147483647,0,0,1,1,2,2,4,4,5,5,9,9],"right_children":[2,4,6,-1,8,-1,-1,-1,-1,-1,-1,-1,-1],"split_conditions":[5.05818E-1,4.5272133E-1,6.803875E-1,8.007849E-2,4.800774E-1,8.517112E-2,-8.28028E-2,-4.4610415E-4,-1.3707729E-1,1.02087505E-1,-2.9001156E-2,3.433436E-2,1.21356845E-1],"split_indices":[14,28,28,0,26,17,0,0,0,2147483647,2147483647,2147483647,2147483647],"split_type":[0,0,0,0,0,0,0,0,0,0,0,0,0],"sum_hessian":[1.8286587E1,8.720489E0,9.566097E0,1.4234793E0,7.2970095E0,8.512948E0,1.0531495E0,1.5104567E0,5.7865524E0,7.5065794E0,1.0063686E0,2.2781534E0,5.228426E0],"tree_param":{"num_deleted":"4","num_feature":"34","num_nodes":"13","size_leaf_vector":"0"}},{"base_weights":[5.233452E-3,1.6835193E-1,-8.818594E-2,-2.9200706E-1,2.6783738E-1,-1.861761E-1,1.358483E-1,7.020242E-2,4.095267E-1,-6.500917E-3,-3.755395E-1,2.7607644E-1,-1.5565558E-1,3.4787583E-1,-1.0849508E-1,5.226897E-1,6.227214E-2,-3.9926684E-1,2.0410824E-1,-2.8765762E-2,-4.4140294E-1,-2.1267265E-2,3.848076E-1],"categories":[],"categories_nodes":[],"categories_segments":[],"categories_sizes":[],"default_left":[1,1,1,0,1,1,1,1,1,1,1,1,0,0,0,1,1,0,0,1,1,1,1],"id":33,"left_children":[1,3,5,-1,7,9,11,13,-1,17,-1,-1,-1,-1,-1,-1,-1,-1,-1,-1,-1,-1,-1],"loss_changes":[4.007076E-1,5.162655E-1,3.931579E-1,0E0,2.0609933E-1,4.0855744E-1,2.7503848E-1,2.7139336E-1,1.5127146E-1,6.7840457E-1,1.2122744E-1,1.437695E-1,0E0,0E0,0E0,0E0,0E0,0E0,0E0,0E0,0E0,0E0,0E0],"parents":[2147483647,0,0,1,1,2,2,4,4,5,5,6,6,7,7,8,8,9,9,10,10,11,11],"right_children":[2,4,6,-1,8,10,12,14,-1,18,-1,-1,-1,-1,-1,-1,-1,-1,-1,-1,-1,-1,-1],"split_conditions":[3.2907933E-1,3.202141E-1,6.203296E-1,-8.760212E-2,5.554093E-1,6.068193E-1,5.3342414E-1,6.2926567E-1,1.2285802E-1,4.7314972E-1,-1.1266186E-1,8.2822934E-2,-4.6696674E-2,1.04362756E-1,-3.2548524E-2,1.5680692E-1,1.8681642E-2,-1.19780056E-1,6.1232474E-2,-8.629729E-3,-1.3242088E-1,-6.38018E-3,1.1544228E-1],"split_indices":[8,10,24,0,31,32,33,32,29,22,28,29,0,0,0,2147483647,2147483647,0,0,2147483647,2147483647,2147483647,2147483647],"split_type":[0,0,0,0,0,0,0,0,0,0,0,0,0,0,0,0,0,0,0,0,0,0,0],"sum_hessian":[2.4321596E1,8.564724E0,1.5756871E1,1.1780841E0,7.38664E0,1.1079709E1,4.677162E0,3.7088408E0,3.6777992E0,6.2160316E0,4.863677E0,3.1937366E0,1.4834255E0,1.0815375E0,2.6273034E0,2.3928225E0,1.2849768E0,1.8570464E0,4.3589854E0,1.0056478E0,3.8580294E0,1.0705477E0,2.123189E0],"tree_param":{"num_deleted":"6","num_feature":"34","num_nodes":"23","size_leaf_vector":"0"}},{"base_weights":[8.925931E-3,-2.268829E-1,1.0224389E-1,1.205711E-1,-3.983848E-1,2.229442E-1,-1.6702399E-1,-1.597712E-1,3.3664924E-1,-4.4715557E-1,-1.07627705E-1,-1.9205725E-1,2.85394E-1,-3.9048386E-1,1.0269676E-1,-1.6036189E-1,3.6213252E-1,-9.040459E-2,2.8967693E-1],"categories":[],"categories_nodes":[],"categories_segments":[],"categories_sizes":[],"default_left":[1,1,1,1,1,1,1,1,1,1,1,0,1,0,1,0,0,1,1],"id":34,"left_children":[1,3,5,-1,-1,11,13,-1,-1,-1,-1,-1,15,-1,-1,-1,-1,-1,-1],"loss_changes":[5.335548E-1,4.5839286E-1,5.996974E-1,2.381481E-1,2.0549774E-2,3.7560785E-1,3.9740223E-1,0E0,0E0,0E0,0E0,0E0,4.398585E-1,0E0,1.517585E-1,0E0,0E0,0E0,0E0],"parents":[2147483647,0,0,1,1,2,2,3,3,4,4,5,5,6,6,12,12,14,14],"right_children":[2,4,6,-1,-1,12,14,-1,-1,-1,-1,-1,16,-1,-1,-1,-1,-1,-1],"split_conditions":[5.4704916E-1,4.4232297E-1,5.9650993E-1,3.6171332E-2,-1.1951545E-1,6.0298616E-1,5.90585E-1,-4.7931362E-2,1.0099477E-1,-1.3414668E-1,-3.2288313E-2,-5.7617176E-2,5.561655E-1,-1.1714516E-1,3.080903E-2,-4.8108567E-2,1.0863976E-1,-2.7121378E-2,8.690308E-2],"split_indices":[26,22,22,24,19,32,31,2147483647,2147483647,2147483647,2147483647,0,28,0,28,0,0,2147483647,2147483647],"split_type":[0,0,0,0,0,0,0,0,0,0,0,0,0,0,0,0,0,0,0],"sum_hessian":[2.2192581E1,5.88649E0,1.6306091E1,2.043478E0,3.8430119E0,1.137793E1,4.9281626E0,1.0028956E0,1.0405823E0,2.8303552E0,1.0126566E0,1.2167568E0,1.0161173E1,2.4503489E0,2.477814E0,1.3323202E0,8.828853E0,1.4730462E0,1.0047677E0],"tree_param":{"num_deleted":"6","num_feature":"34","num_nodes":"19","size_leaf_vector":"0"}},{"base_weights":[-1.9447017E-2,-1.6139239E-1,2.8355038E-1,1.2899429E-1,-3.4480482E-1,4.1455445E-1,-2.7429674E-2,-1.7454778E-1,3.8455763E-1,1.7012428E-1,-4.501291E-1,-3.2298735E-1,7.0971124E-2],"categories":[],"categories_nodes":[],"categories_segments":[],"categories_sizes":[],"default_left":[1,1,1,1,1,0,0,1,0,0,0,1,1],"id":35,"left_children":[1,3,5,7,9,-1,-1,-1,-1,-1,-1,-1,-1],"loss_changes":[7.966781E-1,7.1166325E-1,2.530644E-1,4.997556E-1,5.077326E-1,0E0,0E0,1.4089513E-1,0E0,0E0,0E0,0E0,0E0],"parents":[2147483647,0,0,1,1,2,2,3,3,4,4,7,7],"right_children":[2,4,6,8,10,-1,-1,-1,-1,-1,-1,-1,-1],"split_conditions":[4.428383E-1,5.947296E-1,6.169964E-1,5.852356E-1,1.23530954E-1,1.24366336E-1,-8.228903E-3,-5.2364334E-2,1.1536729E-1,5.1037285E-2,-1.3503873E-1,-9.689621E-2,2.1291338E-2],"split_indices":[6,30,22,19,33,0,0,20,0,0,0,2147483647,2147483647],"split_type":[0,0,0,0,0,0,0,0,0,0,0,0,0],"sum_hessian":[1.6459457E1,1.1526826E1,4.9326315E0,4.577006E0,6.94982E0,3.2362607E0,1.6963711E0,2.237021E0,2.339985E0,1.0756646E0,5.874155E0,1.1974928E0,1.0395281E0],"tree_param":{"num_deleted":"2","num_feature":"34","num_nodes":"13","size_leaf_vector":"0"}},{"base_weights":[7.154484E-3,8.359392E-2,-1.7726211E-1,-1.4919925E-1,1.6836397E-1,-3.4417284E-1,1.7745566E-1,1.9103654E-1,-4.0380982E-1,-2.8790325E-1,2.335386E-1,-4.1711876E-1,-5.7230406E-2,4.2645732E-1,1.1931028E-2],"categories":[],"categories_nodes":[],"categories_segments":[],"categories_sizes":[],"default_left":[1,1,1,1,1,1,0,0,0,0,1,1,1,0,0],"id":36,"left_children":[1,3,5,7,9,-1,-1,-1,-1,-1,13,-1,-1,-1,-1],"loss_changes":[3.42869E-1,3.631949E-1,4.8379415E-1,5.192289E-1,4.546628E-1,8.4874034E-2,0E0,0E0,0E0,0E0,5.0589216E-1,0E0,0E0,0E0,0E0],"parents":[2147483647,0,0,1,1,2,2,3,3,4,4,5,5,10,10],"right_children":[2,4,6,8,10,-1,-1,-1,-1,-1,14,-1,-1,-1,-1],"split_conditions":[5.753031E-1,3.948239E-1,6.653302E-1,3.1136551E-1,4.0611792E-1,-1.0325185E-1,5.32367E-2,5.7310965E-2,-1.21142946E-1,-8.6370975E-2,3.4479782E-1,-1.2513563E-1,-1.7169122E-2,1.279372E-1,3.5793085E-3],"split_indices":[7,15,17,23,14,12,0,0,0,0,6,2147483647,2147483647,0,0],"split_type":[0,0,0,0,0,0,0,0,0,0,0,0,0,0,0],"sum_hessian":[2.2271473E1,1.6131702E1,6.1397705E0,4.1032963E0,1.2028405E1,4.1953816E0,1.9443889E0,1.8631982E0,2.2400982E0,1.0762815E0,1.0952124E1,2.9833052E0,1.2120765E0,5.3608756E0,5.591248E0],"tree_param":{"num_deleted":"2","num_feature":"34","num_nodes":"15","size_leaf_vector":"0"}},{"base_weights":[1.5524514E-3,2.6191574E-1,-8.0288656E-2,-1.3404185E-1,4.2381236E-1,-3.4812316E-1,2.1231068E-2,-8.3309315E-2,-4.0669098E-1,-1.518225E-1,1.8130383E-1,2.0215751E-1,-3.592161E-1,-1.9228809E-1,2.7834243E-1],"categories":[],"categories_nodes":[],"categories_segments":[],"categories_sizes":[],"default_left":[1,1,1,0,0,1,1,1,1,1,1,0,0,0,0],"id":37,"left_children":[1,3,5,-1,-1,-1,9,-1,-1,11,13,-1,-1,-1,-1],"loss_changes":[4.7104895E-1,3.9563105E-1,4.651118E-1,0E0,0E0,3.877175E-2,3.9178154E-1,0E0,0E0,5.764374E-1,3.176847E-1,0E0,0E0,0E0,0E0],"parents":[2147483647,0,0,1,1,2,2,5,5,6,6,9,9,10,10],"right_children":[2,4,6,-1,-1,-1,10,-1,-1,12,14,-1,-1,-1,-1],"split_conditions":[4.0611792E-1,5.987769E-1,5.561655E-1,-4.0212557E-2,1.2714371E-1,-1.0443696E-1,4.340638E-1,-2.4992796E-2,-1.220073E-1,5.113269E-1,5.0048906E-1,6.0647257E-2,-1.0776483E-1,-5.768643E-2,8.350273E-2],"split_indices":[14,30,28,0,0,28,17,2147483647,2147483647,27,31,0,0,0,0],"split_type":[0,0,0,0,0,0,0,0,0,0,0,0,0,0,0],"sum_hessian":[2.0119354E1,4.285496E0,1.58338585E1,1.2936394E0,2.991857E0,3.6843915E0,1.21494665E1,1.106012E0,2.5783796E0,5.8627877E0,6.286679E0,2.1752727E0,3.687515E0,1.093854E0,5.192825E0],"tree_param":{"num_deleted":"2","num_feature":"34","num_nodes":"15","size_leaf_vector":"0"}},{"base_weights":[-1.2674494E-2,-1.5086417E-1,2.620258E-1,2.7709E-1,-2.502367E-1,4.0510467E-1,-5.345581E-2,-4.240577E-1,4.455045E-2,2.7318993E-1,-1.5333548E-1],"categories":[],"categories_nodes":[],"categories_segments":[],"categories_sizes":[],"default_left":[1,1,1,0,1,0,0,0,1,1,1],"id":38,"left_children":[1,3,5,-1,7,-1,-1,-1,-1,-1,-1],"loss_changes":[6.3639086E-1,5.4118955E-1,2.75684E-1,0E0,5.0720865E-1,0E0,0E0,0E0,2.4277002E-1,0E0,0E0],"parents":[2147483647,0,0,1,1,2,2,4,4,8,8],"right_children":[2,4,6,-1,8,-1,-1,-1,-1,-1,-1],"split_conditions":[4.4131756E-1,4.53169E-1,6.420016E-1,8.312701E-2,6.178905E-1,1.21531405E-1,-1.6036743E-2,-1.2721731E-1,1.33651355E-2,8.195698E-2,-4.6000645E-2],"split_indices":[8,28,28,0,15,0,0,0,17,2147483647,2147483647],"split_type":[0,0,0,0,0,0,0,0,0,0,0],"sum_hessian":[1.4723099E1,1.0095367E1,4.627732E0,1.565414E0,8.529953E0,2.9883547E0,1.6393774E0,5.0900736E0,3.4398794E0,1.4193757E0,2.020504E0],"tree_param":{"num_deleted":"2","num_feature":"34","num_nodes":"11","size_leaf_vector":"0"}},{"base_weights":[4.7830218E-3,-3.284749E-1,4.513913E-2,1.7424932E-1,-9.455872E-2,2.4417685E-2,4.3183187E-1,-3.0391768E-1,1.2197242E-1,2.4592541E-1,-2.9220584E-1,-3.8461047E-1,2.2675171E-2,2.739841E-1,-2.8133303E-1],"categories":[],"categories_nodes":[],"categories_segments":[],"categories_sizes":[],"default_left":[1,0,1,1,1,1,0,1,1,0,0,1,1,0,0],"id":39,"left_children":[1,-1,3,5,7,9,-1,-1,13,-1,-1,-1,-1,-1,-1],"loss_changes":[3.0490115E-1,0E0,3.7933195E-1,4.065383E-1,5.04495E-1,6.2539625E-1,0E0,1.5442306E-1,4.3157586E-1,0E0,0E0,0E0,0E0,0E0,0E0],"parents":[2147483647,0,0,2,2,3,3,4,4,5,5,7,7,8,8],"right_children":[2,-1,4,6,8,10,-1,-1,14,-1,-1,-1,-1,-1,-1],"split_conditions":[2.0583464E-1,-9.8542474E-2,4.91629E-1,5.359522E-1,5.3783405E-1,4.5857865E-1,1.2954956E-1,-9.11753E-2,4.0948957E-1,7.377762E-2,-8.766176E-2,-1.1538315E-1,6.802552E-3,8.219524E-2,-8.439991E-2],"split_indices":[29,0,33,27,21,5,0,14,0,0,0,2147483647,2147483647,0,0],"split_type":[0,0,0,0,0,0,0,0,0,0,0,0,0,0,0],"sum_hessian":[2.0568462E1,1.4505459E0,1.9117916E1,9.806925E0,9.310991E0,6.892477E0,2.914448E0,4.5287104E0,4.7822804E0,4.1867456E0,2.7057319E0,3.4890177E0,1.0396926E0,3.7060647E0,1.076216E0],"tree_param":{"num_deleted":"2","num_feature":"34","num_nodes":"15","size_leaf_vector":"0"}},{"base_weights":[5.239777E-3,1.5892413E-1,-1.2039342E-1,-1.0688436E-1,2.9819512E-1,-3.0390167E-1,7.3591664E-2,1.7725767E-1,-3.576916E-1,4.0090385E-1,6.761099E-2,-5.6169894E-2,-4.098938E-1,2.0059752E-1,-2.772736E-1,-1.7511615E-1,2.8937897E-1,-1.8716998E-1,3.3804062E-1],"categories":[],"categories_nodes":[],"categories_segments":[],"categories_sizes":[],"default_left":[1,1,1,1,1,1,1,0,0,1,1,1,1,1,0,1,1,0,0],"id":40,"left_children":[1,3,5,7,-1,-1,13,-1,-1,-1,-1,-1,-1,17,-1,-1,-1,-1,-1],"loss_changes":[3.9516997E-1,3.7211737E-1,4.2408094E-1,3.4105918E-1,1.219762E-1,1.3436365E-1,3.35954E-1,0E0,0E0,0E0,2.1984424E-1,0E0,0E0,3.4036475E-1,0E0,0E0,0E0,0E0,0E0],"parents":[2147483647,0,0,1,1,2,2,3,3,4,4,5,5,6,6,10,10,13,13],"right_children":[2,4,6,8,-1,-1,14,-1,-1,-1,-1,-1,-1,18,-1,-1,-1,-1,-1],"split_conditions":[4.5354024E-1,6.153425E-1,6.2746096E-1,4.4232297E-1,8.945854E-2,-9.1170505E-2,5.970167E-1,5.3177305E-2,-1.0730748E-1,1.2027116E-1,2.0283297E-2,-1.6850969E-2,-1.22968145E-1,3.358466E-1,-8.318208E-2,-5.253485E-2,8.6813696E-2,-5.6151E-2,1.0141219E-1],"split_indices":[14,30,28,22,31,14,16,0,0,2147483647,2147483647,2147483647,2147483647,8,0,2147483647,2147483647,0,0],"split_type":[0,0,0,0,0,0,0,0,0,0,0,0,0,0,0,0,0,0,0],"sum_hessian":[1.847583E1,8.190988E0,1.02848425E1,2.8961072E0,5.294881E0,4.9939675E0,5.2908754E0,1.4953084E0,1.4007988E0,3.15217E0,2.1427107E0,1.9548675E0,3.0391002E0,4.199149E0,1.0917263E0,1.1234487E0,1.019262E0,1.0042013E0,3.1949477E0],"tree_param":{"num_deleted":"6","num_feature":"34","num_nodes":"19","size_leaf_vector":"0"}},{"base_weights":[-1.4419702E-2,2.0805475E-1,-1.7369692E-1,-1.3517836E-1,3.0059436E-1,-3.6838913E-1,1.5578637E-1,4.0034673E-1,1.1671143E-1,-4.146937E-1,-7.570321E-2,3.0092373E-1,-1.303158E-1,-6.487152E-2,2.2666252E-1],"categories":[],"categories_nodes":[],"categories_segments":[],"categories_sizes":[],"default_left":[1,1,1,1,1,1,1,1,1,1,1,1,1,1,1],"id":41,"left_children":[1,-1,5,-1,-1,-1,-1,-1,-1,-1,-1,-1,-1,-1,-1],"loss_changes":[5.404249E-1,2.4368215E-1,6.243665E-1,0E0,5.1323265E-2,4.792911E-2,2.0471682E-1,0E0,8.041754E-2,0E0,0E0,0E0,0E0,0E0,0E0],"parents":[2147483647,0,0,1,1,2,2,4,4,5,5,6,6,8,8],"right_children":[2,-1,6,-1,-1,-1,-1,-1,-1,-1,-1,-1,-1,-1,-1],"split_conditions":[5.955123E-1,6.2416427E-2,4.9756122E-1,-4.055351E-2,9.017831E-2,-1.1051674E-1,4.6735913E-2,1.2010402E-1,3.501343E-2,-1.2440812E-1,-2.2710964E-2,9.027712E-2,-3.909474E-2,-1.9461457E-2,6.799876E-2],"split_indices":[30,16,10,2147483647,2147483647,5,25,2147483647,2147483647,2147483647,2147483647,2147483647,2147483647,2147483647,2147483647],"split_type":[0,0,0,0,0,0,0,0,0,0,0,0,0,0,0],"sum_hessian":[1.3231263E1,5.3926716E0,7.8385916E0,1.0473281E0,4.345343E0,4.852915E0,2.9856768E0,2.053943E0,2.2914002E0,3.8301136E0,1.0228014E0,1.9464519E0,1.0392249E0,1.0188228E0,1.2725774E0],"tree_param":{"num_deleted":"10","num_feature":"34","num_nodes":"15","size_leaf_vector":"0"}},{"base_weights":[7.0723663E-3,-3.0569825E-1,4.4534415E-2,3.942032E-1,-3.212076E-3,-2.582317E-1,6.72507E-2,-3.6371502E-1,-2.4626028E-2,3.8976434E-1,-7.7968542E-3],"categories":[],"categories_nodes":[],"categories_segments":[],"categories_sizes":[],"default_left":[1,0,1,0,1,1,1,1,1,0,0],"id":42,"left_children":[1,-1,3,-1,5,-1,9,-1,-1,-1,-1],"loss_changes":[2.4809673E-1,0E0,3.1421262E-1,0E0,3.3154884E-1,8.9405894E-2,3.5381508E-1,0E0,0E0,0E0,0E0],"parents":[2147483647,0,0,2,2,4,4,5,5,6,6],"right_children":[2,-1,4,-1,6,-1,10,-1,-1,-1,-1],"split_conditions":[2.0583464E-1,-9.170948E-2,2.814129E-1,1.1826096E-1,5.86484E-1,-7.746951E-2,5.9896004E-1,-1.0911451E-1,-7.3878085E-3,1.1692931E-1,-2.3390565E-3],"split_indices":[29,0,25,0,30,29,32,2147483647,2147483647,0,0],"split_type":[0,0,0,0,0,0,0,0,0,0,0],"sum_hessian":[1.9012125E1,1.26772E0,1.7744406E1,1.2600833E0,1.6484322E1,2.9917505E0,1.3492571E1,1.6773783E0,1.3143722E0,1.7553716E0,1.17372E1],"tree_param":{"num_deleted":"2","num_feature":"34","num_nodes":"11","size_leaf_vector":"0"}},{"base_weights":[3.8180456E-3,1.4762755E-1,-1.1363221E-1,2.4579336E-1,-1.6586603E-1,-3.9382058E-1,3.3940068E-3,4.344767E-3,3.97247E-1,1.2731472E-1,-2.772171E-1,-1.6476552E-1,2.1112533E-1,-1.8287548E-1,2.8020775E-1],"categories":[],"categories_nodes":[],"categories_segments":[],"categories_sizes":[],"default_left":[1,1,1,1,0,0,1,1,1,1,0,1,1,0,0],"id":43,"left_children":[1,3,5,-1,-1,-1,9,-1,-1,13,-1,-1,-1,-1,-1],"loss_changes":[3.19441E-1,3.0206263E-1,3.43287E-1,2.4945599E-1,0E0,0E0,3.255719E-1,1.6273049E-1,0E0,3.5836393E-1,0E0,0E0,0E0,0E0,0E0],"parents":[2147483647,0,0,1,1,2,2,3,3,6,6,7,7,9,9],"right_children":[2,4,6,-1,-1,-1,10,-1,-1,14,-1,-1,-1,-1,-1],"split_conditions":[4.5354024E-1,6.118328E-1,4.007956E-1,7.373801E-2,-4.9759813E-2,-1.1814618E-1,6.043276E-1,1.3034302E-3,1.191741E-1,4.9806994E-1,-8.316513E-2,-4.942966E-2,6.33376E-2,-5.486265E-2,8.406233E-2],"split_indices":[14,27,10,28,0,0,18,2147483647,2147483647,31,0,2147483647,2147483647,0,0],"split_type":[0,0,0,0,0,0,0,0,0,0,0,0,0,0,0],"sum_hessian":[1.6919329E1,7.4906373E0,9.42869E0,5.8688493E0,1.6217881E0,2.081015E0,7.3476753E0,2.6588216E0,3.2100277E0,5.475801E0,1.8718745E0,1.5744135E0,1.084408E0,1.7431626E0,3.7326381E0],"tree_param":{"num_deleted":"4","num_feature":"34","num_nodes":"15","size_leaf_vector":"0"}},{"base_weights":[-1.6073143E-2,-2.0555942E-1,1.443983E-1,1.1290888E-1,-3.5186434E-1,3.0213803E-1,-5.532551E-2,1.0137046E-1,3.6430532E-1,1.4216177E-1,-1.7594373E-1,-4.620947E-3,-2.57884E-1],"categories":[],"categories_nodes":[],"categories_segments":[],"categories_sizes":[],"default_left":[1,1,1,0,0,1,1,1,1,1,1,1,1],"id":44,"left_children":[1,3,5,-1,-1,-1,-1,-1,-1,-1,-1,-1,-1],"loss_changes":[4.2686555E-1,3.3802995E-1,2.580381E-1,0E0,0E0,1.8418968E-2,1.2566328E-1,0E0,0E0,0E0,4.1907296E-2,0E0,0E0],"parents":[2147483647,0,0,1,1,2,2,5,5,6,6,10,10],"right_children":[2,4,6,-1,-1,-1,-1,-1,-1,-1,-1,-1,-1],"split_conditions":[5.05818E-1,4.800774E-1,6.1141145E-1,3.3872664E-2,-1.05559304E-1,9.064141E-2,-1.6597655E-2,3.041114E-2,1.092916E-1,4.264853E-2,-5.278312E-2,-1.3862841E-3,-7.7365205E-2],"split_indices":[14,26,28,0,0,10,11,2147483647,2147483647,2147483647,2147483647,2147483647,2147483647],"split_type":[0,0,0,0,0,0,0,0,0,0,0,0,0],"sum_hessian":[1.2062167E1,5.402211E0,6.6599565E0,1.7724047E0,3.6298068E0,3.4345815E0,3.2253747E0,1.4340297E0,2.000552E0,1.1552626E0,2.0701122E0,1.0115441E0,1.058568E0],"tree_param":{"num_deleted":"6","num_feature":"34","num_nodes":"13","size_leaf_vector":"0"}},{"base_weights":[1.1824491E-2,7.777098E-2,-1.4854774E-1,2.9450414E-1,9.6554905E-3,-3.5084653E-1,9.960567E-2,4.2281434E-1,8.504829E-3,-2.7205825E-1,1.051364E-1,2.490931E-1,-8.406881E-2,-3.2398146E-1,-7.970069E-2,-3.0384532E-1,2.0054857E-1],"categories":[],"categories_nodes":[],"categories_segments":[],"categories_sizes":[],"default_left":[1,1,1,1,1,0,1,1,1,1,1,1,1,1,1,0,0],"id":45,"left_children":[1,3,5,-1,9,-1,-1,-1,-1,-1,15,-1,-1,-1,-1,-1,-1],"loss_changes":[2.120645E-1,2.0518112E-1,3.295316E-1,1.1881223E-1,3.4480277E-1,0E0,1.14686094E-1,0E0,0E0,6.683022E-3,4.3168053E-1,0E0,0E0,0E0,0E0,0E0,0E0],"parents":[2147483647,0,0,1,1,2,2,3,3,4,4,6,6,9,9,10,10],"right_children":[2,4,6,-1,10,-1,-1,-1,-1,-1,16,-1,-1,-1,-1,-1,-1],"split_conditions":[5.753031E-1,4.146371E-1,6.1322373E-1,8.835124E-2,5.905856E-1,-1.05253965E-1,2.9881703E-2,1.268443E-1,2.551449E-3,-8.1617475E-2,4.4188476E-1,7.472793E-2,-2.5220646E-2,-9.719444E-2,-2.391021E-2,-9.11536E-2,6.0164575E-2],"split_indices":[7,18,17,26,30,0,29,2147483647,2147483647,0,20,2147483647,2147483647,2147483647,2147483647,0,0],"split_type":[0,0,0,0,0,0,0,0,0,0,0,0,0,0,0,0,0],"sum_hessian":[1.795916E1,1.3091059E1,4.8681006E0,2.3356798E0,1.0755379E1,2.4538512E0,2.4142494E0,1.2821038E0,1.0535759E0,2.2544222E0,8.500957E0,1.1346357E0,1.2796137E0,1.2364105E0,1.0180118E0,1.1948234E0,7.3061333E0],"tree_param":{"num_deleted":"6","num_feature":"34","num_nodes":"17","size_leaf_vector":"0"}},{"base_weights":[-2.2964417E-3,-3.347782E-1,4.444757E-2,3.391292E-1,-4.596043E-2,-2.8595635E-1,4.1642353E-2,-3.40649E-1,-7.481999E-2,-1.8689518E-1,1.6835167E-1],"categories":[],"categories_nodes":[],"categories_segments":[],"categories_sizes":[],"default_left":[1,0,1,0,1,1,1,1,1,0,0],"id":46,"left_children":[1,-1,3,-1,5,-1,9,-1,-1,-1,-1],"loss_changes":[2.777001E-1,0E0,4.3410322E-1,0E0,2.831582E-1,1.5820235E-2,3.3044192E-1,0E0,0E0,0E0,0E0],"parents":[2147483647,0,0,2,2,4,4,5,5,6,6],"right_children":[2,-1,4,-1,6,-1,10,-1,-1,-1,-1],"split_conditions":[4.740193E-1,-1.0043346E-1,3.4190747E-1,1.01738766E-1,5.561655E-1,-8.578691E-2,3.9032713E-1,-1.02194704E-1,-2.2445997E-2,-5.6068555E-2,5.05055E-2],"split_indices":[26,0,10,0,28,9,17,2147483647,2147483647,0,0],"split_type":[0,0,0,0,0,0,0,0,0,0,0],"sum_hessian":[1.5910818E1,1.2016624E0,1.4709155E1,2.807409E0,1.1901747E1,2.5771546E0,9.324592E0,1.5597184E0,1.0174361E0,3.1564722E0,6.1681194E0],"tree_param":{"num_deleted":"2","num_feature":"34","num_nodes":"11","size_leaf_vector":"0"}},{"base_weights":[-1.5189162E-2,-1.330782E-1,2.1532613E-1,2.3959395E-1,-2.2434139E-1,3.627321E-1,-6.377848E-2,-3.9341748E-1,4.9160108E-2,2.3994899E-1,-1.2577192E-1],"categories":[],"categories_nodes":[],"categories_segments":[],"categories_sizes":[],"default_left":[1,1,1,0,1,1,1,0,1,1,1],"id":47,"left_children":[1,3,-1,-1,7,-1,-1,-1,-1,-1,-1],"loss_changes":[3.6026445E-1,3.4936577E-1,2.0872259E-1,0E0,3.660825E-1,0E0,0E0,0E0,1.5545155E-1,0E0,0E0],"parents":[2147483647,0,0,1,1,2,2,4,4,8,8],"right_children":[2,4,-1,-1,8,-1,-1,-1,-1,-1,-1],"split_conditions":[4.4131756E-1,4.53169E-1,6.4597845E-2,7.187819E-2,6.178905E-1,1.0881964E-1,-1.9133545E-2,-1.1802525E-1,1.4748033E-2,7.19847E-2,-3.773158E-2],"split_indices":[8,28,22,0,15,2147483647,2147483647,0,17,2147483647,2147483647],"split_type":[0,0,0,0,0,0,0,0,0,0,0],"sum_hessian":[1.120263E1,7.69168E0,3.51095E0,1.1933484E0,6.4983315E0,2.1014597E0,1.4094903E0,3.7448518E0,2.7534795E0,1.1392698E0,1.6142098E0],"tree_param":{"num_deleted":"4","num_feature":"34","num_nodes":"11","size_leaf_vector":"0"}},{"base_weights":[8.16819E-3,-2.7966055E-1,4.304017E-2,3.500235E-1,-4.1717745E-4,-2.5488436E-1,5.6164443E-2,3.3267716E-1,-3.8185228E-2],"categories":[],"categories_nodes":[],"categories_segments":[],"categories_sizes":[],"default_left":[1,0,1,0,1,0,1,0,0],"id":48,"left_children":[1,-1,3,-1,5,-1,7,-1,-1],"loss_changes":[1.916064E-1,0E0,2.2458732E-1,0E0,2.4089E-1,0E0,3.6994496E-1,0E0,0E0],"parents":[2147483647,0,0,2,2,4,4,6,6],"right_children":[2,-1,4,-1,6,-1,8,-1,-1],"split_conditions":[2.0583464E-1,-8.389817E-2,2.3785107E-1,1.0500706E-1,3.948239E-1,-7.646531E-2,4.8467225E-1,9.980315E-2,-1.14555685E-2],"split_indices":[29,0,17,0,15,0,19,0,0],"split_type":[0,0,0,0,0,0,0,0,0],"sum_hessian":[1.6890497E1,1.0666741E0,1.5823824E1,1.0874742E0,1.473635E1,2.0431E0,1.269325E1,2.5866103E0,1.0106639E1],"tree_param":{"num_deleted":"0","num_feature":"34","num_nodes":"9","size_leaf_vector":"0"}},{"base_weights":[1.3992307E-3,-3.1183216E-1,4.5177698E-2,3.158071E-1,-3.6515534E-2,-2.6667103E-1,4.4798415E-2,-3.209104E-1,-7.283711E-2,2.2937158E-1,-9.934153E-2],"categories":[],"categories_nodes":[],"categories_segments":[],"categories_sizes":[],"default_left":[1,0,1,0,1,1,1,1,1,0,0],"id":49,"left_children":[1,-1,3,-1,5,-1,9,-1,-1,-1,-1],"loss_changes":[2.3328845E-1,0E0,3.4091434E-1,0E0,2.4289246E-1,1.2008175E-2,2.8815958E-1,0E0,0E0,0E0,0E0],"parents":[2147483647,0,0,2,2,4,4,5,5,6,6],"right_children":[2,-1,4,-1,6,-1,10,-1,-1,-1,-1],"split_conditions":[4.740193E-1,-9.3549654E-2,3.4190747E-1,9.4742134E-2,5.561655E-1,-8.000131E-2,5.248368E-1,-9.6273124E-2,-2.1851134E-2,6.8811476E-2,-2.9802458E-2],"split_indices":[26,0,10,0,28,2,20,2147483647,2147483647,0,0],"split_type":[0,0,0,0,0,0,0,0,0,0,0],"sum_hessian":[1.4985119E1,1.086726E0,1.3898394E1,2.5581405E0,1.1340253E1,2.3654444E0,8.974809E0,1.3360043E0,1.0294402E0,3.6761441E0,5.2986646E0],"tree_param":{"num_deleted":"2","num_feature":"34","num_nodes":"11","size_leaf_vector":"0"}},{"base_weights":[-1.4914187E-2,1.6560853E-1,-1.486909E-1,-8.7524496E-2,2.9496166E-1,-3.2250255E-1,1.1902335E-1,3.5441345E-1,6.888278E-2,-3.6755404E-1,-8.6283945E-2,2.5575918E-1,-1.04233675E-1],"categories":[],"categories_nodes":[],"categories_segments":[],"categories_sizes":[],"default_left":[1,1,1,1,1,1,1,1,1,1,1,1,1],"id":50,"left_children":[1,-1,5,-1,-1,-1,-1,-1,-1,-1,-1,-1,-1],"loss_changes":[2.9746717E-1,1.987642E-1,3.6485612E-1,0E0,2.5646389E-2,1.642707E-2,1.332715E-1,0E0,0E0,0E0,0E0,0E0,0E0],"parents":[2147483647,0,0,1,1,2,2,4,4,5,5,6,6],"right_children":[2,-1,6,-1,-1,-1,-1,-1,-1,-1,-1,-1,-1],"split_conditions":[5.955123E-1,4.968256E-2,4.9756122E-1,-2.625735E-2,8.8488504E-2,-9.675077E-2,3.5707008E-2,1.0632404E-1,2.0664833E-2,-1.10266216E-1,-2.5885185E-2,7.6727755E-2,-3.1270105E-2],"split_indices":[30,16,10,2147483647,2147483647,18,25,2147483647,2147483647,2147483647,2147483647,2147483647,2147483647],"split_type":[0,0,0,0,0,0,0,0,0,0,0,0,0],"sum_hessian":[1.029796E1,4.2818894E0,6.0160704E0,1.5574539E0,2.7244356E0,3.5236878E0,2.4923825E0,1.7077072E0,1.0167285E0,2.492356E0,1.0313319E0,1.4554172E0,1.0369654E0],"tree_param":{"num_deleted":"8","num_feature":"34","num_nodes":"13","size_leaf_vector":"0"}},{"base_weights":[1.0878752E-2,1.7729144E-1,-5.2305464E-2,-8.6566284E-2,2.9617906E-1,-3.2382557E-1,8.253835E-3,3.930442E-1,5.8731437E-2,2.0345548E-1,-8.631065E-2,-1.1898729E-2,3.049684E-1,-3.551348E-1,7.5558186E-2],"categories":[],"categories_nodes":[],"categories_segments":[],"categories_sizes":[],"default_left":[1,1,1,1,1,0,1,1,1,1,1,1,1,0,0],"id":51,"left_children":[1,-1,5,-1,-1,-1,9,-1,-1,-1,13,-1,-1,-1,-1],"loss_changes":[1.8825094E-1,1.7972982E-1,2.1823484E-1,0E0,6.000504E-2,0E0,2.3342209E-1,0E0,0E0,9.356983E-2,4.001789E-1,0E0,0E0,0E0,0E0],"parents":[2147483647,0,0,1,1,2,2,4,4,6,6,9,9,10,10],"right_children":[2,-1,6,-1,-1,-1,10,-1,-1,-1,14,-1,-1,-1,-1],"split_conditions":[3.002388E-1,5.3187434E-2,4.8146045E-1,-2.5969887E-2,8.885372E-2,-9.714767E-2,5.5202115E-1,1.1791327E-1,1.7619431E-2,6.1036646E-2,5.248368E-1,-3.5696188E-3,9.149052E-2,-1.0654044E-1,2.2667456E-2],"split_indices":[8,8,26,2147483647,2147483647,0,28,2147483647,2147483647,30,20,2147483647,2147483647,0,0],"split_type":[0,0,0,0,0,0,0,0,0,0,0,0,0,0,0],"sum_hessian":[1.6021732E1,3.9121315E0,1.21096E1,1.2996248E0,2.6125069E0,1.4155729E0,1.0694027E1,1.3901261E0,1.2223808E0,3.1141808E0,7.579846E0,1.2804856E0,1.8336953E0,2.4000273E0,5.1798186E0],"tree_param":{"num_deleted":"6","num_feature":"34","num_nodes":"15","size_leaf_vector":"0"}},{"base_weights":[-2.0780375E-3,4.2322624E-2,-2.8276598E-1,-1.4092323E-1,1.2847562E-1,1.11602835E-1,-3.5431188E-1,-1.2458772E-1,1.9816564E-1,-8.238794E-3,1.7616136E-1,-1.0705053E-1,2.6498225E-1],"categories":[],"categories_nodes":[],"categories_segments":[],"categories_sizes":[],"default_left":[1,1,0,1,1,1,0,1,1,1,1,1,1],"id":52,"left_children":[1,3,-1,5,-1,-1,-1,-1,-1,-1,-1,-1,-1],"loss_changes":[2.0058538E-1,2.3813576E-1,0E0,3.0541694E-1,2.011069E-1,2.481832E-2,0E0,0E0,1.9619206E-1,0E0,0E0,0E0,0E0],"parents":[2147483647,0,0,1,1,3,3,4,4,5,5,8,8],"right_children":[2,4,-1,6,-1,-1,-1,-1,-1,-1,-1,-1,-1],"split_conditions":[5.967924E-1,5.5202115E-1,-8.48298E-2,4.511262E-1,3.8542688E-2,3.3480853E-2,-1.0629357E-1,-3.7376318E-2,5.9449695E-2,-2.4716384E-3,5.284841E-2,-3.211516E-2,7.949468E-2],"split_indices":[16,28,0,24,33,22,0,2147483647,2147483647,2147483647,2147483647,2147483647,2147483647],"split_type":[0,0,0,0,0,0,0,0,0,0,0,0,0],"sum_hessian":[1.4134563E1,1.2937294E1,1.1972692E0,3.9340048E0,9.003289E0,2.020236E0,1.9137686E0,1.7739296E0,7.2293596E0,1.0127064E0,1.0075297E0,1.1902379E0,6.0391216E0],"tree_param":{"num_deleted":"6","num_feature":"34","num_nodes":"13","size_leaf_vector":"0"}},{"base_weights":[-1.4372291E-2,-1.804498E-1,1.19822614E-1,-3.027998E-1,9.314297E-2,2.7086142E-1,-5.1559947E-2,-3.4599105E-1,-9.395034E-2,7.39302E-2,3.2499087E-1,1.3015272E-1,-1.6181195E-1],"categories":[],"categories_nodes":[],"categories_segments":[],"categories_sizes":[],"default_left":[1,1,1,1,1,1,1,1,1,1,1,1,1],"id":53,"left_children":[1,-1,-1,-1,-1,-1,-1,-1,-1,-1,-1,-1,-1],"loss_changes":[2.5999978E-1,2.0157176E-1,1.8265478E-1,1.8981397E-3,0E0,1.4603257E-2,9.9050835E-2,0E0,0E0,0E0,0E0,0E0,0E0],"parents":[2147483647,0,0,1,1,2,2,3,3,5,5,6,6],"right_children":[2,-1,-1,-1,-1,-1,-1,-1,-1,-1,-1,-1,-1],"split_conditions":[5.05818E-1,-5.4134943E-2,3.5946786E-2,-9.083994E-2,2.7942892E-2,8.125843E-2,-1.5467985E-2,-1.0379732E-1,-2.8185103E-2,2.217906E-2,9.749726E-2,3.904582E-2,-4.8543587E-2],"split_indices":[14,16,28,2147483647,2147483647,2147483647,2147483647,2147483647,2147483647,2147483647,2147483647,2147483647,2147483647],"split_type":[0,0,0,0,0,0,0,0,0,0,0,0,0],"sum_hessian":[9.695941E0,4.179175E0,5.516766E0,2.8140054E0,1.3651696E0,2.6238914E0,2.8928747E0,1.7876551E0,1.0263501E0,1.0757936E0,1.5480976E0,1.024249E0,1.8686256E0],"tree_param":{"num_deleted":"10","num_feature":"34","num_nodes":"13","size_leaf_vector":"0"}},{"base_weights":[1.06698405E-2,7.091582E-2,-1.557588E-1,-1.604845E-2,2.84109E-1,-2.6355648E-1,9.0092845E-2,-9.336873E-2,2.5498092E-1,3.3054035E-2,3.654208E-1,-6.459889E-2,-3.2089317E-1,1.1033731E-1,-2.4324241E-1],"categories":[],"categories_nodes":[],"categories_segments":[],"categories_sizes":[],"default_left":[1,1,1,1,1,1,1,1,0,1,1,1,1,0,0],"id":54,"left_children":[1,3,-1,7,-1,-1,-1,13,-1,-1,-1,-1,-1,-1,-1],"loss_changes":[1.7518738E-1,2.4014388E-1,1.4734674E-1,2.327754E-1,6.416583E-2,1.916273E-2,0E0,2.8605068E-1,0E0,0E0,0E0,0E0,0E0,0E0,0E0],"parents":[2147483647,0,0,1,1,2,2,3,3,4,4,5,5,7,7],"right_children":[2,4,-1,8,-1,-1,-1,14,-1,-1,-1,-1,-1,-1,-1],"split_conditions":[4.20761E-1,5.8182824E-1,-4.6727642E-2,6.3615906E-1,8.5232705E-2,-7.906695E-2,2.7027855E-2,5.411488E-1,7.649428E-2,9.916211E-3,1.0962624E-1,-1.9379668E-2,-9.626795E-2,3.3101194E-2,-7.297273E-2],"split_indices":[4,24,18,21,23,2147483647,2147483647,15,0,2147483647,2147483647,2147483647,2147483647,0,0],"split_type":[0,0,0,0,0,0,0,0,0,0,0,0,0,0,0],"sum_hessian":[1.5370526E1,1.1706686E1,3.6638403E0,8.971725E0,2.73496E0,2.496983E0,1.1668572E0,7.4903526E0,1.4813731E0,1.013189E0,1.7217712E0,1.0343747E0,1.4626082E0,3.2867923E0,4.2035604E0],"tree_param":{"num_deleted":"6","num_feature":"34","num_nodes":"15","size_leaf_vector":"0"}},{"base_weights":[-3.5084973E-3,3.781385E-2,-2.6828954E-1,-1.4915662E-1,1.12509765E-1,5.908979E-2,-3.2579324E-1,2.2078036E-1,-7.425825E-3,3.4570265E-1,-1.5116312E-1,-3.095797E-1,1.4847332E-1],"categories":[],"categories_nodes":[],"categories_segments":[],"categories_sizes":[],"default_left":[1,1,0,1,1,1,1,1,1,0,0,0,0],"id":55,"left_children":[1,3,-1,-1,7,-1,-1,9,11,-1,-1,-1,-1],"loss_changes":[1.6860953E-1,2.0398627E-1,0E0,1.7581902E-1,1.334158E-1,0E0,0E0,3.0157802E-1,3.183322E-1,0E0,0E0,0E0,0E0],"parents":[2147483647,0,0,1,1,3,3,4,4,7,7,8,8],"right_children":[2,4,-1,-1,8,-1,-1,10,12,-1,-1,-1,-1],"split_conditions":[5.967924E-1,5.4704916E-1,-8.0486864E-2,-4.4746988E-2,5.5052626E-1,1.7726937E-2,-9.7737975E-2,5.198021E-1,6.419846E-1,1.037108E-1,-4.5348935E-2,-9.2873916E-2,4.4542E-2],"split_indices":[16,26,0,22,22,2147483647,2147483647,20,28,0,0,0,0],"split_type":[0,0,0,0,0,0,0,0,0,0,0,0,0],"sum_hessian":[1.3483052E1,1.2404384E1,1.0786688E0,3.2564218E0,9.147962E0,1.7998978E0,1.4565239E0,4.365883E0,4.7820787E0,3.3210225E0,1.0448602E0,1.2920806E0,3.4899983E0],"tree_param":{"num_deleted":"2","num_feature":"34","num_nodes":"13","size_leaf_vector":"0"}},{"base_weights":[-1.2034299E-2,-7.970719E-2,2.7975637E-1,1.113216E-1,-2.184074E-1,-1.23025745E-1,2.9518852E-1,7.144558E-2,-3.0055812E-1,-2.9191855E-2,-3.6954817E-1],"categories":[],"categories_nodes":[],"categories_segments":[],"categories_sizes":[],"default_left":[1,1,0,1,1,1,1,1,1,1,1],"id":56,"left_children":[1,3,-1,-1,-1,-1,-1,-1,-1,-1,-1],"loss_changes":[2.255275E-1,2.662903E-1,0E0,2.3038892E-1,1.5550056E-1,0E0,0E0,0E0,7.491404E-2,0E0,0E0],"parents":[2147483647,0,0,1,1,3,3,4,4,8,8],"right_children":[2,4,-1,-1,-1,-1,-1,-1,-1,-1,-1],"split_conditions":[5.7091784E-1,5.947296E-1,8.3926916E-2,3.3396482E-2,-6.552222E-2,-3.6907725E-2,8.855656E-2,2.1433674E-2,-9.016744E-2,-8.757557E-3,-1.1086445E-1],"split_indices":[6,30,0,19,33,2147483647,2147483647,2147483647,2147483647,2147483647,2147483647],"split_type":[0,0,0,0,0,0,0,0,0,0,0],"sum_hessian":[9.291989E0,8.132672E0,1.1593171E0,3.5040352E0,4.6286373E0,1.6860193E0,1.8180158E0,1.050933E0,3.5777042E0,1.0136669E0,2.5640373E0],"tree_param":{"num_deleted":"6","num_feature":"34","num_nodes":"11","size_leaf_vector":"0"}},{"base_weights":[1.4637959E-2,1.446246E-1,-6.272431E-2,-7.266644E-2,2.5353873E-1,-1.6818924E-1,8.201871E-2,1.5098768E-2,3.5393807E-1,6.6427444E-3,-2.6136026E-1,2.4774781E-1,-6.784675E-2,1.8672524E-1,-1.7938197E-1,-7.3798954E-2,-3.3499846E-1,-2.7993542E-1,1.7315531E-1],"categories":[],"categories_nodes":[],"categories_segments":[],"categories_sizes":[],"default_left":[1,1,1,1,1,1,1,1,1,1,1,1,1,1,1,1,1,1,1],"id":57,"left_children":[-1,-1,-1,-1,-1,-1,-1,-1,-1,-1,-1,-1,-1,-1,-1,-1,-1,-1,-1],"loss_changes":[1.6518901E-1,1.6266385E-1,1.7301051E-1,0E0,9.717858E-2,1.053589E-1,1.4269558E-1,0E0,0E0,1.4025071E-1,3.2936484E-2,0E0,2.2464402E-1,0E0,0E0,0E0,0E0,0E0,0E0],"parents":[2147483647,0,0,1,1,2,2,4,4,5,5,6,6,9,9,10,10,12,12],"right_children":[-1,-1,-1,-1,-1,-1,-1,-1,-1,-1,-1,-1,-1,-1,-1,-1,-1,-1,-1],"split_conditions":[4.391388E-3,4.3387383E-2,-1.8817293E-2,-2.1799931E-2,7.606162E-2,-5.0456773E-2,2.4605615E-2,4.5296308E-3,1.0618143E-1,1.9928233E-3,-7.840808E-2,7.432435E-2,-2.0354027E-2,5.6017574E-2,-5.3814594E-2,-2.2139687E-2,-1.0049954E-1,-8.398063E-2,5.1946595E-2],"split_indices":[8,2147483647,2147483647,2147483647,2147483647,2147483647,2147483647,2147483647,2147483647,2147483647,2147483647,2147483647,2147483647,2147483647,2147483647,2147483647,2147483647,2147483647,2147483647],"split_type":[0,0,0,0,0,0,0,0,0,0,0,0,0,0,0,0,0,0,0],"sum_hessian":[1.4524719E1,5.0948076E0,9.429912E0,1.8121853E0,3.282622E0,5.361411E0,4.0685005E0,1.313517E0,1.9691051E0,2.186753E0,3.1746578E0,1.6218446E0,2.4466558E0,1.1092094E0,1.0775436E0,1.4594718E0,1.7151861E0,1.2154645E0,1.2311913E0],"tree_param":{"num_deleted":"18","num_feature":"34","num_nodes":"19","size_leaf_vector":"0"}},{"base_weights":[-7.7422434E-3,3.529457E-2,-2.3603031E-1,-7.736709E-2,1.5093054E-1,1.06850006E-1,-3.5493183E-1,-9.925939E-2,2.9806924E-1,-2.3225589E-1,2.7249888E-1,1.3321365E-1,-2.8434888E-1,3.468348E-2,3.8293073E-1],"categories":[],"categories_nodes":[],"categories_segments":[],"categories_sizes":[],"default_left":[1,1,0,1,1,1,0,1,1,0,0,1,1,1,1],"id":58,"left_children":[1,3,-1,5,7,9,-1,-1,-1,-1,-1,-1,-1,-1,-1],"loss_changes":[1.4237168E-1,1.7255698E-1,0E0,3.9155817E-1,2.6640022E-1,3.399772E-1,0E0,1.7266257E-1,8.284092E-2,0E0,0E0,0E0,0E0,0E0,0E0],"parents":[2147483647,0,0,1,1,3,3,4,4,5,5,7,7,8,8],"right_children":[2,4,-1,6,8,10,-1,-1,-1,-1,-1,-1,-1,-1,-1],"split_conditions":[6.043276E-1,4.898719E-1,-7.0809096E-2,5.81578E-1,5.422146E-1,6.394894E-1,-1.06479555E-1,-2.977782E-2,8.942077E-2,-6.967677E-2,8.174966E-2,3.99641E-2,-8.530466E-2,1.0405045E-2,1.1487922E-1],"split_indices":[18,33,0,15,11,32,0,29,32,0,0,2147483647,2147483647,2147483647,2147483647],"split_type":[0,0,0,0,0,0,0,0,0,0,0,0,0,0,0],"sum_hessian":[1.2643149E1,1.1349028E1,1.2941215E0,5.91607E0,5.4329576E0,3.925679E0,1.9903911E0,2.1324353E0,3.3005223E0,1.1563581E0,2.7693207E0,1.0694618E0,1.0629736E0,1.1475531E0,2.1529694E0],"tree_param":{"num_deleted":"4","num_feature":"34","num_nodes":"15","size_leaf_vector":"0"}},{"base_weights":[-1.2442115E-2,-1.7733449E-1,1.002171E-1,-2.9440048E-1,6.823224E-2,2.461575E-1,-1.817818E-1,4.699538E-2,3.511544E-1],"categories":[],"categories_nodes":[],"categories_segments":[],"categories_sizes":[],"default_left":[1,1,1,1,1,1,0,1,1],"id":59,"left_children":[1,-1,5,-1,-1,-1,-1,-1,-1],"loss_changes":[1.9935836E-1,1.4452922E-1,3.1004077E-1,0E0,0E0,8.1208736E-2,0E0,0E0,0E0],"parents":[2147483647,0,0,1,1,2,2,5,5],"right_children":[2,-1,6,-1,-1,-1,-1,-1,-1],"split_conditions":[4.8587754E-1,-5.320035E-2,6.169964E-1,-8.832015E-2,2.0469673E-2,7.384725E-2,-5.4534543E-2,1.4098614E-2,1.0534632E-1],"split_indices":[16,18,22,2147483647,2147483647,16,0,2147483647,2147483647],"split_type":[0,0,0,0,0,0,0,0,0],"sum_hessian":[8.774984E0,3.3287778E0,5.4462066E0,2.1195087E0,1.2092689E0,3.6726367E0,1.7735697E0,1.7675217E0,1.9051151E0],"tree_param":{"num_deleted":"4","num_feature":"34","num_nodes":"9","size_leaf_vector":"0"}},{"base_weights":[1.646691E-2,1.4359699E-1,-5.9271876E-2,-7.329361E-2,2.5307328E-1,-1.6485715E-1,8.217032E-2,1.8780107E-2,3.4734696E-1,7.456592E-3,-2.562904E-1,2.5534025E-1,-7.5793624E-2,1.8402317E-1,-1.7595984E-1,-7.1614586E-2,-3.279342E-1,-2.7772045E-1,1.620422E-1],"categories":[],"categories_nodes":[],"categories_segments":[],"categories_sizes":[],"default_left":[1,1,1,1,1,1,1,1,1,1,1,1,1,1,1,1,1,1,1],"id":60,"left_children":[-1,-1,-1,-1,-1,-1,-1,-1,-1,-1,-1,-1,-1,-1,-1,-1,-1,-1,-1],"loss_changes":[1.537236E-1,1.5917653E-1,1.6525793E-1,0E0,8.537224E-2,9.8793745E-2,1.5638357E-1,0E0,0E0,1.3288787E-1,3.0044049E-2,0E0,2.0784861E-1,0E0,0E0,0E0,0E0,0E0,0E0],"parents":[2147483647,0,0,1,1,2,2,4,4,5,5,6,6,9,9,10,10,12,12],"right_children":[-1,-1,-1,-1,-1,-1,-1,-1,-1,-1,-1,-1,-1,-1,-1,-1,-1,-1,-1],"split_conditions":[4.940073E-3,4.30791E-2,-1.7781563E-2,-2.1988085E-2,7.592198E-2,-4.9457148E-2,2.4651097E-2,5.634032E-3,1.04204096E-1,2.2369777E-3,-7.688712E-2,7.660208E-2,-2.2738088E-2,5.5206954E-2,-5.2787956E-2,-2.1484377E-2,-9.838027E-2,-8.331614E-2,4.861266E-2],"split_indices":[8,2147483647,2147483647,2147483647,2147483647,2147483647,2147483647,2147483647,2147483647,2147483647,2147483647,2147483647,2147483647,2147483647,2147483647,2147483647,2147483647,2147483647,2147483647],"split_type":[0,0,0,0,0,0,0,0,0,0,0,0,0,0,0,0,0,0,0],"sum_hessian":[1.4081233E1,4.922575E0,9.158658E0,1.7620902E0,3.160485E0,5.149248E0,4.00941E0,1.2509001E0,1.9095848E0,2.1034904E0,3.0457578E0,1.6185777E0,2.390832E0,1.0700725E0,1.0334177E0,1.4102237E0,1.6355342E0,1.2023324E0,1.1884996E0],"tree_param":{"num_deleted":"18","num_feature":"34","num_nodes":"19","size_leaf_vector":"0"}},{"base_weights":[-1.0077388E-2,1.8005937E-1,-5.789849E-2,-1.09572664E-1,2.2218698E-1,1.6967596E-2,-3.2531476E-1,1.16258815E-1,-2.890713E-1],"categories":[],"categories_nodes":[],"categories_segments":[],"categories_sizes":[],"default_left":[1,0,1,1,0,1,0,0,0],"id":61,"left_children":[1,-1,3,5,-1,7,-1,-1,-1],"loss_changes":[1.2883018E-1,0E0,1.8589368E-1,2.810609E-1,0E0,2.5580052E-1,0E0,0E0,0E0],"parents":[2147483647,0,0,2,2,3,3,5,5],"right_children":[2,-1,4,6,-1,8,-1,-1,-1],"split_conditions":[3.2864106E-1,5.4017816E-2,6.920244E-1,5.6232464E-1,6.66561E-2,5.724503E-1,-9.759443E-2,3.4877647E-2,-8.672139E-2],"split_indices":[12,0,29,27,0,23,0,0,0],"split_type":[0,0,0,0,0,0,0,0,0],"sum_hessian":[1.2022202E1,1.8603153E0,1.0161886E1,9.093058E0,1.0688289E0,6.312127E0,2.78093E0,5.2340956E0,1.0780317E0],"tree_param":{"num_deleted":"0","num_feature":"34","num_nodes":"9","size_leaf_vector":"0"}},{"base_weights":[-1.2449237E-2,-9.277722E-2,2.1366093E-1,2.2720353E-1,-1.7655559E-1,-3.436429E-1,-1.4159598E-2,2.187732E-1,-2.0496067E-1],"categories":[],"categories_nodes":[],"categories_segments":[],"categories_sizes":[],"default_left":[1,1,1,1,1,1,1,1,1],"id":62,"left_children":[-1,-1,-1,-1,-1,-1,-1,-1,-1],"loss_changes":[1.9068436E-1,2.4488124E-1,0E0,0E0,1.746606E-1,0E0,2.403121E-1,0E0,0E0],"parents":[2147483647,0,0,1,1,4,4,6,6],"right_children":[-1,-1,-1,-1,-1,-1,-1,-1,-1],"split_conditions":[-3.7347712E-3,-2.7833167E-2,6.409828E-2,6.816106E-2,-5.296668E-2,-1.0309287E-1,-4.2478796E-3,6.563196E-2,-6.1488204E-2],"split_indices":[14,2147483647,2147483647,2147483647,2147483647,2147483647,2147483647,2147483647,2147483647],"split_type":[0,0,0,0,0,0,0,0,0],"sum_hessian":[8.407132E0,6.638439E0,1.7686931E0,1.0222243E0,5.6162148E0,2.21803E0,3.398185E0,1.4641389E0,1.9340461E0],"tree_param":{"num_deleted":"8","num_feature":"34","num_nodes":"9","size_leaf_vector":"0"}},{"base_weights":[1.2947509E-2,1.4075887E-1,-6.124541E-2,-6.2397547E-2,2.4337782E-1,-1.6599022E-1,8.0072425E-2,1.7742915E-2,3.35347E-1,9.649332E-3,-2.5905177E-1,2.5166154E-1,-7.660317E-2,1.8328555E-1,-1.7350641E-1,-7.60387E-2,-3.2743505E-1,-2.7450547E-1,1.5786637E-1],"categories":[],"categories_nodes":[],"categories_segments":[],"categories_sizes":[],"default_left":[1,1,1,1,1,1,1,1,1,1,1,1,1,1,1,1,1,1,1],"id":63,"left_children":[-1,-1,-1,-1,-1,-1,-1,-1,-1,-1,-1,-1,-1,-1,-1,-1,-1,-1,-1],"loss_changes":[1.4925772E-1,1.3506746E-1,1.6250674E-1,0E0,7.7565715E-2,1.0244857E-1,1.5277539E-1,0E0,0E0,1.298131E-1,2.5574774E-2,0E0,1.9935271E-1,0E0,0E0,0E0,0E0,0E0,0E0],"parents":[2147483647,0,0,1,1,2,2,4,4,5,5,6,6,9,9,10,10,12,12],"right_children":[-1,-1,-1,-1,-1,-1,-1,-1,-1,-1,-1,-1,-1,-1,-1,-1,-1,-1,-1],"split_conditions":[3.8842529E-3,4.2227663E-2,-1.8373623E-2,-1.8719265E-2,7.301335E-2,-4.979707E-2,2.4021728E-2,5.3228745E-3,1.006041E-1,2.8947997E-3,-7.771553E-2,7.549846E-2,-2.298095E-2,5.498567E-2,-5.2051924E-2,-2.2811612E-2,-9.823052E-2,-8.235164E-2,4.7359914E-2],"split_indices":[8,2147483647,2147483647,2147483647,2147483647,2147483647,2147483647,2147483647,2147483647,2147483647,2147483647,2147483647,2147483647,2147483647,2147483647,2147483647,2147483647,2147483647,2147483647],"split_type":[0,0,0,0,0,0,0,0,0,0,0,0,0,0,0,0,0,0,0],"sum_hessian":[1.3830892E1,4.7503366E0,9.080555E0,1.7257636E0,3.024573E0,5.114844E0,3.9657114E0,1.2212677E0,1.8033055E0,2.081895E0,3.032949E0,1.6034139E0,2.3622973E0,1.0683571E0,1.0135379E0,1.3994834E0,1.6334656E0,1.1884465E0,1.1738508E0],"tree_param":{"num_deleted":"18","num_feature":"34","num_nodes":"19","size_leaf_vector":"0"}},{"base_weights":[-9.035768E-3,-1.5293287E-1,5.219292E-2,8.63006E-2,-2.891645E-1,1.5703009E-1,-1.2767054E-1,2.711877E-1,-2.8802278E-2,-3.1174055E-1,8.776119E-2,3.4790158E-1,4.2097334E-2,-2.8797016E-1,2.761593E-1],"categories":[],"categories_nodes":[],"categories_segments":[],"categories_sizes":[],"default_left":[1,1,1,1,1,1,1,1,1,1,1,1,1,0,0],"id":64,"left_children":[1,-1,5,-1,-1,7,-1,-1,13,-1,-1,-1,-1,-1,-1],"loss_changes":[1.1972846E-1,1.5663241E-1,2.0187756E-1,0E0,0E0,1.46561E-1,1.9003808E-1,5.824533E-2,3.4768596E-1,0E0,0E0,0E0,0E0,0E0,0E0],"parents":[2147483647,0,0,1,1,2,2,5,5,6,6,7,7,8,8],"right_children":[2,-1,6,-1,-1,8,-1,-1,14,-1,-1,-1,-1,-1,-1],"split_conditions":[5.4704916E-1,-4.5879863E-2,5.9650993E-1,2.589018E-2,-8.674936E-2,5.554093E-1,-3.8301162E-2,8.135631E-2,5.526364E-1,-9.352217E-2,2.6328359E-2,1.0437048E-1,1.2629201E-2,-8.639105E-2,8.284779E-2],"split_indices":[26,22,22,2147483647,2147483647,31,31,16,1,2147483647,2147483647,2147483647,2147483647,0,0],"split_type":[0,0,0,0,0,0,0,0,0,0,0,0,0,0,0],"sum_hessian":[1.1683139E1,3.0402765E0,8.642862E0,1.2361014E0,1.8041751E0,5.5404463E0,3.1024165E0,3.1475682E0,2.3928778E0,1.431909E0,1.6705074E0,1.9694505E0,1.1781178E0,1.3236806E0,1.0691972E0],"tree_param":{"num_deleted":"6","num_feature":"34","num_nodes":"15","size_leaf_vector":"0"}},{"base_weights":[-8.300317E-3,-8.8864475E-2,2.146181E-1,2.2892533E-1,-1.7325437E-1,-3.414432E-1,-1.1221502E-2,2.1745372E-1,-2.002491E-1],"categories":[],"categories_nodes":[],"categories_segments":[],"categories_sizes":[],"default_left":[1,1,1,1,1,1,1,1,1],"id":65,"left_children":[-1,-1,-1,-1,-1,-1,-1,-1,-1],"loss_changes":[1.8658616E-1,2.4236892E-1,0E0,0E0,1.7444444E-1,0E0,2.3226158E-1,0E0,0E0],"parents":[2147483647,0,0,1,1,4,4,6,6],"right_children":[-1,-1,-1,-1,-1,-1,-1,-1,-1],"split_conditions":[-2.4900953E-3,-2.6659343E-2,6.438544E-2,6.8677604E-2,-5.1976312E-2,-1.02432966E-1,-3.3664508E-3,6.523612E-2,-6.0074735E-2],"split_indices":[14,2147483647,2147483647,2147483647,2147483647,2147483647,2147483647,2147483647,2147483647],"split_type":[0,0,0,0,0,0,0,0,0],"sum_hessian":[8.32747E0,6.5585327E0,1.7689373E0,1.0168053E0,5.5417275E0,2.1759067E0,3.3658206E0,1.4551181E0,1.9107027E0],"tree_param":{"num_deleted":"8","num_feature":"34","num_nodes":"9","size_leaf_vector":"0"}},{"base_weights":[1.1012798E-2,1.3936861E-1,-6.219998E-2,-5.949304E-2,2.3978712E-1,-2.8093576E-1,6.8200217E-3,2.4085639E-2,3.237357E-1,-2.1741545E-1,6.8274625E-2,-1.4916673E-1,1.4918588E-1],"categories":[],"categories_nodes":[],"categories_segments":[],"categories_sizes":[],"default_left":[1,1,1,1,1,1,1,1,1,1,1,1,1],"id":66,"left_children":[-1,-1,-1,-1,-1,-1,-1,-1,-1,-1,-1,-1,-1],"loss_changes":[1.4535575E-1,1.2592812E-1,1.5218832E-1,0E0,6.308159E-2,0E0,1.325627E-1,0E0,0E0,0E0,1.5360588E-1,0E0,0E0],"parents":[2147483647,0,0,1,1,2,2,4,4,6,6,10,10],"right_children":[-1,-1,-1,-1,-1,-1,-1,-1,-1,-1,-1,-1,-1],"split_conditions":[3.3038396E-3,4.1810583E-2,-1.8659994E-2,-1.7847912E-2,7.193614E-2,-8.428073E-2,2.0460065E-3,7.225692E-3,9.712072E-2,-6.522464E-2,2.0482387E-2,-4.475002E-2,4.4755764E-2],"split_indices":[8,2147483647,2147483647,2147483647,2147483647,2147483647,2147483647,2147483647,2147483647,2147483647,2147483647,2147483647,2147483647],"split_type":[0,0,0,0,0,0,0,0,0,0,0,0,0],"sum_hessian":[1.3545373E1,4.5916805E0,8.953692E0,1.6774088E0,2.9142718E0,1.4111553E0,7.5425367E0,1.1769837E0,1.737288E0,1.076561E0,6.465976E0,1.5247552E0,4.9412208E0],"tree_param":{"num_deleted":"12","num_feature":"34","num_nodes":"13","size_leaf_vector":"0"}},{"base_weights":[-7.0157107E-3,-1.3744837E-1,6.3970275E-2,1.074367E-1,-2.9282108E-1,1.9027086E-1,-1.1392078E-1,-9.283894E-3,3.136221E-1,-3.0576235E-1,2.3342243E-1,-2.185401E-1,2.0175351E-1],"categories":[],"categories_nodes":[],"categories_segments":[],"categories_sizes":[],"default_left":[1,1,1,1,1,1,1,1,1,0,0,1,1],"id":67,"left_children":[1,-1,5,-1,-1,-1,9,-1,-1,-1,-1,-1,-1],"loss_changes":[1.224909E-1,2.0821026E-1,2.156735E-1,0E0,0E0,1.3642395E-1,3.5194102E-1,1.7848244E-1,0E0,0E0,0E0,0E0,0E0],"parents":[2147483647,0,0,1,1,2,2,5,5,6,6,7,7],"right_children":[2,-1,6,-1,-1,-1,10,-1,-1,-1,-1,-1,-1],"split_conditions":[4.98993E-1,-4.1234512E-2,6.322652E-1,3.223101E-2,-8.7846324E-2,5.708126E-2,7.252333E-1,-2.7851681E-3,9.408663E-2,-9.172871E-2,7.002673E-2,-6.556203E-2,6.0526054E-2],"split_indices":[31,14,31,2147483647,2147483647,26,15,2147483647,2147483647,0,0,2147483647,2147483647],"split_type":[0,0,0,0,0,0,0,0,0,0,0,0,0],"sum_hessian":[1.1279904E1,3.6454058E0,7.634498E0,1.5348424E0,2.1105633E0,4.4239516E0,3.2105467E0,2.0432177E0,2.380734E0,2.1453543E0,1.0651923E0,1.0080873E0,1.0351304E0],"tree_param":{"num_deleted":"6","num_feature":"34","num_nodes":"13","size_leaf_vector":"0"}},{"base_weights":[-8.002797E-3,-8.796939E-2,2.1293738E-1,2.3010111E-1,-1.725301E-1,-3.4029523E-1,-1.17643215E-2,2.1975735E-1,-2.027017E-1],"categories":[],"categories_nodes":[],"categories_segments":[],"categories_sizes":[],"default_left":[1,1,1,1,1,1,1,1,1],"id":68,"left_children":[-1,-1,-1,-1,-1,-1,-1,-1,-1],"loss_changes":[1.8217348E-1,2.4142216E-1,0E0,0E0,1.7120944E-1,0E0,2.3698309E-1,0E0,0E0],"parents":[2147483647,0,0,1,1,4,4,6,6],"right_children":[-1,-1,-1,-1,-1,-1,-1,-1,-1],"split_conditions":[-2.4008392E-3,-2.6390819E-2,6.388122E-2,6.903034E-2,-5.175903E-2,-1.0208857E-1,-3.5292965E-3,6.592721E-2,-6.0810514E-2],"split_indices":[14,2147483647,2147483647,2147483647,2147483647,2147483647,2147483647,2147483647,2147483647],"split_type":[0,0,0,0,0,0,0,0,0],"sum_hessian":[8.250795E0,6.5000296E0,1.7507656E0,1.0036645E0,5.496365E0,2.143171E0,3.3531942E0,1.4473121E0,1.905882E0],"tree_param":{"num_deleted":"8","num_feature":"34","num_nodes":"9","size_leaf_vector":"0"}},{"base_weights":[8.73205E-3,1.3593385E-1,-6.331448E-2,-6.348716E-2,2.3841743E-1,-2.7969864E-1,5.4766033E-3,2.3518605E-2,3.2194275E-1,-2.175076E-1,6.723079E-2,-1.5276006E-1,1.4978597E-1],"categories":[],"categories_nodes":[],"categories_segments":[],"categories_sizes":[],"default_left":[1,1,1,1,1,1,1,1,1,1,1,1,1],"id":69,"left_children":[-1,-1,-1,-1,-1,-1,-1,-1,-1,-1,-1,-1,-1],"loss_changes":[1.4018533E-1,1.2773263E-1,1.4812514E-1,0E0,6.152378E-2,0E0,1.3102789E-1,0E0,0E0,0E0,1.5698288E-1,0E0,0E0],"parents":[2147483647,0,0,1,1,2,2,4,4,6,6,10,10],"right_children":[-1,-1,-1,-1,-1,-1,-1,-1,-1,-1,-1,-1,-1],"split_conditions":[2.619615E-3,4.0780157E-2,-1.8994346E-2,-1.9046148E-2,7.152523E-2,-8.390959E-2,1.6429811E-3,7.055582E-3,9.658283E-2,-6.525228E-2,2.0169238E-2,-4.582802E-2,4.4935793E-2],"split_indices":[8,2147483647,2147483647,2147483647,2147483647,2147483647,2147483647,2147483647,2147483647,2147483647,2147483647,2147483647,2147483647],"split_type":[0,0,0,0,0,0,0,0,0,0,0,0,0],"sum_hessian":[1.335752E1,4.509326E0,8.848194E0,1.6598897E0,2.8494363E0,1.3948241E0,7.45337E0,1.15622E0,1.6932163E0,1.0694848E0,6.3838854E0,1.5099121E0,4.873973E0],"tree_param":{"num_deleted":"12","num_feature":"34","num_nodes":"13","size_leaf_vector":"0"}},{"base_weights":[-5.655991E-3,-9.394138E-2,8.610255E-2,4.185678E-2,-3.1639078E-1,-1.3473304E-1,2.4245083E-1,-2.3674735E-1,1.9193043E-1,1.06773764E-1,-2.9613805E-1,1.6658636E-2,3.1937864E-1,3.0931813E-1,-5.7255585E-2],"categories":[],"categories_nodes":[],"categories_segments":[],"categories_sizes":[],"default_left":[1,1,1,1,0,1,1,0,1,1,1,1,1,1,1],"id":70,"left_children":[1,3,5,7,-1,-1,-1,-1,-1,-1,-1,-1,-1,-1,-1],"loss_changes":[1.05316564E-1,2.1246707E-1,2.538836E-1,2.5358582E-1,0E0,1.6020069E-1,6.604184E-2,0E0,1.2850623E-1,0E0,0E0,0E0,0E0,0E0,0E0],"parents":[2147483647,0,0,1,1,2,2,3,3,5,5,6,6,8,8],"right_children":[2,4,6,8,-1,-1,-1,-1,-1,-1,-1,-1,-1,-1,-1],"split_conditions":[4.91629E-1,6.0519516E-1,5.4227054E-1,6.394894E-1,-9.491724E-2,-4.0419914E-2,7.273525E-2,-7.102421E-2,5.757913E-2,3.2032132E-2,-8.8841416E-2,4.997591E-3,9.5813595E-2,9.279544E-2,-1.7176677E-2],"split_indices":[33,15,11,32,0,29,32,0,22,2147483647,2147483647,2147483647,2147483647,2147483647,2147483647],"split_type":[0,0,0,0,0,0,0,0,0,0,0,0,0,0,0],"sum_hessian":[1.1002063E1,5.5950255E0,5.4070373E0,3.978262E0,1.6167634E0,2.2986038E0,3.1084335E0,1.1905413E0,2.7877207E0,1.0564034E0,1.2422004E0,1.0990732E0,2.0093603E0,1.7309722E0,1.0567485E0],"tree_param":{"num_deleted":"6","num_feature":"34","num_nodes":"15","size_leaf_vector":"0"}},{"base_weights":[-6.265343E-3,-9.5883176E-2,1.860144E-1,-2.4709724E-1,6.752473E-2,2.9101077E-1,-2.2528037E-2,-5.8856618E-2,-3.1762362E-1,2.500716E-1,-7.964855E-2,5.7385E-2,-1.7604528E-1],"categories":[],"categories_nodes":[],"categories_segments":[],"categories_sizes":[],"default_left":[1,1,1,1,1,1,1,1,1,1,1,1,1],"id":71,"left_children":[-1,-1,-1,-1,-1,-1,-1,-1,-1,-1,-1,-1,-1],"loss_changes":[1.7594372E-1,1.8763432E-1,7.787371E-2,3.185858E-2,1.3035002E-1,0E0,0E0,0E0,0E0,0E0,5.0182477E-2,0E0,0E0],"parents":[2147483647,0,0,1,1,2,2,3,3,4,4,10,10],"right_children":[-1,-1,-1,-1,-1,-1,-1,-1,-1,-1,-1,-1,-1],"split_conditions":[-1.879603E-3,-2.8764954E-2,5.5804323E-2,-7.412917E-2,2.025742E-2,8.7303236E-2,-6.7584114E-3,-1.7656986E-2,-9.528709E-2,7.5021476E-2,-2.3894565E-2,1.7215502E-2,-5.2813586E-2],"split_indices":[2,2147483647,2147483647,2147483647,2147483647,2147483647,2147483647,2147483647,2147483647,2147483647,2147483647,2147483647,2147483647],"split_type":[0,0,0,0,0,0,0,0,0,0,0,0,0],"sum_hessian":[8.175422E0,5.918336E0,2.257086E0,2.807857E0,3.1104786E0,1.2382195E0,1.0188664E0,1.2652732E0,1.542584E0,1.0763099E0,2.0341687E0,1.0071485E0,1.0270202E0],"tree_param":{"num_deleted":"12","num_feature":"34","num_nodes":"13","size_leaf_vector":"0"}},{"base_weights":[9.787016E-3,1.3539796E-1,-6.0399637E-2,-6.2290877E-2,2.3709291E-1,-1.9968517E-1,4.3071777E-2,2.6160479E-2,3.1655067E-1,-2.7760407E-1,2.5414674E-2,2.3188533E-1,-7.5302675E-2,-2.686245E-1,1.302493E-1],"categories":[],"categories_nodes":[],"categories_segments":[],"categories_sizes":[],"default_left":[1,1,1,1,1,1,1,1,1,1,1,1,1,1,1],"id":72,"left_children":[-1,-1,-1,-1,-1,-1,-1,-1,-1,-1,-1,-1,-1,-1,-1],"loss_changes":[1.3284501E-1,1.2287608E-1,1.4930934E-1,0E0,5.4718405E-2,8.3156765E-2,1.6105106E-1,0E0,0E0,0E0,0E0,0E0,2.2189918E-1,0E0,0E0],"parents":[2147483647,0,0,1,1,2,2,4,4,5,5,6,6,12,12],"right_children":[-1,-1,-1,-1,-1,-1,-1,-1,-1,-1,-1,-1,-1,-1,-1],"split_conditions":[2.9361048E-3,4.061939E-2,-1.8119892E-2,-1.8687263E-2,7.112788E-2,-5.9905555E-2,1.2921534E-2,7.848144E-3,9.4965205E-2,-8.328123E-2,7.624402E-3,6.95656E-2,-2.2590803E-2,-8.058736E-2,3.9074793E-2],"split_indices":[8,2147483647,2147483647,2147483647,2147483647,2147483647,2147483647,2147483647,2147483647,2147483647,2147483647,2147483647,2147483647,2147483647,2147483647],"split_type":[0,0,0,0,0,0,0,0,0,0,0,0,0,0,0],"sum_hessian":[1.3140658E1,4.377416E0,8.763242E0,1.6185421E0,2.758874E0,3.3388593E0,5.424383E0,1.1186057E0,1.6402682E0,2.3070273E0,1.031832E0,1.7207621E0,3.703621E0,1.7504635E0,1.9531573E0],"tree_param":{"num_deleted":"14","num_feature":"34","num_nodes":"15","size_leaf_vector":"0"}},{"base_weights":[-7.6573933E-3,1.6865294E-1,-5.38046E-2,-1.8320535E-1,4.3339457E-2,5.5479694E-2,-3.425026E-1,-2.0891076E-1,1.2874472E-1,-1.5941024E-1,2.2902288E-1],"categories":[],"categories_nodes":[],"categories_segments":[],"categories_sizes":[],"default_left":[1,1,1,1,1,1,1,1,1,1,1],"id":73,"left_children":[-1,-1,-1,-1,-1,-1,-1,-1,-1,-1,-1],"loss_changes":[1.03904605E-1,0E0,1.3359033E-1,1.892452E-1,1.6731946E-1,0E0,0E0,0E0,1.9509281E-1,0E0,0E0],"parents":[2147483647,0,0,2,2,3,3,4,4,8,8],"right_children":[-1,-1,-1,-1,-1,-1,-1,-1,-1,-1,-1],"split_conditions":[-2.2972182E-3,5.0595883E-2,-1.6141381E-2,-5.4961607E-2,1.3001838E-2,1.664391E-2,-1.02750786E-1,-6.267323E-2,3.862342E-2,-4.7823075E-2,6.870686E-2],"split_indices":[12,2147483647,2147483647,2147483647,2147483647,2147483647,2147483647,2147483647,2147483647,2147483647,2147483647],"split_type":[0,0,0,0,0,0,0,0,0,0,0],"sum_hessian":[1.06553135E1,1.6596751E0,8.995639E0,3.4775088E0,5.51813E0,1.6527748E0,1.824734E0,1.0299606E0,4.488169E0,1.0064365E0,3.4817328E0],"tree_param":{"num_deleted":"10","num_feature":"34","num_nodes":"11",