{"learner":{"attributes":{"best_iteration":"20","best_ntree_limit":"21","best_score":"0.250267","scikit_learn":"{\"use_label_encoder\": true, \"n_estimators\": 100, \"objective\": \"multi:softprob\", \"max_depth\": 4, \"learning_rate\": null, \"verbosity\": null, \"booster\": null, \"tree_method\": null, \"gamma\": 0.25, \"min_child_weight\": null, \"max_delta_step\": null, \"subsample\": null, \"colsample_bytree\": null, \"colsample_bylevel\": null, \"colsample_bynode\": null, \"reg_alpha\": null, \"reg_lambda\": null, \"scale_pos_weight\": null, \"base_score\": null, \"missing\": NaN, \"num_parallel_tree\": null, \"random_state\": null, \"n_jobs\": null, \"monotone_constraints\": null, \"interaction_constraints\": null, \"importance_type\": null, \"gpu_id\": null, \"validate_parameters\": null, \"predictor\": null, \"enable_categorical\": false, \"kwargs\": {\"learn_rate\": 0.1, \"seed\": 42}, \"classes_\": [0.0, 1.0, 2.0], \"n_classes_\": 3, \"_le\": {\"classes_\": [0.0, 1.0, 2.0]}, \"evals_result_\": {\"validation_0\": {\"mlogloss\": [0.842389, 0.673264, 0.559218, 0.479781, 0.415229, 0.375635, 0.337141, 0.317446, 0.301788, 0.285392, 0.271507, 0.262953, 0.264276, 0.254387, 0.255446, 0.25446, 0.252172, 0.252136, 0.252982, 0.250353, 0.250267, 0.251767, 0.251791, 0.251701, 0.251627, 0.251566, 0.251515, 0.251473, 0.251437, 0.251408, 0.251383]}}, \"_estimator_type\": \"classifier\"}"},"feature_names":[],"feature_types":[],"gradient_booster":{"model":{"gbtree_model_param":{"num_trees":"93","size_leaf_vector":"0"},"tree_info":[0,1,2,0,1,2,0,1,2,0,1,2,0,1,2,0,1,2,0,1,2,0,1,2,0,1,2,0,1,2,0,1,2,0,1,2,0,1,2,0,1,2,0,1,2,0,1,2,0,1,2,0,1,2,0,1,2,0,1,2,0,1,2,0,1,2,0,1,2,0,1,2,0,1,2,0,1,2,0,1,2,0,1,2,0,1,2,0,1,2,0,1,2],"trees":[{"base_weights":[-5.309739E-2,-2.2921354E-1,5.581395E-1,-3.6641228E-1,6.8852454E-1,9.896907E-1,-5.853659E-1,-1.7142862E-1,-6.4968157E-1,1.1707317E0,-2.0689659E-1,-2.5544848E-8,1.1294117E0,-4.2162168E-1,5.217391E-1,-2.5544848E-8,-7.0344836E-1,1.3043479E0,2.3999998E-1],"categories":[],"categories_nodes":[],"categories_segments":[],"categories_sizes":[],"default_left":[true,true,true,true,true,true,false,true,true,false,false,false,true,false,false,false,false,false,false],"id":0,"left_children":[1,3,5,7,9,11,-1,13,15,-1,-1,-1,17,-1,-1,-1,-1,-1,-1],"loss_changes":[6.8858776E0,6.4779577E0,7.65256E0,2.3004613E0,3.1687188E0,1.4903584E0,0E0,4.9410105E0,6.093564E-1,0E0,0E0,0E0,1.1564188E0,0E0,0E0,0E0,0E0,0E0,0E0],"parents":[2147483647,0,0,1,1,2,2,3,3,4,4,5,5,7,7,8,8,12,12],"right_children":[2,4,6,8,10,12,-1,14,16,-1,-1,-1,18,-1,-1,-1,-1,-1,-1],"split_conditions":[6.1626047E-1,6.8323827E-1,5.39205E-1,6.0782003E-1,7.227214E-1,6.002518E-1,-1.7560977E-1,5.405674E-1,2.9268244E-1,3.512195E-1,-6.206898E-2,-7.663455E-9,4.4691047E-1,-1.2648651E-1,1.5652174E-1,-7.663455E-9,-2.1103452E-1,3.9130437E-1,7.2E-2],"split_indices":[24,25,0,26,27,26,0,22,20,0,0,0,0,0,0,0,0,0,0],"split_type":[0,0,0,0,0,0,0,0,0,0,0,0,0,0,0,0,0,0,0],"sum_hessian":[6.1777775E1,4.8444443E1,1.3333332E1,4.2666664E1,5.7777777E0,9.777777E0,3.5555553E0,2.6222221E1,1.6444443E1,3.5555553E0,2.222222E0,1.3333333E0,8.444444E0,1.9555553E1,6.666666E0,1.3333333E0,1.5111111E1,6.666666E0,1.7777777E0],"tree_param":{"num_deleted":"0","num_feature":"34","num_nodes":"19","size_leaf_vector":"0"}},{"base_weights":[9.0265445E-2,5.7230765E-1,-5.4216874E-1,-2.0930237E-1,1.0390244E0,-6.3800913E-1,1.6216213E-1,4.736842E-1,-6.6666675E-1,1.150259E0,-4.2857146E-1,-1.463415E-1,-7.142858E-1,-4.2857146E-1,5.9999996E-1,-4.8000002E-1,9.512195E-1,1.265896E0,1.0344825E-1,-5.172414E-1,4.285714E-1],"categories":[],"categories_nodes":[],"categories_segments":[],"categories_sizes":[],"default_left":[true,true,true,true,true,true,true,true,false,true,false,true,false,false,false,false,false,false,false,false,false],"id":1,"left_children":[1,3,5,7,9,11,13,15,-1,17,-1,19,-1,-1,-1,-1,-1,-1,-1,-1,-1],"loss_changes":[1.9448717E1,1.3390459E1,1.9710541E0,4.7931457E0,4.211384E0,8.1637096E-1,1.3204633E0,3.340898E0,0E0,2.4648952E0,0E0,1.1930795E0,0E0,0E0,0E0,0E0,0E0,0E0,0E0,0E0,0E0],"parents":[2147483647,0,0,1,1,2,2,3,3,4,4,5,5,6,6,7,7,9,9,11,11],"right_children":[2,4,6,8,10,12,14,16,-1,18,-1,20,-1,-1,-1,-1,-1,-1,-1,-1,-1],"split_conditions":[5.052661E-1,5.5202115E-1,7.573731E-1,4.511262E-1,5.9368694E-1,3.409957E-1,3.9137787E-1,4.297499E-1,-2.0000003E-1,5.4418504E-1,-1.2857145E-1,3.2852235E-1,-2.1428575E-1,-1.2857145E-1,1.7999999E-1,-1.4400001E-1,2.8536585E-1,3.7976882E-1,3.1034475E-2,-1.5517244E-1,1.2857142E-1],"split_indices":[16,28,32,24,22,15,0,24,0,18,0,9,0,0,0,0,0,0,0,0,0],"split_type":[0,0,0,0,0,0,0,0,0,0,0,0,0,0,0,0,0,0,0,0,0],"sum_hessian":[6.1777775E1,3.511111E1,2.6666664E1,1.3333332E1,2.1777777E1,2.3555553E1,3.111111E0,5.333333E0,7.9999995E0,2.0444443E1,1.3333333E0,3.5555553E0,1.9999998E1,1.3333333E0,1.7777777E0,1.7777777E0,3.5555553E0,1.8222221E1,2.222222E0,2.222222E0,1.3333333E0],"tree_param":{"num_deleted":"0","num_feature":"34","num_nodes":"21","size_leaf_vector":"0"}},{"base_weights":[-3.7168186E-2,-4.8251754E-1,1.2827586E0,8.918919E-1,-5.985038E-1,1.3884298E0,5.454545E-1,5.9999996E-1,-6.623377E-1,8.571428E-1,-2.5544848E-8,1.0344825E-1,-7.068494E-1],"categories":[],"categories_nodes":[],"categories_segments":[],"categories_sizes":[],"default_left":[true,true,true,false,true,false,true,false,true,false,false,false,false],"id":2,"left_children":[1,3,5,-1,7,-1,9,-1,11,-1,-1,-1,-1],"loss_changes":[3.752152E1,8.132467E0,4.9791908E-1,0E0,3.8061333E0,0E0,6.233767E-1,0E0,1.5312634E0,0E0,0E0,0E0,0E0],"parents":[2147483647,0,0,1,1,2,2,4,4,6,6,8,8],"right_children":[2,4,6,-1,8,-1,10,-1,12,-1,-1,-1,-1],"split_conditions":[4.428383E-1,4.53169E-1,6.9750994E-1,2.6756757E-1,1.2877955E-1,4.1652894E-1,5.107786E-1,1.7999999E-1,4.8146045E-1,2.5714284E-1,-7.663455E-9,3.1034475E-2,-2.1205483E-1],"split_indices":[6,28,32,0,33,0,0,0,26,0,0,0,0],"split_type":[0,0,0,0,0,0,0,0,0,0,0,0,0],"sum_hessian":[6.1777775E1,4.6666664E1,1.5111111E1,3.111111E0,4.3555553E1,1.2444444E1,2.6666665E0,1.7777777E0,4.1777775E1,1.3333333E0,1.3333333E0,2.222222E0,3.9555553E1],"tree_param":{"num_deleted":"0","num_feature":"34","num_nodes":"13","size_leaf_vector":"0"}},{"base_weights":[-3.862576E-2,9.661231E-2,-6.3238657E-1,-2.3901668E-1,5.0843686E-1,-3.845158E-1,4.8527828E-1,8.0872977E-1,2.0293757E-1,-4.4217542E-1,1.4541328E-1,8.2710457E-1,-1.19375005E-1,9.3514174E-1,-4.600265E-2,-4.1563675E-1,6.0414726E-1],"categories":[],"categories_nodes":[],"categories_segments":[],"categories_sizes":[],"default_left":[true,true,false,true,true,true,true,true,true,false,false,false,false,false,false,false,false],"id":3,"left_children":[1,3,-1,5,7,9,11,13,15,-1,-1,-1,-1,-1,-1,-1,-1],"loss_changes":[4.923056E0,7.0578604E0,0E0,3.172099E0,1.932445E0,8.0217147E-1,1.1695908E0,1.252078E0,3.3939228E0,0E0,0E0,0E0,0E0,0E0,0E0,0E0,0E0],"parents":[2147483647,0,0,1,1,3,3,4,4,5,5,6,6,7,7,8,8],"right_children":[2,4,-1,6,8,10,12,14,16,-1,-1,-1,-1,-1,-1,-1,-1],"split_conditions":[5.002481E-1,5.450369E-1,-1.8971598E-1,6.861789E-1,7.057433E-1,6.387013E-1,4.977407E-1,4.3565172E-1,5.8182824E-1,-1.3265263E-1,4.3623984E-2,2.4813138E-1,-3.5812505E-2,2.8054252E-1,-1.3800795E-2,-1.2469103E-1,1.8124418E-1],"split_indices":[8,24,0,25,30,21,24,6,24,0,0,0,0,0,0,0,0],"split_type":[0,0,0,0,0,0,0,0,0,0,0,0,0,0,0,0,0],"sum_hessian":[5.9548145E1,4.918321E1,1.0364938E1,2.7329672E1,2.1853537E1,2.314861E1,4.181063E0,1.0189978E1,1.166356E1,2.10264E1,2.1222105E0,2.436019E0,1.745044E0,8.795133E0,1.3948452E0,4.574602E0,7.0889573E0],"tree_param":{"num_deleted":"0","num_feature":"34","num_nodes":"17","size_leaf_vector":"0"}},{"base_weights":[6.3040465E-2,4.1260937E-1,-4.7098106E-1,-2.6672563E-1,7.0353884E-1,-5.637076E-1,1.3059294E-1,2.473864E-1,-6.0936517E-1,7.714083E-1,-3.87872E-1,-1.1455302E-1,-6.4061713E-1,-4.144594E-1,5.1978606E-1,-4.338432E-1,6.425463E-1,-1.0714691E-1,8.2859E-1,3.8935763E-1,-4.696749E-1],"categories":[],"categories_nodes":[],"categories_segments":[],"categories_sizes":[],"default_left":[true,true,true,true,true,true,true,true,false,true,false,true,false,false,false,false,false,false,false,false,false],"id":4,"left_children":[1,3,5,7,9,11,13,15,-1,17,-1,19,-1,-1,-1,-1,-1,-1,-1,-1,-1],"loss_changes":[1.1701714E1,7.656164E0,1.4600434E0,2.2744544E0,2.2794018E0,6.770253E-1,1.0918086E0,1.7681495E0,0E0,1.3699512E0,0E0,9.6911097E-1,0E0,0E0,0E0,0E0,0E0,0E0,0E0,0E0,0E0],"parents":[2147483647,0,0,1,1,2,2,3,3,4,4,5,5,6,6,7,7,9,9,11,11],"right_children":[2,4,6,8,10,12,14,16,-1,18,-1,20,-1,-1,-1,-1,-1,-1,-1,-1,-1],"split_conditions":[5.052661E-1,5.4375154E-1,7.573731E-1,4.4633043E-1,5.9368694E-1,3.409957E-1,5.077543E-1,4.297499E-1,-1.8280956E-1,6.1368215E-1,-1.1636161E-1,5.709518E-1,-1.9218515E-1,-1.2433783E-1,1.5593582E-1,-1.3015297E-1,1.927639E-1,-3.2144073E-2,2.48577E-1,1.1680729E-1,-1.4090247E-1],"split_indices":[16,28,32,24,22,15,14,24,0,32,0,16,0,0,0,0,0,0,0,0,0],"split_type":[0,0,0,0,0,0,0,0,0,0,0,0,0,0,0,0,0,0,0,0,0],"sum_hessian":[6.0643177E1,3.6788734E1,2.3854443E1,1.1055883E1,2.5732851E1,2.0723127E1,3.1313143E0,4.5327444E0,6.523139E0,2.450237E1,1.2304804E0,3.393634E0,1.7329493E1,1.2774156E0,1.8538988E0,1.6281055E0,2.904639E0,1.4439118E0,2.3058458E1,1.3630658E0,2.0305681E0],"tree_param":{"num_deleted":"0","num_feature":"34","num_nodes":"21","size_leaf_vector":"0"}},{"base_weights":[-2.572862E-2,-4.158096E-1,9.2821115E-1,5.6188333E-1,-5.48481E-1,9.6776116E-1,2.846481E-1,-1.5252921E-1,9.3760526E-1,1.800065E-1,-6.1486983E-1,1.0041302E0,3.4415174E-1,7.4900925E-1,-4.2189804E-1,3.4893343E-1,-6.6487306E-1],"categories":[],"categories_nodes":[],"categories_segments":[],"categories_sizes":[],"default_left":[true,true,true,true,true,true,true,false,false,true,true,true,true,false,false,false,false],"id":5,"left_children":[1,3,-1,7,9,-1,-1,-1,-1,13,15,-1,-1,-1,-1,-1,-1],"loss_changes":[2.2764538E1,5.93447E0,1.7667007E-1,1.6667383E0,1.9822817E0,2.4536133E-2,0E0,0E0,0E0,1.6878963E0,1.9521561E0,0E0,0E0,0E0,0E0,0E0,0E0],"parents":[2147483647,0,0,1,1,2,2,3,3,4,4,5,5,9,9,10,10],"right_children":[2,4,-1,8,10,-1,-1,-1,-1,14,16,-1,-1,-1,-1,-1,-1],"split_conditions":[4.428383E-1,4.8146045E-1,2.7846336E-1,4.3237215E-1,5.806148E-1,2.9032835E-1,8.539443E-2,-4.5758765E-2,2.812816E-1,3.949594E-1,1.2877955E-1,3.0123907E-1,1.0324553E-1,2.2470279E-1,-1.2656942E-1,1.0468003E-1,-1.9946192E-1],"split_indices":[6,26,27,14,30,2147483647,2147483647,0,0,17,33,2147483647,2147483647,0,0,0,0],"split_type":[0,0,0,0,0,0,0,0,0,0,0,0,0,0,0,0,0],"sum_hessian":[5.913908E1,4.237528E1,1.6763805E1,4.6766396E0,3.769864E1,1.53186455E1,1.4451592E0,1.8165729E0,2.860067E0,3.005692E0,3.4692947E1,1.3897923E1,1.420722E0,1.4194419E0,1.58625E0,1.4162744E0,3.3276672E1],"tree_param":{"num_deleted":"4","num_feature":"34","num_nodes":"17","size_leaf_vector":"0"}},{"base_weights":[-2.4587102E-2,8.83409E-2,-5.740789E-1,-1.8942133E-1,4.0628296E-1,-3.219778E-1,4.1291073E-1,-4.3585986E-1,4.7907692E-1,-1.5589768E-1,-5.797658E-1,7.0790875E-1,-1.1553746E-1,7.573177E-1,1.8721959E-1],"categories":[],"categories_nodes":[],"categories_segments":[],"categories_sizes":[],"default_left":[true,true,false,true,true,true,true,false,true,false,false,false,false,false,false],"id":6,"left_children":[1,3,-1,5,7,9,11,-1,13,-1,-1,-1,-1,-1,-1],"loss_changes":[3.555455E0,4.2910323E0,0E0,2.2208602E0,1.5922725E0,8.513069E-1,8.854106E-1,0E0,1.583734E0,0E0,0E0,0E0,0E0,0E0,0E0],"parents":[2147483647,0,0,1,1,3,3,4,4,5,5,6,6,8,8],"right_children":[2,4,-1,6,8,10,12,-1,14,-1,-1,-1,-1,-1,-1],"split_conditions":[5.002481E-1,5.450369E-1,-1.7222369E-1,6.861789E-1,1.9939107E-1,3.4479782E-1,6.5918803E-1,-1.3075796E-1,4.5804656E-1,-4.6769306E-2,-1.7392975E-1,2.1237263E-1,-3.4661237E-2,2.2719532E-1,5.6165878E-2],"split_indices":[8,24,0,25,33,6,19,0,29,0,0,0,0,0,0],"split_type":[0,0,0,0,0,0,0,0,0,0,0,0,0,0,0],"sum_hessian":[5.547978E1,4.6717857E1,8.76192E0,2.5150219E1,2.1567638E1,2.0995207E1,4.1550107E0,1.3191378E0,2.02485E1,1.3744838E1,7.25037E0,2.4485478E0,1.7064631E0,9.549607E0,1.06988945E1],"tree_param":{"num_deleted":"0","num_feature":"34","num_nodes":"15","size_leaf_vector":"0"}},{"base_weights":[4.5106653E-2,2.4405819E-1,-5.956364E-1,-3.0760443E-1,4.428835E-1,2.1422717E-1,-5.333201E-1,5.966593E-1,-2.753819E-1,-3.976457E-1,6.4845216E-1,-1.1071979E-2,-6.121423E-1,-2.3280436E-1,6.743024E-1,4.202964E-1,-5.2876353E-1],"categories":[],"categories_nodes":[],"categories_segments":[],"categories_sizes":[],"default_left":[true,true,false,true,true,true,true,true,true,false,false,false,false,false,false,false,false],"id":7,"left_children":[1,3,-1,5,7,9,11,13,15,-1,-1,-1,-1,-1,-1,-1,-1],"loss_changes":[7.500463E0,5.0431204E0,0E0,1.5797455E0,3.84173E0,1.4455439E0,3.6254644E-1,1.9434319E0,1.3777604E0,0E0,0E0,0E0,0E0,0E0,0E0,0E0,0E0],"parents":[2147483647,0,0,1,1,3,3,4,4,5,5,6,6,7,7,8,8],"right_children":[2,4,-1,6,8,10,12,14,16,-1,-1,-1,-1,-1,-1,-1,-1],"split_conditions":[4.8100972E-1,5.4632473E-1,-1.7869094E-1,4.4232297E-1,5.9650993E-1,4.297499E-1,3.779841E-1,6.0298616E-1,3.8866305E-1,-1.1929372E-1,1.9453566E-1,-3.3215939E-3,-1.836427E-1,-6.984131E-2,2.0229073E-1,1.2608893E-1,-1.5862906E-1],"split_indices":[12,26,0,22,22,24,20,32,23,0,0,0,0,0,0,0,0],"split_type":[0,0,0,0,0,0,0,0,0,0,0,0,0,0,0,0,0],"sum_hessian":[5.6697495E1,4.373639E1,1.2961104E1,1.1442051E1,3.229434E1,3.4701998E0,7.971851E0,2.6739002E1,5.5553365E0,1.4754133E0,1.9947865E0,1.1949565E0,6.776894E0,2.1176531E0,2.462135E1,1.3072996E0,4.248037E0],"tree_param":{"num_deleted":"0","num_feature":"34","num_nodes":"17","size_leaf_vector":"0"}},{"base_weights":[-2.2067985E-2,-3.9736673E-1,6.794453E-1,5.492962E-1,-4.962716E-1,7.41525E-1,-1.0426485E-1,4.2695794E-1,-5.6617254E-1,8.0580837E-1,1.00223124E-1,-5.9334385E-1,9.764432E-2,8.354631E-1,2.589094E-1],"categories":[],"categories_nodes":[],"categories_segments":[],"categories_sizes":[],"default_left":[true,true,true,false,true,true,false,false,true,true,false,false,false,true,true],"id":8,"left_children":[1,3,5,-1,7,9,-1,-1,11,-1,-1,-1,-1,-1,-1],"loss_changes":[1.4751756E1,3.6868725E0,1.0279875E0,0E0,2.4063282E0,6.7073536E-1,0E0,0E0,6.2809277E-1,5.0094604E-2,0E0,0E0,0E0,0E0,0E0],"parents":[2147483647,0,0,1,1,2,2,4,4,5,5,8,8,9,9],"right_children":[2,4,6,-1,8,10,-1,-1,12,-1,-1,-1,-1,-1,-1],"split_conditions":[4.3489856E-1,4.53169E-1,7.5395834E-1,1.6478887E-1,1.2877955E-1,6.603668E-1,-3.1279456E-2,1.2808739E-1,8.6308914E-1,2.4174252E-1,3.006694E-2,-1.7800316E-1,2.9293297E-2,2.5063893E-1,7.7672824E-2],"split_indices":[6,28,19,0,33,26,0,0,31,23,0,0,0,2147483647,2147483647],"split_type":[0,0,0,0,0,0,0,0,0,0,0,0,0,0,0],"sum_hessian":[5.4005802E1,3.546574E1,1.8540062E1,2.9240983E0,3.254164E1,1.7229128E1,1.3109354E0,1.9308989E0,3.0610743E1,1.5426295E1,1.8028326E0,2.9509045E1,1.1016991E0,1.4132353E1,1.2939426E0],"tree_param":{"num_deleted":"2","num_feature":"34","num_nodes":"15","size_leaf_vector":"0"}},{"base_weights":[-1.3908171E-2,8.19161E-2,-5.3143406E-1,-8.106603E-2,4.721001E-1,-2.0532891E-1,4.1961706E-1,8.652045E-3,7.120543E-1,6.34987E-3,-5.7133985E-1,6.9669807E-1,-1.6731042E-1,4.6789318E-1,-2.5777265E-1,2.4392778E-1,7.6480037E-1],"categories":[],"categories_nodes":[],"categories_segments":[],"categories_sizes":[],"default_left":[true,true,false,true,true,true,true,true,true,false,false,false,false,false,false,true,true],"id":9,"left_children":[1,3,-1,5,7,9,11,13,-1,-1,-1,-1,-1,-1,-1,-1,-1],"loss_changes":[2.6351204E0,2.8974571E0,0E0,2.1123676E0,1.4832857E0,2.077139E0,1.2230972E0,8.034985E-1,3.103447E-2,0E0,0E0,0E0,0E0,0E0,0E0,0E0,0E0],"parents":[2147483647,0,0,1,1,3,3,4,4,5,5,6,6,7,7,8,8],"right_children":[2,4,-1,6,8,10,12,14,-1,-1,-1,-1,-1,-1,-1,-1,-1],"split_conditions":[5.002481E-1,5.819217E-1,-1.5943022E-1,6.8323827E-1,4.500308E-1,6.0785663E-1,7.227214E-1,3.3386248E-1,2.136163E-1,1.9049611E-3,-1.7140196E-1,2.0900942E-1,-5.0193127E-2,1.4036795E-1,-7.73318E-2,7.3178336E-2,2.2944012E-1],"split_indices":[8,24,0,25,23,26,27,23,15,0,0,0,0,0,0,2147483647,2147483647],"split_type":[0,0,0,0,0,0,0,0,0,0,0,0,0,0,0,0,0],"sum_hessian":[5.1258663E1,4.3960686E1,7.2979755E0,3.1567144E1,1.2393543E1,2.576301E1,5.804134E0,4.5812893E0,7.812254E0,1.6945436E1,8.817574E0,3.815744E0,1.98839E0,1.4043655E0,3.1769235E0,1.3606772E0,6.4515767E0],"tree_param":{"num_deleted":"2","num_feature":"34","num_nodes":"17","size_leaf_vector":"0"}},{"base_weights":[3.5642657E-2,2.0142697E-1,-5.566174E-1,-2.4242555E-1,3.996476E-1,2.8666946E-1,-5.972241E-1,5.265495E-1,-2.1840768E-1,-3.7155956E-1,5.4792976E-1,-4.6715215E-1,6.126761E-1,-4.8666164E-1,4.0491748E-1],"categories":[],"categories_nodes":[],"categories_segments":[],"categories_sizes":[],"default_left":[true,true,false,true,true,true,false,true,true,false,false,false,false,false,false],"id":10,"left_children":[1,3,-1,5,7,9,-1,11,13,-1,-1,-1,-1,-1,-1],"loss_changes":[5.3139653E0,3.8032126E0,0E0,2.7294345E0,2.4286666E0,1.2604946E0,0E0,2.4058719E0,1.155483E0,0E0,0E0,0E0,0E0,0E0,0E0],"parents":[2147483647,0,0,1,1,3,3,4,4,5,5,7,7,8,8],"right_children":[2,4,-1,6,8,10,-1,12,14,-1,-1,-1,-1,-1,-1],"split_conditions":[4.8100972E-1,5.5202115E-1,-1.6698521E-1,4.511262E-1,5.9650993E-1,4.297499E-1,-1.7916724E-1,6.005976E-1,6.5568006E-1,-1.11467876E-1,1.6437894E-1,-1.4014564E-1,1.8380283E-1,-1.459985E-1,1.2147525E-1],"split_indices":[12,28,0,24,22,24,0,32,22,0,0,0,0,0,0],"split_type":[0,0,0,0,0,0,0,0,0,0,0,0,0,0,0],"sum_hessian":[5.1978756E1,4.1126583E1,1.0852174E1,1.262774E1,2.8498842E1,5.1459055E0,7.4818344E0,2.3766958E1,4.7318845E0,1.3421816E0,3.8037238E0,1.5427837E0,2.2224174E1,3.4614608E0,1.2704237E0],"tree_param":{"num_deleted":"0","num_feature":"34","num_nodes":"15","size_leaf_vector":"0"}},{"base_weights":[-2.3682963E-2,-3.5823545E-1,5.671053E-1,2.0415373E-1,-5.2272105E-1,6.2965024E-1,-1.487051E-1,-3.0487186E-1,5.6505513E-1,2.6357356E-1,-5.8212936E-1,7.168168E-1,4.704099E-3,-4.5182693E-1,4.819439E-2,2.1925066E-1,6.5805674E-1],"categories":[],"categories_nodes":[],"categories_segments":[],"categories_sizes":[],"default_left":[true,true,true,true,true,true,false,true,true,false,false,false,false,true,true,true,true],"id":11,"left_children":[1,3,5,7,9,11,-1,-1,-1,-1,-1,-1,-1,-1,-1,-1,-1],"loss_changes":[9.8964815E0,3.0598946E0,9.0479803E-1,1.6315348E0,1.3203664E0,9.1471386E-1,0E0,2.2645986E-1,1.6471744E-2,0E0,0E0,0E0,0E0,0E0,0E0,0E0,0E0],"parents":[2147483647,0,0,1,1,2,2,3,3,4,4,5,5,7,7,8,8],"right_children":[2,4,6,8,10,12,-1,-1,-1,-1,-1,-1,-1,-1,-1,-1,-1],"split_conditions":[4.3489856E-1,5.947296E-1,6.3811076E-1,5.852356E-1,1.2877955E-1,6.603668E-1,-4.461153E-2,-9.146156E-2,1.6951655E-1,7.907207E-2,-1.7463881E-1,2.1504505E-1,1.4112298E-3,-1.3554808E-1,1.4458317E-2,6.57752E-2,1.9741704E-1],"split_indices":[6,30,23,19,33,26,0,31,31,0,0,0,0,2147483647,2147483647,2147483647,2147483647],"split_type":[0,0,0,0,0,0,0,0,0,0,0,0,0,0,0,0,0],"sum_hessian":[4.8042953E1,3.092457E1,1.7118383E1,6.9433937E0,2.3981176E1,1.5853526E1,1.2648574E0,2.9449713E0,3.9984221E0,1.4431981E0,2.253798E1,1.3783955E1,2.0695715E0,1.8819383E0,1.063033E0,1.5590298E0,2.4393923E0],"tree_param":{"num_deleted":"4","num_feature":"34","num_nodes":"17","size_leaf_vector":"0"}},{"base_weights":[-7.639976E-4,8.244575E-2,-5.0116235E-1,-1.4726034E-1,3.1621307E-1,-2.7751365E-1,4.214426E-1,-4.1280305E-1,3.9395872E-1,-3.2364566E-2,-4.5944422E-1,5.741254E-1,3.5012355E-3,-3.2258227E-1,4.510806E-1],"categories":[],"categories_nodes":[],"categories_segments":[],"categories_sizes":[],"default_left":[true,true,false,true,true,true,true,false,true,false,false,false,false,false,false],"id":12,"left_children":[1,3,-1,5,7,9,11,-1,13,-1,-1,-1,-1,-1,-1],"loss_changes":[2.0231326E0,2.2840877E0,0E0,1.7243363E0,1.3511376E0,7.994597E-1,2.81367E-1,0E0,9.4203067E-1,0E0,0E0,0E0,0E0,0E0,0E0],"parents":[2147483647,0,0,1,1,3,3,4,4,5,5,6,6,8,8],"right_children":[2,4,-1,6,8,10,12,-1,14,-1,-1,-1,-1,-1,-1],"split_conditions":[5.051527E-1,5.476513E-1,-1.5034871E-1,6.861789E-1,1.9939107E-1,4.19252E-1,7.531917E-1,-1.2384092E-1,3.8080904E-1,-9.70937E-3,-1.3783327E-1,1.7223763E-1,1.0503707E-3,-9.677469E-2,1.3532418E-1],"split_indices":[6,22,0,25,33,16,15,0,16,0,0,0,0,0,0],"split_type":[0,0,0,0,0,0,0,0,0,0,0,0,0,0,0],"sum_hessian":[4.659626E1,4.0668808E1,5.9274545E0,2.0699234E1,1.9969572E1,1.7258455E1,3.44078E0,1.5091074E0,1.8460464E1,7.853654E0,9.404801E0,2.2464175E0,1.1943624E0,1.0198706E0,1.7440594E1],"tree_param":{"num_deleted":"0","num_feature":"34","num_nodes":"15","size_leaf_vector":"0"}},{"base_weights":[2.3263592E-2,1.6359048E-1,-5.236123E-1,-2.8294244E-1,3.1796637E-1,7.882056E-2,-5.5148077E-1,5.2856016E-1,-1.0749992E-2,-3.414247E-1,2.8237513E-1,6.2425727E-1,-4.296363E-2,-3.573415E-1,3.4002113E-1],"categories":[],"categories_nodes":[],"categories_segments":[],"categories_sizes":[],"default_left":[true,true,false,true,true,true,false,true,true,false,false,false,false,false,false],"id":13,"left_children":[1,3,-1,5,7,9,-1,11,13,-1,-1,-1,-1,-1,-1],"loss_changes":[3.7217016E0,2.7416694E0,0E0,1.0549216E0,2.017086E0,5.5070776E-1,0E0,9.965191E-1,1.6200258E0,0E0,0E0,0E0,0E0,0E0,0E0],"parents":[2147483647,0,0,1,1,3,3,4,4,5,5,7,7,8,8],"right_children":[2,4,-1,6,8,10,-1,12,14,-1,-1,-1,-1,-1,-1],"split_conditions":[4.8100972E-1,5.4632473E-1,-1.570837E-1,4.5395625E-1,5.5027044E-1,4.297499E-1,-1.6544424E-1,5.198021E-1,6.575061E-1,-1.02427416E-1,8.471254E-2,1.8727718E-1,-1.288909E-2,-1.07202455E-1,1.02006346E-1],"split_indices":[12,26,0,22,22,24,0,20,26,0,0,0,0,0,0],"split_type":[0,0,0,0,0,0,0,0,0,0,0,0,0,0,0],"sum_hessian":[4.6380478E1,3.7467323E1,8.913152E0,9.411552E0,2.8055773E1,4.3107643E0,5.100788E0,1.6729794E1,1.1325979E1,1.1856458E0,3.1251187E0,1.4251265E1,2.4785285E0,5.6875086E0,5.6384706E0],"tree_param":{"num_deleted":"0","num_feature":"34","num_nodes":"15","size_leaf_vector":"0"}},{"base_weights":[-2.478289E-2,-3.2662255E-1,4.9664184E-1,1.6621903E-1,-4.9169773E-1,6.06553E-1,8.5003674E-2,-2.8564957E-1,4.8272517E-1,2.2529246E-1,-5.5491E-1,6.3706446E-1,1.3502526E-1,4.6500954E-1,-2.9960006E-1,-4.3920386E-1,7.270171E-2,1.5785007E-1,5.877129E-1],"categories":[],"categories_nodes":[],"categories_segments":[],"categories_sizes":[],"default_left":[true,true,true,true,true,true,true,true,true,false,false,true,true,false,false,true,true,true,true],"id":14,"left_children":[1,3,5,7,9,-1,13,-1,-1,-1,-1,-1,-1,-1,-1,-1,-1,-1,-1],"loss_changes":[6.931193E0,2.346945E0,6.798179E-1,1.2439146E0,1.0817719E0,9.5193386E-2,8.0717963E-1,2.41788E-1,7.502818E-2,0E0,0E0,0E0,0E0,0E0,0E0,0E0,0E0,0E0,0E0],"parents":[2147483647,0,0,1,1,2,2,3,3,4,4,5,5,6,6,7,7,8,8],"right_children":[2,4,6,8,10,-1,14,-1,-1,-1,-1,-1,-1,-1,-1,-1,-1,-1,-1],"split_conditions":[4.3489856E-1,5.947296E-1,6.3836884E-1,5.852356E-1,1.2877955E-1,1.8196592E-1,4.4624293E-1,-8.569487E-2,1.4481756E-1,6.758774E-2,-1.66473E-1,1.9111934E-1,4.050758E-2,1.3950287E-1,-8.988002E-2,-1.3176116E-1,2.1810513E-2,4.7355022E-2,1.7631388E-1],"split_indices":[6,30,28,19,33,25,7,31,31,0,0,2147483647,2147483647,0,0,2147483647,2147483647,2147483647,2147483647],"split_type":[0,0,0,0,0,0,0,0,0,0,0,0,0,0,0,0,0,0,0],"sum_hessian":[4.2008587E1,2.684328E1,1.5165305E1,6.7333984E0,2.0109884E1,1.1595651E1,3.5696545E0,2.8137555E0,3.919643E0,1.4215691E0,1.8688314E1,1.0561195E1,1.0344553E0,1.6904007E0,1.8792536E0,1.81178E0,1.0019754E0,1.5687613E0,2.3508816E0],"tree_param":{"num_deleted":"6","num_feature":"34","num_nodes":"19","size_leaf_vector":"0"}},{"base_weights":[4.6673487E-3,7.590039E-2,-4.682588E-1,-4.748785E-1,1.430649E-1,-4.070939E-2,3.2605404E-1,3.5719803E-1,-2.6687735E-1,-1.4770564E-1,4.270711E-1],"categories":[],"categories_nodes":[],"categories_segments":[],"categories_sizes":[],"default_left":[true,true,false,false,true,true,true,false,false,false,false],"id":15,"left_children":[1,3,-1,-1,5,7,9,-1,-1,-1,-1],"loss_changes":[1.4982961E0,1.4957583E0,0E0,0E0,1.1960139E0,1.7545137E0,9.1178787E-1,0E0,0E0,0E0,0E0],"parents":[2147483647,0,0,1,1,4,4,5,5,6,6],"right_children":[2,4,-1,-1,6,8,10,-1,-1,-1,-1],"split_conditions":[5.051527E-1,3.666824E-1,-1.4047764E-1,-1.4246355E-1,5.5027044E-1,3.38975E-1,3.952321E-1,1.0715941E-1,-8.006321E-2,-4.4311695E-2,1.2812133E-1],"split_indices":[6,16,0,0,22,12,11,0,0,0,0],"split_type":[0,0,0,0,0,0,0,0,0,0,0],"sum_hessian":[4.24207E1,3.759724E1,4.823459E0,3.426667E0,3.4170574E1,1.7436644E1,1.6733929E1,6.109166E0,1.1327477E1,2.8597605E0,1.3874168E1],"tree_param":{"num_deleted":"0","num_feature":"34","num_nodes":"11","size_leaf_vector":"0"}},{"base_weights":[1.9827724E-2,1.4031363E-1,-4.9567136E-1,-2.2808644E-1,3.0427754E-1,2.2877279E-1,-5.5966383E-1,4.4362417E-1,-6.936368E-2,-3.181969E-1,4.306766E-1,5.204302E-1,-3.803738E-1,-5.6236225E-1,3.928393E-1],"categories":[],"categories_nodes":[],"categories_segments":[],"categories_sizes":[],"default_left":[true,true,false,true,true,true,false,true,true,false,false,false,false,false,false],"id":16,"left_children":[1,3,-1,5,7,9,-1,11,13,-1,-1,-1,-1,-1,-1],"loss_changes":[2.7107782E0,2.1985276E0,0E0,1.8591427E0,1.323055E0,7.46172E-1,0E0,1.3506467E0,1.9542671E0,0E0,0E0,0E0,0E0,0E0,0E0],"parents":[2147483647,0,0,1,1,3,3,4,4,5,5,7,7,8,8],"right_children":[2,4,-1,6,8,10,-1,12,14,-1,-1,-1,-1,-1,-1],"split_conditions":[4.8100972E-1,5.5202115E-1,-1.4870141E-1,4.511262E-1,6.128695E-1,4.297499E-1,-1.6789916E-1,6.39429E-1,5.674803E-1,-9.5459074E-2,1.2920299E-1,1.5612906E-1,-1.14112146E-1,-1.6870868E-1,1.178518E-1],"split_indices":[12,28,0,24,27,24,0,23,3,0,0,0,0,0,0],"split_type":[0,0,0,0,0,0,0,0,0,0,0,0,0,0,0],"sum_hessian":[4.1524757E1,3.4247917E1,7.276843E0,1.0427639E1,2.3820278E1,4.515739E0,5.9119E0,1.7213379E1,6.606898E0,1.0621979E0,3.453541E0,1.6082697E1,1.1306831E0,3.0920894E0,3.5148087E0],"tree_param":{"num_deleted":"0","num_feature":"34","num_nodes":"15","size_leaf_vector":"0"}},{"base_weights":[-2.8041726E-2,-3.029077E-1,4.4322526E-1,3.9353797E-1,-4.0329605E-1,5.0594956E-1,-1.4928E-1,2.843174E-1,-4.804648E-1,5.898134E-1,-1.6574318E-2,-5.442349E-1,-5.639793E-2],"categories":[],"categories_nodes":[],"categories_segments":[],"categories_sizes":[],"default_left":[true,true,true,false,true,true,false,false,true,false,false,false,false],"id":17,"left_children":[1,3,5,-1,7,9,-1,-1,11,-1,-1,-1,-1],"loss_changes":[4.965332E0,1.8471816E0,6.012249E-1,0E0,1.2828355E0,5.802741E-1,0E0,0E0,5.0458336E-1,0E0,0E0,0E0,0E0],"parents":[2147483647,0,0,1,1,2,2,4,4,5,5,8,8],"right_children":[2,4,6,-1,8,10,-1,-1,12,-1,-1,-1,-1],"split_conditions":[4.3489856E-1,4.53169E-1,6.3811076E-1,1.1806139E-1,1.2877955E-1,6.603668E-1,-4.4784002E-2,8.529522E-2,7.0643973E-1,1.7694403E-1,-4.9722954E-3,-1.6327047E-1,-1.691938E-2],"split_indices":[6,28,23,0,33,26,0,0,31,0,0,0,0],"split_type":[0,0,0,0,0,0,0,0,0,0,0,0,0],"sum_hessian":[3.629545E1,2.3150305E1,1.31451435E1,2.5486748E0,2.060163E1,1.2018875E1,1.1262684E0,1.8079044E0,1.8793726E1,1.0245688E1,1.7731867E0,1.6090681E1,2.7030451E0],"tree_param":{"num_deleted":"0","num_feature":"34","num_nodes":"13","size_leaf_vector":"0"}},{"base_weights":[1.00304345E-2,-4.605245E-1,6.892912E-2,-4.256119E-1,1.206559E-1,3.5919E-1,-8.806934E-2,-1.567168E-1,4.367584E-1,-2.5660664E-1,3.654414E-1],"categories":[],"categories_nodes":[],"categories_segments":[],"categories_sizes":[],"default_left":[true,false,true,false,true,true,true,false,false,false,false],"id":18,"left_children":[1,-1,3,-1,5,7,9,-1,-1,-1,-1],"loss_changes":[1.1343629E0,0E0,9.781061E-1,0E0,1.7033587E0,7.033901E-1,1.5238761E0,0E0,0E0,0E0,0E0],"parents":[2147483647,0,0,2,2,4,4,5,5,6,6],"right_children":[2,-1,4,-1,6,8,10,-1,-1,-1,-1],"split_conditions":[2.505558E-1,-1.3815735E-1,3.697026E-1,-1.2768358E-1,3.4437516E-1,3.2050973E-1,6.264479E-1,-4.701504E-2,1.3102752E-1,-7.698199E-2,1.09632425E-1],"split_indices":[31,0,14,0,6,10,22,0,0,0,0],"split_type":[0,0,0,0,0,0,0,0,0,0,0],"sum_hessian":[3.878412E1,3.5559444E0,3.5228172E1,2.6513643E0,3.257681E1,1.4866404E1,1.7710405E1,1.8097048E0,1.3056699E1,1.32285E1,4.4819045E0],"tree_param":{"num_deleted":"0","num_feature":"34","num_nodes":"11","size_leaf_vector":"0"}},{"base_weights":[1.5925614E-2,1.20220624E-1,-4.768077E-1,-2.7447432E-1,2.6322538E-1,1.22963116E-1,-4.5959356E-1,3.672198E-1,-1.8997882E-1,-3.107198E-1,4.232451E-1,-4.395048E-2,-5.3041065E-1,4.113368E-1,-1.9263946E-1,-4.3489522E-1,3.2640088E-1],"categories":[],"categories_nodes":[],"categories_segments":[],"categories_sizes":[],"default_left":[true,true,false,true,true,true,true,true,true,false,false,true,true,false,false,false,false],"id":19,"left_children":[1,3,-1,5,7,9,-1,13,15,-1,-1,-1,-1,-1,-1,-1,-1],"loss_changes":[2.013961E0,1.8909612E0,0E0,7.230271E-1,1.2085732E0,6.0914016E-1,1.648202E-1,5.7307863E-1,7.9564E-1,0E0,0E0,0E0,0E0,0E0,0E0,0E0,0E0],"parents":[2147483647,0,0,1,1,3,3,4,4,5,5,6,6,7,7,8,8],"right_children":[2,4,-1,6,8,10,-1,14,16,-1,-1,-1,-1,-1,-1,-1,-1],"split_conditions":[5.444856E-1,5.4632473E-1,-1.4304233E-1,4.4232297E-1,5.9650993E-1,4.297499E-1,-1.3787808E-1,8.105775E-1,5.3017807E-1,-9.321594E-2,1.2697354E-1,-1.3185144E-2,-1.591232E-1,1.23401046E-1,-5.779184E-2,-1.3046858E-1,9.792027E-2],"split_indices":[14,26,0,22,22,24,20,31,14,0,0,2147483647,2147483647,0,0,0,0],"split_type":[0,0,0,0,0,0,0,0,0,0,0,0,0,0,0,0,0],"sum_hessian":[3.707459E1,3.1221964E1,5.852623E0,8.059181E0,2.3162783E1,2.6676643E0,5.391517E0,1.8994043E1,4.1687403E0,1.0771818E0,1.5904825E0,1.0208014E0,4.3707156E0,1.7852545E1,1.1414976E0,2.9346497E0,1.2340906E0],"tree_param":{"num_deleted":"2","num_feature":"34","num_nodes":"17","size_leaf_vector":"0"}},{"base_weights":[-3.1096147E-2,-2.5491634E-1,4.4711843E-1,1.6224363E-1,-4.256037E-1,5.2765864E-1,1.3041602E-1,-5.2648406E-2,4.831034E-1,2.4903248E-1,-5.2123296E-1,3.7967625E-1,-2.0593794E-1,-3.2218418E-1,4.289911E-1],"categories":[],"categories_nodes":[],"categories_segments":[],"categories_sizes":[],"default_left":[true,true,true,true,true,false,true,true,false,false,false,false,false,false,false],"id":20,"left_children":[1,3,5,7,9,-1,11,13,-1,-1,-1,-1,-1,-1,-1],"loss_changes":[3.5746462E0,1.6826172E0,2.0337844E-1,5.2904046E-1,1.1850934E0,0E0,3.7094703E-1,8.231411E-1,0E0,0E0,0E0,0E0,0E0,0E0,0E0],"parents":[2147483647,0,0,1,1,2,2,3,3,4,4,6,6,7,7],"right_children":[2,4,6,8,10,-1,12,14,-1,-1,-1,-1,-1,-1,-1],"split_conditions":[4.428383E-1,5.947296E-1,6.3836884E-1,6.841239E-1,1.2877955E-1,1.582976E-1,4.4624293E-1,5.488434E-1,1.4493102E-1,7.470975E-2,-1.563699E-1,1.1390288E-1,-6.1781384E-2,-9.665526E-2,1.2869734E-1],"split_indices":[6,30,28,31,33,0,7,16,0,0,0,0,0,0,0],"split_type":[0,0,0,0,0,0,0,0,0,0,0,0,0,0,0],"sum_hessian":[3.1332396E1,2.1661188E1,9.671208E0,6.303906E0,1.5357282E1,7.1793375E0,2.4918709E0,4.276012E0,2.027894E0,1.7074665E0,1.3649816E1,1.357256E0,1.134615E0,2.953973E0,1.3220387E0],"tree_param":{"num_deleted":"0","num_feature":"34","num_nodes":"15","size_leaf_vector":"0"}},{"base_weights":[1.18389325E-2,6.680072E-2,-4.1588476E-1,-7.4993516E-3,4.3762174E-1,1.4732033E-1,-2.463724E-1,9.740552E-2,4.9892858E-1,-1.5053561E-1,3.645757E-1,-3.3649042E-1,3.2169083E-1],"categories":[],"categories_nodes":[],"categories_segments":[],"categories_sizes":[],"default_left":[true,true,false,true,true,true,true,true,true,false,false,false,false],"id":21,"left_children":[1,3,-1,5,-1,9,11,-1,-1,-1,-1,-1,-1],"loss_changes":[8.853573E-1,9.1765845E-1,0E0,1.0951259E0,6.729686E-2,1.2195154E0,7.0378387E-1,0E0,0E0,0E0,0E0,0E0,0E0],"parents":[2147483647,0,0,1,1,3,3,4,4,5,5,6,6],"right_children":[2,4,-1,6,-1,10,12,-1,-1,-1,-1,-1,-1],"split_conditions":[5.051527E-1,5.444856E-1,-1.2476543E-1,3.4437516E-1,1.3128653E-1,4.128037E-1,6.0588044E-1,2.9221658E-2,1.4967857E-1,-4.5160685E-2,1.0937272E-1,-1.00947134E-1,9.650725E-2],"split_indices":[6,14,0,6,17,14,20,2147483647,2147483647,0,0,0,0],"split_type":[0,0,0,0,0,0,0,0,0,0,0,0,0],"sum_hessian":[3.547946E1,3.218727E1,3.2921886E0,2.763077E1,4.556502E0,1.6997517E1,1.0633252E1,1.0909886E0,3.465513E0,7.298465E0,9.699053E0,9.529187E0,1.1040651E0],"tree_param":{"num_deleted":"2","num_feature":"34","num_nodes":"13","size_leaf_vector":"0"}},{"base_weights":[1.3364998E-2,1.068284E-1,-4.561996E-1,-2.5047225E-1,2.3511386E-1,1.2639414E-1,-4.2857173E-1,4.7032908E-1,7.491345E-2,-1.320032E-1,3.4929696E-1,-7.2393775E-2,-4.9747023E-1,5.4826784E-1,-2.3891855E-2,-4.5196688E-1,2.267267E-1],"categories":[],"categories_nodes":[],"categories_segments":[],"categories_sizes":[],"default_left":[true,true,false,true,true,true,true,true,true,true,true,true,true,false,false,false,false],"id":22,"left_children":[1,3,-1,5,7,-1,-1,13,15,-1,-1,-1,-1,-1,-1,-1,-1],"loss_changes":[1.5545902E0,1.4076939E0,0E0,6.084612E-1,8.0009794E-1,2.4323507E-1,1.0719705E-1,3.5175252E-1,1.2523977E0,0E0,0E0,0E0,0E0,0E0,0E0,0E0,0E0],"parents":[2147483647,0,0,1,1,3,3,4,4,5,5,6,6,7,7,8,8],"right_children":[2,4,-1,6,8,-1,-1,14,16,-1,-1,-1,-1,-1,-1,-1,-1],"split_conditions":[5.444856E-1,5.4632473E-1,-1.3685988E-1,4.4232297E-1,5.148867E-1,3.7918244E-2,-1.2857153E-1,6.439167E-1,6.127351E-1,-3.960096E-2,1.0478909E-1,-2.1718133E-2,-1.4924107E-1,1.6448036E-1,-7.167557E-3,-1.3559008E-1,6.801801E-2],"split_indices":[14,26,0,22,24,24,14,21,28,2147483647,2147483647,2147483647,2147483647,0,0,0,0],"split_type":[0,0,0,0,0,0,0,0,0,0,0,0,0,0,0,0,0],"sum_hessian":[3.331202E1,2.842644E1,4.885581E0,7.2582636E0,2.1168177E1,2.4224882E0,4.8357754E0,7.7918563E0,1.3376319E1,1.3107809E0,1.1117074E0,1.1161993E0,3.7195761E0,6.636E0,1.1558566E0,2.5498238E0,1.0826496E1],"tree_param":{"num_deleted":"4","num_feature":"34","num_nodes":"17","size_leaf_vector":"0"}},{"base_weights":[-3.178217E-2,-2.4632816E-1,3.9680472E-1,3.4758416E-1,-3.5415307E-1,4.707653E-1,-1.004988E-1,2.2081877E-1,-4.3100458E-1,5.1296264E-1,9.4012E-2,-4.7704703E-1,2.007023E-2],"categories":[],"categories_nodes":[],"categories_segments":[],"categories_sizes":[],"default_left":[true,true,true,false,true,true,false,false,true,true,true,false,false],"id":23,"left_children":[1,3,5,-1,7,-1,-1,-1,11,-1,-1,-1,-1],"loss_changes":[2.6740003E0,1.3582735E0,4.051715E-1,0E0,8.383908E-1,8.922589E-2,0E0,0E0,3.247447E-1,0E0,0E0,0E0,0E0],"parents":[2147483647,0,0,1,1,2,2,4,4,5,5,8,8],"right_children":[2,4,6,-1,8,-1,-1,-1,12,-1,-1,-1,-1],"split_conditions":[4.376935E-1,4.53169E-1,7.3694956E-1,1.0427525E-1,1.2877955E-1,1.412296E-1,-3.0149642E-2,6.624564E-2,4.4172302E-1,1.5388879E-1,2.8203601E-2,-1.4311412E-1,6.0210694E-3],"split_indices":[8,28,19,0,33,28,0,0,0,2147483647,2147483647,0,0],"split_type":[0,0,0,0,0,0,0,0,0,0,0,0,0],"sum_hessian":[2.7017525E1,1.8288002E1,8.729523E0,2.468364E0,1.5819637E1,7.645781E0,1.0837412E0,1.644304E0,1.4175333E1,6.550566E0,1.095215E0,1.28101845E1,1.365149E0],"tree_param":{"num_deleted":"2","num_feature":"34","num_nodes":"13","size_leaf_vector":"0"}},{"base_weights":[1.5773302E-2,-4.147011E-1,6.665901E-2,-3.8674855E-1,1.13094166E-1,2.885764E-1,-6.3581705E-2,-7.2087504E-2,3.827444E-1,-2.432207E-1,2.2935496E-1],"categories":[],"categories_nodes":[],"categories_segments":[],"categories_sizes":[],"default_left":[true,false,true,false,true,true,true,false,false,false,false],"id":24,"left_children":[1,-1,3,-1,5,7,9,-1,-1,-1,-1],"loss_changes":[7.679651E-1,0E0,6.9821864E-1,0E0,9.165679E-1,5.2737164E-1,8.5860556E-1,0E0,0E0,0E0,0E0],"parents":[2147483647,0,0,2,2,4,4,5,5,6,6],"right_children":[2,-1,4,-1,6,8,10,-1,-1,-1,-1],"split_conditions":[2.505558E-1,-1.2441034E-1,3.697026E-1,-1.1602457E-1,3.4437516E-1,4.1422915E-1,5.942604E-1,-2.1626253E-2,1.1482333E-1,-7.296621E-2,6.880649E-2],"split_indices":[31,0,14,0,6,23,24,0,0,0,0],"split_type":[0,0,0,0,0,0,0,0,0,0,0],"sum_hessian":[3.279692E1,2.7112327E0,3.008569E1,2.1141055E0,2.7971582E1,1.371544E1,1.4256143E1,2.8881793E0,1.0827261E1,8.942193E0,5.3139496E0],"tree_param":{"num_deleted":"0","num_feature":"34","num_nodes":"11","size_leaf_vector":"0"}},{"base_weights":[1.0218627E-2,4.2154148E-1,-7.8609765E-2,4.973947E-1,3.198785E-2,-3.8227618E-1,5.979702E-2,4.1228514E-2,-5.173715E-1,1.8152834E-1,-4.1178763E-1,-1.4769588E-1,4.085504E-1],"categories":[],"categories_nodes":[],"categories_segments":[],"categories_sizes":[],"default_left":[true,true,true,true,true,true,true,false,false,true,false,false,false],"id":25,"left_children":[1,-1,5,-1,-1,7,9,-1,-1,11,-1,-1,-1],"loss_changes":[1.1810079E0,1.5360677E-1,1.1441927E0,0E0,0E0,5.069753E-1,1.1764643E0,0E0,0E0,1.2523072E0,0E0,0E0,0E0],"parents":[2147483647,0,0,1,1,2,2,5,5,6,6,9,9],"right_children":[2,-1,6,-1,-1,8,10,-1,-1,12,-1,-1,-1],"split_conditions":[2.7755964E-1,1.2646244E-1,5.5202115E-1,1.4921843E-1,9.596355E-3,4.4232297E-1,4.8100972E-1,1.2368555E-2,-1.5521145E-1,4.6483392E-1,-1.23536296E-1,-4.4308767E-2,1.2256513E-1],"split_indices":[8,10,28,2147483647,2147483647,22,12,0,0,29,0,0,0],"split_type":[0,0,0,0,0,0,0,0,0,0,0,0,0],"sum_hessian":[3.0416533E1,4.7368445E0,2.5679688E1,3.7331076E0,1.0037369E0,7.488293E0,1.8191395E1,1.9790549E0,5.5092382E0,1.4947919E1,3.2434762E0,6.2433376E0,8.70458E0],"tree_param":{"num_deleted":"2","num_feature":"34","num_nodes":"13","size_leaf_vector":"0"}},{"base_weights":[-3.4627717E-2,-2.2103655E-1,3.735054E-1,2.5405207E-1,-3.4739092E-1,4.680643E-1,5.5136234E-2,-1.1374969E-1,4.379409E-1,-4.4091108E-1,1.10525265E-1,6.586208E-2,-5.007332E-1,-6.016287E-2,2.3331052E-1],"categories":[],"categories_nodes":[],"categories_segments":[],"categories_sizes":[],"default_left":[true,true,true,true,true,true,true,false,false,true,true,false,false,true,true],"id":26,"left_children":[1,3,-1,7,9,-1,-1,-1,-1,11,-1,-1,-1,-1,-1],"loss_changes":[1.9591296E0,1.1424053E0,2.1820164E-1,3.3839944E-1,6.6085184E-1,0E0,0E0,0E0,0E0,3.9889717E-1,8.159878E-2,0E0,0E0,0E0,0E0],"parents":[2147483647,0,0,1,1,2,2,3,3,4,4,9,9,10,10],"right_children":[2,4,-1,8,10,-1,-1,-1,-1,12,-1,-1,-1,-1,-1],"split_conditions":[4.428383E-1,4.8146045E-1,1.1205163E-1,4.3237215E-1,7.516888E-1,1.404193E-1,1.654087E-2,-3.4124907E-2,1.3138227E-1,4.687177E-1,3.315758E-2,1.9758625E-2,-1.5021996E-1,-1.8048862E-2,6.999316E-2],"split_indices":[6,26,32,14,15,2147483647,2147483647,0,0,28,16,0,0,2147483647,2147483647],"split_type":[0,0,0,0,0,0,0,0,0,0,0,0,0,0,0],"sum_hessian":[2.3665884E1,1.6560526E1,7.1053576E0,3.2668052E0,1.3293721E1,5.115738E0,1.9896197E0,1.2160224E0,2.0507827E0,1.1070026E1,2.2236946E0,1.1581324E0,9.911894E0,1.143747E0,1.0799476E0],"tree_param":{"num_deleted":"4","num_feature":"34","num_nodes":"15","size_leaf_vector":"0"}},{"base_weights":[1.609737E-2,-3.676534E-2,3.92165E-1,8.560572E-2,-2.983757E-1,1.18434496E-1,4.5977524E-1,-2.0004424E-1,2.5749123E-1,-4.2522836E-1,3.5786483E-1,1.3083948E-1,-3.8647577E-1,-3.3832136E-1,3.6456084E-1,-4.89939E-1,-4.1458152E-2],"categories":[],"categories_nodes":[],"categories_segments":[],"categories_sizes":[],"default_left":[true,true,true,true,true,true,true,true,true,true,false,false,false,false,false,true,true],"id":27,"left_children":[1,3,-1,7,9,-1,-1,11,13,-1,-1,-1,-1,-1,-1,-1,-1],"loss_changes":[6.407241E-1,9.390804E-1,1.89901E-2,1.0442395E0,9.277824E-1,0E0,0E0,5.5384445E-1,9.565033E-1,1.8493629E-1,0E0,0E0,0E0,0E0,0E0,0E0,0E0],"parents":[2147483647,0,0,1,1,2,2,3,3,4,4,7,7,8,8,9,9],"right_children":[2,4,-1,8,10,-1,-1,12,14,-1,-1,-1,-1,-1,-1,-1,-1],"split_conditions":[7.1027523E-1,5.753031E-1,1.176495E-1,4.414156E-1,7.0271987E-1,3.553035E-2,1.3793258E-1,3.2909918E-1,4.0611792E-1,-1.2756851E-1,1.07359454E-1,3.9251845E-2,-1.1594274E-1,-1.0149641E-1,1.0936826E-1,-1.469817E-1,-1.2437446E-2],"split_indices":[25,7,30,11,21,2147483647,2147483647,23,14,24,0,0,0,0,0,2147483647,2147483647],"split_type":[0,0,0,0,0,0,0,0,0,0,0,0,0,0,0,0,0],"sum_hessian":[3.0504398E1,2.7535984E1,2.968414E0,1.9218908E1,8.317077E0,1.1330024E0,1.8354118E0,7.158555E0,1.2060352E1,7.2647996E0,1.0522774E0,2.6872828E0,4.471272E0,1.508141E0,1.0552212E1,5.9798427E0,1.2849569E0],"tree_param":{"num_deleted":"4","num_feature":"34","num_nodes":"17","size_leaf_vector":"0"}},{"base_weights":[1.0160237E-2,1.9284129E-1,-1.6771956E-1,-2.56766E-1,3.2494363E-1,-5.2661043E-1,-1.884632E-2,-4.3481395E-1,8.688893E-2,4.1121227E-1,-2.2010711E-1,1.9906099E-1,-4.1887996E-1,4.8998132E-1,-9.6558884E-2,3.561994E-1,-6.8587996E-2],"categories":[],"categories_nodes":[],"categories_segments":[],"categories_sizes":[],"default_left":[true,true,true,true,true,false,true,false,false,true,false,true,false,false,false,false,false],"id":28,"left_children":[1,3,5,7,9,-1,11,-1,-1,13,-1,15,-1,-1,-1,-1,-1],"loss_changes":[9.677984E-1,9.5458114E-1,7.9793715E-1,2.7576295E-1,6.443112E-1,0E0,1.1053826E0,0E0,0E0,4.6795774E-1,0E0,3.721532E-1,0E0,0E0,0E0,0E0,0E0],"parents":[2147483647,0,0,1,1,2,2,3,3,4,4,6,6,9,9,11,11],"right_children":[2,4,6,8,10,-1,12,-1,-1,14,-1,16,-1,-1,-1,-1,-1],"split_conditions":[4.5795223E-1,5.175725E-1,4.007956E-1,3.2949066E-1,5.700005E-1,-1.5798314E-1,4.4911122E-1,-1.3044418E-1,2.6066681E-2,6.3454187E-1,-6.6032134E-2,5.992142E-1,-1.25664E-1,1.469944E-1,-2.8967666E-2,1.06859826E-1,-2.0576399E-2],"split_indices":[14,26,10,8,22,0,0,0,0,21,0,22,0,0,0,0,0],"split_type":[0,0,0,0,0,0,0,0,0,0,0,0,0,0,0,0,0],"sum_hessian":[2.7787424E1,1.3667207E1,1.4120217E1,2.8894253E0,1.0777782E1,3.3960361E0,1.0724181E1,1.728582E0,1.1608431E0,9.517015E0,1.260766E0,7.267694E0,3.456487E0,8.269264E0,1.2477517E0,4.370752E0,2.896942E0],"tree_param":{"num_deleted":"0","num_feature":"34","num_nodes":"17","size_leaf_vector":"0"}},{"base_weights":[-3.6577422E-2,-1.7425394E-1,4.4581348E-1,2.2995758E-1,-3.091722E-1,-1.1636893E-1,3.6642486E-1,1.7225645E-1,-3.9507902E-1,1.4559798E-1,-4.6568477E-1],"categories":[],"categories_nodes":[],"categories_segments":[],"categories_sizes":[],"default_left":[true,true,false,true,true,false,false,false,true,false,false],"id":29,"left_children":[1,3,-1,5,7,-1,-1,-1,9,-1,-1],"loss_changes":[1.5295691E0,1.0378036E0,0E0,2.793997E-1,6.353506E-1,0E0,0E0,0E0,5.237385E-1,0E0,0E0],"parents":[2147483647,0,0,1,1,3,3,4,4,8,8],"right_children":[2,4,-1,6,8,-1,-1,-1,10,-1,-1],"split_conditions":[5.002481E-1,4.9023837E-1,1.3374405E-1,4.3237215E-1,5.806148E-1,-3.491068E-2,1.0992746E-1,5.167694E-2,1.2877955E-1,4.3679394E-2,-1.3970543E-1],"split_indices":[8,26,0,14,30,0,0,0,33,0,0],"split_type":[0,0,0,0,0,0,0,0,0,0,0],"sum_hessian":[2.0861153E1,1.6726192E1,4.13496E0,4.0094795E0,1.2716713E1,1.1749554E0,2.8345244E0,1.7733817E0,1.0943332E1,1.1413212E0,9.802011E0],"tree_param":{"num_deleted":"0","num_feature":"34","num_nodes":"11","size_leaf_vector":"0"}},{"base_weights":[1.6259564E-2,-3.7064305E-1,5.9909444E-2,-3.379839E-1,9.8713525E-2,2.7550867E-1,-2.4885898E-2,5.7796925E-2,4.708224E-1,-2.6667997E-1,2.4292307E-1],"categories":[],"categories_nodes":[],"categories_segments":[],"categories_sizes":[],"default_left":[true,false,true,false,true,true,true,false,false,false,false],"id":30,"left_children":[1,-1,3,-1,5,7,9,-1,-1,-1,-1],"loss_changes":[5.051975E-1,0E0,4.434584E-1,0E0,5.5259484E-1,4.1326576E-1,1.0759754E0,0E0,0E0,0E0,0E0],"parents":[2147483647,0,0,2,2,4,4,5,5,6,6],"right_children":[2,-1,4,-1,6,8,10,-1,-1,-1,-1],"split_conditions":[2.505558E-1,-1.1119292E-1,3.697026E-1,-1.01395175E-1,4.6483392E-1,5.113269E-1,5.7806265E-1,1.7339079E-2,1.4124672E-1,-8.000399E-2,7.287692E-2],"split_indices":[31,0,14,0,29,27,25,0,0,0,0],"split_type":[0,0,0,0,0,0,0,0,0,0,0],"sum_hessian":[2.759932E1,2.0385754E0,2.5560743E1,1.5861813E0,2.3974562E1,9.358801E0,1.4615762E1,5.038461E0,4.320339E0,7.6831584E0,6.932603E0],"tree_param":{"num_deleted":"0","num_feature":"34","num_nodes":"11","size_leaf_vector":"0"}},{"base_weights":[4.5839036E-3,7.2815925E-2,-3.9715353E-1,-2.2125247E-1,1.8266079E-1,1.05340116E-1,-3.8325095E-1,2.7018702E-1,-1.3807134E-1,-4.3490133E-1,-9.9278405E-2,-1.8498112E-1,3.219313E-1,-3.8710624E-1,2.973525E-1],"categories":[],"categories_nodes":[],"categories_segments":[],"categories_sizes":[],"default_left":[true,true,false,true,true,false,true,true,true,true,true,false,false,false,false],"id":31,"left_children":[1,3,-1,5,7,-1,-1,11,13,-1,-1,-1,-1,-1,-1],"loss_changes":[7.3920435E-1,7.832004E-1,0E0,3.9515826E-1,5.2265954E-1,0E0,2.573061E-2,3.8742065E-1,5.8880347E-1,0E0,0E0,0E0,0E0,0E0,0E0],"parents":[2147483647,0,0,1,1,3,3,4,4,6,6,7,7,8,8],"right_children":[2,4,-1,6,8,-1,-1,12,14,-1,-1,-1,-1,-1,-1],"split_conditions":[5.444856E-1,5.4632473E-1,-1.19146064E-1,4.4232297E-1,5.9650993E-1,3.1602036E-2,-1.1497529E-1,6.005976E-1,5.3017807E-1,-1.3047041E-1,-2.9783523E-2,-5.549434E-2,9.6579395E-2,-1.1613188E-1,8.920575E-2],"split_indices":[14,26,0,22,22,0,7,32,14,2147483647,2147483647,0,0,0,0],"split_type":[0,0,0,0,0,0,0,0,0,0,0,0,0,0,0],"sum_hessian":[2.4912079E1,2.1995125E1,2.9169555E0,5.705789E0,1.6289335E1,2.0077884E0,3.6980007E0,1.2920882E1,3.368453E0,2.6792028E0,1.0187979E0,1.0560892E0,1.1864793E1,2.2134604E0,1.1549926E0],"tree_param":{"num_deleted":"2","num_feature":"34","num_nodes":"15","size_leaf_vector":"0"}},{"base_weights":[-3.0482559E-2,-1.5346164E-1,4.1875497E-1,3.2789403E-1,-2.6034278E-1,1.8360136E-1,-3.2405797E-1,-4.3132892E-1,-1.7099663E-3],"categories":[],"categories_nodes":[],"categories_segments":[],"categories_sizes":[],"default_left":[true,true,false,false,true,false,true,false,false],"id":32,"left_children":[1,3,-1,-1,5,-1,7,-1,-1],"loss_changes":[1.1223294E0,8.96565E-1,0E0,0E0,4.402253E-1,0E0,4.187795E-1,0E0,0E0],"parents":[2147483647,0,0,1,1,4,4,6,6],"right_children":[2,4,-1,-1,6,-1,8,-1,-1],"split_conditions":[5.002481E-1,4.53169E-1,1.2562649E-1,9.836821E-2,1.2877955E-1,5.508041E-2,4.3991888E-1,-1.2939869E-1,-5.1298994E-4],"split_indices":[8,28,0,0,33,0,0,0,0],"split_type":[0,0,0,0,0,0,0,0,0],"sum_hessian":[1.8151628E1,1.4767429E1,3.3841984E0,2.3074834E0,1.2459946E1,1.3276652E0,1.113228E1,8.099009E0,3.0332725E0],"tree_param":{"num_deleted":"0","num_feature":"34","num_nodes":"9","size_leaf_vector":"0"}},{"base_weights":[1.6550956E-2,-3.6245942E-1,5.6593563E-2,9.62173E-2,-3.1962952E-1,-3.0678836E-1,1.3357152E-1,3.126485E-1,2.396234E-2],"categories":[],"categories_nodes":[],"categories_segments":[],"categories_sizes":[],"default_left":[true,false,true,true,false,false,true,false,false],"id":33,"left_children":[1,-1,3,5,-1,-1,7,-1,-1],"loss_changes":[4.2369846E-1,0E0,4.0183878E-1,3.9157695E-1,0E0,0E0,4.245424E-1,0E0,0E0],"parents":[2147483647,0,0,2,2,3,3,6,6],"right_children":[2,-1,4,6,-1,-1,8,-1,-1],"split_conditions":[2.0583464E-1,-1.08737834E-1,5.002481E-1,3.697026E-1,-9.588886E-2,-9.203651E-2,4.5112076E-1,9.3794554E-2,7.188702E-3],"split_indices":[29,0,8,14,0,0,29,0,0],"split_type":[0,0,0,0,0,0,0,0,0],"sum_hessian":[2.5566326E1,1.6735964E0,2.389273E1,2.2289463E1,1.6032665E0,1.2788893E0,2.1010574E1,7.274032E0,1.3736542E1],"tree_param":{"num_deleted":"0","num_feature":"34","num_nodes":"9","size_leaf_vector":"0"}},{"base_weights":[-1.7997803E-4,3.4890497E-1,-7.466905E-2,4.156086E-1,6.600853E-2,-3.3827427E-1,5.124279E-2,3.9953128E-2,-4.7118297E-1,1.4457728E-1,-3.526163E-1,-1.1466762E-1,3.3023542E-1],"categories":[],"categories_nodes":[],"categories_segments":[],"categories_sizes":[],"default_left":[true,true,true,true,true,true,true,false,false,true,false,false,false],"id":34,"left_children":[1,-1,5,-1,-1,7,9,-1,-1,11,-1,-1,-1],"loss_changes":[6.430211E-1,5.4629922E-2,6.936998E-1,0E0,0E0,3.5657513E-1,6.0354453E-1,0E0,0E0,6.451142E-1,0E0,0E0,0E0],"parents":[2147483647,0,0,1,1,2,2,5,5,6,6,9,9],"right_children":[2,-1,6,-1,-1,8,10,-1,-1,12,-1,-1,-1],"split_conditions":[2.7755964E-1,1.0467149E-1,5.5202115E-1,1.2468259E-1,1.980256E-2,4.4232297E-1,4.8100972E-1,1.1985939E-2,-1.413549E-1,4.6483392E-1,-1.057849E-1,-3.4400288E-2,9.907063E-2],"split_indices":[8,13,28,2147483647,2147483647,22,12,0,0,29,0,0,0],"split_type":[0,0,0,0,0,0,0,0,0,0,0,0,0],"sum_hessian":[2.2726816E1,3.3488448E0,1.9377972E1,2.330274E0,1.0185707E0,5.7187576E0,1.3659215E1,1.6688867E0,4.049871E0,1.1616561E1,2.042653E0,5.007158E0,6.6094036E0],"tree_param":{"num_deleted":"2","num_feature":"34","num_nodes":"13","size_leaf_vector":"0"}},{"base_weights":[-2.5236063E-2,-1.3767943E-1,3.9770705E-1,1.64093E-1,-3.0770376E-1,-1.9356667E-1,2.9430422E-1,1.5465483E-1,-3.9322746E-1,4.1310403E-1,7.081037E-2,-4.5414582E-1,-4.7862183E-2],"categories":[],"categories_nodes":[],"categories_segments":[],"categories_sizes":[],"default_left":[true,true,false,true,true,false,true,false,true,true,true,true,true],"id":35,"left_children":[1,3,-1,5,7,-1,-1,-1,-1,-1,-1,-1,-1],"loss_changes":[8.753159E-1,7.8796434E-1,0E0,3.2857016E-1,4.3810147E-1,0E0,9.479955E-2,0E0,1.5360713E-1,0E0,0E0,0E0,0E0],"parents":[2147483647,0,0,1,1,3,3,4,4,6,6,8,8],"right_children":[2,4,-1,6,8,-1,-1,-1,-1,-1,-1,-1,-1],"split_conditions":[5.002481E-1,5.947296E-1,1.19312115E-1,4.2348814E-1,1.2877955E-1,-5.807E-2,8.829127E-2,4.639645E-2,-1.1796824E-1,1.23931214E-1,2.1243112E-2,-1.3624375E-1,-1.4358656E-2],"split_indices":[8,30,0,16,33,0,17,0,0,2147483647,2147483647,2147483647,2147483647],"split_type":[0,0,0,0,0,0,0,0,0,0,0,0,0],"sum_hessian":[1.6254185E1,1.3373253E1,2.8809314E0,4.8319745E0,8.541279E0,1.1597779E0,3.6721966E0,1.2071031E0,7.3341756E0,1.8437479E0,1.8284487E0,5.96674E0,1.3674356E0],"tree_param":{"num_deleted":"4","num_feature":"34","num_nodes":"13","size_leaf_vector":"0"}},{"base_weights":[1.170367E-2,-1.9021492E-1,8.2918E-2,1.2424057E-1,-3.6745024E-1,2.3922811E-1,-1.3122544E-1,3.782436E-1,-1.9778946E-1,-7.60395E-2,-4.347062E-1,-2.7860218E-1,3.176006E-1,-3.1297553E-1,2.4262199E-1,4.5699528E-1,6.841318E-2,-4.3625098E-1,1.1071519E-2,3.3934012E-1,2.6551338E-2],"categories":[],"categories_nodes":[],"categories_segments":[],"categories_sizes":[],"default_left":[true,true,true,true,true,true,true,false,false,true,true,false,true,true,true,false,false,false,false,true,true],"id":36,"left_children":[1,3,5,7,-1,11,13,-1,-1,-1,-1,-1,15,17,-1,-1,-1,-1,-1,-1,-1],"loss_changes":[3.7617373E-1,4.2677644E-1,6.749113E-1,3.3756867E-1,5.7613194E-2,5.5387527E-1,6.7099035E-1,0E0,0E0,0E0,0E0,0E0,3.3093286E-1,2.5767475E-1,6.26318E-2,0E0,0E0,0E0,0E0,0E0,0E0],"parents":[2147483647,0,0,1,1,2,2,3,3,4,4,5,5,6,6,12,12,13,13,14,14],"right_children":[2,4,6,8,-1,12,14,-1,-1,-1,-1,-1,16,18,-1,-1,-1,-1,-1,-1,-1],"split_conditions":[4.414156E-1,3.2909918E-1,5.753031E-1,6.9043726E-1,-1.1023507E-1,4.0611792E-1,6.653302E-1,1.1347308E-1,-5.933684E-2,-2.281185E-2,-1.3041186E-1,-8.358066E-2,3.4479782E-1,4.4966435E-1,7.27866E-2,1.370986E-1,2.0523956E-2,-1.308753E-1,3.3214558E-3,1.0180204E-1,7.965402E-3],"split_indices":[11,23,7,30,9,14,17,0,0,2147483647,2147483647,0,6,12,8,0,0,0,0,2147483647,2147483647],"split_type":[0,0,0,0,0,0,0,0,0,0,0,0,0,0,0,0,0,0,0,0,0],"sum_hessian":[2.4063564E1,5.8384404E0,1.8225124E1,2.2123103E0,3.62613E0,1.0467456E1,7.7576685E0,1.1391999E0,1.0731105E0,1.0794824E0,2.5466475E0,1.040134E0,9.427322E0,5.329499E0,2.4281697E0,5.510707E0,3.9166152E0,3.6099336E0,1.7195653E0,1.2832516E0,1.1449181E0],"tree_param":{"num_deleted":"4","num_feature":"34","num_nodes":"21","size_leaf_vector":"0"}},{"base_weights":[2.7167597E-3,1.5824135E-1,-1.5067624E-1,-2.0026584E-1,2.7329075E-1,-4.740815E-1,2.9497496E-3,-3.565401E-1,6.627951E-2,3.8312808E-1,-1.0981988E-1,1.7395952E-1,-3.6205086E-1,4.8070678E-1,-1.05431736E-1,2.937702E-1,-8.020026E-2],"categories":[],"categories_nodes":[],"categories_segments":[],"categories_sizes":[],"default_left":[true,true,true,true,true,false,true,true,true,true,false,true,false,false,false,true,true],"id":37,"left_children":[1,3,5,-1,9,-1,11,-1,-1,13,-1,-1,-1,-1,-1,-1,-1],"loss_changes":[5.508214E-1,5.272598E-1,5.7937896E-1,1.6360578E-1,4.248315E-1,0E0,6.1729956E-1,0E0,0E0,3.9831364E-1,0E0,2.2827664E-1,0E0,0E0,0E0,0E0,0E0],"parents":[2147483647,0,0,1,1,2,2,3,3,4,4,6,6,9,9,11,11],"right_children":[2,4,6,-1,10,-1,12,-1,-1,14,-1,-1,-1,-1,-1,-1,-1],"split_conditions":[4.5795223E-1,5.175725E-1,4.007956E-1,-6.0079753E-2,5.411167E-1,-1.4222445E-1,4.4911122E-1,-1.0696204E-1,1.9883852E-2,6.3454187E-1,-3.2945964E-2,5.218786E-2,-1.08615264E-1,1.4421204E-1,-3.162952E-2,8.813106E-2,-2.406008E-2],"split_indices":[14,26,10,18,24,0,0,2147483647,2147483647,21,0,18,0,0,0,2147483647,2147483647],"split_type":[0,0,0,0,0,0,0,0,0,0,0,0,0,0,0,0,0],"sum_hessian":[2.1089613E1,1.045635E1,1.0633262E1,2.3603947E0,8.095956E0,2.7526286E0,7.880634E0,1.2751477E0,1.085247E0,6.2920012E0,1.8039544E0,5.722794E0,2.1578393E0,5.2579246E0,1.0340769E0,3.783437E0,1.9393572E0],"tree_param":{"num_deleted":"4","num_feature":"34","num_nodes":"17","size_leaf_vector":"0"}},{"base_weights":[-2.260065E-2,-3.0558214E-1,1.4107774E-1,6.061787E-2,-4.2407593E-1,3.4355307E-1,-4.0121637E-3,5.908059E-2,4.217138E-1,-1.7754224E-1,3.380344E-1,1.961173E-1,-3.078086E-1],"categories":[],"categories_nodes":[],"categories_segments":[],"categories_sizes":[],"default_left":[true,true,true,false,false,true,true,true,true,true,false,false,false],"id":38,"left_children":[1,3,5,-1,-1,-1,9,-1,-1,11,-1,-1,-1],"loss_changes":[7.6726645E-1,2.880177E-1,3.1246328E-1,0E0,0E0,7.362932E-2,4.8484093E-1,0E0,0E0,3.234074E-1,0E0,0E0,0E0],"parents":[2147483647,0,0,1,1,2,2,5,5,6,6,9,9],"right_children":[2,4,6,-1,-1,-1,10,-1,-1,12,-1,-1,-1],"split_conditions":[3.4490287E-1,5.806148E-1,4.1622174E-1,1.8185362E-2,-1.2722279E-1,1.0306592E-1,5.051527E-1,1.7724177E-2,1.2651415E-1,3.7809497E-1,1.0141032E-1,5.883519E-2,-9.2342585E-2],"split_indices":[6,30,17,0,0,29,6,2147483647,2147483647,0,0,0,0],"split_type":[0,0,0,0,0,0,0,0,0,0,0,0,0],"sum_hessian":[1.4634447E1,5.0450892E0,9.589357E0,1.3527874E0,3.6923018E0,3.4320345E0,6.1573234E0,1.118187E0,2.3138475E0,4.403992E0,1.753331E0,1.0077696E0,3.3962228E0],"tree_param":{"num_deleted":"2","num_feature":"34","num_nodes":"13","size_leaf_vector":"0"}},{"base_weights":[1.2030441E-2,-6.7504704E-2,1.7852001E-1,-1.3448846E-1,3.896397E-1,4.3160114E-1,8.284504E-3,4.49408E-2,-3.0798596E-1,-1.7543991E-1,1.9628152E-1,2.0092323E-1,-3.029268E-1,-3.9094588E-1,7.3078595E-2,7.715842E-2,-3.1968558E-1,3.161507E-1,-7.921594E-3],"categories":[],"categories_nodes":[],"categories_segments":[],"categories_sizes":[],"default_left":[true,true,true,true,false,false,true,true,true,true,true,false,false,false,false,true,true,true,true],"id":39,"left_children":[1,3,5,7,-1,-1,-1,11,13,-1,-1,-1,-1,-1,-1,-1,-1,-1,-1],"loss_changes":[3.1623524E-1,5.506378E-1,3.281948E-1,4.787722E-1,0E0,0E0,2.2866692E-1,5.065994E-1,2.7263188E-1,1.475318E-1,8.2090184E-2,0E0,0E0,0E0,0E0,0E0,0E0,0E0,0E0],"parents":[2147483647,0,0,1,1,2,2,3,3,6,6,7,7,8,8,9,9,10,10],"right_children":[2,4,6,8,-1,-1,-1,12,14,-1,-1,-1,-1,-1,-1,-1,-1,-1,-1],"split_conditions":[6.1499596E-1,6.17632E-1,5.769243E-1,4.9001664E-1,1.1689191E-1,1.2948035E-1,2.4853512E-3,5.515399E-1,5.721056E-1,-5.2631974E-2,5.888446E-2,6.0276974E-2,-9.087805E-2,-1.1728377E-1,2.192358E-2,2.3147527E-2,-9.590568E-2,9.484521E-2,-2.3764784E-3],"split_indices":[27,25,33,1,0,0,3,31,31,2147483647,2147483647,0,0,0,0,2147483647,2147483647,2147483647,2147483647],"split_type":[0,0,0,0,0,0,0,0,0,0,0,0,0,0,0,0,0,0,0],"sum_hessian":[2.1971571E1,1.5270913E1,6.700657E0,1.3934891E1,1.3360227E0,2.0772254E0,4.6234317E0,7.2146006E0,6.72029E0,2.3720677E0,2.2513638E0,5.27274E0,1.9418608E0,5.497519E0,1.2227715E0,1.0312558E0,1.3408118E0,1.07318E0,1.1781838E0],"tree_param":{"num_deleted":"6","num_feature":"34","num_nodes":"19","size_leaf_vector":"0"}},{"base_weights":[4.915935E-5,5.7452172E-2,-3.5039508E-1,-1.726437E-1,1.6097744E-1,1.343415E-1,-4.1765654E-1,2.437677E-1,-1.1325714E-1,-2.0704227E-2,2.4835858E-1,-1.00652725E-1,3.5604283E-1,-3.4798852E-1,2.4890715E-1],"categories":[],"categories_nodes":[],"categories_segments":[],"categories_sizes":[],"default_left":[true,true,false,true,true,true,false,true,true,true,true,false,false,false,false],"id":40,"left_children":[1,3,-1,5,7,-1,-1,11,13,-1,-1,-1,-1,-1,-1],"loss_changes":[4.249537E-1,4.6015325E-1,0E0,5.1603526E-1,3.2357335E-1,6.6497944E-2,0E0,4.353035E-1,4.0163872E-1,0E0,0E0,0E0,0E0,0E0,0E0],"parents":[2147483647,0,0,1,1,3,3,4,4,5,5,7,7,8,8],"right_children":[2,4,-1,6,8,-1,-1,12,14,-1,-1,-1,-1,-1,-1],"split_conditions":[5.444856E-1,5.5202115E-1,-1.0511853E-1,4.511262E-1,5.9650993E-1,4.0302448E-2,-1.2529697E-1,6.4948744E-1,7.4151444E-1,-6.2112682E-3,7.450758E-2,-3.019582E-2,1.0681286E-1,-1.0439656E-1,7.467215E-2],"split_indices":[14,28,0,24,22,30,0,30,28,2147483647,2147483647,0,0,0,0],"split_type":[0,0,0,0,0,0,0,0,0,0,0,0,0,0,0],"sum_hessian":[1.9123861E1,1.7150635E1,1.973227E0,5.1148005E0,1.2035834E1,2.4707754E0,2.644025E0,9.330188E0,2.7056463E0,1.3938137E0,1.0769615E0,2.3192048E0,7.0109835E0,1.6653903E0,1.040256E0],"tree_param":{"num_deleted":"2","num_feature":"34","num_nodes":"15","size_leaf_vector":"0"}},{"base_weights":[-1.9669006E-2,-1.530895E-1,2.7411735E-1,2.5505418E-1,-2.5293833E-1,3.7588432E-1,3.060086E-3,-3.4514564E-1,1.3302544E-1,3.8993336E-2,-4.4135433E-1],"categories":[],"categories_nodes":[],"categories_segments":[],"categories_sizes":[],"default_left":[true,true,true,false,true,true,true,true,false,false,false],"id":41,"left_children":[1,3,-1,-1,7,-1,-1,9,-1,-1,-1],"loss_changes":[5.946726E-1,4.858384E-1,1.3021168E-1,0E0,3.5939866E-1,0E0,0E0,2.902586E-1,0E0,0E0,0E0],"parents":[2147483647,0,0,1,1,2,2,4,4,7,7],"right_children":[2,4,-1,-1,8,-1,-1,10,-1,-1,-1],"split_conditions":[4.428383E-1,4.53169E-1,8.223521E-2,7.6516256E-2,7.516888E-1,1.12765305E-1,9.180258E-4,4.8146045E-1,3.9907634E-2,1.1698001E-2,-1.3240631E-1],"split_indices":[6,28,32,0,15,2147483647,2147483647,26,0,0,0],"split_type":[0,0,0,0,0,0,0,0,0,0,0],"sum_hessian":[1.3100733E1,9.338599E0,3.7621338E0,1.5300281E0,7.8085713E0,2.454043E0,1.3080909E0,6.388181E0,1.4203898E0,1.3985994E0,4.989582E0],"tree_param":{"num_deleted":"2","num_feature":"34","num_nodes":"11","size_leaf_vector":"0"}},{"base_weights":[1.6595008E-2,-2.7848972E-2,2.7828032E-1,5.938099E-2,-2.2433509E-1,-1.4738323E-1,1.8310353E-1,-3.7256962E-1,1.7856787E-1,1.2059825E-1,-3.0911955E-1,-9.65472E-2,2.9660198E-1],"categories":[],"categories_nodes":[],"categories_segments":[],"categories_sizes":[],"default_left":[true,true,false,true,true,true,true,false,false,false,false,false,false],"id":42,"left_children":[1,3,-1,5,7,9,11,-1,-1,-1,-1,-1,-1],"loss_changes":[2.538677E-1,3.389452E-1,0E0,3.837957E-1,4.2788848E-1,2.8761077E-1,3.197649E-1,0E0,0E0,0E0,0E0,0E0,0E0],"parents":[2147483647,0,0,1,1,3,3,4,4,5,5,6,6],"right_children":[2,4,-1,6,8,10,12,-1,-1,-1,-1,-1,-1],"split_conditions":[7.1027523E-1,5.753031E-1,8.34841E-2,4.414156E-1,5.941808E-1,3.2909918E-1,4.9785477E-1,-1.1177089E-1,5.3570364E-2,3.6179475E-2,-9.273587E-2,-2.8964162E-2,8.89806E-2],"split_indices":[25,7,0,11,24,23,24,0,0,0,0,0,0],"split_type":[0,0,0,0,0,0,0,0,0,0,0,0,0],"sum_hessian":[2.0161716E1,1.7998478E1,2.1632385E0,1.2948002E1,5.050477E0,4.77568E0,8.172321E0,3.7471328E0,1.303344E0,1.8931937E0,2.8824863E0,2.4023883E0,5.769933E0],"tree_param":{"num_deleted":"0","num_feature":"34","num_nodes":"13","size_leaf_vector":"0"}},{"base_weights":[-4.6144025E-3,3.189885E-1,-6.0428683E-2,-2.5360507E-1,2.9710846E-2,2.6349772E-2,-4.0218353E-1,2.0697145E-1,-1.1898663E-1,-1.3601537E-1,3.5091054E-1,-3.283685E-1,6.570338E-2],"categories":[],"categories_nodes":[],"categories_segments":[],"categories_sizes":[],"default_left":[true,false,true,true,true,true,true,true,true,false,false,false,false],"id":43,"left_children":[1,-1,3,-1,7,-1,-1,9,11,-1,-1,-1,-1],"loss_changes":[3.5140148E-1,0E0,2.9526645E-1,2.3363817E-1,3.45194E-1,0E0,0E0,3.3965662E-1,3.0189154E-1,0E0,0E0,0E0,0E0],"parents":[2147483647,0,0,2,2,3,3,4,4,7,7,8,8],"right_children":[2,-1,4,-1,8,-1,-1,10,12,-1,-1,-1,-1],"split_conditions":[3.1692034E-1,9.569655E-2,5.5202115E-1,-7.608152E-2,5.198021E-1,7.904932E-3,-1.2065507E-1,2.9767084E-1,6.419846E-1,-4.0804613E-2,1.05273165E-1,-9.8510556E-2,1.9711014E-2],"split_indices":[10,0,28,24,20,2147483647,2147483647,8,28,0,0,0,0],"split_type":[0,0,0,0,0,0,0,0,0,0,0,0,0],"sum_hessian":[1.7388418E1,1.864301E0,1.55241165E1,4.362166E0,1.1161951E1,1.7976494E0,2.5645165E0,4.913147E0,6.248804E0,1.4686373E0,3.4445095E0,2.5640326E0,3.6847715E0],"tree_param":{"num_deleted":"2","num_feature":"34","num_nodes":"13","size_leaf_vector":"0"}},{"base_weights":[-2.0889208E-2,-2.7766514E-1,1.20071135E-1,3.5642512E-2,-3.8494122E-1,3.0528703E-1,-1.6595088E-2,3.6721832E-1,8.13066E-2,2.7135575E-1,-1.8805933E-1,1.1343438E-1,-3.327326E-1],"categories":[],"categories_nodes":[],"categories_segments":[],"categories_sizes":[],"default_left":[true,true,true,true,true,true,true,true,true,false,true,true,true],"id":44,"left_children":[1,-1,5,-1,-1,-1,9,-1,-1,-1,-1,-1,-1],"loss_changes":[4.9481153E-1,1.7573601E-1,2.31087E-1,0E0,0E0,2.3446709E-2,3.5153636E-1,0E0,0E0,0E0,2.2990146E-1,0E0,0E0],"parents":[2147483647,0,0,1,1,2,2,5,5,6,6,10,10],"right_children":[2,-1,6,-1,-1,-1,10,-1,-1,-1,-1,-1,-1],"split_conditions":[3.4490287E-1,-8.329955E-2,4.1622174E-1,1.0692754E-2,-1.1548237E-1,9.158611E-2,4.607585E-1,1.101655E-1,2.439198E-2,8.140673E-2,-5.64178E-2,3.4030315E-2,-9.981978E-2],"split_indices":[6,30,17,2147483647,2147483647,30,31,2147483647,2147483647,0,26,2147483647,2147483647],"split_type":[0,0,0,0,0,0,0,0,0,0,0,0,0],"sum_hessian":[1.1749526E1,3.820402E0,7.929124E0,1.1447692E0,2.6756327E0,2.842726E0,5.086398E0,1.7259771E0,1.1167488E0,1.6809283E0,3.4054697E0,1.1742674E0,2.2312021E0],"tree_param":{"num_deleted":"6","num_feature":"34","num_nodes":"13","size_leaf_vector":"0"}},{"base_weights":[1.4627556E-2,-2.9521453E-1,5.0747424E-2,-2.7305523E-1,8.553116E-2,2.0737962E-1,-8.620588E-3,2.0477884E-2,3.8170943E-1,-2.4986264E-1,2.1974294E-1],"categories":[],"categories_nodes":[],"categories_segments":[],"categories_sizes":[],"default_left":[true,false,true,false,true,true,true,true,true,false,false],"id":45,"left_children":[1,-1,3,-1,5,-1,9,-1,-1,-1,-1],"loss_changes":[2.3720045E-1,0E0,2.3325759E-1,0E0,2.0358555E-1,2.4330378E-1,6.544532E-1,0E0,0E0,0E0,0E0],"parents":[2147483647,0,0,2,2,4,4,5,5,6,6],"right_children":[2,-1,4,-1,6,-1,10,-1,-1,-1,-1],"split_conditions":[2.505558E-1,-8.8564366E-2,4.53169E-1,-8.191657E-2,4.6483392E-1,6.221389E-2,5.3783405E-1,6.1433655E-3,1.1451283E-1,-7.4958794E-2,6.5922886E-2],"split_indices":[31,0,28,0,29,27,21,2147483647,2147483647,0,0],"split_type":[0,0,0,0,0,0,0,0,0,0,0],"sum_hessian":[1.8856136E1,1.2197483E0,1.7636389E1,1.0462973E0,1.6590092E1,6.7072077E0,9.882884E0,3.776176E0,2.9310317E0,4.7601457E0,5.122738E0],"tree_param":{"num_deleted":"2","num_feature":"34","num_nodes":"11","size_leaf_vector":"0"}},{"base_weights":[-2.8162892E-3,4.8610125E-2,-3.1543803E-1,-1.5012266E-1,1.4235818E-1,1.3681287E-1,-3.882034E-1,3.3230442E-1,5.4543023E-3,-1.3775136E-2,2.1444318E-1,3.8973874E-1,7.769668E-2,-3.4793764E-1,1.9525889E-1],"categories":[],"categories_nodes":[],"categories_segments":[],"categories_sizes":[],"default_left":[true,true,false,true,true,true,false,true,true,true,true,true,true,false,false],"id":46,"left_children":[1,3,-1,5,7,-1,-1,-1,13,-1,-1,-1,-1,-1,-1],"loss_changes":[2.923048E-1,3.1314117E-1,0E0,4.2927307E-1,2.8824645E-1,4.0788207E-2,0E0,3.7794948E-2,5.709282E-1,0E0,0E0,0E0,0E0,0E0,0E0],"parents":[2147483647,0,0,1,1,3,3,4,4,5,5,7,7,8,8],"right_children":[2,4,-1,6,8,-1,-1,-1,14,-1,-1,-1,-1,-1,-1],"split_conditions":[4.8100972E-1,5.5202115E-1,-9.463141E-2,4.511262E-1,5.209565E-1,4.1043863E-2,-1.1646103E-1,9.969133E-2,4.6533605E-1,-4.132541E-3,6.4332955E-2,1.16921626E-1,2.3309005E-2,-1.043813E-1,5.8577668E-2],"split_indices":[12,28,0,24,27,22,0,16,29,2147483647,2147483647,2147483647,2147483647,0,0],"split_type":[0,0,0,0,0,0,0,0,0,0,0,0,0,0,0],"sum_hessian":[1.6227783E1,1.4660614E1,1.5671694E0,4.506379E0,1.0154235E1,2.236407E0,2.269972E0,3.6553566E0,6.498878E0,1.0405306E0,1.1958764E0,2.5494993E0,1.1058574E0,1.9797324E0,4.5191455E0],"tree_param":{"num_deleted":"4","num_feature":"34","num_nodes":"15","size_leaf_vector":"0"}},{"base_weights":[-2.0496814E-2,-2.5711066E-1,1.09481305E-1,4.5097455E-2,-3.695362E-1,2.1188682E-1,-8.698689E-2,2.1336714E-2,3.6375055E-1,1.187509E-1,-2.2361504E-1,-2.1033223E-1,2.3613663E-1],"categories":[],"categories_nodes":[],"categories_segments":[],"categories_sizes":[],"default_left":[true,true,true,true,true,true,true,true,true,true,true,true,true],"id":47,"left_children":[1,-1,-1,-1,-1,-1,-1,-1,-1,-1,-1,-1,-1],"loss_changes":[3.911529E-1,1.6899881E-1,1.8581817E-1,0E0,0E0,1.5892181E-1,1.2661284E-1,2.29656E-1,0E0,0E0,0E0,0E0,0E0],"parents":[2147483647,0,0,1,1,2,2,5,5,6,6,7,7],"right_children":[2,-1,-1,-1,-1,-1,-1,-1,-1,-1,-1,-1,-1],"split_conditions":[3.4490287E-1,-7.71332E-2,3.2844394E-2,1.3529237E-2,-1.1086086E-1,6.356605E-2,-2.6096068E-2,6.4010145E-3,1.0912517E-1,3.562527E-2,-6.708451E-2,-6.3099675E-2,7.084099E-2],"split_indices":[6,30,28,2147483647,2147483647,2147483647,2147483647,2147483647,2147483647,2147483647,2147483647,2147483647,2147483647],"split_type":[0,0,0,0,0,0,0,0,0,0,0,0,0],"sum_hessian":[1.0803238E1,3.4835787E0,7.3196588E0,1.1069319E0,2.3766468E0,4.7600756E0,2.5595832E0,2.6169598E0,2.143116E0,1.073671E0,1.4859123E0,1.2690481E0,1.3479117E0],"tree_param":{"num_deleted":"10","num_feature":"34","num_nodes":"13","size_leaf_vector":"0"}},{"base_weights":[1.3139302E-2,-5.351459E-2,1.7622033E-1,-1.252252E-1,2.2344883E-1,2.8534123E-1,-1.5934435E-1,2.6065087E-2,-2.7827212E-1,3.3537856E-1,-1.0770656E-2,1.0370733E-1,3.7710288E-1,1.5426019E-1,-2.4662906E-1,-3.4490344E-1,1.6649468E-2],"categories":[],"categories_nodes":[],"categories_segments":[],"categories_sizes":[],"default_left":[true,true,true,true,true,true,false,true,true,true,true,true,true,false,false,true,true],"id":48,"left_children":[1,3,5,7,-1,-1,-1,13,-1,-1,-1,-1,-1,-1,-1,-1,-1],"loss_changes":[2.1423349E-1,3.0885398E-1,2.5416315E-1,2.8219283E-1,8.927694E-2,3.8546026E-2,0E0,2.7875525E-1,1.2342134E-1,0E0,0E0,0E0,0E0,0E0,0E0,0E0,0E0],"parents":[2147483647,0,0,1,1,2,2,3,3,4,4,5,5,7,7,8,8],"right_children":[2,4,6,8,-1,-1,-1,14,-1,-1,-1,-1,-1,-1,-1,-1,-1],"split_conditions":[5.9542483E-1,6.1499596E-1,7.253056E-1,4.9001664E-1,6.7034654E-2,8.560237E-2,-4.7803305E-2,5.515399E-1,-8.348164E-2,1.0061357E-1,-3.231197E-3,3.11122E-2,1.1313087E-1,4.627806E-2,-7.398872E-2,-1.0347103E-1,4.9948404E-3],"split_indices":[25,27,27,1,8,25,0,31,31,2147483647,2147483647,2147483647,2147483647,0,0,2147483647,2147483647],"split_type":[0,0,0,0,0,0,0,0,0,0,0,0,0,0,0,0,0],"sum_hessian":[1.7841162E1,1.3141761E1,4.6994004E0,1.08741255E1,2.267635E0,3.6591613E0,1.0402392E0,5.8856864E0,4.988439E0,1.2421385E0,1.0254965E0,1.9431176E0,1.7160437E0,4.2990084E0,1.586678E0,3.9308677E0,1.0575716E0],"tree_param":{"num_deleted":"6","num_feature":"34","num_nodes":"17","size_leaf_vector":"0"}},{"base_weights":[-6.0644705E-4,1.2720752E-1,-1.2356636E-1,2.7232987E-1,-9.39165E-2,-3.9363834E-1,1.1163455E-2,-4.846185E-2,3.8501808E-1,-3.0963072E-1,1.491741E-1,1.4901438E-1,-3.047195E-1,2.6654348E-1,-9.744222E-2],"categories":[],"categories_nodes":[],"categories_segments":[],"categories_sizes":[],"default_left":[true,true,true,true,true,false,true,true,true,false,false,true,false,true,true],"id":49,"left_children":[1,3,5,-1,9,-1,11,-1,-1,-1,-1,-1,-1,-1,-1],"loss_changes":[2.7042714E-1,2.9639596E-1,3.2341868E-1,2.121219E-1,2.6053518E-1,0E0,3.4246588E-1,0E0,0E0,0E0,0E0,1.8299328E-1,0E0,0E0,0E0],"parents":[2147483647,0,0,1,1,2,2,3,3,4,4,6,6,11,11],"right_children":[2,4,6,-1,10,-1,12,-1,-1,-1,-1,-1,-1,-1,-1],"split_conditions":[4.5795223E-1,5.594634E-1,4.007956E-1,8.169896E-2,5.0591886E-1,-1.1809151E-1,4.4911122E-1,-1.4538555E-2,1.1550543E-1,-9.288922E-2,4.475223E-2,4.4704318E-2,-9.141585E-2,7.996304E-2,-2.9232666E-2],"split_indices":[14,31,10,28,5,0,0,2147483647,2147483647,0,0,18,0,2147483647,2147483647],"split_type":[0,0,0,0,0,0,0,0,0,0,0,0,0,0,0],"sum_hessian":[1.52069645E1,7.4393687E0,7.7675953E0,4.351763E0,3.0876062E0,1.9456884E0,5.821907E0,1.2794565E0,3.0723062E0,1.4908907E0,1.5967155E0,4.420895E0,1.4010122E0,2.9382248E0,1.4826701E0],"tree_param":{"num_deleted":"4","num_feature":"34","num_nodes":"15","size_leaf_vector":"0"}},{"base_weights":[-2.1277312E-2,1.820309E-1,-1.6920415E-1,-8.967587E-2,3.2205296E-1,-2.6870558E-1,1.7816977E-1,-3.6010802E-1,-1.6971357E-2],"categories":[],"categories_nodes":[],"categories_segments":[],"categories_sizes":[],"default_left":[true,true,true,true,true,true,false,true,true],"id":50,"left_children":[1,-1,5,-1,-1,-1,-1,-1,-1],"loss_changes":[3.6682546E-1,2.2623406E-1,2.8932747E-1,0E0,0E0,1.2800631E-1,0E0,0E0,0E0],"parents":[2147483647,0,0,1,1,2,2,5,5],"right_children":[2,-1,6,-1,-1,-1,-1,-1,-1],"split_conditions":[5.955123E-1,5.4609273E-2,5.8591014E-1,-2.6902763E-2,9.661589E-2,-8.0611676E-2,5.3450935E-2,-1.0803241E-1,-5.0914073E-3],"split_indices":[30,16,14,2147483647,2147483647,22,0,2147483647,2147483647],"split_type":[0,0,0,0,0,0,0,0,0],"sum_hessian":[1.0173E1,4.1873827E0,5.9856176E0,1.5463384E0,2.6410444E0,4.8288984E0,1.1567187E0,3.2267761E0,1.6021224E0],"tree_param":{"num_deleted":"4","num_feature":"34","num_nodes":"9","size_leaf_vector":"0"}},{"base_weights":[1.4062983E-2,-2.7423584E-1,4.786469E-2,-1.7523859E-2,2.1189485E-1,1.322927E-1,-2.0862782E-1,-1.5350139E-1,3.4905085E-1,-3.68306E-4,3.8391292E-1,-2.8418672E-1,8.653942E-2],"categories":[],"categories_nodes":[],"categories_segments":[],"categories_sizes":[],"default_left":[true,false,true,true,true,true,true,false,false,false,false,true,true],"id":51,"left_children":[1,-1,3,5,7,9,-1,-1,-1,-1,-1,-1,-1],"loss_changes":[1.866795E-1,0E0,1.8381831E-1,3.9777955E-1,2.972648E-1,2.6249778E-1,1.5996727E-1,0E0,0E0,0E0,0E0,0E0,0E0],"parents":[2147483647,0,0,2,2,3,3,4,4,5,5,6,6],"right_children":[2,-1,4,6,8,10,-1,-1,-1,-1,-1,-1,-1],"split_conditions":[2.0583464E-1,-8.227076E-2,5.942604E-1,3.4437516E-1,6.3474894E-1,4.5892757E-1,-6.258835E-2,-4.605042E-2,1.0471526E-1,-1.10491805E-4,1.15173884E-1,-8.525602E-2,2.5961826E-2],"split_indices":[29,0,24,6,30,14,25,0,0,0,0,2147483647,2147483647],"split_type":[0,0,0,0,0,0,0,0,0,0,0,0,0],"sum_hessian":[1.6809484E1,1.0175554E0,1.5791929E1,1.1929538E1,3.862392E0,6.859643E0,5.0698943E0,1.0215949E0,2.8407972E0,5.14539E0,1.7142531E0,4.0662017E0,1.0036929E0],"tree_param":{"num_deleted":"2","num_feature":"34","num_nodes":"13","size_leaf_vector":"0"}},{"base_weights":[-4.8594186E-3,2.6001477E-1,-6.2421303E-2,-2.5992125E-1,3.7530772E-2,3.5107527E-2,-3.8196802E-1,1.3466507E-1,-2.0454943E-1,-1.8991001E-1,2.3542714E-1,-9.554093E-3,-2.9153153E-1],"categories":[],"categories_nodes":[],"categories_segments":[],"categories_sizes":[],"default_left":[true,false,true,true,true,true,true,true,true,false,false,true,true],"id":52,"left_children":[1,-1,3,-1,7,-1,-1,9,-1,-1,-1,-1,-1],"loss_changes":[2.4883969E-1,0E0,2.730782E-1,1.7935029E-1,2.5635606E-1,0E0,0E0,2.9154378E-1,5.1208362E-2,0E0,0E0,0E0,0E0],"parents":[2147483647,0,0,2,2,3,3,4,4,7,7,8,8],"right_children":[2,-1,4,-1,8,-1,-1,10,-1,-1,-1,-1,-1],"split_conditions":[2.7755964E-1,7.8004435E-2,5.5202115E-1,-7.7976376E-2,5.6910414E-1,1.0532258E-2,-1.14590414E-1,2.9767084E-1,-6.1364833E-2,-5.6973007E-2,7.0628144E-2,-2.8662279E-3,-8.745946E-2],"split_indices":[8,0,28,22,18,2147483647,2147483647,8,19,0,0,2147483647,2147483647],"split_type":[0,0,0,0,0,0,0,0,0,0,0,0,0],"sum_hessian":[1.4256409E1,1.9171952E0,1.2339213E1,3.6085176E0,8.730696E0,1.2643925E0,2.344125E0,6.5473137E0,2.1833823E0,1.3414603E0,5.2058535E0,1.0158663E0,1.1675161E0],"tree_param":{"num_deleted":"4","num_feature":"34","num_nodes":"13","size_leaf_vector":"0"}},{"base_weights":[-1.6781121E-2,-1.2892972E-1,2.1169034E-1,-3.2404494E-1,9.258836E-2,3.3002636E-1,-3.7161447E-2,-1.0118976E-1,-3.6325034E-1,2.5434083E-1,-1.05609804E-1],"categories":[],"categories_nodes":[],"categories_segments":[],"categories_sizes":[],"default_left":[true,true,true,true,true,true,true,true,true,true,true],"id":53,"left_children":[1,3,-1,-1,-1,-1,-1,-1,-1,-1,-1],"loss_changes":[2.9650864E-1,3.614688E-1,1.2528299E-1,8.100867E-4,1.669355E-1,0E0,0E0,0E0,0E0,0E0,0E0],"parents":[2147483647,0,0,1,1,2,2,3,3,4,4],"right_children":[2,4,-1,-1,-1,-1,-1,-1,-1,-1,-1],"split_conditions":[4.376935E-1,6.052834E-1,6.35071E-2,-9.7213484E-2,2.7776508E-2,9.900791E-2,-1.1148434E-2,-3.035693E-2,-1.08975105E-1,7.630225E-2,-3.1682942E-2],"split_indices":[8,19,32,29,30,2147483647,2147483647,2147483647,2147483647,2147483647,2147483647],"split_type":[0,0,0,0,0,0,0,0,0,0,0],"sum_hessian":[9.50689E0,6.668999E0,2.8378913E0,3.299729E0,3.36927E0,1.7022345E0,1.1356568E0,1.0293893E0,2.2703397E0,1.6992342E0,1.6700358E0],"tree_param":{"num_deleted":"6","num_feature":"34","num_nodes":"11","size_leaf_vector":"0"}},{"base_weights":[1.5869847E-2,-2.5970612E-2,2.3824932E-1,-1.5131062E-1,9.1504954E-2,1.591867E-1,-2.3372708E-1,-1.6493618E-1,1.7535631E-1,-4.1757774E-2,-3.4833702E-1,2.8886855E-1,-8.2124814E-2],"categories":[],"categories_nodes":[],"categories_segments":[],"categories_sizes":[],"default_left":[true,true,true,true,true,true,true,true,true,true,true,true,true],"id":54,"left_children":[-1,-1,-1,-1,-1,-1,-1,-1,-1,-1,-1,-1,-1],"loss_changes":[1.6271834E-1,2.3560798E-1,0E0,2.3331314E-1,2.094934E-1,0E0,1.2760836E-1,0E0,2.2284739E-1,0E0,0E0,0E0,0E0],"parents":[2147483647,0,0,1,1,3,3,4,4,6,6,8,8],"right_children":[-1,-1,-1,-1,-1,-1,-1,-1,-1,-1,-1,-1,-1],"split_conditions":[4.760954E-3,-7.791184E-3,7.14748E-2,-4.5393188E-2,2.7451487E-2,4.7756013E-2,-7.011813E-2,-4.948086E-2,5.2606896E-2,-1.2527333E-2,-1.0450111E-1,8.6660564E-2,-2.4637446E-2],"split_indices":[25,2147483647,2147483647,2147483647,2147483647,2147483647,2147483647,2147483647,2147483647,2147483647,2147483647,2147483647,2147483647],"split_type":[0,0,0,0,0,0,0,0,0,0,0,0,0],"sum_hessian":[1.5823211E1,1.4060885E1,1.7623256E0,6.663392E0,7.397493E0,1.2023069E0,5.4610853E0,1.5845338E0,5.8129587E0,2.551583E0,2.9095025E0,3.9497736E0,1.8631853E0],"tree_param":{"num_deleted":"12","num_feature":"34","num_nodes":"13","size_leaf_vector":"0"}},{"base_weights":[-5.5969623E-3,2.4367268E-1,-5.9769426E-2,-2.4079701E-1,3.41026E-2,5.195582E-2,-3.7127906E-1,1.02534436E-1,-2.5948155E-1,-7.330378E-2,2.3732851E-1],"categories":[],"categories_nodes":[],"categories_segments":[],"categories_sizes":[],"default_left":[true,true,true,true,true,true,true,true,true,true,true],"id":55,"left_children":[-1,-1,-1,-1,-1,-1,-1,-1,-1,-1,-1],"loss_changes":[2.081872E-1,0E0,2.2202086E-1,1.8814796E-1,2.1066274E-1,0E0,0E0,2.1048224E-1,0E0,0E0,0E0],"parents":[2147483647,0,0,2,2,3,3,4,4,7,7],"right_children":[-1,-1,-1,-1,-1,-1,-1,-1,-1,-1,-1],"split_conditions":[-1.6790888E-3,7.310181E-2,-1.7930828E-2,-7.223911E-2,1.0230781E-2,1.5586746E-2,-1.1138372E-1,3.0760331E-2,-7.784447E-2,-2.1991136E-2,7.119856E-2],"split_indices":[8,2147483647,2147483647,2147483647,2147483647,2147483647,2147483647,2147483647,2147483647,2147483647,2147483647],"split_type":[0,0,0,0,0,0,0,0,0,0,0],"sum_hessian":[1.3338675E1,1.7568051E0,1.158187E1,3.4204798E0,8.16139E0,1.2400619E0,2.180418E0,7.146382E0,1.0150081E0,3.2990139E0,3.8473678E0],"tree_param":{"num_deleted":"10","num_feature":"34","num_nodes":"11","size_leaf_vector":"0"}},{"base_weights":[-1.8917518E-2,-1.7247926E-1,1.3454539E-1,2.5812352E-2,-3.4248373E-1,2.2104312E-1,-1.114364E-1,-1.7010224E-1,1.9942272E-1,3.2809284E-1,-3.1891808E-2],"categories":[],"categories_nodes":[],"categories_segments":[],"categories_sizes":[],"default_left":[true,true,true,true,true,true,true,true,true,true,true],"id":56,"left_children":[1,-1,-1,-1,-1,-1,-1,-1,-1,-1,-1],"loss_changes":[2.558191E-1,1.899321E-1,1.4162752E-1,1.4989243E-1,0E0,1.2969081E-1,0E0,0E0,0E0,0E0,0E0],"parents":[2147483647,0,0,1,1,2,2,3,3,5,5],"right_children":[2,-1,-1,-1,-1,-1,-1,-1,-1,-1,-1],"split_conditions":[5.05818E-1,-5.174378E-2,4.0363617E-2,7.743706E-3,-1.0274512E-1,6.631294E-2,-3.343092E-2,-5.1030673E-2,5.9826817E-2,9.8427854E-2,-9.567543E-3],"split_indices":[14,28,22,2147483647,2147483647,2147483647,2147483647,2147483647,2147483647,2147483647,2147483647],"split_type":[0,0,0,0,0,0,0,0,0,0,0],"sum_hessian":[8.870684E0,4.3719764E0,4.4987073E0,2.4096038E0,1.9623727E0,3.4033334E0,1.0953737E0,1.1415747E0,1.2680292E0,2.182493E0,1.2208403E0],"tree_param":{"num_deleted":"8","num_feature":"34","num_nodes":"11","size_leaf_vector":"0"}},{"base_weights":[1.3123189E-2,-2.858783E-2,2.3680176E-1,-1.5648521E-1,9.223663E-2,1.508972E-1,-2.3724712E-1,-1.6230701E-1,1.748837E-1,-4.7088526E-2,-3.495581E-1,2.8931293E-1,-8.3786204E-2],"categories":[],"categories_nodes":[],"categories_segments":[],"categories_sizes":[],"default_left":[true,true,true,true,true,true,true,true,true,true,true,true,true],"id":57,"left_children":[-1,-1,-1,-1,-1,-1,-1,-1,-1,-1,-1,-1,-1],"loss_changes":[1.6335344E-1,2.4681136E-1,0E0,2.2635055E-1,2.0429355E-1,0E0,1.2166476E-1,0E0,2.2532696E-1,0E0,0E0,0E0,0E0],"parents":[2147483647,0,0,1,1,3,3,4,4,6,6,8,8],"right_children":[-1,-1,-1,-1,-1,-1,-1,-1,-1,-1,-1,-1,-1],"split_conditions":[3.936957E-3,-8.576349E-3,7.104053E-2,-4.694557E-2,2.767099E-2,4.526916E-2,-7.117414E-2,-4.8692103E-2,5.246511E-2,-1.4126559E-2,-1.0486743E-1,8.6793885E-2,-2.5135862E-2],"split_indices":[25,2147483647,2147483647,2147483647,2147483647,2147483647,2147483647,2147483647,2147483647,2147483647,2147483647,2147483647,2147483647],"split_type":[0,0,0,0,0,0,0,0,0,0,0,0,0],"sum_hessian":[1.5783078E1,1.4037579E1,1.7455E0,6.675819E0,7.361759E0,1.2083561E0,5.467463E0,1.5681565E0,5.7936025E0,2.557135E0,2.9103277E0,3.934578E0,1.8590246E0],"tree_param":{"num_deleted":"12","num_feature":"34","num_nodes":"13","size_leaf_vector":"0"}},{"base_weights":[-4.6120337E-3,2.4255997E-1,-5.8316465E-2,-2.4244498E-1,3.727008E-2,4.885869E-2,-3.712618E-1,-1.2079992E-1,1.6303767E-1,2.1045978E-1,-3.5604918E-1,3.449801E-1,-1.311903E-1],"categories":[],"categories_nodes":[],"categories_segments":[],"categories_sizes":[],"default_left":[true,false,true,true,true,true,true,true,true,false,false,false,false],"id":58,"left_children":[1,-1,3,-1,7,-1,-1,9,11,-1,-1,-1,-1],"loss_changes":[2.0375797E-1,0E0,2.2975668E-1,1.8395364E-1,2.0104133E-1,0E0,0E0,4.3467903E-1,3.3999062E-1,0E0,0E0,0E0,0E0],"parents":[2147483647,0,0,2,2,3,3,4,4,7,7,8,8],"right_children":[2,-1,4,-1,8,-1,-1,10,12,-1,-1,-1,-1],"split_conditions":[2.7755964E-1,7.2767995E-2,5.5202115E-1,-7.27335E-2,4.340638E-1,1.4657608E-2,-1.1137854E-1,5.13466E-1,5.587013E-1,6.313794E-2,-1.0681476E-1,1.0349403E-1,-3.9357092E-2],"split_indices":[8,0,28,22,17,2147483647,2147483647,27,18,0,0,0,0],"split_type":[0,0,0,0,0,0,0,0,0,0,0,0,0],"sum_hessian":[1.3284271E1,1.7434689E0,1.1540802E1,3.4187899E0,8.122012E0,1.2385871E0,2.1802027E0,3.616341E0,4.505671E0,1.5454849E0,2.0708563E0,2.677492E0,1.8281791E0],"tree_param":{"num_deleted":"2","num_feature":"34","num_nodes":"13","size_leaf_vector":"0"}},{"base_weights":[-1.585148E-2,1.5776466E-1,-1.4879517E-1,-9.5469736E-2,2.9533413E-1,1.5101908E-1,-2.4212472E-1,-3.7256858E-1,5.6990914E-2],"categories":[],"categories_nodes":[],"categories_segments":[],"categories_sizes":[],"default_left":[true,true,true,true,true,true,true,true,true],"id":59,"left_children":[-1,-1,-1,-1,-1,-1,-1,-1,-1],"loss_changes":[2.4824889E-1,1.9222933E-1,2.0529015E-1,0E0,0E0,0E0,2.1564102E-1,0E0,0E0],"parents":[2147483647,0,0,1,1,2,2,6,6],"right_children":[-1,-1,-1,-1,-1,-1,-1,-1,-1],"split_conditions":[-4.7554444E-3,4.73294E-2,-4.463855E-2,-2.8640922E-2,8.860024E-2,4.5305725E-2,-7.263742E-2,-1.1177058E-1,1.7097276E-2],"split_indices":[30,2147483647,2147483647,2147483647,2147483647,2147483647,2147483647,2147483647,2147483647],"split_type":[0,0,0,0,0,0,0,0,0],"sum_hessian":[8.738426E0,3.708567E0,5.0298595E0,1.4132034E0,2.2953637E0,1.047314E0,3.9825456E0,2.6021743E0,1.3803712E0],"tree_param":{"num_deleted":"8","num_feature":"34","num_nodes":"9","size_leaf_vector":"0"}},{"base_weights":[1.0393487E-2,-5.1226813E-2,1.7152354E-1,3.002325E-2,-3.1373683E-1,2.6179072E-1,-8.3116435E-2,-1.2073283E-1,1.3049494E-1,6.5524705E-2,3.3939973E-1,1.1763396E-1,-2.687137E-1,-1.1648251E-1,2.3873544E-1],"categories":[],"categories_nodes":[],"categories_segments":[],"categories_sizes":[],"default_left":[true,true,true,true,false,true,true,true,true,true,true,true,true,true,true],"id":60,"left_children":[1,3,-1,-1,-1,-1,-1,-1,-1,-1,-1,-1,-1,-1,-1],"loss_changes":[1.7110644E-1,2.780745E-1,1.3099729E-1,1.7527047E-1,0E0,3.48756E-2,0E0,1.9849537E-1,2.0959795E-1,0E0,0E0,0E0,0E0,0E0,0E0],"parents":[2147483647,0,0,1,1,2,2,3,3,5,5,7,7,8,8],"right_children":[2,4,-1,-1,-1,-1,-1,-1,-1,-1,-1,-1,-1,-1,-1],"split_conditions":[6.291696E-1,5.7376945E-1,5.1457066E-2,9.006975E-3,-9.4121054E-2,7.853722E-2,-2.493493E-2,-3.621985E-2,3.9148483E-2,1.9657413E-2,1.01819925E-1,3.529019E-2,-8.061412E-2,-3.4944754E-2,7.1620636E-2],"split_indices":[23,7,27,11,0,2147483647,2147483647,2147483647,2147483647,2147483647,2147483647,2147483647,2147483647,2147483647,2147483647],"split_type":[0,0,0,0,0,0,0,0,0,0,0,0,0,0,0],"sum_hessian":[1.5348249E1,1.1595795E1,3.752454E0,9.531354E0,2.0644407E0,2.7496502E0,1.0028038E0,3.7311563E0,5.8001976E0,1.301803E0,1.4478474E0,1.5076749E0,2.2234814E0,1.7442089E0,4.055989E0],"tree_param":{"num_deleted":"10","num_feature":"34","num_nodes":"15","size_leaf_vector":"0"}},{"base_weights":[-2.4270336E-3,1.11873545E-1,-1.1480228E-1,2.3225021E-1,-6.9883466E-2,-2.1211083E-1,1.6250116E-1,-5.9420586E-2,3.4810993E-1,-2.7153742E-1,1.4320411E-1,-3.6773694E-1,-5.2794974E-2,1.367083E-1,-2.8271064E-1],"categories":[],"categories_nodes":[],"categories_segments":[],"categories_sizes":[],"default_left":[true,true,true,true,true,true,true,true,true,true,true,true,true,true,true],"id":61,"left_children":[-1,-1,-1,-1,-1,-1,-1,-1,-1,-1,-1,-1,-1,-1,-1],"loss_changes":[1.8846504E-1,1.7561719E-1,2.3382688E-1,1.7659473E-1,1.966336E-1,1.2693554E-1,0E0,0E0,0E0,0E0,0E0,0E0,2.166059E-1,0E0,0E0],"parents":[2147483647,0,0,1,1,2,2,3,3,4,4,5,5,12,12],"right_children":[-1,-1,-1,-1,-1,-1,-1,-1,-1,-1,-1,-1,-1,-1,-1],"split_conditions":[-7.281101E-4,3.3562064E-2,-3.4440685E-2,6.9675066E-2,-2.096504E-2,-6.3633256E-2,4.875035E-2,-1.7826177E-2,1.04432985E-1,-8.146123E-2,4.2961232E-2,-1.1032108E-1,-1.5838493E-2,4.1012492E-2,-8.481319E-2],"split_indices":[14,2147483647,2147483647,2147483647,2147483647,2147483647,2147483647,2147483647,2147483647,2147483647,2147483647,2147483647,2147483647,2147483647,2147483647],"split_type":[0,0,0,0,0,0,0,0,0,0,0,0,0,0,0],"sum_hessian":[1.2672852E1,6.2848186E0,6.388033E0,3.6136875E0,2.6711311E0,4.9027157E0,1.4853172E0,1.1658512E0,2.4478362E0,1.2314537E0,1.4396776E0,1.8183007E0,3.0844147E0,1.9130338E0,1.1713809E0],"tree_param":{"num_deleted":"14","num_feature":"34","num_nodes":"15","size_leaf_vector":"0"}},{"base_weights":[-1.4214455E-2,2.6506E-1,-9.3568884E-2,-3.165189E-1,6.337973E-2,2.969192E-1,-6.0751323E-2,-2.1334836E-1,1.1715375E-1],"categories":[],"categories_nodes":[],"categories_segments":[],"categories_sizes":[],"default_left":[true,false,true,false,true,true,true,true,true],"id":62,"left_children":[1,-1,3,-1,-1,-1,-1,-1,-1],"loss_changes":[2.3797733E-1,0E0,3.080349E-1,0E0,1.8220446E-1,0E0,1.4791295E-1,0E0,0E0],"parents":[2147483647,0,0,2,2,4,4,6,6],"right_children":[2,-1,4,-1,-1,-1,-1,-1,-1],"split_conditions":[4.53169E-1,7.9518005E-2,4.7827154E-1,-9.4955675E-2,1.9013919E-2,8.907576E-2,-1.8225398E-2,-6.400451E-2,3.5146125E-2],"split_indices":[28,0,16,0,26,2147483647,2147483647,2147483647,2147483647],"split_type":[0,0,0,0,0,0,0,0,0],"sum_hessian":[8.619131E0,1.3893491E0,7.229782E0,2.566827E0,4.6629553E0,1.1352051E0,3.52775E0,1.7917022E0,1.7360479E0],"tree_param":{"num_deleted":"4","num_feature":"34","num_nodes":"9","size_leaf_vector":"0"}},{"base_weights":[7.3018502E-3,-1.3958837E-1,6.605502E-2,1.1209985E-1,-2.8381503E-1,2.648442E-1,-3.0869631E-2,3.4681386E-1,2.8114054E-2,-2.3702593E-1,1.5301114E-1,-3.5032222E-1,-3.2714657E-2,3.3062991E-1,1.38291735E-2],"categories":[],"categories_nodes":[],"categories_segments":[],"categories_sizes":[],"default_left":[true,true,true,true,true,true,true,true,true,true,true,true,true,true,true],"id":63,"left_children":[1,-1,5,-1,-1,-1,9,-1,-1,-1,-1,-1,-1,-1,-1],"loss_changes":[1.4762554E-1,2.0979877E-1,2.4196976E-1,0E0,0E0,6.945014E-2,3.7943357E-1,0E0,0E0,9.640941E-2,1.2873697E-1,0E0,0E0,0E0,0E0],"parents":[2147483647,0,0,1,1,2,2,5,5,6,6,9,9,10,10],"right_children":[2,-1,6,-1,-1,-1,10,-1,-1,-1,-1,-1,-1,-1,-1],"split_conditions":[4.414156E-1,-4.1876514E-2,4.9001664E-1,3.3629958E-2,-8.514451E-2,7.945327E-2,5.6872094E-1,1.0404416E-1,8.4342165E-3,-7.110778E-2,4.5903344E-2,-1.0509667E-1,-9.814397E-3,9.9188976E-2,4.1487524E-3],"split_indices":[11,23,1,2147483647,2147483647,19,31,2147483647,2147483647,24,7,2147483647,2147483647,2147483647,2147483647],"split_type":[0,0,0,0,0,0,0,0,0,0,0,0,0,0,0],"sum_hessian":[1.50371685E1,3.903097E0,1.1134071E1,1.5029933E0,2.4001036E0,3.0815141E0,8.052558E0,1.9435333E0,1.1379809E0,3.660076E0,4.392482E0,1.8947405E0,1.7653356E0,1.3254586E0,3.0670228E0],"tree_param":{"num_deleted":"8","num_feature":"34","num_nodes":"15","size_leaf_vector":"0"}},{"base_weights":[-4.2939832E-4,6.537519E-2,-1.8742046E-1,-1.9029188E-1,1.8242918E-1,1.1621885E-1,-3.3932903E-1,4.310049E-2,-3.306004E-1,3.6907417E-1,-4.4495773E-2,-3.2101628E-1,2.358836E-1],"categories":[],"categories_nodes":[],"categories_segments":[],"categories_sizes":[],"default_left":[true,true,true,true,true,true,true,true,true,false,true,false,false],"id":64,"left_children":[1,3,-1,-1,9,-1,-1,-1,-1,-1,11,-1,-1],"loss_changes":[1.782649E-1,3.5556117E-1,2.133555E-1,1.4053486E-1,3.495229E-1,0E0,0E0,0E0,0E0,0E0,4.200921E-1,0E0,0E0],"parents":[2147483647,0,0,1,1,2,2,3,3,4,4,10,10],"right_children":[2,4,-1,-1,10,-1,-1,-1,-1,-1,12,-1,-1],"split_conditions":[5.9650993E-1,6.0298616E-1,-5.6226138E-2,-5.7087567E-2,5.5872375E-1,3.4865655E-2,-1.0179871E-1,1.2930148E-2,-9.9180125E-2,1.1072225E-1,5.939119E-1,-9.6304886E-2,7.076508E-2],"split_indices":[22,32,23,24,31,2147483647,2147483647,2147483647,2147483647,0,11,0,0],"split_type":[0,0,0,0,0,0,0,0,0,0,0,0,0],"sum_hessian":[1.249159E1,9.72102E0,2.77057E0,2.8564157E0,6.864604E0,1.0022284E0,1.7683417E0,1.3325831E0,1.5238327E0,3.4228811E0,3.4417229E0,1.6598158E0,1.7819072E0],"tree_param":{"num_deleted":"4","num_feature":"34","num_nodes":"13","size_leaf_vector":"0"}},{"base_weights":[-1.2015141E-2,1.5652211E-1,-1.4196742E-1,-9.27972E-2,2.8724205E-1,1.4778693E-1,-2.3510276E-1,-3.6371773E-1,5.2340187E-2],"categories":[],"categories_nodes":[],"categories_segments":[],"categories_sizes":[],"default_left":[true,true,true,true,true,true,true,true,true],"id":65,"left_children":[-1,-1,-1,-1,-1,-1,-1,-1,-1],"loss_changes":[2.2511834E-1,1.7360264E-1,1.9005497E-1,0E0,0E0,0E0,1.943169E-1,0E0,0E0],"parents":[2147483647,0,0,1,1,2,2,6,6],"right_children":[-1,-1,-1,-1,-1,-1,-1,-1,-1],"split_conditions":[-3.6045422E-3,4.6956636E-2,-4.2590227E-2,-2.783916E-2,8.617262E-2,4.433608E-2,-7.053083E-2,-1.09115325E-1,1.5702058E-2],"split_indices":[30,2147483647,2147483647,2147483647,2147483647,2147483647,2147483647,2147483647,2147483647],"split_type":[0,0,0,0,0,0,0,0,0],"sum_hessian":[8.263956E0,3.5088334E0,4.7551227E0,1.3066999E0,2.2021337E0,1.013917E0,3.7412055E0,2.4013684E0,1.3398372E0],"tree_param":{"num_deleted":"8","num_feature":"34","num_nodes":"9","size_leaf_vector":"0"}},{"base_weights":[7.3276465E-3,-3.1407762E-2,2.1224974E-1,-1.6255082E-1,9.052101E-2,1.4454341E-1,-2.446689E-1,-1.5838061E-1,1.7703018E-1,-5.129084E-2,-3.4769595E-1,2.808897E-1,-6.6825405E-2],"categories":[],"categories_nodes":[],"categories_segments":[],"categories_sizes":[],"default_left":[true,true,true,true,true,true,true,true,true,true,true,true,true],"id":66,"left_children":[-1,-1,-1,-1,-1,-1,-1,-1,-1,-1,-1,-1,-1],"loss_changes":[1.2797222E-1,2.341592E-1,0E0,2.111282E-1,1.9500035E-1,0E0,9.912744E-2,0E0,1.7646289E-1,0E0,0E0,0E0,0E0],"parents":[2147483647,0,0,1,1,3,3,4,4,6,6,8,8],"right_children":[-1,-1,-1,-1,-1,-1,-1,-1,-1,-1,-1,-1,-1],"split_conditions":[2.198294E-3,-9.422329E-3,6.367493E-2,-4.876525E-2,2.7156303E-2,4.3363024E-2,-7.3400676E-2,-4.7514185E-2,5.3109054E-2,-1.5387253E-2,-1.0430879E-1,8.426691E-2,-2.0047622E-2],"split_indices":[25,2147483647,2147483647,2147483647,2147483647,2147483647,2147483647,2147483647,2147483647,2147483647,2147483647,2147483647,2147483647],"split_type":[0,0,0,0,0,0,0,0,0,0,0,0,0],"sum_hessian":[1.4282172E1,1.272379E1,1.5583819E0,5.969744E0,6.754046E0,1.0991395E0,4.8706045E0,1.527725E0,5.226321E0,2.2135985E0,2.657006E0,3.5587568E0,1.6675644E0],"tree_param":{"num_deleted":"12","num_feature":"34","num_nodes":"13","size_leaf_vector":"0"}},{"base_weights":[-1.1675408E-3,4.564611E-2,-2.65978E-1,-1.02852896E-1,1.193993E-1,1.4283201E-1,-3.2898524E-1,2.2350961E-1,-1.1956929E-1,-5.1359907E-2,3.0185947E-1,-2.9091972E-1,1.2401E-1],"categories":[],"categories_nodes":[],"categories_segments":[],"categories_sizes":[],"default_left":[true,true,false,true,true,false,false,true,true,true,true,true,true],"id":67,"left_children":[1,3,-1,5,-1,-1,-1,-1,-1,-1,-1,-1,-1],"loss_changes":[1.698426E-1,1.4002465E-1,0E0,2.9187292E-1,2.3212521E-1,0E0,0E0,1.468541E-1,1.6783445E-1,0E0,0E0,0E0,0E0],"parents":[2147483647,0,0,1,1,3,3,4,4,7,7,8,8],"right_children":[2,4,-1,6,-1,-1,-1,-1,-1,-1,-1,-1,-1],"split_conditions":[4.3152928E-1,5.5202115E-1,-7.979341E-2,4.511262E-1,3.581979E-2,4.2849604E-2,-9.8695576E-2,6.7052886E-2,-3.5870787E-2,-1.5407973E-2,9.055784E-2,-8.727592E-2,3.7203E-2],"split_indices":[4,28,0,24,22,0,0,2147483647,2147483647,2147483647,2147483647,2147483647,2147483647],"split_type":[0,0,0,0,0,0,0,0,0,0,0,0,0],"sum_hessian":[1.1721223E1,1.0663702E1,1.0575204E0,3.4077613E0,7.2559414E0,1.8098223E0,1.597939E0,5.0991216E0,2.1568196E0,1.2074803E0,3.8916414E0,1.1520412E0,1.0047784E0],"tree_param":{"num_deleted":"6","num_feature":"34","num_nodes":"13","size_leaf_vector":"0"}},{"base_weights":[-1.0716904E-2,1.5202272E-1,-1.3986051E-1,-9.523676E-2,2.8195757E-1,1.3001482E-1,-2.277941E-1,-3.5752645E-1,5.597798E-2],"categories":[],"categories_nodes":[],"categories_segments":[],"categories_sizes":[],"default_left":[true,true,true,true,true,true,true,true,true],"id":68,"left_children":[-1,-1,-1,-1,-1,-1,-1,-1,-1],"loss_changes":[2.1174309E-1,1.7108044E-1,1.6189551E-1,0E0,0E0,0E0,1.8816629E-1,0E0,0E0],"parents":[2147483647,0,0,1,1,2,2,6,6],"right_children":[-1,-1,-1,-1,-1,-1,-1,-1,-1],"split_conditions":[-3.2150713E-3,4.5606818E-2,-4.1958153E-2,-2.857103E-2,8.4587276E-2,3.900445E-2,-6.833823E-2,-1.0725794E-1,1.6793394E-2],"split_indices":[30,2147483647,2147483647,2147483647,2147483647,2147483647,2147483647,2147483647,2147483647],"split_type":[0,0,0,0,0,0,0,0,0],"sum_hessian":[8.063286E0,3.4892125E0,4.574073E0,1.2939439E0,2.1952686E0,1.0064964E0,3.5675764E0,2.2699254E0,1.297651E0],"tree_param":{"num_deleted":"8","num_feature":"34","num_nodes":"9","size_leaf_vector":"0"}},{"base_weights":[1.0136535E-2,-2.8156964E-2,2.1104753E-1,-1.5945923E-1,9.261573E-2,1.4708741E-1,-2.4397266E-1,-1.5394053E-1,1.7855701E-1,-5.0161872E-2,-3.4652007E-1,2.7932963E-1,-6.1078977E-2],"categories":[],"categories_nodes":[],"categories_segments":[],"categories_sizes":[],"default_left":[true,true,true,true,true,true,true,true,true,true,true,true,true],"id":69,"left_children":[-1,-1,-1,-1,-1,-1,-1,-1,-1,-1,-1,-1,-1],"loss_changes":[1.222376E-1,2.300894E-1,0E0,2.139454E-1,1.9075817E-1,0E0,9.717125E-2,0E0,1.6622072E-1,0E0,0E0,0E0,0E0],"parents":[2147483647,0,0,1,1,3,3,4,4,6,6,8,8],"right_children":[-1,-1,-1,-1,-1,-1,-1,-1,-1,-1,-1,-1,-1],"split_conditions":[3.0409608E-3,-8.447089E-3,6.331426E-2,-4.783777E-2,2.778472E-2,4.4126224E-2,-7.31918E-2,-4.618216E-2,5.3567104E-2,-1.5048563E-2,-1.0395602E-1,8.379889E-2,-1.8323693E-2],"split_indices":[25,2147483647,2147483647,2147483647,2147483647,2147483647,2147483647,2147483647,2147483647,2147483647,2147483647,2147483647,2147483647],"split_type":[0,0,0,0,0,0,0,0,0,0,0,0,0],"sum_hessian":[1.4115859E1,1.2578298E1,1.5375614E0,5.8729687E0,6.7053294E0,1.1092175E0,4.763751E0,1.5286288E0,5.1767006E0,2.163664E0,2.600087E0,3.5276136E0,1.6490868E0],"tree_param":{"num_deleted":"12","num_feature":"34","num_nodes":"13","size_leaf_vector":"0"}},{"base_weights":[-4.9232426E-3,1.07237324E-1,-1.12167515E-1,-1.4084934E-1,1.8104792E-1,-2.0929712E-1,1.5458675E-1,2.7433679E-1,-9.822916E-2,-3.5393107E-1,-4.978609E-2,3.48073E-1,1.2348414E-2,1.3059117E-1,-2.6564E-1],"categories":[],"categories_nodes":[],"categories_segments":[],"categories_sizes":[],"default_left":[true,true,true,true,true,true,true,true,true,true,true,true,true,true,true],"id":70,"left_children":[-1,-1,-1,-1,-1,-1,-1,-1,-1,-1,-1,-1,-1,-1,-1],"loss_changes":[1.6163015E-1,1.4618161E-1,2.097507E-1,0E0,1.7068096E-1,1.0797541E-1,0E0,8.0684066E-2,0E0,0E0,1.807956E-1,0E0,0E0,0E0,0E0],"parents":[2147483647,0,0,1,1,2,2,4,4,5,5,7,7,10,10],"right_children":[-1,-1,-1,-1,-1,-1,-1,-1,-1,-1,-1,-1,-1,-1,-1],"split_conditions":[-1.4769728E-3,3.2171197E-2,-3.3650257E-2,-4.22548E-2,5.431438E-2,-6.278914E-2,4.6376027E-2,8.2301036E-2,-2.946875E-2,-1.0617933E-1,-1.4935828E-2,1.04421906E-1,3.7045244E-3,3.917735E-2,-7.9692E-2],"split_indices":[14,2147483647,2147483647,2147483647,2147483647,2147483647,2147483647,2147483647,2147483647,2147483647,2147483647,2147483647,2147483647,2147483647,2147483647],"split_type":[0,0,0,0,0,0,0,0,0,0,0,0,0,0,0],"sum_hessian":[1.14371805E1,5.590483E0,5.846698E0,1.0736288E0,4.516855E0,4.443969E0,1.4027287E0,3.3991141E0,1.1177404E0,1.691437E0,2.752532E0,2.396142E0,1.0029722E0,1.7146746E0,1.0378574E0],"tree_param":{"num_deleted":"14","num_feature":"34","num_nodes":"15","size_leaf_vector":"0"}},{"base_weights":[-1.0271248E-2,1.5146849E-1,-1.3894355E-1,-9.560472E-2,2.8079182E-1,7.5622596E-2,-2.4922211E-1,-3.3386296E-1,-6.9642817E-3],"categories":[],"categories_nodes":[],"categories_segments":[],"categories_sizes":[],"default_left":[true,true,true,true,true,true,true,true,true],"id":71,"left_children":[-1,-1,-1,-1,-1,-1,-1,-1,-1],"loss_changes":[2.0743863E-1,1.6892682E-1,1.4921537E-1,0E0,0E0,0E0,7.706982E-2,0E0,0E0],"parents":[2147483647,0,0,1,1,2,2,6,6],"right_children":[-1,-1,-1,-1,-1,-1,-1,-1,-1],"split_conditions":[-3.0813746E-3,4.5440547E-2,-4.1683067E-2,-2.8681416E-2,8.4237546E-2,2.268678E-2,-7.4766636E-2,-1.0015889E-1,-2.0892846E-3],"split_indices":[30,2147483647,2147483647,2147483647,2147483647,2147483647,2147483647,2147483647,2147483647],"split_type":[0,0,0,0,0,0,0,0,0],"sum_hessian":[7.956285E0,3.4466803E0,4.509605E0,1.2738024E0,2.1728778E0,1.6376091E0,2.8719957E0,1.8481516E0,1.0238442E0],"tree_param":{"num_deleted":"8","num_feature":"34","num_nodes":"9","size_leaf_vector":"0"}},{"base_weights":[7.7418117E-3,-3.0509712E-2,2.0979035E-1,-1.6129868E-1,9.040598E-2,1.4563799E-1,-2.4546587E-1,-1.5535714E-1,1.7659815E-1,-5.1769525E-2,-3.4736684E-1,2.7776E-1,-6.257227E-2],"categories":[],"categories_nodes":[],"categories_segments":[],"categories_sizes":[],"default_left":[true,true,true,true,true,true,true,true,true,true,true,true,true],"id":72,"left_children":[-1,-1,-1,-1,-1,-1,-1,-1,-1,-1,-1,-1,-1],"loss_changes":[1.2326568E-1,2.2945361E-1,0E0,2.1364747E-1,1.9056115E-1,0E0,9.603551E-2,0E0,1.6664603E-1,0E0,0E0,0E0,0E0],"parents":[2147483647,0,0,1,1,3,3,4,4,6,6,8,8],"right_children":[-1,-1,-1,-1,-1,-1,-1,-1,-1,-1,-1,-1,-1],"split_conditions":[2.3225436E-3,-9.152914E-3,6.293711E-2,-4.8389606E-2,2.7121795E-2,4.3691397E-2,-7.3639765E-2,-4.6607144E-2,5.2979447E-2,-1.5530858E-2,-1.0421006E-1,8.3328E-2,-1.8771682E-2],"split_indices":[25,2147483647,2147483647,2147483647,2147483647,2147483647,2147483647,2147483647,2147483647,2147483647,2147483647,2147483647,2147483647],"split_type":[0,0,0,0,0,0,0,0,0,0,0,0,0],"sum_hessian":[1.4120988E1,1.2587029E1,1.5339592E0,5.8862095E0,6.70082E0,1.1095643E0,4.7766447E0,1.5315111E0,5.1693087E0,2.1665123E0,2.6101327E0,3.5193727E0,1.649936E0],"tree_param":{"num_deleted":"12","num_feature":"34","num_nodes":"13","size_leaf_vector":"0"}},{"base_weights":[-3.4947167E-3,1.0856883E-1,-1.1096528E-1,-1.4025263E-1,1.8227772E-1,-2.0832431E-1,1.5562642E-1,2.7528673E-1,-9.735148E-2,-3.534257E-1,-4.8969243E-2,3.4859833E-1,1.3338457E-2,1.3115667E-1,-2.6535243E-1],"categories":[],"categories_nodes":[],"categories_segments":[],"categories_sizes":[],"default_left":[true,true,true,true,true,true,true,true,true,true,true,true,true,true,true],"id":73,"left_children":[-1,-1,-1,-1,-1,-1,-1,-1,-1,-1,-1,-1,-1,-1,-1],"loss_changes":[1.6184391E-1,1.4650688E-1,2.100475E-1,0E0,1.7041965E-1,1.0849196E-1,0E0,7.994485E-2,0E0,0E0,1.8110941E-1,0E0,0E0,0E0,0E0],"parents":[2147483647,0,0,1,1,2,2,4,4,5,5,7,7,10,10],"right_children":[-1,-1,-1,-1,-1,-1,-1,-1,-1,-1,-1,-1,-1,-1,-1],"split_conditions":[-1.0484151E-3,3.2570653E-2,-3.3289585E-2,-4.207579E-2,5.468332E-2,-6.2497295E-2,4.6687927E-2,8.258602E-2,-2.9205443E-2,-1.06027715E-1,-1.4690774E-2,1.045795E-1,4.0015373E-3,3.9347E-2,-7.960573E-2],"split_indices":[14,2147483647,2147483647,2147483647,2147483647,2147483647,2147483647,2147483647,2147483647,2147483647,2147483647,2147483647,2147483647,2147483647,2147483647],"split_type":[0,0,0,0,0,0,0,0,0,0,0,0,0,0,0],"sum_hessian":[1.14379225E1,5.5943093E0,5.8436136E0,1.0721675E0,4.522142E0,4.4405084E0,1.4031053E0,3.4050863E0,1.1170554E0,1.686766E0,2.7537422E0,2.4020367E0,1.0030497E0,1.7177161E0,1.0360261E0],"tree_param":{"num_deleted":"14","num_feature":"34","num_nodes":"15","size_leaf_vector":"0"}},{"base_weights":[-8.218805E-3,1.5316075E-1,-1.3726433E-1,-9.43447E-2,2.8189555E-1,-2.4085382E-1,8.81678E-2,-3.4538248E-1,3.788816E-2],"categories":[],"categories_nodes":[],"categories_segments":[],"categories_sizes":[],"default_left":[true,true,true,true,true,true,true,true,true],"id":74,"left_children":[-1,-1,-1,-1,-1,-1,-1,-1,-1],"loss_changes":[2.0750694E-1,1.6843101E-1,1.4974782E-1,0E0,0E0,1.3075428E-1,0E0,0E0,0E0],"parents":[2147483647,0,0,1,1,2,2,5,5],"right_children":[-1,-1,-1,-1,-1,-1,-1,-1,-1],"split_conditions":[-2.4656416E-3,4.5948226E-2,-4.11793E-2,-2.830341E-2,8.4568664E-2,-7.225615E-2,2.6450342E-2,-1.0361475E-1,1.1366449E-2],"split_indices":[30,2147483647,2147483647,2147483647,2147483647,2147483647,2147483647,2147483647,2147483647],"split_type":[0,0,0,0,0,0,0,0,0],"sum_hessian":[7.954655E0,3.4514835E0,4.5031714E0,1.2723681E0,2.1791153E0,3.0385172E0,1.4646544E0,2.035955E0,1.0025623E0],"tree_param":{"num_deleted":"8","num_feature":"34","num_nodes":"9","size_leaf_vector":"0"}},{"base_weights":[5.9167286E-3,-3.2301962E-2,2.088306E-1,-1.6269387E-1,8.871551E-2,1.4451987E-1,-2.4659485E-1,-1.5643884E-1,1.7510015E-1,-5.29828E-2,-3.4801018E-1,2.7655026E-1,-6.37009E-2],"categories":[],"categories_nodes":[],"categories_segments":[],"categories_sizes":[],"default_left":[true,true,true,true,true,true,true,true,true,true,true,true,true],"id":75,"left_children":[-1,-1,-1,-1,-1,-1,-1,-1,-1,-1,-1,-1,-1],"loss_changes":[1.2404179E-1,2.289396E-1,0E0,2.1339457E-1,1.9040613E-1,0E0,9.5179886E-2,0E0,1.6694073E-1,0E0,0E0,0E0,0E0],"parents":[2147483647,0,0,1,1,3,3,4,4,6,6,8,8],"right_children":[-1,-1,-1,-1,-1,-1,-1,-1,-1,-1,-1,-1,-1],"split_conditions":[1.7750186E-3,-9.690589E-3,6.264918E-2,-4.8808165E-2,2.6614653E-2,4.335596E-2,-7.3978454E-2,-4.6931654E-2,5.2530047E-2,-1.5894841E-2,-1.04403056E-1,8.296508E-2,-1.911027E-2],"split_indices":[25,2147483647,2147483647,2147483647,2147483647,2147483647,2147483647,2147483647,2147483647,2147483647,2147483647,2147483647,2147483647],"split_type":[0,0,0,0,0,0,0,0,0,0,0,0,0],"sum_hessian":[1.4125028E1,1.2593803E1,1.531225E0,5.8963346E0,6.6974683E0,1.1098775E0,4.7864575E0,1.5337687E0,5.1636996E0,2.1686745E0,2.6177828E0,3.513133E0,1.6505666E0],"tree_param":{"num_deleted":"12","num_feature":"34","num_nodes":"13","size_leaf_vector":"0"}},{"base_weights":[-2.4516748E-3,1.0954476E-1,-1.1008957E-1,-1.3982294E-1,1.8318157E-1,-2.0761776E-1,1.5639466E-1,2.7598643E-1,-9.670535E-2,-3.530536E-1,-4.8388537E-2,3.489833E-1,1.40724555E-2,1.3155203E-1,-2.6514933E-1],"categories":[],"categories_nodes":[],"categories_segments":[],"categories_sizes":[],"default_left":[true,true,true,true,true,true,true,true,true,true,true,true,true,true,true],"id":76,"left_children":[-1,-1,-1,-1,-1,-1,-1,-1,-1,-1,-1,-1,-1,-1,-1],"loss_changes":[1.6200793E-1,1.4675364E-1,2.1027857E-1,0E0,1.7022727E-1,1.08850166E-1,0E0,7.939294E-2,0E0,0E0,1.8133262E-1,0E0,0E0,0E0,0E0],"parents":[2147483647,0,0,1,1,2,2,4,4,5,5,7,7,10,10],"right_children":[-1,-1,-1,-1,-1,-1,-1,-1,-1,-1,-1,-1,-1,-1,-1],"split_conditions":[-7.3550246E-4,3.286343E-2,-3.3026874E-2,-4.1946884E-2,5.4954473E-2,-6.228533E-2,4.69184E-2,8.279593E-2,-2.9011605E-2,-1.0591608E-1,-1.4516561E-2,1.0469499E-1,4.221737E-3,3.946561E-2,-7.95448E-2],"split_indices":[14,2147483647,2147483647,2147483647,2147483647,2147483647,2147483647,2147483647,2147483647,2147483647,2147483647,2147483647,2147483647,2147483647,2147483647],"split_type":[0,0,0,0,0,0,0,0,0,0,0,0,0,0,0],"sum_hessian":[1.1438608E1,5.597125E0,5.841483E0,1.0710943E0,4.526031E0,4.4381166E0,1.4033663E0,3.409459E0,1.1165719E0,1.6833354E0,2.754781E0,2.4063587E0,1.0031004E0,