{"learner":{"attributes":{"best_iteration":"13","best_ntree_limit":"14","best_score":"0.43126","scikit_learn":"{\"use_label_encoder\": true, \"n_estimators\": 100, \"objective\": \"multi:softprob\", \"max_depth\": 4, \"learning_rate\": null, \"verbosity\": null, \"booster\": null, \"tree_method\": null, \"gamma\": 0.25, \"min_child_weight\": null, \"max_delta_step\": null, \"subsample\": null, \"colsample_bytree\": null, \"colsample_bylevel\": null, \"colsample_bynode\": null, \"reg_alpha\": null, \"reg_lambda\": null, \"scale_pos_weight\": null, \"base_score\": null, \"missing\": NaN, \"num_parallel_tree\": null, \"random_state\": null, \"n_jobs\": null, \"monotone_constraints\": null, \"interaction_constraints\": null, \"importance_type\": null, \"gpu_id\": null, \"validate_parameters\": null, \"predictor\": null, \"enable_categorical\": false, \"kwargs\": {\"learn_rate\": 0.1, \"seed\": 42}, \"classes_\": [0.0, 1.0, 2.0], \"n_classes_\": 3, \"_le\": {\"classes_\": [0.0, 1.0, 2.0]}, \"evals_result_\": {\"validation_0\": {\"mlogloss\": [0.881073, 0.771362, 0.708349, 0.640008, 0.580597, 0.536633, 0.519552, 0.492635, 0.480818, 0.467898, 0.455934, 0.44824, 0.44753, 0.43126, 0.43509, 0.437283, 0.437668, 0.4352, 0.433794, 0.433737, 0.43369, 0.433652, 0.43362, 0.433594]}}, \"_estimator_type\": \"classifier\"}"},"feature_names":[],"feature_types":[],"gradient_booster":{"model":{"gbtree_model_param":{"num_trees":"72","size_leaf_vector":"0"},"tree_info":[0,1,2,0,1,2,0,1,2,0,1,2,0,1,2,0,1,2,0,1,2,0,1,2,0,1,2,0,1,2,0,1,2,0,1,2,0,1,2,0,1,2,0,1,2,0,1,2,0,1,2,0,1,2,0,1,2,0,1,2,0,1,2,0,1,2,0,1,2,0,1,2],"trees":[{"base_weights":[-1.3863221E-1,6.870225E-2,-6.4968157E-1,-1.9723189E-1,7.433628E-1,-7.0344836E-1,-2.5544848E-8,3.4020615E-1,-4.4776124E-1,-5.172414E-1,1.0645161E0,-5.4545456E-1,6.986301E-1,-5.63536E-1,4.137931E-1,2.3999998E-1,1.2077922E0],"categories":[],"categories_nodes":[],"categories_segments":[],"categories_sizes":[],"default_left":[true,true,true,true,true,false,false,true,true,false,true,false,false,false,false,false,false],"id":0,"left_children":[1,3,5,7,9,-1,-1,11,13,-1,15,-1,-1,-1,-1,-1,-1],"loss_changes":[6.413896E0,7.9810805E0,6.093564E-1,4.4758997E0,5.6336937E0,0E0,0E0,3.8023906E0,2.4608521E0,0E0,9.3084145E-1,0E0,0E0,0E0,0E0,0E0,0E0],"parents":[2147483647,0,0,1,1,2,2,3,3,4,4,7,7,8,8,10,10],"right_children":[2,4,6,8,10,-1,-1,12,14,-1,16,-1,-1,-1,-1,-1,-1],"split_conditions":[4.6052456E-1,5.846695E-1,7.274765E-1,5.5202115E-1,2.2984022E-1,-2.1103452E-1,-7.663455E-9,5.3419656E-1,7.6752996E-1,-1.5517244E-1,5.9650993E-1,-1.6363637E-1,2.0958903E-1,-1.690608E-1,1.2413793E-1,7.2E-2,3.6233765E-1],"split_indices":[2,22,30,28,33,0,0,30,31,0,22,0,0,0,0,0,0],"split_type":[0,0,0,0,0,0,0,0,0,0,0,0,0,0,0,0,0],"sum_hessian":[5.9111107E1,4.2666664E1,1.6444443E1,3.1111109E1,1.1555555E1,1.5111111E1,1.3333333E0,9.777777E0,2.1333332E1,2.222222E0,9.333333E0,2.6666665E0,7.1111107E0,1.911111E1,2.222222E0,1.7777777E0,7.5555553E0],"tree_param":{"num_deleted":"0","num_feature":"34","num_nodes":"17","size_leaf_vector":"0"}},{"base_weights":[6.099811E-2,5.367412E-1,-5.696203E-1,-4.020619E-1,9.1999996E-1,-7.1098274E-1,-1.643836E-1,-6.3934433E-1,-3.576279E-8,1.150259E0,-3.658537E-1,5.9999996E-1,-4.7368425E-1,5.9999996E-1,-5.172414E-1,1.2265193E0,-2.5544848E-8,-5.172414E-1,-2.5544848E-8,-2.5544848E-8,-6E-1],"categories":[],"categories_nodes":[],"categories_segments":[],"categories_sizes":[],"default_left":[true,true,true,true,true,false,true,false,true,true,true,false,true,false,false,false,false,false,false,false,false],"id":1,"left_children":[1,3,5,7,9,-1,11,-1,13,15,17,-1,19,-1,-1,-1,-1,-1,-1,-1,-1],"loss_changes":[1.8339813E1,1.2883098E1,1.3916378E0,1.0282238E0,7.822813E0,0E0,2.2018745E0,0E0,1.8620689E0,1.8810863E0,2.5231284E-1,0E0,3.7894738E-1,0E0,0E0,0E0,0E0,0E0,0E0,0E0,0E0],"parents":[2147483647,0,0,1,1,2,2,3,3,4,4,6,6,8,8,9,9,10,10,12,12],"right_children":[2,4,6,8,10,-1,12,-1,14,16,18,-1,20,-1,-1,-1,-1,-1,-1,-1,-1],"split_conditions":[4.4263873E-1,5.4998595E-1,6.412275E-1,5.1415145E-1,5.9368694E-1,-2.1329483E-1,6.1835176E-1,-1.918033E-1,5.5349267E-1,7.861286E-1,3.5524517E-1,1.7999999E-1,4.258155E-1,1.7999999E-1,-1.5517244E-1,3.679558E-1,-7.663455E-9,-1.5517244E-1,-7.663455E-9,-7.663455E-9,-1.8E-1],"split_indices":[10,26,28,13,22,0,24,0,21,31,0,0,8,0,0,0,0,0,0,0,0],"split_type":[0,0,0,0,0,0,0,0,0,0,0,0,0,0,0,0,0,0,0,0,0],"sum_hessian":[5.9111107E1,3.3777775E1,2.5333332E1,9.777777E0,2.3999998E1,1.8222221E1,7.1111107E0,5.7777777E0,3.9999998E0,2.0444443E1,3.5555553E0,1.7777777E0,5.333333E0,1.7777777E0,2.222222E0,1.911111E1,1.3333333E0,2.222222E0,1.3333333E0,1.3333333E0,3.9999998E0],"tree_param":{"num_deleted":"0","num_feature":"34","num_nodes":"21","size_leaf_vector":"0"}},{"base_weights":[7.763397E-2,-4.4881895E-1,1.260355E0,8.918919E-1,-5.7790375E-1,1.3566879E0,-2.5544848E-8,7.241379E-1,-6.7567575E-1,1.4068966E0,4.285714E-1,-2.44898E-1,-7.269625E-1],"categories":[],"categories_nodes":[],"categories_segments":[],"categories_sizes":[],"default_left":[true,true,true,false,true,true,false,false,true,true,true,false,false],"id":2,"left_children":[1,3,5,-1,7,-1,-1,-1,11,-1,-1,-1,-1],"loss_changes":[3.7993668E1,7.8418627E0,2.2798767E0,0E0,5.482396E0,2.0994568E-1,0E0,0E0,6.3941765E-1,0E0,0E0,0E0,0E0],"parents":[2147483647,0,0,1,1,2,2,4,4,5,5,8,8],"right_children":[2,4,6,-1,8,-1,-1,-1,12,-1,-1,-1,-1],"split_conditions":[4.3925244E-1,1.2877955E-1,7.211521E-1,2.6756757E-1,4.53169E-1,4.0700638E-1,-7.663455E-9,2.1724138E-1,5.947296E-1,4.2206898E-1,1.2857142E-1,-7.346941E-2,-2.1808876E-1],"split_indices":[8,33,19,0,28,30,0,0,30,2147483647,2147483647,0,0],"split_type":[0,0,0,0,0,0,0,0,0,0,0,0,0],"sum_hessian":[5.9111107E1,4.1333332E1,1.7777777E1,3.111111E0,3.822222E1,1.6444443E1,1.3333333E0,2.222222E0,3.5999996E1,1.5111111E1,1.3333333E0,4.444444E0,3.1555553E1],"tree_param":{"num_deleted":"2","num_feature":"34","num_nodes":"13","size_leaf_vector":"0"}},{"base_weights":[-1.0874528E-1,4.2580288E-2,-6.2660164E-1,-1.3222317E-1,6.329555E-1,-2.4905147E-1,7.9534864E-1,-3.9798048E-1,8.161384E-1,-1.2966023E-2,-5.281072E-1,-6.5563485E-2,9.777758E-1],"categories":[],"categories_nodes":[],"categories_segments":[],"categories_sizes":[],"default_left":[true,true,false,true,true,true,false,false,true,false,false,false,false],"id":3,"left_children":[1,3,-1,5,7,9,-1,-1,11,-1,-1,-1,-1],"loss_changes":[4.5116715E0,4.7510295E0,0E0,4.069118E0,2.3086095E0,2.1334484E0,0E0,0E0,1.3820276E0,0E0,0E0,0E0,0E0],"parents":[2147483647,0,0,1,1,3,3,4,4,5,5,8,8],"right_children":[2,4,-1,6,8,10,-1,-1,12,-1,-1,-1,-1],"split_conditions":[4.9922305E-1,6.1626047E-1,-1.879805E-1,7.1027523E-1,2.2314942E-1,6.0785663E-1,2.386046E-1,-1.19394146E-1,3.952321E-1,-3.889807E-3,-1.5843217E-1,-1.9669047E-2,2.9333276E-1],"split_indices":[8,24,0,25,29,26,0,0,11,0,0,0,0],"split_type":[0,0,0,0,0,0,0,0,0,0,0,0,0],"sum_hessian":[5.6232136E1,4.4226307E1,1.2005828E1,3.4721653E1,9.504655E0,3.1487307E1,3.2343457E0,1.2571194E0,8.247536E0,1.7623781E1,1.3863525E1,1.369817E0,6.8777184E0],"tree_param":{"num_deleted":"0","num_feature":"34","num_nodes":"13","size_leaf_vector":"0"}},{"base_weights":[4.3638006E-2,4.1472176E-1,-4.740863E-1,-3.388917E-1,6.811076E-1,-6.4278704E-1,-1.2335486E-1,-5.843422E-1,7.573405E-2,8.079072E-1,-2.585831E-1,4.6898797E-1,-4.4045994E-1,7.500992E-1,-4.798838E-1,9.0925604E-1,8.228996E-2,6.76038E-2,-4.3515202E-1,-1.5077943E-2,7.337531E-1,-5.6081384E-1,4.3331243E-2],"categories":[],"categories_nodes":[],"categories_segments":[],"categories_sizes":[],"default_left":[true,true,true,true,true,false,true,false,true,true,true,true,true,false,false,false,false,false,false,false,false,false,false],"id":4,"left_children":[1,3,5,7,9,-1,11,-1,13,15,17,19,21,-1,-1,-1,-1,-1,-1,-1,-1,-1,-1],"loss_changes":[1.14852295E1,7.2089114E0,1.399847E0,1.0360762E0,3.30855E0,0E0,1.9640529E0,0E0,2.0495179E0,1.6286373E0,2.511833E-1,4.912594E-1,4.0916348E-1,0E0,0E0,0E0,0E0,0E0,0E0,0E0,0E0,0E0,0E0],"parents":[2147483647,0,0,1,1,2,2,3,3,4,4,6,6,8,8,9,9,10,10,11,11,12,12],"right_children":[2,4,6,8,10,-1,12,-1,14,16,18,20,22,-1,-1,-1,-1,-1,-1,-1,-1,-1,-1],"split_conditions":[4.3892857E-1,5.4998595E-1,6.748811E-1,5.1415145E-1,5.9368694E-1,-1.9283612E-1,6.183926E-1,-1.7530265E-1,5.5349267E-1,5.248368E-1,4.9756432E-1,5.500624E-1,7.199322E-1,2.2502977E-1,-1.4396514E-1,2.727768E-1,2.4686988E-2,2.028114E-2,-1.3054562E-1,-4.523383E-3,2.2012593E-1,-1.6824415E-1,1.29993735E-2],"split_indices":[10,26,32,13,22,0,24,0,21,20,1,20,28,0,0,0,0,0,0,0,0,0,0],"split_type":[0,0,0,0,0,0,0,0,0,0,0,0,0,0,0,0,0,0,0,0,0,0,0],"sum_hessian":[5.7758434E1,3.375976E1,2.3998672E1,8.745708E0,2.5014053E1,1.5642145E1,8.356527E0,5.2364855E0,3.5092225E0,2.2163591E1,2.8504624E0,2.746737E0,5.60979E0,1.4270972E0,2.0821252E0,1.9225271E1,2.9383216E0,1.2178242E0,1.6326381E0,1.304603E0,1.4421339E0,4.3647532E0,1.2450368E0],"tree_param":{"num_deleted":"0","num_feature":"34","num_nodes":"23","size_leaf_vector":"0"}},{"base_weights":[6.276489E-2,-3.8092223E-1,8.8189566E-1,6.863495E-1,-5.041529E-1,9.4372594E-1,-8.6344555E-3,6.027316E-1,-6.02654E-1,9.826859E-1,2.789828E-1,-6.307254E-1,7.189334E-2],"categories":[],"categories_nodes":[],"categories_segments":[],"categories_sizes":[],"default_left":[true,true,true,false,true,true,false,false,true,true,true,false,false],"id":5,"left_children":[1,3,5,-1,7,-1,-1,-1,11,-1,-1,-1,-1],"loss_changes":[2.1526854E1,5.4121046E0,1.1527462E0,0E0,4.1911077E0,2.29496E-1,0E0,0E0,6.6528606E-1,0E0,0E0,0E0,0E0],"parents":[2147483647,0,0,1,1,2,2,4,4,5,5,8,8],"right_children":[2,4,6,-1,8,-1,-1,-1,12,-1,-1,-1,-1],"split_conditions":[4.3925244E-1,1.2877955E-1,7.211521E-1,2.0590486E-1,4.53169E-1,2.831178E-1,-2.5903368E-3,1.8081948E-1,7.8582036E-1,2.948058E-1,8.369484E-2,-1.8921763E-1,2.1568004E-2],"split_indices":[8,33,19,0,28,30,0,0,15,2147483647,2147483647,0,0],"split_type":[0,0,0,0,0,0,0,0,0,0,0,0,0],"sum_hessian":[5.7306873E1,3.751929E1,1.9787582E1,3.4106674E0,3.4108624E1,1.8447052E1,1.340529E0,2.368956E0,3.1739666E1,1.6973932E1,1.4731214E0,3.0533955E1,1.205712E0],"tree_param":{"num_deleted":"2","num_feature":"34","num_nodes":"13","size_leaf_vector":"0"}},{"base_weights":[-8.550398E-2,4.201971E-2,-5.7343745E-1,-1.8286756E-1,3.7532502E-1,-3.008839E-1,5.7969785E-1,7.399624E-2,8.4303606E-1,8.221109E-2,-4.6590215E-1,-5.0923526E-1,2.7575415E-1],"categories":[],"categories_nodes":[],"categories_segments":[],"categories_sizes":[],"default_left":[true,true,false,true,true,true,false,true,false,false,false,false,false],"id":6,"left_children":[1,3,-1,5,7,9,-1,11,-1,-1,-1,-1,-1],"loss_changes":[3.3377237E0,3.3030977E0,0E0,2.553783E0,2.4339476E0,1.527314E0,0E0,1.5370226E0,0E0,0E0,0E0,0E0,0E0],"parents":[2147483647,0,0,1,1,3,3,4,4,5,5,7,7],"right_children":[2,4,-1,6,8,10,-1,12,-1,-1,-1,-1,-1],"split_conditions":[4.9922305E-1,5.607378E-1,-1.7203124E-1,7.1027523E-1,5.815159E-1,4.6263486E-1,1.7390937E-1,4.1423523E-1,2.5291082E-1,2.466333E-2,-1.3977066E-1,-1.5277058E-1,8.272625E-2],"split_indices":[8,24,0,25,27,7,0,23,0,0,0,0,0],"split_type":[0,0,0,0,0,0,0,0,0,0,0,0,0],"sum_hessian":[5.2254005E1,4.2151417E1,1.0102587E1,2.5438763E1,1.6712654E1,2.255373E1,2.8850338E0,1.0868618E1,5.844036E0,6.941237E0,1.5612493E1,2.4017553E0,8.466863E0],"tree_param":{"num_deleted":"0","num_feature":"34","num_nodes":"13","size_leaf_vector":"0"}},{"base_weights":[3.178809E-2,3.2459787E-1,-4.2109293E-1,-3.0859092E-1,5.3586805E-1,-5.930037E-1,-9.1169424E-2,-5.484411E-1,7.850036E-2,6.3316905E-1,-2.2157295E-1,4.056897E-1,-3.8663054E-1,6.3914895E-1,-4.3463907E-1,7.1861815E-1,3.833059E-2,-4.0487462E-1,9.444501E-2,-7.7342144E-3,6.1389935E-1,6.2602155E-2,-5.103347E-1],"categories":[],"categories_nodes":[],"categories_segments":[],"categories_sizes":[],"default_left":[true,true,true,true,true,false,true,false,true,true,true,true,true,false,false,false,false,false,false,false,false,false,false],"id":7,"left_children":[1,3,5,7,9,-1,11,-1,13,15,17,19,21,-1,-1,-1,-1,-1,-1,-1,-1,-1,-1],"loss_changes":[7.414243E0,4.699652E0,1.1928725E0,8.892877E-1,2.0403147E0,0E0,1.4359404E0,0E0,1.5326426E0,1.1468458E0,2.5115037E-1,3.2643312E-1,3.6403966E-1,0E0,0E0,0E0,0E0,0E0,0E0,0E0,0E0,0E0,0E0],"parents":[2147483647,0,0,1,1,2,2,3,3,4,4,6,6,8,8,9,9,10,10,11,11,12,12],"right_children":[2,4,6,8,10,-1,12,-1,14,16,18,20,22,-1,-1,-1,-1,-1,-1,-1,-1,-1,-1],"split_conditions":[4.3892857E-1,5.4998595E-1,6.748811E-1,5.1415145E-1,5.9368694E-1,-1.7790112E-1,6.2374765E-1,-1.6453233E-1,5.5349267E-1,5.248368E-1,3.3421838E-1,4.8053497E-1,1.9907206E-1,1.917447E-1,-1.3039173E-1,2.1558546E-1,1.1499177E-2,-1.2146239E-1,2.8333506E-2,-2.3202645E-3,1.8416981E-1,1.8780647E-2,-1.531004E-1],"split_indices":[10,26,32,13,22,0,22,0,21,20,8,1,29,0,0,0,0,0,0,0,0,0,0],"split_type":[0,0,0,0,0,0,0,0,0,0,0,0,0,0,0,0,0,0,0,0,0,0,0],"sum_hessian":[5.388023E1,3.2895157E1,2.0985073E1,8.114598E0,2.478056E1,1.3272087E1,7.712985E0,4.752821E0,3.3617773E0,2.2105015E1,2.6755462E0,2.7370985E0,4.9758863E0,1.4891682E0,1.872609E0,1.9146511E1,2.9585032E0,1.5153902E0,1.1601561E0,1.2392603E0,1.4978383E0,1.1810021E0,3.7948842E0],"tree_param":{"num_deleted":"0","num_feature":"34","num_nodes":"23","size_leaf_vector":"0"}},{"base_weights":[5.226256E-2,-3.329002E-1,7.0761126E-1,7.272426E-1,-4.381949E-1,8.0272704E-1,1.6731615E-1,4.4783896E-1,-5.2729976E-1,6.034796E-1,-4.625588E-1,-2.596204E-2,-6.142892E-1],"categories":[],"categories_nodes":[],"categories_segments":[],"categories_sizes":[],"default_left":[true,true,true,false,true,false,true,false,true,false,false,false,false],"id":8,"left_children":[1,3,5,-1,7,-1,9,-1,11,-1,-1,-1,-1],"loss_changes":[1.3801854E1,4.1732745E0,9.045439E-1,0E0,2.765318E0,0E0,1.4575415E0,0E0,1.2735081E0,0E0,0E0,0E0,0E0],"parents":[2147483647,0,0,1,1,2,2,4,4,6,6,8,8],"right_children":[2,4,6,-1,8,-1,10,-1,12,-1,-1,-1,-1],"split_conditions":[4.3925244E-1,5.108377E-1,6.748811E-1,2.1817279E-1,1.2877955E-1,2.4081813E-1,4.5038933E-1,1.343517E-1,5.947296E-1,1.810439E-1,-1.3876764E-1,-7.788612E-3,-1.8428677E-1],"split_indices":[8,30,32,0,33,0,25,0,30,0,0,0,0],"split_type":[0,0,0,0,0,0,0,0,0,0,0,0,0],"sum_hessian":[5.2745785E1,3.353094E1,1.921484E1,2.4957867E0,3.1035156E1,1.5925527E1,3.2893138E0,2.4680064E0,2.856715E1,1.9682702E0,1.3210435E0,4.415899E0,2.415125E1],"tree_param":{"num_deleted":"0","num_feature":"34","num_nodes":"13","size_leaf_vector":"0"}},{"base_weights":[-6.5964155E-2,4.1808065E-2,-5.350112E-1,-1.2467656E-1,4.0799007E-1,9.2422225E-2,-4.292771E-1,-3.9525586E-1,5.4537654E-1,-4.997356E-1,2.6715755E-1,-5.505981E-1,-5.8282617E-2,-1.0123975E-1,6.377634E-1],"categories":[],"categories_nodes":[],"categories_segments":[],"categories_sizes":[],"default_left":[true,true,false,true,true,true,true,false,true,false,false,false,false,false,false],"id":9,"left_children":[1,3,-1,5,7,9,11,-1,13,-1,-1,-1,-1,-1,-1],"loss_changes":[2.4880102E0,2.525403E0,0E0,1.9355623E0,1.6414118E0,1.9506693E0,5.1287174E-1,0E0,7.487924E-1,0E0,0E0,0E0,0E0,0E0,0E0],"parents":[2147483647,0,0,1,1,3,3,4,4,5,5,6,6,8,8],"right_children":[2,4,-1,6,8,10,12,-1,14,-1,-1,-1,-1,-1,-1],"split_conditions":[5.263485E-1,5.846695E-1,-1.6050336E-1,6.056534E-1,2.2984022E-1,5.3419656E-1,6.044544E-1,-1.18576765E-1,3.952321E-1,-1.4992069E-1,8.014727E-2,-1.6517943E-1,-1.7484786E-2,-3.0371925E-2,1.9132902E-1],"split_indices":[10,22,0,28,33,30,31,0,11,0,0,0,0,0,0],"split_type":[0,0,0,0,0,0,0,0,0,0,0,0,0,0,0],"sum_hessian":[4.777608E1,3.9590336E1,8.185746E0,2.766979E1,1.1920546E1,1.6562052E1,1.11077385E1,1.466941E0,1.0453605E1,3.3498478E0,1.3212204E1,8.005651E0,3.1020875E0,1.2948835E0,9.158721E0],"tree_param":{"num_deleted":"0","num_feature":"34","num_nodes":"15","size_leaf_vector":"0"}},{"base_weights":[2.2991E-2,3.96143E-1,-2.4030301E-1,-2.3980886E-1,5.826691E-1,-4.923763E-1,5.6484472E-2,3.1093293E-1,-4.9410665E-1,6.894447E-1,-4.244356E-1,9.408139E-2,-5.457795E-1,4.165447E-1,-3.304664E-1,7.45187E-1,8.6242706E-2,-3.8652465E-2,-5.8378124E-1,-2.9243088E-1,6.1379766E-1,-5.112914E-1,8.6345665E-2],"categories":[],"categories_nodes":[],"categories_segments":[],"categories_sizes":[],"default_left":[true,true,true,true,true,true,true,false,false,true,false,false,true,true,true,false,false,false,false,false,false,false,false],"id":10,"left_children":[1,3,5,7,9,11,13,-1,-1,15,-1,-1,17,19,21,-1,-1,-1,-1,-1,-1,-1,-1],"loss_changes":[5.000798E0,2.6347592E0,2.2644687E0,9.2091537E-1,2.072853E0,5.608785E-1,2.1756752E0,0E0,0E0,4.5182848E-1,0E0,0E0,2.676363E-1,1.3010068E0,6.17579E-1,0E0,0E0,0E0,0E0,0E0,0E0,0E0,0E0],"parents":[2147483647,0,0,1,1,2,2,3,3,4,4,5,5,6,6,9,9,12,12,13,13,14,14],"right_children":[2,4,6,8,10,12,14,-1,-1,16,-1,-1,18,20,22,-1,-1,-1,-1,-1,-1,-1,-1],"split_conditions":[4.5795223E-1,6.153425E-1,6.748811E-1,4.4232297E-1,5.8122945E-1,3.512807E-1,5.9650993E-1,9.327988E-2,-1.48232E-1,6.429893E-1,-1.2733068E-1,2.8224418E-2,4.6954608E-1,3.5775185E-1,5.89272E-1,2.235561E-1,2.5872814E-2,-1.159574E-2,-1.7513438E-1,-8.772927E-2,1.8413931E-1,-1.5338743E-1,2.59037E-2],"split_indices":[14,30,32,22,24,15,22,0,0,21,0,0,18,2,31,0,0,0,0,0,0,0,0],"split_type":[0,0,0,0,0,0,0,0,0,0,0,0,0,0,0,0,0,0,0,0,0,0,0],"sum_hessian":[4.893048E1,2.003352E1,2.889696E1,4.478529E0,1.555499E1,1.5269204E1,1.3627756E1,1.3443375E0,3.1341918E0,1.4349085E1,1.2059052E0,1.2108042E0,1.40584E1,7.019545E0,6.6082106E0,1.2919775E1,1.42931E0,1.1206489E0,1.2937751E1,1.4228728E0,5.596672E0,4.450699E0,2.1575122E0],"tree_param":{"num_deleted":"0","num_feature":"34","num_nodes":"23","size_leaf_vector":"0"}},{"base_weights":[4.3123942E-2,-2.944912E-1,6.025012E-1,6.231442E-1,-3.9593843E-1,6.8848157E-1,1.3855045E-1,4.016908E-1,-4.8699E-1,5.3285414E-1,-4.274051E-1,-3.69931E-2,-5.792102E-1],"categories":[],"categories_nodes":[],"categories_segments":[],"categories_sizes":[],"default_left":[true,true,true,false,true,false,true,false,true,false,false,false,false],"id":11,"left_children":[1,3,5,-1,7,-1,9,-1,11,-1,-1,-1,-1],"loss_changes":[9.240553E0,3.0952322E0,6.382427E-1,0E0,2.2410693E0,0E0,1.1487952E0,0E0,1.0463686E0,0E0,0E0,0E0,0E0],"parents":[2147483647,0,0,1,1,2,2,4,4,6,6,8,8],"right_children":[2,4,6,-1,8,-1,10,-1,12,-1,-1,-1,-1],"split_conditions":[4.3925244E-1,5.108377E-1,6.748811E-1,1.8694326E-1,1.2877955E-1,2.0654447E-1,4.5038933E-1,1.2050725E-1,5.947296E-1,1.5985624E-1,-1.2822153E-1,-1.109793E-2,-1.7376307E-1],"split_indices":[8,30,32,0,33,0,25,0,30,0,0,0,0],"split_type":[0,0,0,0,0,0,0,0,0,0,0,0,0],"sum_hessian":[4.699004E1,2.9598965E1,1.7391075E1,2.434578E0,2.7164387E1,1.4263735E1,3.1273408E0,2.433631E0,2.4730755E1,1.8776567E0,1.2496841E0,4.444508E0,2.0286247E1],"tree_param":{"num_deleted":"0","num_feature":"34","num_nodes":"13","size_leaf_vector":"0"}},{"base_weights":[-5.6108963E-2,7.753951E-2,-3.7015006E-1,-8.518388E-2,4.4141975E-1,-5.2310175E-1,-9.089779E-2,1.1008818E-1,-3.710743E-1,5.8906996E-1,-6.874466E-2,-3.7825832E-1,4.1151825E-1,3.0388534E-1,-2.687011E-1,-5.282451E-1,3.5709947E-1,6.711836E-1,1.0688844E-1,2.1034114E-1,-3.267676E-1,-4.515959E-1,-7.592689E-2],"categories":[],"categories_nodes":[],"categories_segments":[],"categories_sizes":[],"default_left":[true,true,true,true,true,false,true,true,true,true,true,true,false,false,false,false,false,true,true,false,false,true,true],"id":12,"left_children":[1,3,5,7,9,-1,11,13,15,-1,19,-1,-1,-1,-1,-1,-1,-1,-1,-1,-1,-1,-1],"loss_changes":[1.8829529E0,1.9215585E0,5.231701E-1,1.3150202E0,7.9326165E-1,0E0,1.0130947E0,1.1337652E0,1.2749115E0,2.3926187E-1,2.9474375E-1,6.103301E-2,0E0,0E0,0E0,0E0,0E0,0E0,0E0,0E0,0E0,0E0,0E0],"parents":[2147483647,0,0,1,1,2,2,3,3,4,4,6,6,7,7,8,8,9,9,10,10,11,11],"right_children":[2,4,6,8,10,-1,12,14,16,-1,20,-1,-1,-1,-1,-1,-1,-1,-1,-1,-1,-1,-1],"split_conditions":[4.20761E-1,5.7175136E-1,5.265754E-1,6.0785663E-1,7.707312E-1,-1.5693054E-1,6.467677E-1,3.4479782E-1,6.9652057E-1,1.7672099E-1,5.7226163E-1,-1.134775E-1,1.2345548E-1,9.11656E-2,-8.0610335E-2,-1.5847354E-1,1.0712985E-1,2.0135508E-1,3.2066535E-2,6.310234E-2,-9.8030284E-2,-1.3547878E-1,-2.2778068E-2],"split_indices":[4,24,23,26,32,0,26,6,23,33,3,20,0,0,0,0,0,2147483647,2147483647,0,0,2147483647,2147483647],"split_type":[0,0,0,0,0,0,0,0,0,0,0,0,0,0,0,0,0,0,0,0,0,0,0],"sum_hessian":[4.3179234E1,3.0817236E1,1.2361998E1,2.1823776E1,8.993461E0,7.423038E0,4.9389596E0,1.3332316E1,8.491459E0,6.8548765E0,2.138584E0,3.2991233E0,1.6398363E0,8.950687E0,4.3816285E0,7.2098327E0,1.2816267E0,5.5224514E0,1.332425E0,1.1161343E0,1.0224496E0,2.2577431E0,1.0413802E0],"tree_param":{"num_deleted":"4","num_feature":"34","num_nodes":"23","size_leaf_vector":"0"}},{"base_weights":[2.0483281E-2,1.7527609E-1,-4.6958056E-1,-3.2596502E-1,3.7271777E-1,-5.2539235E-1,3.3974685E-2,1.0984197E-1,-5.9953517E-1,4.9025196E-1,-1.03868455E-1,-3.7283894E-1,4.639252E-1,6.092798E-1,4.3510865E-2,-4.969528E-1,6.4188975E-1],"categories":[],"categories_nodes":[],"categories_segments":[],"categories_sizes":[],"default_left":[true,true,true,true,true,false,false,true,false,true,true,false,false,false,false,false,false],"id":13,"left_children":[1,3,5,7,9,-1,-1,11,-1,13,15,-1,-1,-1,-1,-1,-1],"loss_changes":[3.4720185E0,3.5542955E0,3.2694244E-1,1.2981062E0,1.4709682E0,0E0,0E0,9.9864453E-1,0E0,1.0641408E0,2.0310643E0,0E0,0E0,0E0,0E0,0E0,0E0],"parents":[2147483647,0,0,1,1,2,2,3,3,4,4,7,7,9,9,10,10],"right_children":[2,4,6,8,10,-1,-1,12,-1,14,16,-1,-1,-1,-1,-1,-1],"split_conditions":[5.444856E-1,5.5202115E-1,7.075374E-1,4.4633043E-1,5.8182824E-1,-1.5761772E-1,1.0192405E-2,4.3057865E-1,-1.7986056E-1,5.248368E-1,5.3177446E-1,-1.11851685E-1,1.3917758E-1,1.8278395E-1,1.305326E-2,-1.4908585E-1,1.9256693E-1],"split_indices":[14,28,19,24,24,0,0,24,0,20,14,0,0,0,0,0,0],"split_type":[0,0,0,0,0,0,0,0,0,0,0,0,0,0,0,0,0],"sum_hessian":[4.3684757E1,3.368672E1,9.998034E0,9.335624E0,2.4351099E1,8.961423E0,1.0366101E0,3.831074E0,5.50455E0,1.9510746E1,4.8403525E0,1.5987341E0,2.2323399E0,1.511874E1,4.392006E0,3.3881223E0,1.4522302E0],"tree_param":{"num_deleted":"0","num_feature":"34","num_nodes":"17","size_leaf_vector":"0"}},{"base_weights":[3.7315246E-2,-2.6456493E-1,5.35666E-1,4.9316242E-1,-3.683173E-1,6.1610526E-1,1.2879853E-1,3.7968117E-1,-4.8245987E-1,4.8846582E-1,-3.8912138E-1,1.15833E-1,4.7722834E-1,-5.6493115E-1,-2.8925547E-3],"categories":[],"categories_nodes":[],"categories_segments":[],"categories_sizes":[],"default_left":[true,true,true,false,true,false,true,true,true,false,false,true,true,false,false],"id":14,"left_children":[1,3,5,-1,7,-1,9,-1,13,-1,-1,-1,-1,-1,-1],"loss_changes":[6.445455E0,2.285706E0,4.487977E-1,0E0,2.241912E0,0E0,9.217975E-1,4.1289628E-2,8.4320354E-1,0E0,0E0,0E0,0E0,0E0,0E0],"parents":[2147483647,0,0,1,1,2,2,4,4,6,6,7,7,8,8],"right_children":[2,4,6,-1,8,-1,10,-1,14,-1,-1,-1,-1,-1,-1],"split_conditions":[4.3925244E-1,4.53169E-1,6.748811E-1,1.4794873E-1,1.2877955E-1,1.8483159E-1,4.5038933E-1,1.1390436E-1,7.0643973E-1,1.4653975E-1,-1.1673642E-1,3.4749903E-2,1.4316851E-1,-1.6947936E-1,-8.6776644E-4],"split_indices":[8,28,32,0,33,0,25,6,31,0,0,2147483647,2147483647,0,0],"split_type":[0,0,0,0,0,0,0,0,0,0,0,0,0,0,0],"sum_hessian":[4.0901382E1,2.5763838E1,1.5137545E1,2.6508446E0,2.3112993E1,1.2209429E1,2.9281166E0,2.7520306E0,2.0360964E1,1.7616299E0,1.1664865E0,1.3332574E0,1.4187732E0,1.7221395E1,3.1395674E0],"tree_param":{"num_deleted":"2","num_feature":"34","num_nodes":"15","size_leaf_vector":"0"}},{"base_weights":[-4.4965375E-2,7.206764E-2,-3.3775163E-1,-3.3253798E-1,1.7173767E-1,-4.5793217E-1,2.94703E-3,-1.136374E-2,-5.122755E-1,6.8581563E-1,6.2100828E-2,-5.131637E-1,-5.440382E-2,-3.5007945E-1,3.719621E-1,-3.0268887E-1,2.5855148E-1,-2.269872E-1,3.3177093E-1],"categories":[],"categories_nodes":[],"categories_segments":[],"categories_sizes":[],"default_left":[true,true,true,true,true,true,true,true,false,false,true,true,true,false,false,false,false,false,false],"id":15,"left_children":[1,3,5,7,9,-1,13,15,-1,-1,17,-1,-1,-1,-1,-1,-1,-1,-1],"loss_changes":[1.3859907E0,1.2352281E0,4.7320092E-1,3.4716386E-1,1.3156965E0,1.6208935E-1,6.5112585E-1,3.3120573E-1,0E0,0E0,1.7095295E0,0E0,0E0,0E0,0E0,0E0,0E0,0E0,0E0],"parents":[2147483647,0,0,1,1,2,2,3,3,4,4,5,5,6,6,7,7,10,10],"right_children":[2,4,6,8,10,-1,14,16,-1,-1,18,-1,-1,-1,-1,-1,-1,-1,-1],"split_conditions":[4.20761E-1,4.1423523E-1,6.264479E-1,3.1136551E-1,4.39319E-1,-1.3737966E-1,5.262569E-1,2.5847602E-1,-1.5368266E-1,2.057447E-1,5.476513E-1,-1.5394911E-1,-1.6321147E-2,-1.0502384E-1,1.11588635E-1,-9.080666E-2,7.756545E-2,-6.809616E-2,9.9531285E-2],"split_indices":[4,23,22,23,19,33,23,23,0,0,22,2147483647,2147483647,0,0,0,0,0,0],"split_type":[0,0,0,0,0,0,0,0,0,0,0,0,0,0,0,0,0,0,0],"sum_hessian":[3.8738033E1,2.82141E1,1.0523932E1,5.1147265E0,2.3099373E1,7.525304E0,2.9986281E0,2.2167766E0,2.8979502E0,3.1366315E0,1.9962742E1,6.3803277E0,1.1449761E0,1.5587394E0,1.4398888E0,1.007711E0,1.2090656E0,9.710888E0,1.0251854E1],"tree_param":{"num_deleted":"2","num_feature":"34","num_nodes":"19","size_leaf_vector":"0"}},{"base_weights":[1.6380569E-2,-3.5981125E-1,1.8029791E-1,1.1024233E-1,-5.640552E-1,3.7766522E-1,-2.9292336E-1,-3.4457585E-1,4.1830304E-1,4.8545197E-1,-1.5511069E-1,-4.2582306E-1,3.4542155E-1,5.4094183E-1,-9.41822E-3,-4.246312E-1,2.9492745E-1,-4.995547E-1,3.4081157E-2],"categories":[],"categories_nodes":[],"categories_segments":[],"categories_sizes":[],"default_left":[true,true,true,true,false,true,true,false,false,true,true,true,false,false,false,false,false,false,false],"id":16,"left_children":[1,3,5,7,-1,9,11,-1,-1,13,15,17,-1,-1,-1,-1,-1,-1,-1],"loss_changes":[2.5075462E0,1.2484046E0,2.7497523E0,7.857155E-1,0E0,1.24547E0,9.004025E-1,0E0,0E0,4.7714567E-1,6.3305455E-1,2.8143167E-1,0E0,0E0,0E0,0E0,0E0,0E0,0E0],"parents":[2147483647,0,0,1,1,2,2,3,3,5,5,6,6,9,9,10,10,11,11],"right_children":[2,4,6,8,-1,10,12,-1,-1,14,16,18,-1,-1,-1,-1,-1,-1,-1],"split_conditions":[5.5202115E-1,4.4633043E-1,5.6910414E-1,4.3057865E-1,-1.6921657E-1,5.8182824E-1,7.090679E-1,-1.0337276E-1,1.2549092E-1,7.057725E-1,5.3055406E-1,6.800417E-1,1.0362647E-1,1.6228256E-1,-2.8254662E-3,-1.2738937E-1,8.847824E-2,-1.4986642E-1,1.0224348E-2],"split_indices":[28,24,18,24,0,24,28,0,0,23,14,29,0,0,0,0,0,0,0],"split_type":[0,0,0,0,0,0,0,0,0,0,0,0,0,0,0,0,0,0,0],"sum_hessian":[3.8612396E1,1.1355755E1,2.7256641E1,3.5790522E0,7.776703E0,1.9376974E1,7.8796663E0,1.3974043E0,2.1816478E0,1.6190311E1,3.1866624E0,6.797411E0,1.0822552E0,1.4474217E1,1.7160947E0,2.0283637E0,1.1582989E0,5.783921E0,1.0134903E0],"tree_param":{"num_deleted":"0","num_feature":"34","num_nodes":"19","size_leaf_vector":"0"}},{"base_weights":[3.1331412E-2,-2.3584005E-1,4.802028E-1,3.8025466E-1,-3.9069864E-1,5.9389585E-1,9.460884E-2,5.6846896E-3,5.857348E-1,1.5822427E-1,-5.0876373E-1,-3.864792E-1,4.411621E-1,4.9582252E-1,-1.8482052E-1,-4.8271082E-2,-5.36369E-1],"categories":[],"categories_nodes":[],"categories_segments":[],"categories_sizes":[],"default_left":[true,true,true,true,true,false,true,false,false,true,true,false,false,false,false,true,true],"id":17,"left_children":[1,3,5,7,9,-1,11,-1,-1,13,-1,-1,-1,-1,-1,-1,-1],"loss_changes":[4.468965E0,2.3848152E0,5.523555E-1,3.9804107E-1,1.3263834E0,0E0,8.9580846E-1,0E0,0E0,5.740701E-1,1.7824364E-1,0E0,0E0,0E0,0E0,0E0,0E0],"parents":[2147483647,0,0,1,1,2,2,3,3,4,4,6,6,9,9,10,10],"right_children":[2,4,6,8,10,-1,12,-1,-1,14,-1,-1,-1,-1,-1,-1,-1],"split_conditions":[4.4911122E-1,4.8146045E-1,6.408248E-1,4.4138366E-1,2.5287884E-1,1.7816876E-1,6.118399E-1,1.7054069E-3,1.7572044E-1,5.798135E-1,-1.5262912E-1,-1.1594377E-1,1.3234864E-1,1.4874676E-1,-5.544616E-2,-1.4481326E-2,-1.6091071E-1],"split_indices":[0,26,26,16,33,0,14,0,0,28,28,0,0,0,0,2147483647,2147483647],"split_type":[0,0,0,0,0,0,0,0,0,0,0,0,0,0,0,0,0],"sum_hessian":[3.532013E1,2.2438917E1,1.2881212E1,4.2148643E0,1.8224054E1,9.530822E0,3.3503902E0,1.8571423E0,2.3577218E0,3.1656718E0,1.5058382E1,1.3546481E0,1.9957421E0,1.371041E0,1.7946308E0,1.0071083E0,1.4051273E1],"tree_param":{"num_deleted":"2","num_feature":"34","num_nodes":"17","size_leaf_vector":"0"}},{"base_weights":[-3.4704864E-2,3.653398E-2,-4.4532335E-1,-4.5818022E-1,9.9014536E-2,3.5333222E-1,-3.7400734E-2,-3.2638478E-1,4.9508408E-1,-1.4589785E-1,4.3086368E-1],"categories":[],"categories_nodes":[],"categories_segments":[],"categories_sizes":[],"default_left":[true,true,false,false,true,true,true,false,false,false,false],"id":18,"left_children":[1,3,-1,-1,5,7,9,-1,-1,-1,-1],"loss_changes":[1.0683283E0,1.0212687E0,0E0,0E0,1.0142525E0,1.1414337E0,1.0629544E0,0E0,0E0,0E0,0E0],"parents":[2147483647,0,0,1,1,4,4,5,5,6,6],"right_children":[2,4,-1,-1,6,8,10,-1,-1,-1,-1],"split_conditions":[5.263485E-1,2.0573562E-1,-1.3359702E-1,-1.3745408E-1,4.399263E-1,3.6909854E-1,7.1027523E-1,-9.791544E-2,1.4852522E-1,-4.3769356E-2,1.2925911E-1],"split_indices":[10,29,0,0,29,14,25,0,0,0,0],"split_type":[0,0,0,0,0,0,0,0,0,0,0],"sum_hessian":[3.496538E1,3.0572361E1,4.3930197E0,2.7180414E0,2.7854319E1,9.16953E0,1.868479E1,1.3575256E0,7.8120046E0,1.5728838E1,2.9559515E0],"tree_param":{"num_deleted":"0","num_feature":"34","num_nodes":"11","size_leaf_vector":"0"}},{"base_weights":[1.2656451E-2,-2.7101392E-1,1.9958802E-1,-5.2808815E-1,-6.45518E-2,3.9924985E-1,-3.0260497E-1,2.2931306E-1,-4.3339452E-1,5.6772E-1,9.716125E-2,-4.4462195E-1,-2.7935972E-4,-1.8544643E-1,4.0869972E-1,-4.2959404E-1,5.2277833E-1,2.1027835E-2,-2.0603642E-2],"categories":[],"categories_nodes":[],"categories_segments":[],"categories_sizes":[],"default_left":[true,true,true,false,true,true,true,true,false,false,true,false,true,false,false,false,false,true,true],"id":19,"left_children":[1,3,5,-1,7,9,11,13,-1,-1,15,-1,-1,-1,-1,-1,-1,-1,-1],"loss_changes":[1.9179921E0,7.294824E-1,2.3030365E0,0E0,1.0876647E0,7.593086E-1,2.9012477E-1,5.020194E-1,0E0,0E0,1.7796303E0,0E0,1.8022384E-3,0E0,0E0,0E0,0E0,0E0,0E0],"parents":[2147483647,0,0,1,1,2,2,4,4,5,5,6,6,7,7,10,10,12,12],"right_children":[2,4,6,-1,8,10,12,14,-1,-1,16,-1,-1,-1,-1,-1,-1,-1,-1],"split_conditions":[6.4690197E-1,4.4861403E-1,5.9650993E-1,-1.5842645E-1,5.6365156E-1,5.594634E-1,5.89272E-1,4.2792708E-1,-1.3001837E-1,1.7031601E-1,5.526364E-1,-1.333866E-1,-8.380792E-5,-5.563393E-2,1.2260992E-1,-1.2887822E-1,1.568335E-1,6.3083507E-3,-6.181093E-3],"split_indices":[30,21,22,0,17,31,31,20,0,0,1,0,1,0,0,0,0,2147483647,2147483647],"split_type":[0,0,0,0,0,0,0,0,0,0,0,0,0,0,0,0,0,0,0],"sum_hessian":[3.4150074E1,1.3386354E1,2.0763718E1,5.268516E0,8.117838E0,1.5003582E1,5.760136E0,4.7286844E0,3.3891535E0,9.067475E0,5.936106E0,3.5988903E0,2.1612458E0,1.4175019E0,3.3111827E0,2.6486816E0,3.2874246E0,1.0382099E0,1.1230358E0],"tree_param":{"num_deleted":"2","num_feature":"34","num_nodes":"19","size_leaf_vector":"0"}},{"base_weights":[2.558048E-2,-2.0805344E-1,4.3837473E-1,2.039885E-1,-3.843688E-1,5.257431E-1,6.885917E-2,-2.3836021E-1,5.322193E-1,2.7618337E-1,-5.131696E-1,3.8019904E-1,-3.3323E-1,-3.8970113E-1,7.871486E-2,1.2677109E-1,6.232921E-1],"categories":[],"categories_nodes":[],"categories_segments":[],"categories_sizes":[],"default_left":[true,true,true,true,true,false,true,true,true,false,false,false,false,true,true,true,true],"id":20,"left_children":[1,3,5,7,9,-1,11,-1,-1,-1,-1,-1,-1,-1,-1,-1,-1],"loss_changes":[3.1197772E0,1.584519E0,3.4060144E-1,1.1237383E0,1.4064674E0,0E0,5.5015224E-1,2.0415731E-1,7.794225E-2,0E0,0E0,0E0,0E0,0E0,0E0,0E0,0E0],"parents":[2147483647,0,0,1,1,2,2,3,3,4,4,6,6,7,7,8,8],"right_children":[2,4,6,8,10,-1,12,-1,-1,-1,-1,-1,-1,-1,-1,-1,-1],"split_conditions":[4.3925244E-1,5.947296E-1,6.748811E-1,5.852356E-1,1.2877955E-1,1.5772295E-1,4.5038933E-1,-7.1508065E-2,1.596658E-1,8.2855016E-2,-1.5395088E-1,1.1405972E-1,-9.9969E-2,-1.16910346E-1,2.361446E-2,3.803133E-2,1.8698764E-1],"split_indices":[8,30,32,19,33,0,25,31,31,0,0,0,0,2147483647,2147483647,2147483647,2147483647],"split_type":[0,0,0,0,0,0,0,0,0,0,0,0,0,0,0,0,0],"sum_hessian":[3.04028E1,1.973126E1,1.067154E1,5.86591E0,1.386535E1,8.288917E0,2.3826241E0,2.6152303E0,3.2506797E0,2.0757322E0,1.1789618E1,1.3735317E0,1.0090923E0,1.6152272E0,1.0000031E0,1.034986E0,2.2156937E0],"tree_param":{"num_deleted":"4","num_feature":"34","num_nodes":"17","size_leaf_vector":"0"}},{"base_weights":[-2.7991328E-2,6.51663E-2,-2.9247275E-1,-4.0915906E-1,1.3127236E-1,-4.0652084E-1,1.6710388E-2,1.1718392E-2,4.0138203E-1,-4.6114534E-1,-6.553016E-2,-2.8989744E-1,3.0125767E-1,1.7074123E-1,-2.9786667E-1,1.0776248E-2,4.6970248E-1],"categories":[],"categories_nodes":[],"categories_segments":[],"categories_sizes":[],"default_left":[true,true,true,false,true,true,true,true,true,true,true,false,false,false,false,true,true],"id":21,"left_children":[1,3,5,-1,7,-1,11,13,-1,-1,-1,-1,-1,-1,-1,-1,-1],"loss_changes":[8.204955E-1,8.3361727E-1,3.119853E-1,0E0,7.247053E-1,8.8287234E-2,3.7461168E-1,8.723963E-1,1.790756E-1,0E0,0E0,0E0,0E0,0E0,0E0,0E0,0E0],"parents":[2147483647,0,0,1,1,2,2,4,4,5,5,6,6,7,7,8,8],"right_children":[2,4,6,-1,8,-1,12,14,-1,-1,-1,-1,-1,-1,-1,-1,-1],"split_conditions":[4.20761E-1,3.666824E-1,6.264479E-1,-1.2274773E-1,5.7175136E-1,-1.2195626E-1,5.262569E-1,3.4479782E-1,1.20414615E-1,-1.383436E-1,-1.9659048E-2,-8.6969234E-2,9.03773E-2,5.1222373E-2,-8.9360006E-2,3.2328744E-3,1.4091074E-1],"split_indices":[4,16,22,0,24,33,23,6,19,2147483647,2147483647,0,0,0,0,2147483647,2147483647],"split_type":[0,0,0,0,0,0,0,0,0,0,0,0,0,0,0,0,0],"sum_hessian":[3.1527847E1,2.3872799E1,7.655049E0,2.285366E0,2.1587433E1,5.362256E0,2.2927928E0,1.5687383E1,5.9000506E0,4.318148E0,1.0441082E0,1.0945652E0,1.1982276E0,1.0660134E1,5.0272484E0,1.0506933E0,4.849357E0],"tree_param":{"num_deleted":"4","num_feature":"34","num_nodes":"17","size_leaf_vector":"0"}},{"base_weights":[8.270947E-3,-3.2023266E-1,1.5000886E-1,9.8436676E-2,-5.1912576E-1,2.6802E-1,-3.5826406E-1,-2.8544134E-1,3.2903346E-1,3.5691395E-1,-5.705754E-2,-4.0260828E-1,-9.875504E-2,-6.090368E-2,4.7018883E-1,-3.8351318E-1,3.0437747E-1],"categories":[],"categories_nodes":[],"categories_segments":[],"categories_sizes":[],"default_left":[true,true,true,true,false,true,true,false,false,true,true,true,true,false,false,false,false],"id":22,"left_children":[1,3,5,7,-1,9,-1,-1,-1,13,15,-1,-1,-1,-1,-1,-1],"loss_changes":[1.4996797E0,8.6017334E-1,1.4432583E0,4.4533226E-1,0E0,5.6365037E-1,1.3869226E-2,0E0,0E0,7.3388386E-1,6.948114E-1,0E0,0E0,0E0,0E0,0E0,0E0],"parents":[2147483647,0,0,1,1,2,2,3,3,5,5,6,6,9,9,10,10],"right_children":[2,4,6,8,-1,10,-1,-1,-1,14,16,-1,-1,-1,-1,-1,-1],"split_conditions":[5.5202115E-1,4.4633043E-1,6.043276E-1,4.3057865E-1,-1.5573773E-1,5.9650993E-1,-1.0747922E-1,-8.5632406E-2,9.8710045E-2,6.56321E-1,5.337231E-1,-1.2078249E-1,-2.9626513E-2,-1.8271105E-2,1.4105666E-1,-1.1505396E-1,9.131324E-2],"split_indices":[28,24,18,24,0,22,26,0,0,30,14,2147483647,2147483647,0,0,0,0],"split_type":[0,0,0,0,0,0,0,0,0,0,0,0,0,0,0,0,0],"sum_hessian":[3.017693E1,8.716203E0,2.1460728E1,2.9698193E0,5.746383E0,1.7800484E1,3.6602435E0,1.0252435E0,1.9445759E0,1.3901201E1,3.8992827E0,2.6551201E0,1.0051234E0,3.0635493E0,1.0837652E1,2.0166855E0,1.8825972E0],"tree_param":{"num_deleted":"2","num_feature":"34","num_nodes":"17","size_leaf_vector":"0"}},{"base_weights":[2.3960978E-2,-1.9271763E-1,4.027765E-1,3.1167492E-1,-3.3980578E-1,5.188307E-1,4.905318E-2,7.016359E-3,4.837148E-1,1.5048179E-1,-4.6889892E-1,-3.344599E-1,3.6086956E-1,4.1016102E-1,-1.32645E-1,-5.0307125E-1,-5.5092447E-2],"categories":[],"categories_nodes":[],"categories_segments":[],"categories_sizes":[],"default_left":[true,true,true,true,true,false,true,true,true,true,true,false,false,false,false,true,true],"id":23,"left_children":[1,3,5,-1,9,-1,11,-1,-1,13,-1,-1,-1,-1,-1,-1,-1],"loss_changes":[2.3133006E0,1.44156E0,3.9467978E-1,2.369864E-1,9.8304224E-1,0E0,5.551168E-1,0E0,0E0,3.309847E-1,1.370945E-1,0E0,0E0,0E0,0E0,0E0,0E0],"parents":[2147483647,0,0,1,1,2,2,3,3,4,4,6,6,9,9,10,10],"right_children":[2,4,6,-1,10,-1,12,-1,-1,14,-1,-1,-1,-1,-1,-1,-1],"split_conditions":[4.4911122E-1,4.8146045E-1,6.408248E-1,9.350248E-2,2.5287884E-1,1.5564921E-1,6.118399E-1,2.1049078E-3,1.4511444E-1,5.798135E-1,-1.4066969E-1,-1.00337975E-1,1.0826087E-1,1.2304831E-1,-3.97935E-2,-1.5092137E-1,-1.6527735E-2],"split_indices":[0,26,26,16,33,0,14,2147483647,2147483647,28,18,0,0,0,0,2147483647,2147483647],"split_type":[0,0,0,0,0,0,0,0,0,0,0,0,0,0,0,0,0],"sum_hessian":[2.6237396E1,1.7003075E1,9.234322E0,3.5862367E0,1.3416838E1,6.6016088E0,2.6327128E0,1.6698856E0,1.9163511E0,2.7618446E0,1.0654993E1,1.1480592E0,1.4846536E0,1.2065414E0,1.5553032E0,9.642958E0,1.0120355E0],"tree_param":{"num_deleted":"4","num_feature":"34","num_nodes":"17","size_leaf_vector":"0"}},{"base_weights":[-2.1934388E-2,-3.2637045E-1,5.0257243E-2,-3.244158E-2,-4.6408266E-1,3.0190325E-1,-1.3867877E-1,-1.8356276E-1,4.7966993E-1,-2.7824408E-1,2.2465482E-1,-3.6752033E-1,1.4619608E-1,6.3430464E-1,-6.727748E-2,-5.5058844E-2,-4.6932334E-1,3.5936236E-1,-1.2081614E-1],"categories":[],"categories_nodes":[],"categories_segments":[],"categories_sizes":[],"default_left":[true,true,true,true,true,true,true,true,true,true,true,false,false,false,false,false,false,false,false],"id":24,"left_children":[1,-1,5,-1,-1,7,9,11,13,15,17,-1,-1,-1,-1,-1,-1,-1,-1],"loss_changes":[6.681444E-1,2.2042745E-1,1.2227439E0,0E0,0E0,1.0343857E0,8.1661594E-1,2.7589557E-1,7.4494505E-1,4.514091E-1,2.6123095E-1,0E0,0E0,0E0,0E0,0E0,0E0,0E0,0E0],"parents":[2147483647,0,0,1,1,2,2,5,5,6,6,7,7,8,8,9,9,10,10],"right_children":[2,-1,6,-1,-1,8,10,12,14,16,18,-1,-1,-1,-1,-1,-1,-1,-1],"split_conditions":[4.1423523E-1,-9.791114E-2,3.4437516E-1,-9.732474E-3,-1.392248E-1,3.9556623E-1,6.264479E-1,6.201021E-1,5.6799227E-1,6.080693E-1,6.101886E-1,-1.10256106E-1,4.3858826E-2,1.902914E-1,-2.0183247E-2,-1.6517654E-2,-1.40797E-1,1.0780872E-1,-3.6244843E-2],"split_indices":[23,23,6,2147483647,2147483647,14,22,1,3,32,14,0,0,0,0,0,0,0,0],"split_type":[0,0,0,0,0,0,0,0,0,0,0,0,0,0,0,0,0,0,0],"sum_hessian":[2.8654644E1,4.817613E0,2.383703E1,1.9312294E0,2.886384E0,9.965695E0,1.3871334E1,2.6623728E0,7.303323E0,1.0190937E1,3.680397E0,1.6354928E0,1.02688E0,5.569093E0,1.7342296E0,5.2947206E0,4.8962164E0,2.618982E0,1.0614148E0],"tree_param":{"num_deleted":"2","num_feature":"34","num_nodes":"19","size_leaf_vector":"0"}},{"base_weights":[7.558716E-3,-2.9729563E-1,1.373612E-1,9.513231E-2,-4.9707836E-1,2.4773462E-1,-3.0900952E-1,2.791845E-1,-1.306923E-1,3.6610925E-1,-7.1234815E-2,-3.8623032E-1,-2.2068897E-2,4.5910227E-1,-3.4814906E-1,-4.4790035E-1,3.6439466E-1],"categories":[],"categories_nodes":[],"categories_segments":[],"categories_sizes":[],"default_left":[true,true,true,true,false,true,true,true,true,true,true,true,true,false,false,false,false],"id":25,"left_children":[1,3,5,-1,-1,9,-1,-1,-1,13,15,-1,-1,-1,-1,-1,-1],"loss_changes":[1.1493025E0,7.279094E-1,1.0782001E0,1.9309954E-1,0E0,6.625004E-1,9.064382E-2,0E0,0E0,9.871774E-1,1.0491644E0,0E0,0E0,0E0,0E0,0E0,0E0],"parents":[2147483647,0,0,1,1,2,2,3,3,5,5,6,6,9,9,10,10],"right_children":[2,4,6,-1,-1,10,-1,-1,-1,14,16,-1,-1,-1,-1,-1,-1],"split_conditions":[5.5202115E-1,4.4633043E-1,4.8100972E-1,2.8539695E-2,-1.4912352E-1,6.09572E-1,-9.270286E-2,8.375535E-2,-3.9207693E-2,6.454316E-1,5.752759E-1,-1.158691E-1,-6.6206693E-3,1.3773069E-1,-1.0444472E-1,-1.3437012E-1,1.09318405E-1],"split_indices":[28,24,12,0,0,27,11,2147483647,2147483647,23,3,2147483647,2147483647,0,0,0,0],"split_type":[0,0,0,0,0,0,0,0,0,0,0,0,0,0,0,0,0],"sum_hessian":[2.7012175E1,7.681357E0,1.9330818E1,2.768023E0,4.913334E0,1.5855304E1,3.4755144E0,1.3948773E0,1.3731457E0,1.1456009E1,4.399295E0,2.4658751E0,1.0096393E0,1.045239E1,1.0036194E0,2.3442118E0,2.0550828E0],"tree_param":{"num_deleted":"4","num_feature":"34","num_nodes":"17","size_leaf_vector":"0"}},{"base_weights":[1.8462077E-2,-2.6076418E-1,2.6710972E-1,6.405472E-2,-4.7318977E-1,3.369899E-1,-2.7864546E-1,-3.160668E-1,5.007427E-1,4.2583856E-1,7.3556766E-2,-3.702803E-1,-9.903169E-2,3.3061394E-1,-2.4263085E-1],"categories":[],"categories_nodes":[],"categories_segments":[],"categories_sizes":[],"default_left":[true,true,true,true,false,true,false,true,false,false,true,true,true,false,false],"id":26,"left_children":[1,3,5,7,-1,9,-1,-1,-1,-1,13,-1,-1,-1,-1],"loss_changes":[1.7195152E0,8.375662E-1,5.921259E-1,1.0723486E0,0E0,2.5033295E-1,0E0,5.183786E-3,0E0,0E0,4.2514604E-1,0E0,0E0,0E0,0E0],"parents":[2147483647,0,0,1,1,2,2,3,3,5,5,7,7,10,10],"right_children":[2,4,6,8,-1,10,-1,-1,-1,-1,14,-1,-1,-1,-1],"split_conditions":[5.062678E-1,5.302374E-1,6.803875E-1,4.483167E-1,-1.4195694E-1,6.748811E-1,-8.359364E-2,-9.4820045E-2,1.5022281E-1,1.2775157E-1,5.455365E-1,-1.11084096E-1,-2.9709507E-2,9.9184185E-2,-7.278926E-2],"split_indices":[14,28,28,16,0,32,0,28,0,0,20,2147483647,2147483647,0,0],"split_type":[0,0,0,0,0,0,0,0,0,0,0,0,0,0,0],"sum_hessian":[2.276332E1,1.0699391E1,1.206393E1,4.5066915E0,6.1926994E0,1.1033669E1,1.0302597E0,2.55707E0,1.9496216E0,7.789869E0,3.243801E0,1.4810355E0,1.0760345E0,1.7640342E0,1.479767E0],"tree_param":{"num_deleted":"2","num_feature":"34","num_nodes":"15","size_leaf_vector":"0"}},{"base_weights":[-1.1926131E-2,-6.518039E-2,3.6296564E-1,6.202055E-2,-3.0786353E-1,1.125616E-1,4.207893E-1,-1.8957818E-1,2.1967608E-1,-3.8607857E-1,1.3538885E-1,1.9092633E-1,-3.8296753E-1,-2.1398762E-1,3.477285E-1,-4.7291148E-1,-4.3201275E-2],"categories":[],"categories_nodes":[],"categories_segments":[],"categories_sizes":[],"default_left":[true,true,true,true,true,true,true,true,true,true,false,false,false,false,false,true,true],"id":27,"left_children":[1,3,-1,7,9,-1,-1,11,13,-1,-1,-1,-1,-1,-1,-1,-1],"loss_changes":[5.5880857E-1,7.6979893E-1,3.1148493E-3,7.075548E-1,3.4802222E-1,0E0,0E0,5.8850616E-1,6.732637E-1,2.0318949E-1,0E0,0E0,0E0,0E0,0E0,0E0,0E0],"parents":[2147483647,0,0,1,1,2,2,3,3,4,4,7,7,8,8,9,9],"right_children":[2,4,-1,8,10,-1,-1,12,14,-1,-1,-1,-1,-1,-1,-1,-1],"split_conditions":[7.155349E-1,5.773475E-1,1.088897E-1,4.1263738E-1,6.9030297E-1,3.3768483E-2,1.262368E-1,4.0932706E-1,5.86484E-1,-1.15823574E-1,4.0616658E-2,5.72779E-2,-1.1489026E-1,-6.419629E-2,1.0431855E-1,-1.4187345E-1,-1.2960383E-2],"split_indices":[25,7,16,13,21,2147483647,2147483647,18,30,24,0,0,0,0,0,2147483647,2147483647],"split_type":[0,0,0,0,0,0,0,0,0,0,0,0,0,0,0,0,0],"sum_hessian":[2.5804983E1,2.331865E1,2.4863336E0,1.5787934E1,7.5307155E0,1.0192275E0,1.4671061E0,6.0039268E0,9.784008E0,6.5108213E0,1.0198941E0,2.0274804E0,3.9764464E0,2.0774386E0,7.706569E0,4.89255E0,1.618271E0],"tree_param":{"num_deleted":"4","num_feature":"34","num_nodes":"17","size_leaf_vector":"0"}},{"base_weights":[7.373188E-4,2.1574405E-1,-1.6769458E-1,-1.6598321E-1,3.556979E-1,-2.9530188E-1,2.872032E-1,1.9452122E-1,-3.803836E-1,4.370137E-1,-1.0306445E-1,-4.4670334E-1,-8.8174544E-2,5.1789176E-2,3.5980242E-1,5.0073934E-1,2.2860663E-2,-4.2134365E-1,1.437438E-1],"categories":[],"categories_nodes":[],"categories_segments":[],"categories_sizes":[],"default_left":[true,true,true,true,true,true,true,false,false,true,false,false,true,true,true,true,true,false,false],"id":28,"left_children":[1,3,5,7,9,11,-1,-1,-1,-1,-1,-1,17,-1,-1,-1,-1,-1,-1],"loss_changes":[9.312604E-1,6.624373E-1,9.219829E-1,3.6088997E-1,3.6521173E-1,3.292625E-1,4.402682E-2,0E0,0E0,1.8599844E-1,0E0,0E0,5.404138E-1,0E0,0E0,0E0,0E0,0E0,0E0],"parents":[2147483647,0,0,1,1,2,2,3,3,4,4,5,5,6,6,9,9,12,12],"right_children":[2,4,6,8,10,12,-1,-1,-1,-1,-1,-1,18,-1,-1,-1,-1,-1,-1],"split_conditions":[4.5354024E-1,6.153425E-1,6.789535E-1,4.4232297E-1,5.64789E-1,6.748811E-1,8.616096E-2,5.8356367E-2,-1.1411509E-1,1.3110411E-1,-3.0919336E-2,-1.3401102E-1,3.5702443E-1,1.5536753E-2,1.0794073E-1,1.5022181E-1,6.8581994E-3,-1.2640311E-1,4.312314E-2],"split_indices":[14,30,28,22,24,32,21,0,0,21,0,0,2,2147483647,2147483647,2147483647,2147483647,0,0],"split_type":[0,0,0,0,0,0,0,0,0,0,0,0,0,0,0,0,0,0,0],"sum_hessian":[2.3716446E1,1.0294461E1,1.3421985E1,2.7118485E0,7.5826125E0,1.0755661E1,2.6663237E0,1.0459132E0,1.6659352E0,6.481221E0,1.1013913E0,5.545483E0,5.210178E0,1.0322978E0,1.6340259E0,5.435754E0,1.0454673E0,1.8031025E0,3.4070756E0],"tree_param":{"num_deleted":"4","num_feature":"34","num_nodes":"19","size_leaf_vector":"0"}},{"base_weights":[1.4336435E-2,-1.3435833E-1,4.1603938E-1,2.0468894E-1,-3.505739E-1,-1.039119E-1,4.2534608E-1,1.4013395E-1,-4.2607722E-1,-3.5773134E-1,2.3028506E-1,-4.6977985E-1,-5.8480505E-2],"categories":[],"categories_nodes":[],"categories_segments":[],"categories_sizes":[],"default_left":[true,true,false,true,true,true,false,false,true,false,false,true,true],"id":29,"left_children":[1,3,-1,5,7,9,-1,-1,-1,-1,-1,-1,-1],"loss_changes":[1.3118752E0,1.2521813E0,0E0,5.141578E-1,4.3765056E-1,3.946265E-1,0E0,0E0,1.185267E-1,0E0,0E0,0E0,0E0],"parents":[2147483647,0,0,1,1,3,3,4,4,5,5,8,8],"right_children":[2,4,-1,6,8,10,-1,-1,-1,-1,-1,-1,-1],"split_conditions":[6.024533E-1,5.947296E-1,1.2481182E-1,4.5449132E-1,1.2877955E-1,5.852356E-1,1.2760383E-1,4.2040184E-2,-1.2782317E-1,-1.0731941E-1,6.908552E-2,-1.4093396E-1,-1.7544152E-2],"split_indices":[14,30,0,20,33,19,0,0,0,0,0,2147483647,2147483647],"split_type":[0,0,0,0,0,0,0,0,0,0,0,0,0],"sum_hessian":[2.0027178E1,1.5102389E1,4.924788E0,5.9015265E0,9.200863E0,2.681035E0,3.2204914E0,1.1127744E0,8.088089E0,1.483733E0,1.1973019E0,6.980249E0,1.1078401E0],"tree_param":{"num_deleted":"2","num_feature":"34","num_nodes":"13","size_leaf_vector":"0"}},{"base_weights":[-6.1408426E-3,4.2483676E-2,-3.5462764E-1,-3.6716175E-1,9.463894E-2,-3.100145E-1,1.3679841E-1,3.035504E-1,-1.9922346E-2],"categories":[],"categories_nodes":[],"categories_segments":[],"categories_sizes":[],"default_left":[true,true,false,false,true,false,true,false,false],"id":30,"left_children":[1,3,-1,-1,5,-1,7,-1,-1],"loss_changes":[4.323017E-1,5.154851E-1,0E0,0E0,3.964862E-1,0E0,5.153974E-1,0E0,0E0],"parents":[2147483647,0,0,1,1,4,4,6,6],"right_children":[2,4,-1,-1,6,-1,8,-1,-1],"split_conditions":[4.9922305E-1,2.0573562E-1,-1.0638829E-1,-1.1014853E-1,3.697026E-1,-9.3004346E-2,3.4437516E-1,9.106512E-2,-5.976704E-3],"split_indices":[8,29,0,0,14,0,6,0,0],"split_type":[0,0,0,0,0,0,0,0,0],"sum_hessian":[2.362294E1,2.1500988E1,2.1219516E0,1.7461717E0,1.9754818E1,1.2645062E0,1.849031E1,8.504538E0,9.985774E0],"tree_param":{"num_deleted":"0","num_feature":"34","num_nodes":"9","size_leaf_vector":"0"}},{"base_weights":[1.00222926E-4,-2.6224372E-1,1.1267635E-1,7.84073E-2,-4.5256287E-1,2.1355772E-1,-2.7555498E-1,2.1535231E-1,-1.04449674E-1,3.195386E-1,-7.758754E-2,-3.4478194E-1,-4.5113362E-2,4.000933E-1,-1.6702607E-1,-3.8644662E-1,2.860148E-1],"categories":[],"categories_nodes":[],"categories_segments":[],"categories_sizes":[],"default_left":[true,true,true,true,false,true,true,true,true,true,true,true,true,false,false,false,false],"id":31,"left_children":[1,3,5,-1,-1,9,-1,-1,-1,13,15,-1,-1,-1,-1,-1,-1],"loss_changes":[6.9262546E-1,4.920339E-1,7.015324E-1,1.0704414E-1,0E0,4.4407356E-1,4.540375E-2,0E0,0E0,4.6494782E-1,6.081345E-1,0E0,0E0,0E0,0E0,0E0,0E0],"parents":[2147483647,0,0,1,1,2,2,3,3,5,5,6,6,9,9,10,10],"right_children":[2,4,6,-1,-1,10,-1,-1,-1,14,16,-1,-1,-1,-1,-1,-1],"split_conditions":[5.5202115E-1,4.4633043E-1,4.8100972E-1,2.3522193E-2,-1.3576886E-1,6.09572E-1,-8.26665E-2,6.46057E-2,-3.1334903E-2,5.9639525E-1,5.752759E-1,-1.03434585E-1,-1.3534009E-2,1.2002799E-1,-5.0107826E-2,-1.1593399E-1,8.580444E-2],"split_indices":[28,24,12,0,0,27,1,2147483647,2147483647,23,3,2147483647,2147483647,0,0,0,0],"split_type":[0,0,0,0,0,0,0,0,0,0,0,0,0,0,0,0,0],"sum_hessian":[2.145156E1,6.0419974E0,1.5409562E1,2.3764417E0,3.6655555E0,1.2588405E1,2.8211575E0,1.2571955E0,1.1192462E0,9.157446E0,3.4309587E0,1.7878813E0,1.0332762E0,8.00918E0,1.148266E0,1.8211608E0,1.6097981E0],"tree_param":{"num_deleted":"4","num_feature":"34","num_nodes":"17","size_leaf_vector":"0"}},{"base_weights":[8.044055E-3,-1.558278E-1,3.4014094E-1,3.354218E-1,-2.586386E-1,4.252615E-1,4.452384E-2,2.3183838E-1,-3.6800593E-1,-4.760336E-1,3.3010516E-2],"categories":[],"categories_nodes":[],"categories_segments":[],"categories_sizes":[],"default_left":[true,true,true,false,true,true,true,false,true,false,false],"id":32,"left_children":[1,3,-1,-1,7,-1,-1,-1,9,-1,-1],"loss_changes":[1.0607494E0,7.4761945E-1,1.4292747E-1,0E0,6.960369E-1,0E0,0E0,0E0,4.3574297E-1,0E0,0E0],"parents":[2147483647,0,0,1,1,2,2,4,4,8,8],"right_children":[2,4,-1,-1,8,-1,-1,-1,10,-1,-1],"split_conditions":[4.3925244E-1,4.53169E-1,1.0204229E-1,1.0062654E-1,1.2877955E-1,1.2757845E-1,1.3357152E-2,6.955151E-2,7.0643973E-1,-1.4281009E-1,9.903155E-3],"split_indices":[8,28,32,0,33,2147483647,2147483647,0,31,0,0],"split_type":[0,0,0,0,0,0,0,0,0,0,0],"sum_hessian":[1.7517479E1,1.2084973E1,5.4325056E0,1.6999189E0,1.0385055E1,3.8774652E0,1.5550402E0,1.6892966E0,8.695758E0,6.7030044E0,1.992754E0],"tree_param":{"num_deleted":"2","num_feature":"34","num_nodes":"11","size_leaf_vector":"0"}},{"base_weights":[-6.873986E-3,-3.5611662E-1,3.6583055E-2,-1.975919E-2,4.1331276E-1,9.451037E-2,-2.5128514E-1,2.3713195E-1,-8.697807E-2,-4.2409027E-1,2.868045E-2],"categories":[],"categories_nodes":[],"categories_segments":[],"categories_sizes":[],"default_left":[true,false,true,true,false,true,true,false,false,false,false],"id":33,"left_children":[1,-1,3,5,-1,7,9,-1,-1,-1,-1],"loss_changes":[3.597055E-1,0E0,4.5860565E-1,5.373941E-1,0E0,3.7590584E-1,3.357742E-1,0E0,0E0,0E0,0E0],"parents":[2147483647,0,0,2,2,3,3,5,5,6,6],"right_children":[2,-1,4,6,-1,8,10,-1,-1,-1,-1],"split_conditions":[4.53169E-1,-1.0683499E-1,7.155349E-1,5.773475E-1,1.2399384E-1,4.6483392E-1,5.9368694E-1,7.113959E-2,-2.6093422E-2,-1.2722708E-1,8.604135E-3],"split_indices":[28,0,25,7,0,29,22,0,0,0,0],"split_type":[0,0,0,0,0,0,0,0,0,0,0],"sum_hessian":[2.1842226E1,1.6209307E0,2.0221296E1,1.84148E1,1.8064959E0,1.2725786E1,5.6890144E0,6.9542418E0,5.771544E0,3.1994197E0,2.4895947E0],"tree_param":{"num_deleted":"0","num_feature":"34","num_nodes":"11","size_leaf_vector":"0"}},{"base_weights":[3.2827156E-3,1.8831362E-1,-1.5251185E-1,-1.5390338E-1,3.235392E-1,-2.6153445E-1,2.2175647E-1,-3.4202445E-1,1.26213E-1,-7.92682E-2,4.004423E-1,-3.5851336E-1,4.8487406E-2,2.9782027E-1,3.0461004E-2,4.6246064E-1,3.6829032E-2,-3.0665481E-2,-4.670799E-1,-1.5150853E-1,2.1356988E-1],"categories":[],"categories_nodes":[],"categories_segments":[],"categories_sizes":[],"default_left":[true,true,true,true,true,true,true,true,true,false,true,true,true,true,true,true,true,true,true,true,true],"id":34,"left_children":[1,3,5,-1,9,11,-1,-1,-1,-1,-1,-1,-1,-1,-1,-1,-1,-1,-1,-1,-1],"loss_changes":[6.2095714E-1,5.050914E-1,5.356461E-1,2.2571872E-1,2.6018023E-1,3.0373335E-1,3.7226006E-2,0E0,0E0,0E0,1.2633264E-1,2.4813908E-1,1.3636604E-1,0E0,0E0,0E0,0E0,0E0,0E0,0E0,0E0],"parents":[2147483647,0,0,1,1,2,2,3,3,4,4,5,5,6,6,10,10,11,11,12,12],"right_children":[2,4,6,-1,10,12,-1,-1,-1,-1,-1,-1,-1,-1,-1,-1,-1,-1,-1,-1,-1],"split_conditions":[4.5795223E-1,6.153425E-1,6.789535E-1,-4.6171017E-2,3.3076322E-1,6.3188654E-1,6.652694E-2,-1.0260734E-1,3.7863903E-2,-2.3780461E-2,1.2013269E-1,-1.0755401E-1,1.4546222E-2,8.934608E-2,9.138302E-3,1.387382E-1,1.104871E-2,-9.199644E-3,-1.4012398E-1,-4.5452558E-2,6.407097E-2],"split_indices":[14,30,28,20,20,21,0,2147483647,2147483647,0,21,11,27,2147483647,2147483647,2147483647,2147483647,2147483647,2147483647,2147483647,2147483647],"split_type":[0,0,0,0,0,0,0,0,0,0,0,0,0,0,0,0,0,0,0,0,0],"sum_hessian":[1.954466E1,8.838638E0,1.0706023E1,2.4642384E0,6.3744E0,8.52418E0,2.1818423E0,1.3419803E0,1.1222581E0,1.0169592E0,5.3574405E0,6.3739214E0,2.150259E0,1.1626743E0,1.0191679E0,4.344577E0,1.0128636E0,1.9046732E0,4.4692483E0,1.0094928E0,1.1407663E0],"tree_param":{"num_deleted":"10","num_feature":"34","num_nodes":"21","size_leaf_vector":"0"}},{"base_weights":[5.408152E-3,-1.8048285E-1,2.4589205E-1,1.217552E-1,-3.9054367E-1,3.7311643E-1,1.885657E-2,-2.8533158E-1,3.8196048E-1,-9.37E-2,-4.309059E-1,2.7191195E-1,-1.8179667E-1],"categories":[],"categories_nodes":[],"categories_segments":[],"categories_sizes":[],"default_left":[true,true,true,true,true,true,true,false,false,true,true,true,true],"id":35,"left_children":[1,3,-1,7,-1,-1,-1,-1,-1,-1,-1,-1,-1],"loss_changes":[7.848112E-1,6.772666E-1,2.1377048E-1,6.205362E-1,3.2581568E-2,0E0,2.4231003E-1,0E0,0E0,0E0,0E0,0E0,0E0],"parents":[2147483647,0,0,1,1,2,2,3,3,4,4,6,6],"right_children":[2,4,-1,8,-1,-1,-1,-1,-1,-1,-1,-1,-1],"split_conditions":[5.7095784E-1,5.947296E-1,7.376762E-2,4.483167E-1,-1.1716311E-1,1.1193494E-1,5.656971E-3,-8.5599475E-2,1.1458815E-1,-2.8110001E-2,-1.2927178E-1,8.157359E-2,-5.4539002E-2],"split_indices":[18,30,28,16,20,2147483647,2147483647,0,0,2147483647,2147483647,2147483647,2147483647],"split_type":[0,0,0,0,0,0,0,0,0,0,0,0,0],"sum_hessian":[1.55630665E1,8.918602E0,6.644465E0,3.8293164E0,5.0892854E0,3.8459008E0,2.7985642E0,1.4555576E0,2.3737588E0,1.0067358E0,4.0825496E0,1.0806104E0,1.7179538E0],"tree_param":{"num_deleted":"6","num_feature":"34","num_nodes":"13","size_leaf_vector":"0"}},{"base_weights":[-2.6899467E-3,-3.3463752E-1,3.9117668E-2,8.618975E-2,-3.1544358E-1,1.0542744E-3,3.000944E-1,1.452514E-1,-2.7041072E-1,-4.51479E-2,4.086172E-1],"categories":[],"categories_nodes":[],"categories_segments":[],"categories_sizes":[],"default_left":[true,false,true,true,false,true,true,false,false,true,true],"id":36,"left_children":[1,-1,3,5,-1,7,-1,-1,-1,-1,-1],"loss_changes":[3.1084245E-1,0E0,3.6016038E-1,3.3472112E-1,0E0,5.9369826E-1,2.1455663E-1,0E0,0E0,0E0,0E0],"parents":[2147483647,0,0,2,2,3,3,5,5,6,6],"right_children":[2,-1,4,6,-1,8,-1,-1,-1,-1,-1],"split_conditions":[2.0583464E-1,-1.0039126E-1,5.263485E-1,5.9650993E-1,-9.463308E-2,6.056534E-1,9.002832E-2,4.357542E-2,-8.112322E-2,-1.354437E-2,1.2258516E-1],"split_indices":[29,0,10,22,0,28,12,0,0,2147483647,2147483647],"split_type":[0,0,0,0,0,0,0,0,0,0,0],"sum_hessian":[2.045508E1,1.5045898E0,1.895049E1,1.7397663E1,1.5528281E0,1.316345E1,4.234212E0,8.900569E0,4.262881E0,1.1523218E0,3.08189E0],"tree_param":{"num_deleted":"2","num_feature":"34","num_nodes":"11","size_leaf_vector":"0"}},{"base_weights":[3.6144308E-3,-2.3552321E-1,1.0659453E-1,8.02346E-2,-4.2546234E-1,1.849999E-1,-3.2195067E-1,-3.990557E-2,1.6266471E-1,3.6168158E-1,4.5214336E-2,4.2863968E-1,6.150673E-2,-4.0958598E-1,2.3131461E-1],"categories":[],"categories_nodes":[],"categories_segments":[],"categories_sizes":[],"default_left":[true,true,true,true,false,true,false,true,true,true,true,true,true,false,false],"id":37,"left_children":[1,3,5,-1,-1,9,-1,-1,-1,-1,13,-1,-1,-1,-1],"loss_changes":[4.9417555E-1,3.966841E-1,5.3004605E-1,3.730822E-2,0E0,2.9167172E-1,0E0,0E0,0E0,8.148843E-2,7.808095E-1,0E0,0E0,0E0,0E0],"parents":[2147483647,0,0,1,1,2,2,3,3,5,5,9,9,10,10],"right_children":[2,4,6,-1,-1,10,-1,-1,-1,-1,14,-1,-1,-1,-1],"split_conditions":[5.5202115E-1,4.4633043E-1,5.970167E-1,2.4070382E-2,-1.2763871E-1,5.233557E-1,-9.658521E-2,-1.1971672E-2,4.8799414E-2,1.0850448E-1,3.9103317E-1,1.2859191E-1,1.845202E-2,-1.228758E-1,6.939439E-2],"split_indices":[28,24,16,22,0,27,0,2147483647,2147483647,18,17,2147483647,2147483647,0,0],"split_type":[0,0,0,0,0,0,0,0,0,0,0,0,0,0,0],"sum_hessian":[1.8047434E1,5.044998E0,1.3002435E1,2.1118321E0,2.933166E0,1.1471881E1,1.5305542E0,1.0692737E0,1.0425584E0,4.3660355E0,7.105845E0,3.2198398E0,1.1461958E0,1.7146404E0,5.391205E0],"tree_param":{"num_deleted":"4","num_feature":"34","num_nodes":"15","size_leaf_vector":"0"}},{"base_weights":[-7.362186E-4,-1.2069208E-1,3.381185E-1,1.5920796E-1,-3.0773214E-1,-7.120323E-2,4.14055E-1,-3.8941804E-1,8.498836E-2,-3.3435535E-1,2.3193368E-1,-4.3098092E-1,-8.552781E-2],"categories":[],"categories_nodes":[],"categories_segments":[],"categories_sizes":[],"default_left":[true,true,false,true,true,true,false,true,false,false,false,true,true],"id":38,"left_children":[1,3,-1,5,7,9,-1,-1,-1,-1,-1,-1,-1],"loss_changes":[6.554306E-1,6.7221785E-1,0E0,3.4818414E-1,2.729516E-1,3.7299535E-1,0E0,4.3578148E-2,0E0,0E0,0E0,0E0,0E0],"parents":[2147483647,0,0,1,1,3,3,4,4,5,5,7,7],"right_children":[2,4,-1,6,8,10,-1,-1,-1,-1,-1,-1,-1],"split_conditions":[6.024533E-1,5.947296E-1,1.0143555E-1,6.841239E-1,7.516888E-1,4.697866E-1,1.24216504E-1,-1.1682542E-1,2.549651E-2,-1.0030661E-1,6.958011E-2,-1.2929428E-1,-2.5658343E-2],"split_indices":[14,30,0,31,15,20,0,0,0,0,0,2147483647,2147483647],"split_type":[0,0,0,0,0,0,0,0,0,0,0,0,0],"sum_hessian":[1.4120753E1,1.0904383E1,3.2163699E0,4.427524E0,6.476859E0,2.7036846E0,1.7238395E0,5.368599E0,1.10826E0,1.3921657E0,1.3115189E0,4.354785E0,1.0138139E0],"tree_param":{"num_deleted":"2","num_feature":"34","num_nodes":"13","size_leaf_vector":"0"}},{"base_weights":[-2.4170757E-3,-4.66954E-2,2.7857402E-1,-1.8488638E-1,9.05787E-2,5.6146238E-2,-3.5842153E-1,1.7400448E-1,-2.788069E-1,2.1920517E-1,-2.7453452E-1,1.40259145E-2,-4.441111E-1,2.8454462E-1,-1.1262077E-1],"categories":[],"categories_nodes":[],"categories_segments":[],"categories_sizes":[],"default_left":[true,true,false,true,true,true,true,true,false,false,false,true,true,false,false],"id":39,"left_children":[1,3,-1,5,7,9,-1,13,-1,-1,-1,-1,-1,-1,-1],"loss_changes":[2.5988284E-1,3.5816348E-1,0E0,4.0902507E-1,3.4743065E-1,3.166532E-1,1.8307525E-1,3.0226156E-1,0E0,0E0,0E0,0E0,0E0,0E0,0E0],"parents":[2147483647,0,0,1,1,3,3,4,4,5,5,6,6,7,7],"right_children":[2,4,-1,6,8,10,-1,14,-1,-1,-1,-1,-1,-1,-1],"split_conditions":[7.155349E-1,5.476513E-1,8.357221E-2,5.299775E-1,5.263485E-1,5.191995E-1,-1.07526466E-1,6.634331E-1,-8.364207E-2,6.576155E-2,-8.236036E-2,4.2077745E-3,-1.3323334E-1,8.536339E-2,-3.3786234E-2],"split_indices":[25,22,0,19,10,24,10,26,0,0,0,2147483647,2147483647,0,0],"split_type":[0,0,0,0,0,0,0,0,0,0,0,0,0,0,0],"sum_hessian":[1.8842339E1,1.6997679E1,1.8446599E0,8.297708E0,8.69997E0,3.756522E0,4.541186E0,7.528576E0,1.1713946E0,2.741698E0,1.014824E0,1.0058037E0,3.535382E0,5.4384413E0,2.0901344E0],"tree_param":{"num_deleted":"2","num_feature":"34","num_nodes":"15","size_leaf_vector":"0"}},{"base_weights":[-1.386301E-3,1.568E-1,-1.3347945E-1,-1.2545405E-1,2.78898E-1,-4.3509567E-1,3.8027978E-3,-3.2293558E-1,1.5187797E-1,3.47789E-1,-3.0886015E-2,2.8417316E-1,-1.7396337E-1,4.1378075E-1,4.3932166E-2,3.61543E-1,6.90291E-2,-2.9905194E-1,3.1038139E-2],"categories":[],"categories_nodes":[],"categories_segments":[],"categories_sizes":[],"default_left":[true,true,true,true,true,false,true,true,true,true,true,true,true,true,true,true,true,true,true],"id":40,"left_children":[1,3,5,-1,-1,-1,11,-1,-1,-1,-1,-1,-1,-1,-1,-1,-1,-1,-1],"loss_changes":[3.855755E-1,3.2451072E-1,4.177922E-1,2.257563E-1,1.4251423E-1,0E0,4.4306713E-1,0E0,0E0,8.4744394E-2,0E0,3.237468E-2,1.4913066E-1,0E0,0E0,0E0,0E0,0E0,0E0],"parents":[2147483647,0,0,1,1,2,2,3,3,4,4,6,6,9,9,11,11,12,12],"right_children":[2,4,6,-1,-1,-1,12,-1,-1,-1,-1,-1,-1,-1,-1,-1,-1,-1,-1],"split_conditions":[4.5795223E-1,6.153425E-1,4.007956E-1,-3.7636217E-2,8.36694E-2,-1.305287E-1,4.3892857E-1,-9.688068E-2,4.5563392E-2,1.043367E-1,-9.265805E-3,8.525195E-2,-5.218901E-2,1.2413423E-1,1.31796505E-2,1.0846291E-1,2.070873E-2,-8.9715585E-2,9.311442E-3],"split_indices":[14,30,10,20,22,0,10,2147483647,2147483647,2147483647,2147483647,15,28,2147483647,2147483647,2147483647,2147483647,2147483647,2147483647],"split_type":[0,0,0,0,0,0,0,0,0,0,0,0,0,0,0,0,0,0,0],"sum_hessian":[1.6451075E1,7.401032E0,9.050043E0,2.2265131E0,5.174519E0,2.152199E0,6.8978443E0,1.2044302E0,1.0220828E0,4.1327744E0,1.0417447E0,2.4442415E0,4.453603E0,3.0981534E0,1.0346209E0,1.297255E0,1.1469865E0,2.4809737E0,1.9726291E0],"tree_param":{"num_deleted":"10","num_feature":"34","num_nodes":"19","size_leaf_vector":"0"}},{"base_weights":[5.3020916E-3,-2.8022003E-1,1.3560887E-1,4.1819327E-2,-3.8178837E-1,3.3932596E-1,-2.5475359E-2,6.755417E-2,4.149918E-1,3.1077227E-1,-1.6532958E-1,1.9792596E-1,-2.9959363E-1],"categories":[],"categories_nodes":[],"categories_segments":[],"categories_sizes":[],"default_left":[true,true,true,true,true,true,true,true,true,false,true,false,false],"id":41,"left_children":[1,-1,5,-1,-1,-1,9,-1,-1,-1,11,-1,-1],"loss_changes":[5.443075E-1,1.661179E-1,3.3738708E-1,0E0,0E0,6.4367E-2,3.5819766E-1,0E0,0E0,0E0,3.1587136E-1,0E0,0E0],"parents":[2147483647,0,0,1,1,2,2,5,5,6,6,10,10],"right_children":[2,-1,6,-1,-1,-1,10,-1,-1,-1,12,-1,-1],"split_conditions":[3.4490287E-1,-8.406601E-2,4.268822E-1,1.2545799E-2,-1.1453652E-1,1.017978E-1,4.0046802E-1,2.0266252E-2,1.2449754E-1,9.3231685E-2,5.379878E-1,5.937779E-2,-8.987809E-2],"split_indices":[6,28,17,2147483647,2147483647,29,29,2147483647,2147483647,0,30,0,0],"split_type":[0,0,0,0,0,0,0,0,0,0,0,0,0],"sum_hessian":[1.2608406E1,3.590533E0,9.017873E0,1.0019494E0,2.5885835E0,3.4933958E0,5.5244775E0,1.1730183E0,2.3203773E0,1.2638125E0,4.260665E0,1.0218538E0,3.2388113E0],"tree_param":{"num_deleted":"4","num_feature":"34","num_nodes":"13","size_leaf_vector":"0"}},{"base_weights":[-4.4160476E-3,-1.8206394E-1,6.809567E-2,1.9410339E-1,-3.3393046E-1,-2.2377507E-1,2.4393447E-1,-8.0895595E-2,-4.0240124E-1,-3.34259E-1,5.8172636E-2,4.1954836E-1,-4.54916E-2,4.691454E-1,9.237081E-2,2.1198098E-1,-1.9252387E-1],"categories":[],"categories_nodes":[],"categories_segments":[],"categories_sizes":[],"default_left":[true,true,true,false,true,true,true,true,true,true,true,true,true,true,true,true,true],"id":42,"left_children":[1,3,5,-1,-1,-1,11,-1,-1,-1,-1,-1,-1,-1,-1,-1,-1],"loss_changes":[2.4962129E-1,3.853141E-1,7.6311624E-1,0E0,4.306093E-2,1.973724E-1,4.812929E-1,0E0,0E0,0E0,0E0,5.009079E-2,2.0496756E-1,0E0,0E0,0E0,0E0],"parents":[2147483647,0,0,1,1,2,2,4,4,5,5,6,6,11,11,12,12],"right_children":[2,4,6,-1,-1,-1,12,-1,-1,-1,-1,-1,-1,-1,-1,-1,-1],"split_conditions":[5.947296E-1,4.0887833E-1,5.2322006E-1,5.823102E-2,-1.0017914E-1,-6.7132525E-2,5.6799227E-1,-2.426868E-2,-1.2072038E-1,-1.0027771E-1,1.7451791E-2,1.2586452E-1,-1.364748E-2,1.4074363E-1,2.7711244E-2,6.35943E-2,-5.775716E-2],"split_indices":[30,20,27,0,16,22,3,2147483647,2147483647,2147483647,2147483647,12,32,2147483647,2147483647,2147483647,2147483647],"split_type":[0,0,0,0,0,0,0,0,0,0,0,0,0,0,0,0,0],"sum_hessian":[1.7415756E1,4.6102333E0,1.2805522E1,1.245949E0,3.364284E0,4.7118373E0,8.093685E0,1.1810725E0,2.1832116E0,3.251982E0,1.4598556E0,4.757443E0,3.336242E0,3.7543952E0,1.0030476E0,1.0521172E0,2.2841249E0],"tree_param":{"num_deleted":"8","num_feature":"34","num_nodes":"17","size_leaf_vector":"0"}},{"base_weights":[-2.111654E-3,-2.057437E-1,8.878103E-2,8.556542E-2,-3.949939E-1,1.5627928E-1,-2.8401977E-1,4.040505E-1,5.685417E-2,-2.8553647E-1,1.9915661E-1],"categories":[],"categories_nodes":[],"categories_segments":[],"categories_sizes":[],"default_left":[true,true,true,false,false,true,false,false,true,false,false],"id":43,"left_children":[1,3,5,-1,-1,7,-1,-1,9,-1,-1],"loss_changes":[3.1819692E-1,3.2612062E-1,3.438936E-1,0E0,0E0,2.4118304E-1,0E0,0E0,4.8640743E-1,0E0,0E0],"parents":[2147483647,0,0,1,1,2,2,5,5,8,8],"right_children":[2,4,6,-1,-1,8,-1,-1,10,-1,-1],"split_conditions":[5.5202115E-1,4.4633043E-1,5.970167E-1,2.5669627E-2,-1.1849818E-1,4.137017E-1,-8.5205935E-2,1.2121516E-1,3.908435E-1,-8.566094E-2,5.9746984E-2],"split_indices":[28,24,16,0,0,23,0,0,17,0,0],"split_type":[0,0,0,0,0,0,0,0,0,0,0],"sum_hessian":[1.5204888E1,4.3023963E0,1.0902492E1,1.9100955E0,2.3923008E0,9.72289E0,1.179602E0,1.9069155E0,7.815974E0,1.9991997E0,5.816775E0],"tree_param":{"num_deleted":"0","num_feature":"34","num_nodes":"11","size_leaf_vector":"0"}},{"base_weights":[9.204688E-3,-2.5684536E-1,1.2958016E-1,-3.6515054E-1,4.3513346E-2,3.0586952E-1,-1.54643385E-2,4.295959E-2,3.9205343E-1,2.9251724E-1,-1.4448884E-1,1.4798175E-1,-3.0258316E-1],"categories":[],"categories_nodes":[],"categories_segments":[],"categories_sizes":[],"default_left":[true,true,true,true,true,true,true,true,true,false,true,false,false],"id":44,"left_children":[1,-1,5,-1,-1,-1,9,-1,-1,-1,11,-1,-1],"loss_changes":[4.3529212E-1,1.5400031E-1,2.4270938E-1,0E0,0E0,7.943767E-2,2.8298858E-1,0E0,0E0,0E0,2.731312E-1,0E0,0E0],"parents":[2147483647,0,0,1,1,2,2,5,5,6,6,10,10],"right_children":[2,-1,6,-1,-1,-1,10,-1,-1,-1,12,-1,-1],"split_conditions":[3.4490287E-1,-7.705361E-2,4.268822E-1,-1.09545164E-1,1.3054005E-2,9.176086E-2,4.0046802E-1,1.2887877E-2,1.17616035E-1,8.775517E-2,5.2293205E-1,4.4394527E-2,-9.077495E-2],"split_indices":[6,16,17,2147483647,2147483647,29,29,2147483647,2147483647,0,26,0,0],"split_type":[0,0,0,0,0,0,0,0,0,0,0,0,0],"sum_hessian":[1.1552656E1,3.24561E0,8.307046E0,2.2269042E0,1.0187057E0,3.2491636E0,5.0578823E0,1.1720893E0,2.0770743E0,1.1192018E0,3.9386806E0,1.4044493E0,2.5342314E0],"tree_param":{"num_deleted":"4","num_feature":"34","num_nodes":"13","size_leaf_vector":"0"}},{"base_weights":[-1.1657804E-3,-2.9639626E-1,3.802495E-2,-1.3772218E-2,3.441402E-1,9.908263E-2,-1.6252428E-1,-9.374005E-2,2.2913021E-1,-3.8805768E-1,5.6195755E-2],"categories":[],"categories_nodes":[],"categories_segments":[],"categories_sizes":[],"default_left":[true,false,true,true,false,true,true,true,true,false,false],"id":45,"left_children":[1,-1,3,5,-1,-1,9,-1,-1,-1,-1],"loss_changes":[2.1024437E-1,0E0,2.5951138E-1,2.62947E-1,0E0,2.4671605E-1,3.5339284E-1,0E0,0E0,0E0,0E0],"parents":[2147483647,0,0,2,2,3,3,5,5,6,6],"right_children":[2,-1,4,6,-1,-1,10,-1,-1,-1,-1],"split_conditions":[4.53169E-1,-8.891888E-2,7.155349E-1,4.8987216E-1,1.0324206E-1,2.972479E-2,5.5052626E-1,-2.8122017E-2,6.8739064E-2,-1.1641731E-1,1.6858727E-2],"split_indices":[28,0,25,9,0,13,22,2147483647,2147483647,0,0],"split_type":[0,0,0,0,0,0,0,0,0,0,0],"sum_hessian":[1.6196957E1,1.1290104E0,1.5067946E1,1.370411E1,1.3638362E0,7.982145E0,5.721966E0,3.3275476E0,4.654597E0,2.4359314E0,3.286034E0],"tree_param":{"num_deleted":"2","num_feature":"34","num_nodes":"11","size_leaf_vector":"0"}},{"base_weights":[-1.3027873E-3,-2.080445E-1,7.948081E-2,5.481183E-2,-3.2381046E-1,1.860143E-1,-1.3580096E-1,3.869218E-1,8.95616E-3,1.1842872E-1,-2.787384E-1,-2.7740526E-1,3.5431862E-1],"categories":[],"categories_nodes":[],"categories_segments":[],"categories_sizes":[],"default_left":[true,true,true,true,true,true,true,false,true,true,true,false,false],"id":46,"left_children":[1,-1,5,-1,-1,7,-1,-1,11,-1,-1,-1,-1],"loss_changes":[2.676071E-1,1.5468685E-1,2.8976437E-1,0E0,0E0,2.8598762E-1,1.9275132E-1,0E0,6.272911E-1,0E0,0E0,0E0,0E0],"parents":[2147483647,0,0,1,1,2,2,5,5,6,6,8,8],"right_children":[2,-1,6,-1,-1,8,-1,-1,12,-1,-1,-1,-1],"split_conditions":[5.504908E-1,-6.2413353E-2,5.9650993E-1,1.644355E-2,-9.714314E-2,5.233557E-1,-4.074029E-2,1.16076544E-1,5.526364E-1,3.552862E-2,-8.3621524E-2,-8.3221585E-2,1.0629559E-1],"split_indices":[26,22,22,2147483647,2147483647,27,30,0,1,2147483647,2147483647,0,0],"split_type":[0,0,0,0,0,0,0,0,0,0,0,0,0],"sum_hessian":[1.4033017E1,3.5001328E0,1.0532885E1,1.2311752E0,2.2689576E0,7.137031E0,3.395853E0,2.7880995E0,4.348932E0,1.2838508E0,2.1120024E0,2.4851282E0,1.8638034E0],"tree_param":{"num_deleted":"4","num_feature":"34","num_nodes":"13","size_leaf_vector":"0"}},{"base_weights":[3.425992E-3,-1.5492041E-1,1.9424348E-1,7.811946E-2,-3.2621935E-1,3.2848924E-1,-3.6952745E-2,-2.2970995E-1,3.0330703E-1],"categories":[],"categories_nodes":[],"categories_segments":[],"categories_sizes":[],"default_left":[true,true,true,true,false,true,true,false,false],"id":47,"left_children":[1,3,-1,7,-1,-1,-1,-1,-1],"loss_changes":[3.7962478E-1,3.000601E-1,1.8873456E-1,3.2759464E-1,0E0,0E0,0E0,0E0,0E0],"parents":[2147483647,0,0,1,1,2,2,3,3],"right_children":[2,4,-1,8,-1,-1,-1,-1,-1],"split_conditions":[5.7095784E-1,5.947296E-1,5.8273043E-2,4.483167E-1,-9.786581E-2,9.854678E-2,-1.1085824E-2,-6.891299E-2,9.099211E-2],"split_indices":[18,30,22,16,0,2147483647,2147483647,0,0],"split_type":[0,0,0,0,0,0,0,0,0],"sum_hessian":[1.0568077E1,5.8782454E0,4.689832E0,2.7207792E0,3.157466E0,2.7007802E0,1.989052E0,1.1409829E0,1.5797964E0],"tree_param":{"num_deleted":"2","num_feature":"34","num_nodes":"9","size_leaf_vector":"0"}},{"base_weights":[-1.9995612E-3,-2.849456E-1,3.765318E-2,7.796819E-2,-2.6028726E-1,2.287341E-1,-7.856393E-3,3.8564317E-2,3.659233E-1,-2.1996668E-1,1.2238571E-1],"categories":[],"categories_nodes":[],"categories_segments":[],"categories_sizes":[],"default_left":[true,false,true,true,false,true,true,true,true,false,false],"id":48,"left_children":[1,-1,3,5,-1,-1,9,-1,-1,-1,-1],"loss_changes":[1.9211763E-1,0E0,2.0122534E-1,1.8343279E-1,0E0,1.19604945E-1,3.0074772E-1,0E0,0E0,0E0,0E0],"parents":[2147483647,0,0,2,2,3,3,5,5,6,6],"right_children":[2,-1,4,6,-1,-1,10,-1,-1,-1,-1],"split_conditions":[2.0583464E-1,-8.5483685E-2,4.9922305E-1,4.399263E-1,-7.808618E-2,6.8620235E-2,4.7839224E-1,1.1569295E-2,1.0977699E-1,-6.599001E-2,3.6715716E-2],"split_indices":[29,0,8,29,0,27,17,2147483647,2147483647,0,0],"split_type":[0,0,0,0,0,0,0,0,0,0,0],"sum_hessian":[1.516713E1,1.1039269E0,1.4063203E1,1.3037394E1,1.0258101E0,4.125353E0,8.91204E0,2.2657306E0,1.8596221E0,3.1283505E0,5.7836895E0],"tree_param":{"num_deleted":"2","num_feature":"34","num_nodes":"11","size_leaf_vector":"0"}},{"base_weights":[6.401942E-4,-1.8570271E-1,8.489427E-2,7.301183E-2,-3.6009842E-1,1.5108104E-1,-2.282973E-1,-1.3383231E-2,2.650377E-1,2.7868876E-1,-2.6912916E-1,-5.976673E-2,3.531277E-1],"categories":[],"categories_nodes":[],"categories_segments":[],"categories_sizes":[],"default_left":[true,true,true,true,true,true,false,true,true,false,false,true,true],"id":49,"left_children":[1,-1,5,-1,-1,7,-1,9,-1,-1,-1,-1,-1],"loss_changes":[2.3482984E-1,2.3646332E-1,2.4789448E-1,0E0,0E0,1.7410782E-1,0E0,4.2433926E-1,1.762912E-1,0E0,0E0,0E0,0E0],"parents":[2147483647,0,0,1,1,2,2,5,5,7,7,8,8],"right_children":[2,-1,6,-1,-1,8,-1,10,-1,-1,-1,-1,-1],"split_conditions":[5.5202115E-1,-5.5710815E-2,6.043276E-1,2.190355E-2,-1.0802953E-1,4.340638E-1,-6.8489194E-2,5.13466E-1,7.951131E-2,8.360663E-2,-8.073875E-2,-1.793002E-2,1.0593831E-1],"split_indices":[28,24,18,2147483647,2147483647,17,0,27,2,0,0,2147483647,2147483647],"split_type":[0,0,0,0,0,0,0,0,0,0,0,0,0],"sum_hessian":[1.2953036E1,3.6581986E0,9.294838E0,1.7070897E0,1.9511089E0,8.100555E0,1.1942819E0,3.6767554E0,4.4238005E0,1.6745936E0,2.0021617E0,1.0124037E0,3.4113965E0],"tree_param":{"num_deleted":"4","num_feature":"34","num_nodes":"13","size_leaf_vector":"0"}},{"base_weights":[2.1636686E-3,-1.10931486E-1,2.285075E-1,2.3699653E-1,-2.0944071E-1,3.415067E-1,-4.544099E-2,-3.5886165E-1,1.3126755E-1],"categories":[],"categories_nodes":[],"categories_segments":[],"categories_sizes":[],"default_left":[true,true,true,false,true,true,true,false,false],"id":50,"left_children":[1,3,-1,-1,7,-1,-1,-1,-1],"loss_changes":[3.021294E-1,3.198232E-1,1.3715427E-1,0E0,3.8689917E-1,0E0,0E0,0E0,0E0],"parents":[2147483647,0,0,1,1,2,2,4,4],"right_children":[2,4,-1,-1,8,-1,-1,-1,-1],"split_conditions":[4.3925244E-1,1.2877955E-1,6.8552256E-2,7.109896E-2,7.0643973E-1,1.0245201E-1,-1.36322975E-2,-1.076585E-1,3.9380267E-2],"split_indices":[8,33,26,0,31,2147483647,2147483647,0,0],"split_type":[0,0,0,0,0,0,0,0,0],"sum_hessian":[9.812425E0,6.883105E0,2.9293199E0,1.2085955E0,5.6745095E0,1.8992865E0,1.0300333E0,3.9075387E0,1.7669709E0],"tree_param":{"num_deleted":"2","num_feature":"34","num_nodes":"9","size_leaf_vector":"0"}},{"base_weights":[-5.810767E-3,-1.7476337E-1,6.48588E-2,1.3686004E-1,-3.34207E-1,-1.9038169E-1,2.1376029E-1,-3.1705484E-1,6.5117374E-2,3.5057837E-1,-2.0596242E-2,4.12543E-1,7.922307E-2,-1.7421192E-1,1.9760798E-1],"categories":[],"categories_nodes":[],"categories_segments":[],"categories_sizes":[],"default_left":[true,true,true,false,false,true,true,true,true,true,true,true,true,true,true],"id":51,"left_children":[1,3,5,-1,-1,-1,9,-1,-1,-1,-1,-1,-1,-1,-1],"loss_changes":[1.9388248E-1,2.832261E-1,4.7811395E-1,0E0,0E0,1.7500632E-1,2.553941E-1,0E0,0E0,5.0420582E-2,1.6171628E-1,0E0,0E0,0E0,0E0],"parents":[2147483647,0,0,1,1,2,2,5,5,6,6,9,9,10,10],"right_children":[2,4,6,-1,-1,-1,10,-1,-1,-1,-1,-1,-1,-1,-1],"split_conditions":[5.947296E-1,5.2544904E-1,5.2322006E-1,4.1058015E-2,-1.00262105E-1,-5.7114508E-2,5.6799227E-1,-9.511646E-2,1.9535214E-2,1.0517351E-1,-6.1788727E-3,1.23762906E-1,2.3766922E-2,-5.2263577E-2,5.9282396E-2],"split_indices":[30,31,27,0,0,14,3,2147483647,2147483647,26,22,2147483647,2147483647,2147483647,2147483647],"split_type":[0,0,0,0,0,0,0,0,0,0,0,0,0,0,0],"sum_hessian":[1.4288986E1,3.7797117E0,1.05092745E1,1.327273E0,2.4524386E0,3.7693846E0,6.7398906E0,2.3589325E0,1.4104521E0,3.9423912E0,2.7974992E0,2.785915E0,1.156476E0,1.7600415E0,1.0374578E0],"tree_param":{"num_deleted":"6","num_feature":"34","num_nodes":"15","size_leaf_vector":"0"}},{"base_weights":[3.493507E-3,2.0588498E-1,-6.820968E-2,9.006259E-3,2.8637818E-1,-2.2261256E-1,1.0601546E-1,-3.3233568E-1,-6.94215E-2,1.9838318E-1,-1.1594992E-1,1.7556672E-1,-2.94738E-1,-2.814522E-2,3.3157986E-1],"categories":[],"categories_nodes":[],"categories_segments":[],"categories_sizes":[],"default_left":[true,true,true,true,true,true,true,false,true,true,true,false,false,true,true],"id":52,"left_children":[1,-1,5,-1,-1,7,-1,-1,11,-1,-1,-1,-1,-1,-1],"loss_changes":[2.0593916E-1,5.6183442E-2,3.064661E-1,0E0,0E0,7.605383E-2,1.3818175E-1,0E0,2.5737602E-1,1.4015849E-1,0E0,0E0,0E0,0E0,0E0],"parents":[2147483647,0,0,1,1,2,2,5,5,6,6,8,8,9,9],"right_children":[2,-1,6,-1,-1,8,-1,-1,12,-1,-1,-1,-1,-1,-1],"split_conditions":[4.1241997E-1,6.1765496E-2,6.266748E-1,2.7018778E-3,8.591346E-2,3.459587E-1,3.180464E-2,-9.970071E-2,4.365062E-1,5.951496E-2,-3.4784976E-2,5.2670017E-2,-8.8421404E-2,-8.443566E-3,9.947396E-2],"split_indices":[14,28,28,2147483647,2147483647,6,12,0,10,2147483647,2147483647,0,0,2147483647,2147483647],"split_type":[0,0,0,0,0,0,0,0,0,0,0,0,0,0,0],"sum_hessian":[1.2223147E1,2.7080312E0,9.515117E0,1.1085389E0,1.5994923E0,4.897285E0,4.6178317E0,2.172099E0,2.7251856E0,3.3358908E0,1.2819407E0,1.4113808E0,1.3138049E0,1.5272248E0,1.8086661E0],"tree_param":{"num_deleted":"6","num_feature":"34","num_nodes":"15","size_leaf_vector":"0"}},{"base_weights":[4.2631663E-3,-2.1818832E-1,1.0404037E-1,-6.859291E-3,-3.0328384E-1,2.623522E-1,-2.6497154E-2,4.3886635E-2,3.3474627E-1,2.1153854E-1,-1.5557614E-1,8.592989E-2,-2.727191E-1],"categories":[],"categories_nodes":[],"categories_segments":[],"categories_sizes":[],"default_left":[true,true,true,true,true,true,true,true,true,true,true,true,true],"id":53,"left_children":[-1,-1,-1,-1,-1,-1,-1,-1,-1,-1,-1,-1,-1],"loss_changes":[2.4473034E-1,5.9428945E-2,1.6365814E-1,0E0,0E0,4.0958554E-2,1.885134E-1,0E0,0E0,0E0,1.3263409E-1,0E0,0E0],"parents":[2147483647,0,0,1,1,2,2,5,5,6,6,10,10],"right_children":[-1,-1,-1,-1,-1,-1,-1,-1,-1,-1,-1,-1,-1],"split_conditions":[1.2789499E-3,-6.5456495E-2,3.1212112E-2,-2.0577873E-3,-9.098516E-2,7.870566E-2,-7.949146E-3,1.3165991E-2,1.0042389E-1,6.3461564E-2,-4.6672843E-2,2.577897E-2,-8.181573E-2],"split_indices":[6,2147483647,2147483647,2147483647,2147483647,2147483647,2147483647,2147483647,2147483647,2147483647,2147483647,2147483647,2147483647],"split_type":[0,0,0,0,0,0,0,0,0,0,0,0,0],"sum_hessian":[9.003337E0,2.4203825E0,6.5829544E0,1.0050398E0,1.4153426E0,2.5186415E0,4.064313E0,1.0266651E0,1.4919764E0,1.2044134E0,2.8598998E0,1.0211381E0,1.8387616E0],"tree_param":{"num_deleted":"12","num_feature":"34","num_nodes":"13","size_leaf_vector":"0"}},{"base_weights":[-3.9777104E-3,-1.580063E-1,6.0580384E-2,1.24240294E-1,-3.0796617E-1,-1.9552596E-1,1.7814855E-1,-3.1272274E-1,7.357577E-2,2.796797E-1,-1.4490108E-2,3.4390134E-1,2.1339094E-3,-1.6452216E-1,1.95157E-1],"categories":[],"categories_nodes":[],"categories_segments":[],"categories_sizes":[],"default_left":[true,true,true,true,true,true,true,true,true,true,true,true,true,true,true],"id":54,"left_children":[1,-1,5,-1,-1,-1,-1,-1,-1,-1,-1,-1,-1,-1,-1],"loss_changes":[1.5528591E-1,2.3317279E-1,3.6750904E-1,0E0,0E0,1.4767715E-1,1.6239575E-1,0E0,0E0,9.464118E-2,1.4990035E-1,0E0,0E0,0E0,0E0],"parents":[2147483647,0,0,1,1,2,2,5,5,6,6,9,9,10,10],"right_children":[2,-1,6,-1,-1,-1,-1,-1,-1,-1,-1,-1,-1,-1,-1],"split_conditions":[5.947296E-1,-4.740189E-2,5.1357543E-1,3.727209E-2,-9.238985E-2,-5.865779E-2,5.3444568E-2,-9.3816824E-2,2.2072732E-2,8.390391E-2,-4.3470324E-3,1.031704E-1,6.4017286E-4,-4.935665E-2,5.8547106E-2],"split_indices":[30,31,27,2147483647,2147483647,23,3,2147483647,2147483647,2147483647,2147483647,2147483647,2147483647,2147483647,2147483647],"split_type":[0,0,0,0,0,0,0,0,0,0,0,0,0,0,0],"sum_hessian":[1.3653748E1,3.6050313E0,1.0048717E1,1.3103219E0,2.2947092E0,2.9529748E0,7.095742E0,1.9441689E0,1.0088058E0,4.3507977E0,2.7449446E0,3.3390832E0,1.0117143E0,1.7254118E0,1.0195327E0],"tree_param":{"num_deleted":"10","num_feature":"34","num_nodes":"15","size_leaf_vector":"0"}},{"base_weights":[4.817816E-3,-1.7760327E-1,7.824811E-2,6.835819E-2,-2.9510742E-1,1.8603367E-1,-1.2160397E-1,3.1316498E-1,-2.4204731E-2,1.2191718E-1,-2.6672179E-1,6.791968E-2,3.684478E-1,-2.7823392E-1,2.782918E-1],"categories":[],"categories_nodes":[],"categories_segments":[],"categories_sizes":[],"default_left":[true,true,true,true,true,true,true,true,true,true,true,true,true,false,false],"id":55,"left_children":[1,-1,5,-1,-1,7,-1,-1,13,-1,-1,-1,-1,-1,-1],"loss_changes":[1.8341094E-1,1.3398144E-1,2.3193751E-1,0E0,0E0,1.8686458E-1,1.7420042E-1,3.2620728E-2,3.4299555E-1,0E0,0E0,0E0,0E0,0E0,0E0],"parents":[2147483647,0,0,1,1,2,2,5,5,6,6,7,7,8,8],"right_children":[2,-1,6,-1,-1,8,-1,-1,14,-1,-1,-1,-1,-1,-1],"split_conditions":[5.504908E-1,-5.3280983E-2,5.9650993E-1,2.0507459E-2,-8.853223E-2,5.594634E-1,-3.6481194E-2,9.39495E-2,5.526364E-1,3.6575157E-2,-8.001654E-2,2.0375904E-2,1.1053435E-1,-8.347018E-2,8.348754E-2],"split_indices":[26,22,22,2147483647,2147483647,31,30,26,1,2147483647,2147483647,2147483647,2147483647,0,0],"split_type":[0,0,0,0,0,0,0,0,0,0,0,0,0,0,0],"sum_hessian":[1.1654784E1,2.9378042E0,8.71698E0,1.0849723E0,1.8528318E0,5.707771E0,3.0092092E0,3.251821E0,2.4559495E0,1.183336E0,1.8258731E0,1.0081332E0,2.2436879E0,1.3785145E0,1.0774349E0],"tree_param":{"num_deleted":"6","num_feature":"34","num_nodes":"15","size_leaf_vector":"0"}},{"base_weights":[-2.7464237E-4,-8.8501714E-2,2.5439626E-1,1.1767779E-1,-2.3303047E-1,-7.3047355E-2,3.1082585E-1,3.247115E-2,-3.109704E-1],"categories":[],"categories_nodes":[],"categories_segments":[],"categories_sizes":[],"default_left":[true,true,false,true,true,true,true,true,true],"id":56,"left_children":[1,3,-1,-1,-1,-1,-1,-1,-1],"loss_changes":[2.4178053E-1,2.6550573E-1,0E0,1.6847536E-1,1.1423865E-1,0E0,0E0,0E0,0E0],"parents":[2147483647,0,0,1,1,3,3,4,4],"right_children":[2,4,-1,-1,-1,-1,-1,-1,-1],"split_conditions":[6.024533E-1,5.947296E-1,7.631888E-2,3.530334E-2,-6.990914E-2,-2.1914206E-2,9.324776E-2,9.741345E-3,-9.329112E-2],"split_indices":[14,30,0,31,33,2147483647,2147483647,2147483647,2147483647],"split_type":[0,0,0,0,0,0,0,0,0],"sum_hessian":[8.75866E0,6.9896736E0,1.7689861E0,2.9570441E0,4.0326295E0,1.8007197E0,1.1563243E0,1.0475487E0,2.985081E0],"tree_param":{"num_deleted":"4","num_feature":"34","num_nodes":"9","size_leaf_vector":"0"}},{"base_weights":[-4.0222486E-3,-4.3349214E-2,2.12181E-1,-1.599147E-1,6.841685E-2,4.7657453E-2,-2.9911923E-1,1.5525441E-1,-1.4189161E-1,-1.0755994E-1,1.6378759E-1,-4.6840217E-2,-3.6721507E-1,2.5060588E-1,-9.991463E-2],"categories":[],"categories_nodes":[],"categories_segments":[],"categories_sizes":[],"default_left":[true,true,true,true,true,true,true,true,true,true,true,true,true,true,true],"id":57,"left_children":[-1,-1,-1,-1,-1,-1,-1,-1,-1,-1,-1,-1,-1,-1,-1],"loss_changes":[1.283423E-1,1.7622054E-1,0E0,2.0234783E-1,1.5309887E-1,8.026703E-2,5.2098095E-2,1.6024645E-1,0E0,0E0,0E0,0E0,0E0,0E0,0E0],"parents":[2147483647,0,0,1,1,3,3,4,4,5,5,6,6,7,7],"right_children":[-1,-1,-1,-1,-1,-1,-1,-1,-1,-1,-1,-1,-1,-1,-1],"split_conditions":[-1.2066746E-3,-1.3004765E-2,6.36543E-2,-4.797441E-2,2.0525055E-2,1.4297237E-2,-8.9735776E-2,4.6576325E-2,-4.2567484E-2,-3.2267984E-2,4.9136277E-2,-1.4052066E-2,-1.1016452E-1,7.518177E-2,-2.9974392E-2],"split_indices":[25,2147483647,2147483647,2147483647,2147483647,2147483647,2147483647,2147483647,2147483647,2147483647,2147483647,2147483647,2147483647,2147483647,2147483647],"split_type":[0,0,0,0,0,0,0,0,0,0,0,0,0,0,0],"sum_hessian":[1.3012675E1,1.1686433E1,1.3262422E0,5.509523E0,6.17691E0,2.47565E0,3.033873E0,4.557054E0,1.6198556E0,1.0911018E0,1.3845483E0,1.0036061E0,2.030267E0,3.330425E0,1.226629E0],"tree_param":{"num_deleted":"14","num_feature":"34","num_nodes":"15","size_leaf_vector":"0"}},{"base_weights":[8.327706E-3,1.2845486E-1,-9.457667E-2,-8.288339E-2,2.379234E-1,-2.8244317E-1,7.6081984E-2,3.4979288E-2,3.1429616E-1,1.8123607E-1,-1.102099E-1,3.1431016E-1,-3.3922635E-2],"categories":[],"categories_nodes":[],"categories_segments":[],"categories_sizes":[],"default_left":[true,true,true,true,true,true,true,true,true,true,true,true,true],"id":58,"left_children":[-1,-1,-1,-1,-1,-1,-1,-1,-1,-1,-1,-1,-1],"loss_changes":[1.6025037E-1,1.5741523E-1,2.4684322E-1,0E0,5.378224E-2,0E0,1.0755665E-1,0E0,0E0,1.03314444E-1,0E0,0E0,0E0],"parents":[2147483647,0,0,1,1,2,2,4,4,6,6,9,9],"right_children":[-1,-1,-1,-1,-1,-1,-1,-1,-1,-1,-1,-1,-1],"split_conditions":[2.498312E-3,3.853646E-2,-2.8373003E-2,-2.4865018E-2,7.1377024E-2,-8.473295E-2,2.2824597E-2,1.0493787E-2,9.428885E-2,5.4370824E-2,-3.3062972E-2,9.429305E-2,-1.0176791E-2],"split_indices":[14,2147483647,2147483647,2147483647,2147483647,2147483647,2147483647,2147483647,2147483647,2147483647,2147483647,2147483647,2147483647],"split_type":[0,0,0,0,0,0,0,0,0,0,0,0,0],"sum_hessian":[1.0980763E1,4.9518476E0,6.0289164E0,1.772583E0,3.1792645E0,2.5579855E0,3.4709306E0,1.2679551E0,1.9113095E0,2.2359617E0,1.234969E0,1.0967811E0,1.1391804E0],"tree_param":{"num_deleted":"12","num_feature":"34","num_nodes":"13","size_leaf_vector":"0"}},{"base_weights":[-4.6640993E-3,-1.378092E-1,1.4674824E-1,-2.512499E-1,9.000868E-2,2.9898012E-1,-8.413563E-2,-3.4408596E-1,4.5340094E-3],"categories":[],"categories_nodes":[],"categories_segments":[],"categories_sizes":[],"default_left":[true,true,true,true,true,true,true,true,true],"id":59,"left_children":[-1,-1,-1,-1,-1,-1,-1,-1,-1],"loss_changes":[2.0785607E-1,1.6393083E-1,1.9524205E-1,9.450525E-2,0E0,0E0,0E0,0E0,0E0],"parents":[2147483647,0,0,1,1,2,2,3,3],"right_children":[-1,-1,-1,-1,-1,-1,-1,-1,-1],"split_conditions":[-1.3992299E-3,-4.134276E-2,4.4024475E-2,-7.5374976E-2,2.7002607E-2,8.969404E-2,-2.524069E-2,-1.0322579E-1,1.3602029E-3],"split_indices":[18,2147483647,2147483647,2147483647,2147483647,2147483647,2147483647,2147483647,2147483647],"split_type":[0,0,0,0,0,0,0,0,0],"sum_hessian":[8.307269E0,4.468083E0,3.8391862E0,2.9141452E0,1.5539374E0,2.135934E0,1.7032522E0,1.8848304E0,1.029315E0],"tree_param":{"num_deleted":"8","num_feature":"34","num_nodes":"9","size_leaf_vector":"0"}},{"base_weights":[-3.0214665E-3,-4.2344622E-2,2.1250343E-1,-1.5900125E-1,6.925462E-2,4.854846E-2,-2.9856792E-1,1.5613724E-1,-1.4160082E-1,-1.0703552E-1,1.644975E-1,-4.6265006E-2,-3.6689514E-1,2.512373E-1,-9.922725E-2],"categories":[],"categories_nodes":[],"categories_segments":[],"categories_sizes":[],"default_left":[true,true,true,true,true,true,true,true,true,true,true,true,true,true,true],"id":60,"left_children":[-1,-1,-1,-1,-1,-1,-1,-1,-1,-1,-1,-1,-1,-1,-1],"loss_changes":[1.2773563E-1,1.761182E-1,0E0,2.0289652E-1,1.5361102E-1,8.0299586E-2,5.2478164E-2,1.5993355E-1,0E0,0E0,0E0,0E0,0E0,0E0,0E0],"parents":[2147483647,0,0,1,1,3,3,4,4,5,5,6,6,7,7],"right_children":[-1,-1,-1,-1,-1,-1,-1,-1,-1,-1,-1,-1,-1,-1,-1],"split_conditions":[-9.0644E-4,-1.2703387E-2,6.3751034E-2,-4.7700375E-2,2.0776387E-2,1.4564538E-2,-8.957038E-2,4.6841174E-2,-4.2480245E-2,-3.2110658E-2,4.9349252E-2,-1.3879502E-2,-1.10068545E-1,7.537119E-2,-2.9768176E-2],"split_indices":[25,2147483647,2147483647,2147483647,2147483647,2147483647,2147483647,2147483647,2147483647,2147483647,2147483647,2147483647,2147483647,2147483647,2147483647],"split_type":[0,0,0,0,0,0,0,0,0,0,0,0,0,0,0],"sum_hessian":[1.30100975E1,1.1682178E1,1.3279198E0,5.503999E0,6.178178E0,2.4752307E0,3.0287688E0,4.55911E0,1.6190677E0,1.0897907E0,1.38544E0,1.0028365E0,2.0259323E0,3.3337524E0,1.2253578E0],"tree_param":{"num_deleted":"14","num_feature":"34","num_nodes":"15","size_leaf_vector":"0"}},{"base_weights":[6.603972E-3,1.2699771E-1,-9.6115306E-2,-8.402243E-2,2.368803E-1,-2.8332946E-1,7.4623324E-2,3.394543E-2,3.1369433E-1,1.8008004E-1,-1.1113972E-1,3.1375313E-1,-3.491554E-2],"categories":[],"categories_nodes":[],"categories_segments":[],"categories_sizes":[],"default_left":[true,true,true,true,true,true,true,true,true,true,true,true,true],"id":61,"left_children":[-1,-1,-1,-1,-1,-1,-1,-1,-1,-1,-1,-1,-1],"loss_changes":[1.6038305E-1,1.57802E-1,2.4600556E-1,0E0,5.4394424E-2,0E0,1.07596464E-1,0E0,0E0,1.0388148E-1,0E0,0E0,0E0],"parents":[2147483647,0,0,1,1,2,2,4,4,6,6,9,9],"right_children":[-1,-1,-1,-1,-1,-1,-1,-1,-1,-1,-1,-1,-1],"split_conditions":[1.9811918E-3,3.8099315E-2,-2.8834593E-2,-2.5206732E-2,7.106409E-2,-8.499884E-2,2.2386998E-2,1.018363E-2,9.4108306E-2,5.4024015E-2,-3.334192E-2,9.412594E-2,-1.0474662E-2],"split_indices":[14,2147483647,2147483647,2147483647,2147483647,2147483647,2147483647,2147483647,2147483647,2147483647,2147483647,2147483647,2147483647],"split_type":[0,0,0,0,0,0,0,0,0,0,0,0,0],"sum_hessian":[1.098185E1,4.94713E0,6.034719E0,1.7745678E0,3.1725624E0,2.5639381E0,3.4707808E0,1.2670531E0,1.9055094E0,2.2334535E0,1.2373272E0,1.093947E0,1.1395065E0],"tree_param":{"num_deleted":"12","num_feature":"34","num_nodes":"13","size_leaf_vector":"0"}},{"base_weights":[-3.953973E-3,-1.3722485E-1,1.472949E-1,-2.508058E-1,9.044577E-2,2.9926115E-1,-8.360606E-2,-3.4385067E-1,4.8858444E-3],"categories":[],"categories_nodes":[],"categories_segments":[],"categories_sizes":[],"default_left":[true,true,true,true,true,true,true,true,true],"id":62,"left_children":[-1,-1,-1,-1,-1,-1,-1,-1,-1],"loss_changes":[2.0779777E-1,1.6399883E-1,1.9489984E-1,9.4724804E-2,0E0,0E0,0E0,0E0,0E0],"parents":[2147483647,0,0,1,1,2,2,3,3],"right_children":[-1,-1,-1,-1,-1,-1,-1,-1,-1],"split_conditions":[-1.1861919E-3,-4.1167457E-2,4.418847E-2,-7.5241745E-2,2.7133733E-2,8.977835E-2,-2.5081819E-2,-1.031552E-1,1.4657534E-3],"split_indices":[18,2147483647,2147483647,2147483647,2147483647,2147483647,2147483647,2147483647,2147483647],"split_type":[0,0,0,0,0,0,0,0,0],"sum_hessian":[8.306176E0,4.4648004E0,3.8413763E0,2.910957E0,1.553843E0,2.138123E0,1.7032531E0,1.8815017E0,1.0294554E0],"tree_param":{"num_deleted":"8","num_feature":"34","num_nodes":"9","size_leaf_vector":"0"}},{"base_weights":[-2.265076E-3,-4.1583806E-2,2.1273813E-1,-1.5830347E-1,6.988302E-2,4.9228407E-2,-2.9814687E-1,1.5680823E-1,-1.4139718E-1,-1.06638305E-1,1.6504116E-1,-4.5827262E-2,-3.6665142E-1,2.5171447E-1,-9.870026E-2],"categories":[],"categories_nodes":[],"categories_segments":[],"categories_sizes":[],"default_left":[true,true,true,true,true,true,true,true,true,true,true,true,true,true,true],"id":63,"left_children":[-1,-1,-1,-1,-1,-1,-1,-1,-1,-1,-1,-1,-1,-1,-1],"loss_changes":[1.2726688E-1,1.7602107E-1,0E0,2.0331462E-1,1.5402193E-1,8.032681E-2,5.2767724E-2,1.5968634E-1,0E0,0E0,0E0,0E0,0E0,0E0,0E0],"parents":[2147483647,0,0,1,1,3,3,4,4,5,5,6,6,7,7],"right_children":[-1,-1,-1,-1,-1,-1,-1,-1,-1,-1,-1,-1,-1,-1,-1],"split_conditions":[-6.795228E-4,-1.2475142E-2,6.382144E-2,-4.7491044E-2,2.0964906E-2,1.4768523E-2,-8.944406E-2,4.704247E-2,-4.2419154E-2,-3.1991493E-2,4.9512353E-2,-1.3748179E-2,-1.0999543E-1,7.551435E-2,-2.961008E-2],"split_indices":[25,2147483647,2147483647,2147483647,2147483647,2147483647,2147483647,2147483647,2147483647,2147483647,2147483647,2147483647,2147483647,2147483647,2147483647],"split_type":[0,0,0,0,0,0,0,0,0,0,0,0,0,0,0],"sum_hessian":[1.3008195E1,1.1678988E1,1.3292063E0,5.4998136E0,6.1791754E0,2.4749243E0,3.024889E0,4.560646E0,1.6185292E0,1.0887914E0,1.386133E0,1.0022641E0,2.022625E0,3.3362691E0,1.224377E0],"tree_param":{"num_deleted":"14","num_feature":"34","num_nodes":"15","size_leaf_vector":"0"}},{"base_weights":[5.243466E-3,1.2585032E-1,-9.733116E-2,-8.491943E-2,2.3605877E-1,-2.8402904E-1,7.347064E-2,3.3132073E-2,3.1321895E-1,1.7916854E-1,-1.1187826E-1,3.1331417E-1,-3.5697192E-2],"categories":[],"categories_nodes":[],"categories_segments":[],"categories_sizes":[],"default_left":[true,true,true,true,true,true,true,true,true,true,true,true,true],"id":64,"left_children":[-1,-1,-1,-1,-1,-1,-1,-1,-1,-1,-1,-1,-1],"loss_changes":[1.604908E-1,1.5810344E-1,2.4534175E-1,0E0,5.487348E-2,0E0,1.07630044E-1,0E0,0E0,1.0432648E-1,0E0,0E0,0E0],"parents":[2147483647,0,0,1,1,2,2,4,4,6,6,9,9],"right_children":[-1,-1,-1,-1,-1,-1,-1,-1,-1,-1,-1,-1,-1],"split_conditions":[1.5730398E-3,3.77551E-2,-2.9199349E-2,-2.547583E-2,7.0817634E-2,-8.5208714E-2,2.2041192E-2,9.939622E-3,9.396569E-2,5.3750563E-2,-3.356348E-2,9.399425E-2,-1.0709158E-2],"split_indices":[14,2147483647,2147483647,2147483647,2147483647,2147483647,2147483647,2147483647,2147483647,2147483647,2147483647,2147483647,2147483647],"split_type":[0,0,0,0,0,0,0,0,0,0,0,0,0],"sum_hessian":[1.09828E1,4.9434247E0,6.039375E0,1.7761211E0,3.1673036E0,2.5686984E0,3.4706764E0,1.2663286E0,1.900975E0,2.2314844E0,1.239192E0,1.0917155E0,1.139769E0],"tree_param":{"num_deleted":"12","num_feature":"34","num_nodes":"13","size_leaf_vector":"0"}},{"base_weights":[-3.3424597E-3,-1.3672113E-1,1.4776787E-1,-2.5042543E-1,9.082495E-2,2.9950765E-1,-8.3153084E-2,-3.436513E-1,5.193226E-3],"categories":[],"categories_nodes":[],"categories_segments":[],"categories_sizes":[],"default_left":[true,true,true,true,true,true,true,true,true],"id":65,"left_children":[-1,-1,-1,-1,-1,-1,-1,-1,-1],"loss_changes":[2.0775025E-1,1.6406442E-1,1.9461164E-1,9.491947E-2,0E0,0E0,0E0,0E0,0E0],"parents":[2147483647,0,0,1,1,2,2,3,3],"right_children":[-1,-1,-1,-1,-1,-1,-1,-1,-1],"split_conditions":[-1.0027379E-3,-4.101634E-2,4.4330362E-2,-7.512763E-2,2.7247485E-2,8.9852296E-2,-2.4945926E-2,-1.0309539E-1,1.5579679E-3],"split_indices":[18,2147483647,2147483647,2147483647,2147483647,2147483647,2147483647,2147483647,2147483647],"split_type":[0,0,0,0,0,0,0,0,0],"sum_hessian":[8.305296E0,4.462054E0,3.8432422E0,2.908256E0,1.5537977E0,2.1400118E0,1.7032303E0,1.8786931E0,1.029563E0],"tree_param":{"num_deleted":"8","num_feature":"34","num_nodes":"9","size_leaf_vector":"0"}},{"base_weights":[-1.694234E-3,-4.100837E-2,2.1290766E-1,-1.5777086E-1,7.0353314E-2,4.974697E-2,-2.978255E-1,1.5731792E-1,-1.4125706E-1,-1.06337756E-1,1.6545737E-1,-4.5494407E-2,-3.6646584E-1,2.5207463E-1,-9.829626E-2],"categories":[],"categories_nodes":[],"categories_segments":[],"categories_sizes":[],"default_left":[true,true,true,true,true,true,true,true,true,true,true,true,true,true,true],"id":66,"left_children":[-1,-1,-1,-1,-1,-1,-1,-1,-1,-1,-1,-1,-1,-1,-1],"loss_changes":[1.2690473E-1,1.7593183E-1,0E0,2.0363319E-1,1.5435226E-1,8.034963E-2,5.298823E-2,1.5949094E-1,0E0,0E0,0E0,0E0,0E0,0E0,0E0],"parents":[2147483647,0,0,1,1,3,3,4,4,5,5,6,6,7,7],"right_children":[-1,-1,-1,-1,-1,-1,-1,-1,-1,-1,-1,-1,-1,-1,-1],"split_conditions":[-5.082702E-4,-1.2302512E-2,6.38723E-2,-4.733126E-2,2.1105995E-2,1.4924092E-2,-8.9347646E-2,4.719538E-2,-4.237712E-2,-3.190133E-2,4.9637213E-2,-1.3648323E-2,-1.09939754E-1,7.5622395E-2,-2.948888E-2],"split_indices":[25,2147483647,2147483647,2147483647,2147483647,2147483647,2147483647,2147483647,2147483647,2147483647,2147483647,2147483647,2147483647,2147483647,2147483647],"split_type":[0,0,0,0,0,0,0,0,0,0,0,0,0,0,0],"sum_hessian":[1.3006791E1,1.1676599E1,1.3301926E0,5.49664E0,6.179958E0,2.4747002E0,3.02194E0,4.561788E0,1.6181701E0,1.0880297E0,1.3866704E0,1.0018393E0,2.0201008E0,3.3381689E0,1.2236191E0],"tree_param":{"num_deleted":"14","num_feature":"34","num_nodes":"15","size_leaf_vector":"0"}},{"base_weights":[4.1685454E-3,1.2494623E-1,-9.8293215E-2,-8.562661E-2,2.3541144E-1,-2.845819E-1,7.2558716E-2,3.2491457E-2,3.1284335E-1,1.7844917E-1,-1.12465635E-1,3.1296775E-1,-3.6313172E-2],"categories":[],"categories_nodes":[],"categories_segments":[],"categories_sizes":[],"default_left":[true,true,true,true,true,true,true,true,true,true,true,true,true],"id":67,"left_children":[-1,-1,-1,-1,-1,-1,-1,-1,-1,-1,-1,-1,-1],"loss_changes":[1.6057979E-1,1.5833947E-1,2.4481547E-1,0E0,5.524902E-2,0E0,1.0765883E-1,0E0,0E0,1.0467616E-1,0E0,0E0,0E0],"parents":[2147483647,0,0,1,1,2,2,4,4,6,6,9,9],"right_children":[-1,-1,-1,-1,-1,-1,-1,-1,-1,-1,-1,-1,-1],"split_conditions":[1.2505637E-3,3.748387E-2,-2.9487966E-2,-2.5687983E-2,7.0623435E-2,-8.537457E-2,2.1767616E-2,9.747437E-3,9.385301E-2,5.3534754E-2,-3.3739693E-2,9.389033E-2,-1.0893952E-2],"split_indices":[14,2147483647,2147483647,2147483647,2147483647,2147483647,2147483647,2147483647,2147483647,2147483647,2147483647,2147483647,2147483647],"split_type":[0,0,0,0,0,0,0,0,0,0,0,0,0],"sum_hessian":[1.0983619E1,4.940509E0,6.0431104E0,1.7773374E0,3.1631715E0,2.5725079E0,3.4706023E0,1.2657443E0,1.8974272E0,2.2299352E0,1.2406672E0,1.0899554E0,1.1399797E0],"tree_param":{"num_deleted":"12","num_feature":"34","num_nodes":"13","size_leaf_vector":"0"}},{"base_weights":[-2.8183004E-3,-1.3628905E-1,1.4817496E-1,-2.50101E-1,9.115196E-2,2.997221E-1,-8.276685E-2,-3.434828E-1,5.4598125E-3],"categories":[],"categories_nodes":[],"categories_segments":[],"categories_sizes":[],"default_left":[true,true,true,true,true,true,true,true,true],"id":68,"left_children":[-1,-1,-1,-1,-1,-1,-1,-1,-1],"loss_changes":[2.0771164E-1,1.6412574E-1,1.9436908E-1,9.509033E-2,0E0,0E0,0E0,0E0,0E0],"parents":[2147483647,0,0,1,1,2,2,3,3],"right_children":[-1,-1,-1,-1,-1,-1,-1,-1,-1],"split_conditions":[-8.4549014E-4,-4.0886715E-2,4.445249E-2,-7.5030304E-2,2.7345588E-2,8.991663E-2,-2.4830056E-2,-1.03044845E-1,1.6379438E-3],"split_indices":[18,2147483647,2147483647,2147483647,2147483647,2147483647,2147483647,2147483647,2147483647],"split_type":[0,0,0,0,0,0,0,0,0],"sum_hessian":[8.304585E0,4.459758E0,3.8448272E0,2.905973E0,1.5537848E0,2.1416333E0,1.7031939E0,1.876328E0,1.029645E0],"tree_param":{"num_deleted":"8","num_feature":"34","num_nodes":"9","size_leaf_vector":"0"}},{"base_weights":[-1.2640959E-3,-4.0573716E-2,2.1302897E-1,-1.5736453E-1,7.0704445E-2,5.01423E-2,-2.9758036E-1,1.5770479E-1,-1.4116274E-1,2.0117955E-1,-9.219801E-2,-4.5241475E-2,-3.663246E-1,2.5234613E-1,-9.798672E-2],"categories":[],"categories_nodes":[],"categories_segments":[],"categories_sizes":[],"default_left":[true,true,true,true,true,true,true,true,true,true,true,true,true,true,true],"id":69,"left_children":[-1,-1,-1,-1,-1,-1,-1,-1,-1,-1,-1,-1,-1,-1,-1],"loss_changes":[1.2662475E-1,1.7585152E-1,0E0,2.0387596E-1,1.5461802E-1,9.324633E-2,5.3156078E-2,1.5933664E-1,0E0,0E0,0E0,0E0,0E0,0E0,0E0],"parents":[2147483647,0,0,1,1,3,3,4,4,5,5,6,6,7,7],"right_children":[-1,-1,-1,-1,-1,-1,-1,-1,-1,-1,-1,-1,-1,-1,-1],"split_conditions":[-3.792288E-4,-1.2172115E-2,6.3908696E-2,-4.7209363E-2,2.1211334E-2,1.5042691E-2,-8.927411E-2,4.7311436E-2,-4.2348824E-2,6.0353868E-2,-2.7659403E-2,-1.3572443E-2,-1.0989738E-1,7.5703844E-2,-2.9396018E-2],"split_indices":[25,2147483647,2147483647,2147483647,2147483647,2147483647,2147483647,2147483647,2147483647,2147483647,2147483647,2147483647,2147483647,2147483647,2147483647],"split_type":[0,0,0,0,0,0,0,0,0,0,0,0,0,0,0],"sum_hessian":[1.30057535E1,1.1674806E1,1.3309476E0,5.4942355E0,6.1805706E0,2.4745362E0,3.019699E0,4.5626316E0,1.6179388E0,1.0000322E0,1.474504E0,1.0015248E0,2.0181744E0,3.3395998E0,1.2230318E0],"tree_param":{"num_deleted":"14","num_feature":"34","num_nodes":"15","size_leaf_vector":"0"}},{"base_weights":[3.3180658E-3,1.24232866E-1,-9.9055484E-2,-8.618481E-2,2.3490062E-1,-2.8501955E-1,7.183645E-2,3.19861E-2,3.12546E-1,1.7788084E-1,-1.12933375E-1,3.12694E-1,-3.67991E-2],"categories":[],"categories_nodes":[],"categories_segments":[],"categories_sizes":[],"default_left":[true,true,true,true,true,true,true,true,true,true,true,true,true],"id":70,"left_children":[-1,-1,-1,-1,-1,-1,-1,-1,-1,-1,-1,-1,-1],"loss_changes":[1.6065349E-1,1.5852459E-1,2.4439836E-1,0E0,5.5543914E-2,0E0,1.0768375E-1,0E0,0E0,1.0495127E-1,0E0,0E0,0E0],"parents":[2147483647,0,0,1,1,2,2,4,4,6,6,9,9],"right_children":[-1,-1,-1,-1,-1,-1,-1,-1,-1,-1,-1,-1,-1],"split_conditions":[9.954198E-4,3.726986E-2,-2.9716646E-2,-2.5855443E-2,7.047019E-2,-8.5505866E-2,2.1550935E-2,9.59583E-3,9.3763806E-2,5.3364255E-2,-3.3880014E-2,9.380821E-2,-1.103973E-2],"split_indices":[14,2147483647,2147483647,2147483647,2147483647,2147483647,2147483647,2147483647,2147483647,2147483647,2147483647,2147483647,2147483647],"split_type":[0,0,0,0,0,0,0,0,0,0,0,0,0],"sum_hessian":[1.0984312E1,4.9382052E0,6.046107E0,1.77829E0,3.1599152E0,2.575558E0,3.4705489E0,1.2652712E0,1.8946439E0,2.228714E0,1.2418349E0,1.0885653E0,1.1401488E0],"tree_param":{"num_deleted":"12","num_feature":"34","num_nodes":"13","size_leaf_vector":"0"}},{"base_weights":[-2.3710874E-3,-1.3592014E-1,1.4852348E-1,-2.4982527E-1,9.143242E-2,2.9990745E-1,-8.243898E-2,-3.4334072E-1,5.6896117E-3],"categories":[],"categories_nodes":[],"categories_segments":[],"categories_sizes":[],"default_left":[true,true,true,true,true,true,true,true,true],"id":71,"left_children":[-1,-1,-1,-1,-1,-1,-1,-1,-1],"loss_changes":[2.076801E-1,1.6418177E-1,1.9416559E-1,9.523912E-2,0E0,0E0,0E0,0E0,0E0],"parents":[2147483647,0,0,1,1,2,2,3,3],"right_children":[-1,-1,-1,-1,-1,-1,-1,-1,-1],"split_conditions":[-7.1132625E-4,-4.0776044E-2,4.4557046E-2,-7.494758E-2,2.7429728E-2,8.9972235E-2,-2.4731696E-2,-1.0300222E-1,1.7068835E-3],"split_indices":[18,2147483647,2147483647,2147483647,2147483647,2147483647,2147483647,2147483647,2147483647],"split_type":[0,0,0,0,0,0,0,0,0],"sum_hessian":[8.304009E0,4.457841E0,3.8461685E0,2.9040482E0,1.5537926E0,2.1430187E0,1.7031499E0,1.8743404E0,1.0297078E0],"tree_param":{"num_deleted":"8","num_feature":"34","num_nodes":"9","size_leaf_vector":"0"}}]},"name":"gbtree"},"learner_model_param":{"base_score":"5E-1","num_class":"3","num_feature":"34"},"objective":{"name":"multi:softprob","softmax_multiclass_param":{"num_class":"3"}}},"version":[1,5,0]}