{"learner":{"attributes":{"best_iteration":"47","best_ntree_limit":"48","best_score":"0.96402","scikit_learn":"{\"use_label_encoder\": false, \"n_estimators\": 169, \"objective\": \"binary:logistic\", \"max_depth\": null, \"learning_rate\": null, \"verbosity\": 1, \"booster\": \"gbtree\", \"tree_method\": null, \"gamma\": null, \"min_child_weight\": null, \"max_delta_step\": null, \"subsample\": null, \"colsample_bytree\": 1, \"colsample_bylevel\": null, \"colsample_bynode\": null, \"reg_alpha\": 0, \"reg_lambda\": null, \"scale_pos_weight\": 1, \"base_score\": 0.5, \"missing\": null, \"num_parallel_tree\": null, \"random_state\": 0, \"n_jobs\": 1, \"monotone_constraints\": null, \"interaction_constraints\": null, \"importance_type\": null, \"gpu_id\": null, \"validate_parameters\": null, \"predictor\": null, \"enable_categorical\": false, \"kwargs\": {\"lcarning_ratc\": 0.1, \"nax_dclta_stcp\": 0, \"nax_dcpth\": 3, \"nin_child_weight\": 1, \"nthread\": null, \"rcg_lanbda\": 1, \"seed\": 42, \"silent\": null, \"subsanple\": 1}, \"classes_\": [0.0, 1.0], \"n_classes_\": 2, \"evals_result_\": {\"validation_0\": {\"aucpr\": [0.811793, 0.854566, 0.935946, 0.932272, 0.940491, 0.929936, 0.923927, 0.937261, 0.940379, 0.935834, 0.931916, 0.939542, 0.939542, 0.939542, 0.944087, 0.940379, 0.946767, 0.946767, 0.948346, 0.948346, 0.948346, 0.948346, 0.948346, 0.948346, 0.948346, 0.948346, 0.951026, 0.951026, 0.951026, 0.948346, 0.948346, 0.951866, 0.951866, 0.951866, 0.951866, 0.951866, 0.951866, 0.951866, 0.951866, 0.95822, 0.95822, 0.95822, 0.951866, 0.951866, 0.95822, 0.951866, 0.95822, 0.96402, 0.96402, 0.96402, 0.95822, 0.96402, 0.96402, 0.96402, 0.96402, 0.96402, 0.96402, 0.96402]}}, \"_estimator_type\": \"classifier\"}"},"feature_names":[],"feature_types":[],"gradient_booster":{"model":{"gbtree_model_param":{"num_trees":"58","size_leaf_vector":"0"},"tree_info":[0,0,0,0,0,0,0,0,0,0,0,0,0,0,0,0,0,0,0,0,0,0,0,0,0,0,0,0,0,0,0,0,0,0,0,0,0,0,0,0,0,0,0,0,0,0,0,0,0,0,0,0,0,0,0,0,0,0],"trees":[{"base_weights":[1.1235955E-1,1.0476191E0,-6.666667E-1,-2.857143E-1,1.5E0,-1E0,4E-1,6.666667E-1,-1.1111112E0,1.5384616E-1,-1.3548387E0,-5E-1,9.0909094E-1,-1E0,1.1111112E0,-1.5384616E0,-2.2222222E-1],"categories":[],"categories_nodes":[],"categories_segments":[],"categories_sizes":[],"default_left":[true,true,true,true,false,true,true,false,false,true,true,false,false,false,false,false,false],"id":0,"left_children":[1,3,5,7,-1,9,11,-1,-1,13,15,-1,-1,-1,-1,-1,-1],"loss_changes":[1.6909576E1,6.7619057E0,4.933334E0,3.4920633E0,0E0,4.3027296E0,2.172727E0,0E0,0E0,4.700855E0,1.2699194E0,0E0,0E0,0E0,0E0,0E0,0E0],"parents":[2147483647,0,0,1,1,2,2,3,3,5,5,6,6,9,9,10,10],"right_children":[2,4,6,8,-1,10,12,-1,-1,14,16,-1,-1,-1,-1,-1,-1],"split_conditions":[4.5354024E-1,5.419567E-1,7.4966437E-1,4.4712448E-1,4.5000002E-1,5.4884005E-1,3.651514E-1,2.0000002E-1,-3.3333337E-1,5.164425E-1,4.336788E-1,-1.5E-1,2.7272728E-1,-3E-1,3.3333337E-1,-4.615385E-1,-6.666667E-2],"split_indices":[14,26,32,22,0,22,0,0,0,22,6,0,0,0,0,0,0],"split_type":[0,0,0,0,0,0,0,0,0,0,0,0,0,0,0,0,0],"sum_hessian":[2.125E1,9.5E0,1.175E1,2.5E0,7E0,9E0,2.75E0,1.25E0,1.25E0,2.25E0,6.75E0,1E0,1.75E0,1E0,1.25E0,5.5E0,1.25E0],"tree_param":{"num_deleted":"0","num_feature":"34","num_nodes":"17","size_leaf_vector":"0"}},{"base_weights":[7.930745E-2,5.351634E-1,-8.8742566E-1,-6.103083E-1,1.0175374E0,-1.2025745E0,-1.0184905E-1,4.4658914E-1,-1.2731223E0,1.3839483E0,-2.0513573E-1,-9.1393447E-1,5.873314E-1],"categories":[],"categories_nodes":[],"categories_segments":[],"categories_sizes":[],"default_left":[true,true,true,true,true,false,false,false,false,false,true,false,false],"id":1,"left_children":[1,3,5,7,9,-1,-1,-1,-1,-1,11,-1,-1],"loss_changes":[9.942085E0,9.03212E0,1.6749225E0,4.166399E0,5.2506857E0,0E0,0E0,0E0,0E0,0E0,2.4618673E0,0E0,0E0],"parents":[2147483647,0,0,1,1,2,2,3,3,4,4,10,10],"right_children":[2,4,6,8,10,-1,-1,-1,-1,-1,12,-1,-1],"split_conditions":[5.846695E-1,5.561655E-1,6.762823E-1,4.511262E-1,5.248368E-1,-3.6077237E-1,-3.0554716E-2,1.3397674E-1,-3.819367E-1,4.1518453E-1,6.379888E-1,-2.7418035E-1,1.7619944E-1],"split_indices":[22,28,28,24,20,0,0,0,0,0,28,0,0],"split_type":[0,0,0,0,0,0,0,0,0,0,0,0,0],"sum_hessian":[2.0482548E1,1.4222468E1,6.2600803E0,4.135904E0,1.0086564E1,4.088917E0,2.1711636E0,1.7198001E0,2.4161038E0,7.659315E0,2.4272492E0,1.2003522E0,1.2268969E0],"tree_param":{"num_deleted":"0","num_feature":"34","num_nodes":"13","size_leaf_vector":"0"}},{"base_weights":[4.685078E-2,3.630818E-1,-9.472368E-1,-6.541383E-1,7.682688E-1,-9.979504E-2,-1.2271407E0,-1.1012323E0,8.580931E-2,1.1631191E0,-3.793299E-2,4.1969165E-1,1.2735745E0,-8.845461E-1,6.678556E-1],"categories":[],"categories_nodes":[],"categories_segments":[],"categories_sizes":[],"default_left":[true,true,true,true,true,false,false,false,false,true,true,false,false,false,false],"id":2,"left_children":[1,3,5,7,9,-1,-1,-1,-1,11,13,-1,-1,-1,-1],"loss_changes":[6.6195283E0,7.0428095E0,1.0860715E0,1.7685752E0,3.8028774E0,0E0,0E0,0E0,0E0,1.18927E-1,3.4889283E0,0E0,0E0,0E0,0E0],"parents":[2147483647,0,0,1,1,2,2,3,3,4,4,9,9,10,10],"right_children":[2,4,6,8,10,-1,-1,-1,-1,12,14,-1,-1,-1,-1],"split_conditions":[6.1754566E-1,6.21488E-1,3.8866305E-1,5.2660275E-1,5.540841E-1,-2.9938513E-2,-3.6814222E-1,-3.303697E-1,2.5742795E-2,3.3861107E-1,5.548895E-1,1.259075E-1,3.8207236E-1,-2.6536384E-1,2.0035669E-1],"split_indices":[24,32,23,31,31,0,0,0,0,33,1,0,0,0,0],"split_type":[0,0,0,0,0,0,0,0,0,0,0,0,0,0,0],"sum_hessian":[1.8963026E1,1.4868074E1,4.0949516E0,4.0602994E0,1.0807775E1,1.3535262E0,2.7414255E0,2.2266486E0,1.833651E0,6.9575086E0,3.850266E0,1.5208664E0,5.436642E0,1.6353475E0,2.2149184E0],"tree_param":{"num_deleted":"0","num_feature":"34","num_nodes":"15","size_leaf_vector":"0"}},{"base_weights":[2.483293E-2,5.8237463E-1,-4.1392154E-1,-3.0342102E-1,7.9779273E-1,-8.2397074E-1,1.5740676E-1,9.9832904E-1,-3.1361505E-2,-3.4316693E-2,-1.1306646E0,8.12744E-1,-4.8550516E-1,1.0880159E0,2.9041237E-1,1.18049875E-1,-8.2342976E-1],"categories":[],"categories_nodes":[],"categories_segments":[],"categories_sizes":[],"default_left":[true,true,true,false,true,true,true,true,false,false,false,false,true,false,false,false,false],"id":3,"left_children":[1,3,5,-1,7,9,11,13,-1,-1,-1,-1,15,-1,-1,-1,-1],"loss_changes":[4.759568E0,1.8735349E0,2.6882663E0,0E0,1.2206678E0,1.5398517E0,2.6709487E0,5.166006E-2,0E0,0E0,0E0,0E0,7.8113544E-1,0E0,0E0,0E0,0E0],"parents":[2147483647,0,0,1,1,2,2,4,4,5,5,6,6,7,7,12,12],"right_children":[2,4,6,-1,8,10,12,14,-1,-1,-1,-1,16,-1,-1,-1,-1],"split_conditions":[4.5354024E-1,5.169728E-1,6.410929E-1,-9.1026306E-2,3.7556484E-1,5.4884005E-1,6.1754566E-1,5.480763E-1,-9.408452E-3,-1.0295008E-2,-3.391994E-1,2.4382322E-1,4.5116866E-1,3.2640478E-1,8.7123714E-2,3.5414964E-2,-2.4702893E-1],"split_indices":[14,26,28,0,10,22,24,25,0,0,0,0,9,0,0,0,0],"split_type":[0,0,0,0,0,0,0,0,0,0,0,0,0,0,0,0,0],"sum_hessian":[1.7471254E1,7.5499344E0,9.92132E0,1.3969941E0,6.1529403E0,5.518456E0,4.402864E0,4.7903337E0,1.3626063E0,1.8547826E0,3.6636734E0,2.0495462E0,2.353318E0,3.7751312E0,1.0152025E0,1.0782163E0,1.2751017E0],"tree_param":{"num_deleted":"0","num_feature":"34","num_nodes":"17","size_leaf_vector":"0"}},{"base_weights":[1.9002136E-2,4.9203E-1,-3.520319E-1,-6.281441E-2,8.401077E-1,-5.312043E-1,6.03782E-1,5.4730725E-1,-5.929947E-1,2.125038E-1,9.474336E-1,-9.986743E-1,-2.1319911E-1,2.2427393E-1,-8.769849E-1,-7.332128E-1,7.1374196E-1,1.8050645E-1,9.012852E-1],"categories":[],"categories_nodes":[],"categories_segments":[],"categories_sizes":[],"default_left":[true,true,true,true,true,true,false,false,false,false,false,false,true,true,false,false,true,false,false],"id":4,"left_children":[1,3,5,7,9,11,-1,-1,-1,-1,-1,-1,13,15,-1,-1,17,-1,-1],"loss_changes":[3.1676614E0,1.5817691E0,2.058033E0,1.6127678E0,1.3104868E-1,1.1361587E0,0E0,0E0,0E0,0E0,0E0,0E0,2.1342628E0,2.7813852E0,0E0,0E0,2.0683038E-1,0E0,0E0],"parents":[2147483647,0,0,1,1,2,2,3,3,4,4,5,5,12,12,13,13,16,16],"right_children":[2,4,6,8,10,12,-1,-1,-1,-1,-1,-1,14,16,-1,-1,18,-1,-1],"split_conditions":[4.5354024E-1,5.6526244E-1,7.090679E-1,4.511262E-1,3.893032E-1,3.708127E-1,1.8113461E-1,1.6419218E-1,-1.778984E-1,6.3751146E-2,2.8423008E-1,-2.996023E-1,6.183926E-1,6.0298616E-1,-2.6309547E-1,-2.1996386E-1,6.2389266E-1,5.4151937E-2,2.7038556E-1],"split_indices":[14,26,28,24,18,0,0,0,0,0,0,0,24,32,0,0,26,0,0],"split_type":[0,0,0,0,0,0,0,0,0,0,0,0,0,0,0,0,0,0,0],"sum_hessian":[1.6061483E1,6.916982E0,9.144502E0,2.9824393E0,3.934543E0,8.075032E0,1.0694692E0,1.3716574E0,1.6107819E0,1.0097675E0,2.9247751E0,2.4026644E0,5.672368E0,3.8181298E0,1.8542382E0,1.1231226E0,2.695007E0,1.211856E0,1.4831512E0],"tree_param":{"num_deleted":"0","num_feature":"34","num_nodes":"19","size_leaf_vector":"0"}},{"base_weights":[1.8074656E-2,2.6444188E-1,-5.900783E-1,-4.716974E-1,5.978965E-1,1.608045E-1,-8.4229165E-1,2.2200958E-1,-8.7611735E-1,7.98006E-1,-3.3499125E-1,5.6215074E-2,9.8061377E-1],"categories":[],"categories_nodes":[],"categories_segments":[],"categories_sizes":[],"default_left":[true,true,true,true,true,false,false,false,false,true,false,false,false],"id":5,"left_children":[1,3,5,7,9,-1,-1,-1,-1,11,-1,-1,-1],"loss_changes":[2.4908257E0,3.173846E0,1.0448986E0,1.3817201E0,1.8632569E0,0E0,0E0,0E0,0E0,9.384208E-1,0E0,0E0,0E0],"parents":[2147483647,0,0,1,1,2,2,3,3,4,4,9,9],"right_children":[2,4,6,8,10,-1,-1,-1,-1,12,-1,-1,-1],"split_conditions":[5.942604E-1,5.4990005E-1,6.786724E-1,4.4712448E-1,6.9518036E-1,4.824135E-2,-2.526875E-1,6.660288E-2,-2.628352E-1,6.4948744E-1,-1.0049738E-1,1.6864523E-2,2.9418415E-1],"split_indices":[24,28,30,22,23,0,0,0,0,30,0,0,0],"split_type":[0,0,0,0,0,0,0,0,0,0,0,0,0],"sum_hessian":[1.4582997E1,1.0780792E1,3.8022058E0,3.231752E0,7.54904E0,1.0471338E0,2.7550719E0,1.3563052E0,1.8754467E0,6.3347807E0,1.2142595E0,1.5097413E0,4.825039E0],"tree_param":{"num_deleted":"0","num_feature":"34","num_nodes":"13","size_leaf_vector":"0"}},{"base_weights":[3.8692204E-3,3.885722E-1,-2.939841E-1,-1.3022666E-1,7.069185E-1,-8.8004357E-1,1.1483712E-2,3.4927025E-1,-6.2639517E-1,8.386583E-2,8.864853E-1,3.7158838E-1,-6.888426E-1,-2.4101204E-1,6.557794E-1,6.506532E-2,8.974498E-1],"categories":[],"categories_nodes":[],"categories_segments":[],"categories_sizes":[],"default_left":[true,true,true,true,true,false,true,false,false,false,false,true,false,false,true,false,false],"id":6,"left_children":[1,3,5,7,9,-1,11,-1,-1,-1,-1,13,-1,-1,15,-1,-1],"loss_changes":[1.7459798E0,1.189525E0,1.5488958E0,1.0208652E0,4.0378284E-1,0E0,1.9298867E0,0E0,0E0,0E0,0E0,1.0342939E0,0E0,0E0,4.7079456E-1,0E0,0E0],"parents":[2147483647,0,0,1,1,2,2,3,3,4,4,6,6,11,11,14,14],"right_children":[2,4,6,8,10,-1,12,-1,-1,-1,-1,14,-1,-1,16,-1,-1],"split_conditions":[4.5354024E-1,4.712723E-1,4.007956E-1,3.3428192E-1,3.013018E-1,-2.6401308E-1,6.0512024E-1,1.04781084E-1,-1.8791856E-1,2.515975E-2,2.6594558E-1,5.833796E-1,-2.0665279E-1,-7.2303616E-2,4.4092196E-1,1.9519595E-2,2.6923496E-1],"split_indices":[14,11,10,17,0,0,18,0,0,0,0,26,0,0,21,0,0],"split_type":[0,0,0,0,0,0,0,0,0,0,0,0,0,0,0,0,0],"sum_hessian":[1.3240476E1,5.6449566E0,7.595519E0,2.3713577E0,3.273599E0,1.9580002E0,5.637519E0,1.3565012E0,1.0148566E0,1.0606053E0,2.2129936E0,4.033116E0,1.6044033E0,1.326233E0,2.7068827E0,1.1544051E0,1.5524775E0],"tree_param":{"num_deleted":"0","num_feature":"34","num_nodes":"17","size_leaf_vector":"0"}},{"base_weights":[6.4420584E-4,2.9960936E-1,-3.2538745E-1,-4.6637505E-1,5.927674E-1,-8.4892625E-1,1.6273655E-1,7.9238725E-1,-1.2852672E-1,7.175411E-1,-3.2973823E-1],"categories":[],"categories_nodes":[],"categories_segments":[],"categories_sizes":[],"default_left":[true,true,true,false,true,false,true,false,false,false,false],"id":7,"left_children":[1,3,5,-1,7,-1,9,-1,-1,-1,-1],"loss_changes":[1.3777812E0,1.9319837E0,1.8663058E0,0E0,9.3295455E-1,0E0,1.4220587E0,0E0,0E0,0E0,0E0],"parents":[2147483647,0,0,1,1,2,2,4,4,6,6],"right_children":[2,4,6,-1,8,-1,10,-1,-1,-1,-1],"split_conditions":[5.476513E-1,5.169728E-1,6.410929E-1,-1.3991252E-1,6.1783725E-1,-2.546779E-1,6.1754566E-1,2.3771618E-1,-3.8558017E-2,2.1526234E-1,-9.892147E-2],"split_indices":[22,26,28,0,25,0,24,0,0,0,0],"split_type":[0,0,0,0,0,0,0,0,0,0,0],"sum_hessian":[1.2134959E1,6.372517E0,5.7624416E0,1.6002923E0,4.772225E0,2.4237163E0,3.3387253E0,3.6605856E0,1.1116391E0,1.3551033E0,1.983622E0],"tree_param":{"num_deleted":"0","num_feature":"34","num_nodes":"11","size_leaf_vector":"0"}},{"base_weights":[-4.520584E-3,2.421641E-1,-2.8088754E-1,-3.106407E-1,5.682818E-1,-7.737304E-1,1.5336706E-1,2.2481377E-1,-7.052398E-1,-4.0179204E-2,7.480222E-1,6.5070194E-1,-2.7278233E-1],"categories":[],"categories_nodes":[],"categories_segments":[],"categories_sizes":[],"default_left":[true,true,true,true,true,false,true,false,false,false,false,false,false],"id":8,"left_children":[1,3,5,7,9,-1,11,-1,-1,-1,-1,-1,-1],"loss_changes":[8.836738E-1,1.4129769E0,1.4253645E0,8.328496E-1,5.404762E-1,0E0,1.0422649E0,0E0,0E0,0E0,0E0,0E0,0E0],"parents":[2147483647,0,0,1,1,2,2,3,3,4,4,6,6],"right_children":[2,4,6,8,10,-1,12,-1,-1,-1,-1,-1,-1],"split_conditions":[5.476513E-1,4.4101697E-1,6.410929E-1,4.083311E-1,5.060621E-1,-2.3211913E-1,6.1754566E-1,6.744414E-2,-2.1157195E-1,-1.2053762E-2,2.2440667E-1,1.9521059E-1,-8.18347E-2],"split_indices":[22,19,28,13,26,0,24,0,0,0,0,0,0],"split_type":[0,0,0,0,0,0,0,0,0,0,0,0,0],"sum_hessian":[1.0964018E1,5.8584948E0,5.1055236E0,2.1913602E0,3.6671343E0,2.0252686E0,3.080255E0,1.1122952E0,1.079065E0,1.0133113E0,2.6538231E0,1.178251E0,1.902004E0],"tree_param":{"num_deleted":"0","num_feature":"34","num_nodes":"13","size_leaf_vector":"0"}},{"base_weights":[-7.8671165E-3,1.0721521E-1,-5.2186227E-1,-3.5743573E-1,3.2019773E-1,1.5251383E-1,-6.801832E-1,5.045503E-1,-1.0821044E-1,6.7093045E-1,-8.276874E-2],"categories":[],"categories_nodes":[],"categories_segments":[],"categories_sizes":[],"default_left":[true,true,false,true,true,false,false,true,false,false,false],"id":9,"left_children":[1,3,-1,5,7,-1,-1,9,-1,-1,-1],"loss_changes":[7.0157856E-1,1.079097E0,0E0,6.85747E-1,6.241381E-1,0E0,0E0,5.654633E-1,0E0,0E0,0E0],"parents":[2147483647,0,0,1,1,3,3,4,4,7,7],"right_children":[2,4,-1,6,8,-1,-1,10,-1,-1,-1],"split_conditions":[6.0512024E-1,5.4990005E-1,-1.5655869E-1,4.4712448E-1,5.9650993E-1,4.575415E-2,-2.0405497E-1,5.248368E-1,-3.2463133E-2,2.0127915E-1,-2.4830623E-2],"split_indices":[18,28,0,22,22,0,0,20,0,0,0],"split_type":[0,0,0,0,0,0,0,0,0,0,0],"sum_hessian":[9.914756E0,8.747597E0,1.1671586E0,2.5362267E0,6.21137E0,1.18746E0,1.3487668E0,4.2183833E0,1.9929867E0,3.1762345E0,1.042149E0],"tree_param":{"num_deleted":"0","num_feature":"34","num_nodes":"11","size_leaf_vector":"0"}},{"base_weights":[-2.1396328E-2,-1.3510859E-1,4.7952068E-1,6.1591268E-2,-7.038422E-1,-3.9782888E-1,2.6078624E-1,5.749097E-1,-1.1076772E-1,-6.164661E-1,3.465687E-1],"categories":[],"categories_nodes":[],"categories_segments":[],"categories_sizes":[],"default_left":[true,true,false,true,false,false,true,false,true,false,false],"id":10,"left_children":[1,3,-1,5,-1,-1,7,-1,9,-1,-1],"loss_changes":[6.462406E-1,1.0613236E0,0E0,8.066459E-1,0E0,0E0,7.5950396E-1,0E0,1.0392219E0,0E0,0E0],"parents":[2147483647,0,0,1,1,3,3,6,6,8,8],"right_children":[2,4,-1,6,-1,-1,8,-1,10,-1,-1],"split_conditions":[7.0618707E-1,6.183926E-1,1.4385621E-1,6.0298616E-1,-2.1115267E-1,-1.1934867E-1,5.540841E-1,1.7247291E-1,5.939119E-1,-1.8493983E-1,1.0397062E-1],"split_indices":[28,24,0,32,0,0,31,0,11,0,0],"split_type":[0,0,0,0,0,0,0,0,0,0,0],"sum_hessian":[9.208025E0,8.099623E0,1.108403E0,6.6807504E0,1.418872E0,1.7189674E0,4.961783E0,2.3921077E0,2.5696752E0,1.0550776E0,1.5145977E0],"tree_param":{"num_deleted":"0","num_feature":"34","num_nodes":"11","size_leaf_vector":"0"}},{"base_weights":[-2.6837934E-2,1.4022452E-1,-3.4808716E-1,-2.4315056E-1,4.5735064E-1,-5.686219E-1,4.838005E-2,1.8897167E-1,-5.5750597E-1,5.1386044E-3,6.7050815E-1],"categories":[],"categories_nodes":[],"categories_segments":[],"categories_sizes":[],"default_left":[true,true,true,true,true,false,false,false,false,false,false],"id":11,"left_children":[1,3,5,7,9,-1,-1,-1,-1,-1,-1],"loss_changes":[5.636136E-1,9.65093E-1,3.395548E-1,6.259538E-1,4.0052575E-1,0E0,0E0,0E0,0E0,0E0,0E0],"parents":[2147483647,0,0,1,1,2,2,3,3,4,4],"right_children":[2,4,6,8,10,-1,-1,-1,-1,-1,-1],"split_conditions":[6.118328E-1,4.8686677E-1,6.612693E-1,3.8847655E-1,4.483927E-1,-1.7058657E-1,1.4514016E-2,5.66915E-2,-1.672518E-1,1.5415814E-3,2.0115246E-1],"split_indices":[27,15,19,15,33,0,0,0,0,0,0],"split_type":[0,0,0,0,0,0,0,0,0,0,0],"sum_hessian":[8.592247E0,6.0233607E0,2.5688863E0,2.8324587E0,3.1909022E0,1.3716724E0,1.197214E0,1.3607674E0,1.4716913E0,1.3503187E0,1.8405836E0],"tree_param":{"num_deleted":"0","num_feature":"34","num_nodes":"11","size_leaf_vector":"0"}},{"base_weights":[-2.6404547E-2,-1.335919E-1,4.0642267E-1,-3.9107051E-1,1.71639E-1,5.5802196E-2,-5.69078E-1,5.880257E-1,-2.8532672E-1],"categories":[],"categories_nodes":[],"categories_segments":[],"categories_sizes":[],"default_left":[true,true,false,true,true,false,false,false,false],"id":12,"left_children":[1,3,-1,5,7,-1,-1,-1,-1],"loss_changes":[4.8024163E-1,7.0460165E-1,0E0,4.0601474E-1,1.0062252E0,0E0,0E0,0E0,0E0],"parents":[2147483647,0,0,1,1,3,3,4,4],"right_children":[2,4,-1,6,8,-1,-1,-1,-1],"split_conditions":[7.0618707E-1,4.90227E-1,1.2192681E-1,3.386696E-1,6.2824833E-1,1.674066E-2,-1.7072341E-1,1.7640771E-1,-8.559802E-2],"split_indices":[28,9,0,17,23,0,0,0,0],"split_type":[0,0,0,0,0,0,0,0,0],"sum_hessian":[8.181154E0,7.111404E0,1.0697507E0,3.7048967E0,3.4065075E0,1.2509671E0,2.4539294E0,1.6323274E0,1.7741799E0],"tree_param":{"num_deleted":"0","num_feature":"34","num_nodes":"9","size_leaf_vector":"0"}},{"base_weights":[-1.2948401E-2,-3.182935E-1,1.2014385E-1,2.8279594E-1,-3.781533E-1,4.990053E-1,-5.93319E-2,5.1127914E-2,6.5424097E-1,-4.4121173E-1,3.3686715E-1],"categories":[],"categories_nodes":[],"categories_segments":[],"categories_sizes":[],"default_left":[true,false,true,true,false,true,true,false,false,false,false],"id":13,"left_children":[1,-1,3,5,-1,7,9,-1,-1,-1,-1],"loss_changes":[3.9659408E-1,0E0,6.6351527E-1,4.548934E-1,0E0,2.1887916E-1,6.207024E-1,0E0,0E0,0E0,0E0],"parents":[2147483647,0,0,2,2,3,3,5,5,6,6],"right_children":[2,-1,4,6,-1,8,10,-1,-1,-1,-1],"split_conditions":[5.4704916E-1,-9.548806E-2,5.444856E-1,5.3269696E-1,-1.1344599E-1,3.9948E-1,5.893943E-1,1.5338375E-2,1.962723E-1,-1.3236353E-1,1.0106015E-1],"split_indices":[26,0,14,23,0,1,7,0,0,0,0],"split_type":[0,0,0,0,0,0,0,0,0,0,0],"sum_hessian":[7.817944E0,1.9508066E0,5.8671374E0,4.74935E0,1.1177876E0,2.6292486E0,2.1201012E0,1.0189081E0,1.6103406E0,1.021708E0,1.0983932E0],"tree_param":{"num_deleted":"0","num_feature":"34","num_nodes":"11","size_leaf_vector":"0"}},{"base_weights":[-1.1996119E-2,-2.7942106E-1,1.2937863E-1,1.535093E-2,-4.5059925E-1,-2.6474106E-1,3.4437922E-1,5.601166E-1,-7.839695E-2],"categories":[],"categories_nodes":[],"categories_segments":[],"categories_sizes":[],"default_left":[true,true,true,false,false,false,true,false,false],"id":14,"left_children":[1,3,5,-1,-1,-1,7,-1,-1],"loss_changes":[3.561574E-1,1.705865E-1,6.182744E-1,0E0,0E0,0E0,4.5065695E-1,0E0,0E0],"parents":[2147483647,0,0,1,1,2,2,6,6],"right_children":[2,4,6,-1,-1,-1,8,-1,-1],"split_conditions":[4.98993E-1,3.5028094E-1,3.221647E-1,4.6052793E-3,-1.3517979E-1,-7.9422325E-2,5.6910414E-1,1.6803499E-1,-2.3519088E-2],"split_indices":[31,17,6,0,0,0,18,0,0],"split_type":[0,0,0,0,0,0,0,0,0],"sum_hessian":[7.4641767E0,2.243641E0,5.2205358E0,1.1586853E0,1.0849557E0,1.7610279E0,3.459508E0,2.0755348E0,1.3839731E0],"tree_param":{"num_deleted":"0","num_feature":"34","num_nodes":"9","size_leaf_vector":"0"}},{"base_weights":[-1.6156737E-2,1.883764E-1,-1.745913E-1,-1.2171519E-1,5.083356E-1,-6.0840607E-1,9.195449E-2,3.3612195E-1,-3.1736675E-1,4.9411023E-1,8.545784E-3],"categories":[],"categories_nodes":[],"categories_segments":[],"categories_sizes":[],"default_left":[true,true,true,false,false,false,true,true,false,false,false],"id":15,"left_children":[1,3,5,-1,-1,-1,7,9,-1,-1,-1],"loss_changes":[2.9991516E-1,4.664639E-1,6.528805E-1,0E0,0E0,0E0,5.1307905E-1,1.5272814E-1,0E0,0E0,0E0],"parents":[2147483647,0,0,1,1,2,2,6,6,7,7],"right_children":[2,4,6,-1,-1,-1,8,10,-1,-1,-1],"split_conditions":[4.5354024E-1,5.046693E-1,4.007956E-1,-3.6514558E-2,1.5250069E-1,-1.8252182E-1,5.444856E-1,5.258759E-1,-9.521003E-2,1.4823307E-1,2.5637355E-3],"split_indices":[14,5,10,0,0,0,14,11,0,0,0],"split_type":[0,0,0,0,0,0,0,0,0,0,0],"sum_hessian":[7.2402506E0,3.077861E0,4.1623893E0,1.8776804E0,1.2001806E0,1.0960171E0,3.0663724E0,2.0326757E0,1.0336965E0,1.0283332E0,1.0043427E0],"tree_param":{"num_deleted":"0","num_feature":"34","num_nodes":"11","size_leaf_vector":"0"}},{"base_weights":[-1.3726246E-2,-2.9040644E-1,1.1541599E-1,2.9772338E-1,-2.4257651E-1,5.4363716E-1,-4.8216786E-3,-2.8269613E-1,2.7587673E-1],"categories":[],"categories_nodes":[],"categories_segments":[],"categories_sizes":[],"default_left":[true,false,true,true,false,false,true,false,false],"id":16,"left_children":[1,-1,3,5,-1,-1,7,-1,-1],"loss_changes":[3.167399E-1,0E0,4.716207E-1,3.3770117E-1,0E0,0E0,3.1281057E-1,0E0,0E0],"parents":[2147483647,0,0,2,2,3,3,6,6],"right_children":[2,-1,4,6,-1,-1,8,-1,-1],"split_conditions":[5.4704916E-1,-8.712193E-2,6.1754566E-1,4.6689382E-1,-7.277296E-2,1.6309115E-1,6.2651813E-1,-8.480884E-2,8.276302E-2],"split_indices":[26,0,24,14,0,0,28,0,0],"split_type":[0,0,0,0,0,0,0,0,0],"sum_hessian":[6.926494E0,1.8067971E0,5.119697E0,3.5037622E0,1.6159348E0,1.493191E0,2.0105712E0,1.0067915E0,1.0037796E0],"tree_param":{"num_deleted":"0","num_feature":"34","num_nodes":"9","size_leaf_vector":"0"}},{"base_weights":[-8.428991E-3,1.1711067E-1,-2.4086495E-1,-2.077648E-1,3.3501107E-1,-5.5335723E-2,5.118761E-1],"categories":[],"categories_nodes":[],"categories_segments":[],"categories_sizes":[],"default_left":[true,true,false,false,true,false,false],"id":17,"left_children":[1,3,-1,-1,5,-1,-1],"loss_changes":[2.5046384E-1,4.673366E-1,0E0,0E0,2.8692165E-1,0E0,0E0],"parents":[2147483647,0,0,1,1,4,4],"right_children":[2,4,-1,-1,6,-1,-1],"split_conditions":[6.118328E-1,4.98993E-1,-7.2259486E-2,-6.2329445E-2,3.221647E-1,-1.6600717E-2,1.5356284E-1],"split_indices":[27,31,0,0,6,0,0],"split_type":[0,0,0,0,0,0,0],"sum_hessian":[6.616741E0,4.618454E0,1.9982874E0,1.8727776E0,2.7456763E0,1.0703999E0,1.6752764E0],"tree_param":{"num_deleted":"0","num_feature":"34","num_nodes":"7","size_leaf_vector":"0"}},{"base_weights":[-5.1636044E-3,-3.0106518E-1,9.478317E-2,3.891679E-1,-1.6447274E-1,5.64607E-1,5.2291006E-2,-5.651555E-1,1.6788794E-1,-1.9428074E-2,2.717472E-1],"categories":[],"categories_nodes":[],"categories_segments":[],"categories_sizes":[],"default_left":[true,false,true,true,true,false,false,false,true,false,false],"id":18,"left_children":[1,-1,3,5,7,-1,-1,-1,9,-1,-1],"loss_changes":[2.504359E-1,0E0,5.501129E-1,1.6430628E-1,6.395E-1,0E0,0E0,0E0,6.376668E-2,0E0,0E0],"parents":[2147483647,0,0,2,2,3,3,4,4,8,8],"right_children":[2,-1,4,6,8,-1,-1,-1,10,-1,-1],"split_conditions":[5.169728E-1,-9.031956E-2,5.476513E-1,4.70085E-1,6.410929E-1,1.6938211E-1,1.5687302E-2,-1.6954666E-1,3.750143E-1,-5.8284225E-3,8.152416E-2],"split_indices":[26,0,22,18,28,0,0,0,2,0,0],"split_type":[0,0,0,0,0,0,0,0,0,0,0],"sum_hessian":[6.5031085E0,1.1338847E0,5.369224E0,2.2796214E0,3.0896027E0,1.0544695E0,1.225152E0,1.0832475E0,2.006355E0,1.0056133E0,1.0007416E0],"tree_param":{"num_deleted":"0","num_feature":"34","num_nodes":"11","size_leaf_vector":"0"}},{"base_weights":[-3.7745184E-3,-1.7962232E-1,1.9430727E-1,-4.348272E-1,2.7896857E-1,4.2958528E-1,-1.7318025E-1,-1.2419256E-1,-5.496841E-1],"categories":[],"categories_nodes":[],"categories_segments":[],"categories_sizes":[],"default_left":[true,true,true,true,false,false,false,false,false],"id":19,"left_children":[1,3,5,7,-1,-1,-1,-1,-1],"loss_changes":[2.8520998E-1,6.276337E-1,4.0811813E-1,4.4846833E-2,0E0,0E0,0E0,0E0,0E0],"parents":[2147483647,0,0,1,1,2,2,3,3],"right_children":[2,4,6,8,-1,-1,-1,-1,-1],"split_conditions":[4.7690028E-1,7.096726E-1,6.797211E-1,4.6689382E-1,8.3690576E-2,1.2887558E-1,-5.195408E-2,-3.725777E-2,-1.6490524E-1],"split_indices":[21,32,30,14,0,0,0,0,0],"split_type":[0,0,0,0,0,0,0,0,0],"sum_hessian":[6.1861014E0,3.3263307E0,2.8597708E0,2.1703527E0,1.155978E0,1.6404924E0,1.2192782E0,1.1476829E0,1.0226699E0],"tree_param":{"num_deleted":"0","num_feature":"34","num_nodes":"9","size_leaf_vector":"0"}},{"base_weights":[-9.5767295E-3,-2.8356478E-1,8.984295E-2,4.2324683E-1,-1.0940059E-1,-3.6600047E-1,2.5604358E-1,-3.5393905E-2,-5.1273304E-1],"categories":[],"categories_nodes":[],"categories_segments":[],"categories_sizes":[],"default_left":[true,false,true,false,true,true,false,false,false],"id":20,"left_children":[1,-1,3,-1,5,7,-1,-1,-1],"loss_changes":[2.162503E-1,0E0,4.381137E-1,0E0,5.1442665E-1,1.2968406E-1,0E0,0E0,0E0],"parents":[2147483647,0,0,2,2,4,4,5,5],"right_children":[2,-1,4,-1,6,8,-1,-1,-1],"split_conditions":[5.169728E-1,-8.506943E-2,4.1422915E-1,1.2697406E-1,5.6530845E-1,5.356108E-1,7.681308E-2,-1.0618172E-2,-1.5381992E-1],"split_indices":[26,0,23,0,3,31,0,0,0],"split_type":[0,0,0,0,0,0,0,0,0],"sum_hessian":[6.0035014E0,1.1052828E0,4.8982186E0,1.411694E0,3.4865246E0,2.0474012E0,1.4391234E0,1.0109098E0,1.0364914E0],"tree_param":{"num_deleted":"0","num_feature":"34","num_nodes":"9","size_leaf_vector":"0"}},{"base_weights":[-1.40762385E-2,9.8258145E-2,-2.5464144E-1,-2.7375013E-1,2.716653E-1,4.8669708E-1,1.2411305E-2],"categories":[],"categories_nodes":[],"categories_segments":[],"categories_sizes":[],"default_left":[true,true,false,false,true,false,false],"id":21,"left_children":[1,3,-1,-1,5,-1,-1],"loss_changes":[2.093294E-1,4.2083356E-1,0E0,0E0,2.2615752E-1,0E0,0E0],"parents":[2147483647,0,0,1,1,4,4],"right_children":[2,4,-1,-1,6,-1,-1],"split_conditions":[6.1754566E-1,6.0298616E-1,-7.6392435E-2,-8.212504E-2,5.35162E-1,1.4600913E-1,3.7233916E-3],"split_indices":[24,32,0,0,23,0,0],"split_type":[0,0,0,0,0,0,0],"sum_hessian":[5.8202543E0,4.370812E0,1.4494424E0,1.205663E0,3.165149E0,1.2505846E0,1.9145643E0],"tree_param":{"num_deleted":"0","num_feature":"34","num_nodes":"7","size_leaf_vector":"0"}},{"base_weights":[-1.055446E-2,-2.521808E-1,1.20448194E-1,-2.1848963E-1,3.0548435E-1,4.9059826E-1,-1.7188786E-2],"categories":[],"categories_nodes":[],"categories_segments":[],"categories_sizes":[],"default_left":[true,false,true,false,true,false,false],"id":22,"left_children":[1,-1,3,-1,5,-1,-1],"loss_changes":[2.4000926E-1,0E0,3.7851754E-1,0E0,2.2541586E-1,0E0,0E0],"parents":[2147483647,0,0,2,2,4,4],"right_children":[2,-1,4,-1,6,-1,-1],"split_conditions":[4.98993E-1,-7.5654246E-2,3.221647E-1,-6.554689E-2,4.3932498E-1,1.4717948E-1,-5.156636E-3],"split_indices":[31,0,6,0,10,0,0],"split_type":[0,0,0,0,0,0,0],"sum_hessian":[5.6227517E0,1.6515548E0,3.971197E0,1.3385428E0,2.632654E0,1.3422195E0,1.2904345E0],"tree_param":{"num_deleted":"0","num_feature":"34","num_nodes":"7","size_leaf_vector":"0"}},{"base_weights":[-6.656773E-3,-1.5714864E-1,1.5467517E-1,-3.6821866E-1,2.2075066E-1,3.9546606E-1,-1.2766069E-1],"categories":[],"categories_nodes":[],"categories_segments":[],"categories_sizes":[],"default_left":[true,true,true,false,false,false,false],"id":23,"left_children":[1,3,5,-1,-1,-1,-1],"loss_changes":[1.8253118E-1,3.8978845E-1,2.985676E-1,0E0,0E0,0E0,0E0],"parents":[2147483647,0,0,1,1,2,2],"right_children":[2,4,6,-1,-1,-1,-1],"split_conditions":[4.7690028E-1,7.0858324E-1,5.8260924E-1,-1.104656E-1,6.62252E-2,1.1863982E-1,-3.829821E-2],"split_indices":[21,32,29,0,0,0,0],"split_type":[0,0,0,0,0,0,0],"sum_hessian":[5.516877E0,2.867747E0,2.64913E0,1.8564638E0,1.0112832E0,1.2134998E0,1.4356303E0],"tree_param":{"num_deleted":"0","num_feature":"34","num_nodes":"7","size_leaf_vector":"0"}},{"base_weights":[9.2552014E-4,1.5744537E-1,-1.6855758E-1,-1.6940658E-1,3.4788132E-1,-3.7466967E-1,1.3047867E-1],"categories":[],"categories_nodes":[],"categories_segments":[],"categories_sizes":[],"default_left":[true,true,true,false,false,false,false],"id":24,"left_children":[1,3,5,-1,-1,-1,-1],"loss_changes":[1.9612989E-1,2.979936E-1,2.6783678E-1,0E0,0E0,0E0,0E0],"parents":[2147483647,0,0,1,1,2,2],"right_children":[2,4,6,-1,-1,-1,-1],"split_conditions":[5.476513E-1,5.18891E-1,5.337231E-1,-5.0821975E-2,1.043644E-1,-1.12400904E-1,3.91436E-2],"split_indices":[22,26,14,0,0,0,0],"split_type":[0,0,0,0,0,0,0],"sum_hessian":[5.3930445E0,2.8406725E0,2.552372E0,1.086427E0,1.7542455E0,1.3612206E0,1.1911514E0],"tree_param":{"num_deleted":"0","num_feature":"34","num_nodes":"7","size_leaf_vector":"0"}},{"base_weights":[-2.5030805E-3,9.331241E-2,-2.110667E-1,-2.3779814E-1,2.4837597E-1,3.901599E-1,-3.5823606E-2],"categories":[],"categories_nodes":[],"categories_segments":[],"categories_sizes":[],"default_left":[true,true,false,false,true,false,false],"id":25,"left_children":[1,3,-1,-1,5,-1,-1],"loss_changes":[1.4454071E-1,3.144551E-1,0E0,0E0,1.7019331E-1,0E0,0E0],"parents":[2147483647,0,0,1,1,4,4],"right_children":[2,4,-1,-1,6,-1,-1],"split_conditions":[6.1754566E-1,6.0298616E-1,-6.332001E-2,-7.133944E-2,5.792023E-1,1.1704797E-1,-1.07470825E-2],"split_indices":[24,32,0,0,25,0,0],"split_type":[0,0,0,0,0,0,0],"sum_hessian":[5.2473936E0,3.9742103E0,1.2731833E0,1.0973858E0,2.8768244E0,1.6705621E0,1.2062622E0],"tree_param":{"num_deleted":"0","num_feature":"34","num_nodes":"7","size_leaf_vector":"0"}},{"base_weights":[-5.793787E-3,-1.57441E-1,1.5528525E-1,1.036875E-1,-3.8640842E-1,4.0592858E-1,-1.5790272E-1],"categories":[],"categories_nodes":[],"categories_segments":[],"categories_sizes":[],"default_left":[true,true,true,false,false,false,false],"id":26,"left_children":[1,3,5,-1,-1,-1,-1],"loss_changes":[1.7323129E-1,2.5733286E-1,3.3546925E-1,0E0,0E0,0E0,0E0],"parents":[2147483647,0,0,1,1,2,2],"right_children":[2,4,6,-1,-1,-1,-1],"split_conditions":[5.0862503E-1,5.1357543E-1,6.323726E-1,3.1106252E-2,-1.1592253E-1,1.2177858E-1,-4.7370818E-2],"split_indices":[29,27,33,0,0,0,0],"split_type":[0,0,0,0,0,0,0],"sum_hessian":[5.0908785E0,2.6338432E0,2.4570355E0,1.4861257E0,1.1477174E0,1.2003119E0,1.2567238E0],"tree_param":{"num_deleted":"0","num_feature":"34","num_nodes":"7","size_leaf_vector":"0"}},{"base_weights":[-6.008557E-3,-2.1051767E-1,1.07652046E-1,-1.9815432E-1,2.732545E-1,4.166702E-1,1.9042917E-2],"categories":[],"categories_nodes":[],"categories_segments":[],"categories_sizes":[],"default_left":[true,false,true,false,true,false,false],"id":27,"left_children":[1,-1,3,-1,5,-1,-1],"loss_changes":[1.6117726E-1,0E0,2.816266E-1,0E0,1.1362609E-1,0E0,0E0],"parents":[2147483647,0,0,2,2,4,4],"right_children":[2,-1,4,-1,6,-1,-1],"split_conditions":[4.98993E-1,-6.315531E-2,3.221647E-1,-5.9446298E-2,5.6072795E-1,1.2500107E-1,5.712875E-3],"split_indices":[31,0,6,0,27,0,0],"split_type":[0,0,0,0,0,0,0],"sum_hessian":[4.9589944E0,1.4670951E0,3.4918995E0,1.1576264E0,2.334273E0,1.0837804E0,1.2504927E0],"tree_param":{"num_deleted":"0","num_feature":"34","num_nodes":"7","size_leaf_vector":"0"}},{"base_weights":[-2.5131556E-3,-1.9699854E-1,1.1345792E-1,2.735738E-1,-1.8154746E-1,4.0382528E-1,-3.6891352E-3],"categories":[],"categories_nodes":[],"categories_segments":[],"categories_sizes":[],"default_left":[true,false,true,true,false,false,false],"id":28,"left_children":[1,-1,3,5,-1,-1,-1],"loss_changes":[1.5521085E-1,0E0,2.5394347E-1,1.17130935E-1,0E0,0E0,0E0],"parents":[2147483647,0,0,2,2,3,3],"right_children":[2,-1,4,6,-1,-1,-1],"split_conditions":[5.561655E-1,-5.9099562E-2,6.1754566E-1,5.0629985E-1,-5.446424E-2,1.2114759E-1,-1.1067406E-3],"split_indices":[28,0,24,20,0,0,0],"split_type":[0,0,0,0,0,0,0],"sum_hessian":[4.890566E0,1.5658773E0,3.3246887E0,2.2021222E0,1.1225663E0,1.187699E0,1.0144234E0],"tree_param":{"num_deleted":"0","num_feature":"34","num_nodes":"7","size_leaf_vector":"0"}},{"base_weights":[3.412035E-5,-1.15653805E-1,1.7024152E-1,1.0194954E-1,-3.8008288E-1],"categories":[],"categories_nodes":[],"categories_segments":[],"categories_sizes":[],"default_left":[true,true,false,false,false],"id":29,"left_children":[1,3,-1,-1,-1],"loss_changes":[1.3313743E-1,2.703814E-1,0E0,0E0,0E0],"parents":[2147483647,0,0,1,1],"right_children":[2,4,-1,-1,-1],"split_conditions":[6.410929E-1,5.142424E-1,5.107246E-2,3.0584864E-2,-1.1402487E-1],"split_indices":[28,24,0,0,0],"split_type":[0,0,0,0,0],"sum_hessian":[4.7614484E0,3.0255387E0,1.7359098E0,1.9967949E0,1.0287437E0],"tree_param":{"num_deleted":"0","num_feature":"34","num_nodes":"5","size_leaf_vector":"0"}},{"base_weights":[-6.2882197E-3,-1.360669E-1,1.502781E-1,1.7227381E-1,-3.8475636E-1,2.976734E-1,-7.580646E-2],"categories":[],"categories_nodes":[],"categories_segments":[],"categories_sizes":[],"default_left":[true,true,true,false,false,false,false],"id":30,"left_children":[1,3,5,-1,-1,-1,-1],"loss_changes":[1.3586776E-1,3.4469077E-1,1.2419265E-1,0E0,0E0,0E0,0E0],"parents":[2147483647,0,0,1,1,2,2],"right_children":[2,4,6,-1,-1,-1,-1],"split_conditions":[5.046693E-1,4.1422915E-1,6.3372344E-1,5.1682148E-2,-1.1542691E-1,8.9302026E-2,-2.274194E-2],"split_indices":[5,23,23,0,0,0,0],"split_type":[0,0,0,0,0,0,0],"sum_hessian":[4.6804013E0,2.6307168E0,2.0496843E0,1.3116834E0,1.3190334E0,1.0490875E0,1.0005966E0],"tree_param":{"num_deleted":"0","num_feature":"34","num_nodes":"7","size_leaf_vector":"0"}},{"base_weights":[-4.3392642E-3,-1.8361822E-1,1.0828289E-1,-1.4586598E-1,2.733679E-1],"categories":[],"categories_nodes":[],"categories_segments":[],"categories_sizes":[],"default_left":[true,false,true,false,false],"id":31,"left_children":[1,-1,3,-1,-1],"loss_changes":[1.3216312E-1,0E0,2.0956536E-1,0E0,0E0],"parents":[2147483647,0,0,2,2],"right_children":[2,-1,4,-1,-1],"split_conditions":[3.052044E-1,-5.508547E-2,4.4462824E-1,-4.3759793E-2,8.201037E-2],"split_indices":[2,0,21,0,0],"split_type":[0,0,0,0,0],"sum_hessian":[4.560974E0,1.5165088E0,3.044465E0,1.2446861E0,1.7997788E0],"tree_param":{"num_deleted":"0","num_feature":"34","num_nodes":"5","size_leaf_vector":"0"}},{"base_weights":[-6.007876E-3,-1.8473482E-1,9.356249E-2,3.01871E-1,-1.04641825E-1],"categories":[],"categories_nodes":[],"categories_segments":[],"categories_sizes":[],"default_left":[true,false,true,false,false],"id":32,"left_children":[1,-1,3,-1,-1],"loss_changes":[1.1552774E-1,0E0,2.0537624E-1,0E0,0E0],"parents":[2147483647,0,0,2,2],"right_children":[2,-1,4,-1,-1],"split_conditions":[5.4990005E-1,-5.5420447E-2,6.9553006E-1,9.05613E-2,-3.139255E-2],"split_indices":[28,0,32,0,0],"split_type":[0,0,0,0,0],"sum_hessian":[4.5205665E0,1.3113673E0,3.209199E0,1.3097013E0,1.8994976E0],"tree_param":{"num_deleted":"0","num_feature":"34","num_nodes":"5","size_leaf_vector":"0"}},{"base_weights":[-3.3900128E-3,1.2305398E-1,-1.3858823E-1,-1.0610002E-1,2.954808E-1,-2.998931E-1,8.883097E-2],"categories":[],"categories_nodes":[],"categories_segments":[],"categories_sizes":[],"default_left":[true,true,true,false,false,false,false],"id":33,"left_children":[1,3,5,-1,-1,-1,-1],"loss_changes":[1.1056284E-1,1.6396073E-1,1.4086534E-1,0E0,0E0,0E0,0E0],"parents":[2147483647,0,0,1,1,2,2],"right_children":[2,4,6,-1,-1,-1,-1],"split_conditions":[5.476513E-1,5.299775E-1,5.337231E-1,-3.183001E-2,8.864424E-2,-8.996794E-2,2.6649293E-2],"split_indices":[22,19,14,0,0,0,0],"split_type":[0,0,0,0,0,0,0],"sum_hessian":[4.4699607E0,2.3561757E0,2.1137853E0,1.1768355E0,1.17934E0,1.0502089E0,1.0635763E0],"tree_param":{"num_deleted":"0","num_feature":"34","num_nodes":"7","size_leaf_vector":"0"}},{"base_weights":[-3.6412727E-3,1.0228824E-1,-1.8333286E-1,-9.796774E-2,2.7588627E-1],"categories":[],"categories_nodes":[],"categories_segments":[],"categories_sizes":[],"default_left":[true,true,false,false,false],"id":34,"left_children":[1,3,-1,-1,-1],"loss_changes":[1.2135497E-1,1.6723278E-1,0E0,0E0,0E0],"parents":[2147483647,0,0,1,1],"right_children":[2,4,-1,-1,-1],"split_conditions":[6.118328E-1,4.8686677E-1,-5.4999862E-2,-2.9390322E-2,8.2765885E-2],"split_indices":[27,15,0,0,0],"split_type":[0,0,0,0,0],"sum_hessian":[4.390286E0,3.033042E0,1.357244E0,1.6106833E0,1.4223588E0],"tree_param":{"num_deleted":"0","num_feature":"34","num_nodes":"5","size_leaf_vector":"0"}},{"base_weights":[-2.7304213E-3,1.8064989E-1,-1.0626917E-1,-3.272894E-1,9.711043E-2],"categories":[],"categories_nodes":[],"categories_segments":[],"categories_sizes":[],"default_left":[true,false,true,false,false],"id":35,"left_children":[1,-1,3,-1,-1],"loss_changes":[1.204499E-1,0E0,2.132936E-1,0E0,0E0],"parents":[2147483647,0,0,2,2],"right_children":[2,-1,4,-1,-1],"split_conditions":[4.1422915E-1,5.419497E-2,5.046693E-1,-9.818683E-2,2.913313E-2],"split_indices":[23,0,5,0,0],"split_type":[0,0,0,0,0],"sum_hessian":[4.332731E0,1.2947707E0,3.03796E0,1.1638771E0,1.8740828E0],"tree_param":{"num_deleted":"0","num_feature":"34","num_nodes":"5","size_leaf_vector":"0"}},{"base_weights":[-5.104896E-3,-1.8040013E-1,9.2174836E-2,2.6141173E-1,-1.2702921E-1],"categories":[],"categories_nodes":[],"categories_segments":[],"categories_sizes":[],"default_left":[true,false,true,false,false],"id":36,"left_children":[1,-1,3,-1,-1],"loss_changes":[1.0644421E-1,0E0,1.8341683E-1,0E0,0E0],"parents":[2147483647,0,0,2,2],"right_children":[2,-1,4,-1,-1],"split_conditions":[5.4704916E-1,-5.412004E-2,5.846695E-1,7.842352E-2,-3.8108766E-2],"split_indices":[26,0,22,0,0],"split_type":[0,0,0,0,0],"sum_hessian":[4.2669663E0,1.2178996E0,3.0490668E0,1.6119828E0,1.4370841E0],"tree_param":{"num_deleted":"0","num_feature":"34","num_nodes":"5","size_leaf_vector":"0"}},{"base_weights":[-6.0621775E-3,-1.1240715E-1,1.5024814E-1,1.1537287E-1,-3.326812E-1],"categories":[],"categories_nodes":[],"categories_segments":[],"categories_sizes":[],"default_left":[true,true,false,false,false],"id":37,"left_children":[1,3,-1,-1,-1],"loss_changes":[1.0324226E-1,2.2219907E-1,0E0,0E0,0E0],"parents":[2147483647,0,0,1,1],"right_children":[2,4,-1,-1,-1],"split_conditions":[6.410929E-1,4.5354024E-1,4.5074444E-2,3.4611862E-2,-9.9804364E-2],"split_indices":[28,14,0,0,0],"split_type":[0,0,0,0,0],"sum_hessian":[4.1948657E0,2.6635823E0,1.5312835E0,1.5436068E0,1.1199756E0],"tree_param":{"num_deleted":"0","num_feature":"34","num_nodes":"5","size_leaf_vector":"0"}},{"base_weights":[-8.729348E-3,-1.6093293E-1,9.026228E-2,-1.05317794E-1,2.1413106E-1],"categories":[],"categories_nodes":[],"categories_segments":[],"categories_sizes":[],"default_left":[true,false,true,false,false],"id":38,"left_children":[1,-1,3,-1,-1],"loss_changes":[9.167927E-2,0E0,1.132403E-1,0E0,0E0],"parents":[2147483647,0,0,2,2],"right_children":[2,-1,4,-1,-1],"split_conditions":[3.052044E-1,-4.827988E-2,4.4462824E-1,-3.1595338E-2,6.423932E-2],"split_indices":[2,0,21,0,0],"split_type":[0,0,0,0,0],"sum_hessian":[4.1207085E0,1.3773127E0,2.7433958E0,1.1218449E0,1.6215509E0],"tree_param":{"num_deleted":"0","num_feature":"34","num_nodes":"5","size_leaf_vector":"0"}},{"base_weights":[-9.1573335E-3,8.961625E-2,-1.7378831E-1,-7.7655844E-2,2.7378306E-1],"categories":[],"categories_nodes":[],"categories_segments":[],"categories_sizes":[],"default_left":[true,true,false,false,false],"id":39,"left_children":[1,3,-1,-1,-1],"loss_changes":[9.84188E-2,1.3967817E-1,0E0,0E0,0E0],"parents":[2147483647,0,0,1,1],"right_children":[2,4,-1,-1,-1],"split_conditions":[5.8260924E-1,4.6533605E-1,-5.2136496E-2,-2.3296755E-2,8.213492E-2],"split_indices":[29,29,0,0,0],"split_type":[0,0,0,0,0],"sum_hessian":[4.094617E0,2.8439732E0,1.2506437E0,1.7934167E0,1.0505565E0],"tree_param":{"num_deleted":"0","num_feature":"34","num_nodes":"5","size_leaf_vector":"0"}},{"base_weights":[-5.0046057E-3,1.6609874E-1,-9.651557E-2,1.2463831E-1,-2.7750498E-1],"categories":[],"categories_nodes":[],"categories_segments":[],"categories_sizes":[],"default_left":[true,false,true,false,false],"id":40,"left_children":[1,-1,3,-1,-1],"loss_changes":[9.502938E-2,0E0,1.914789E-1,0E0,0E0],"parents":[2147483647,0,0,2,2],"right_children":[2,-1,4,-1,-1],"split_conditions":[4.445974E-1,4.9829625E-2,6.800722E-1,3.7391495E-2,-8.32515E-2],"split_indices":[27,0,32,0,0],"split_type":[0,0,0,0,0],"sum_hessian":[4.0452867E0,1.1256063E0,2.9196806E0,1.4541641E0,1.4655163E0],"tree_param":{"num_deleted":"0","num_feature":"34","num_nodes":"5","size_leaf_vector":"0"}},{"base_weights":[-2.958408E-3,-1.741407E-1,1.0343542E-1,2.6210263E-1,-1.0872627E-1],"categories":[],"categories_nodes":[],"categories_segments":[],"categories_sizes":[],"default_left":[true,false,true,false,false],"id":41,"left_children":[1,-1,3,-1,-1],"loss_changes":[1.08969614E-1,0E0,1.5329596E-1,0E0,0E0],"parents":[2147483647,0,0,2,2],"right_children":[2,-1,4,-1,-1],"split_conditions":[5.561655E-1,-5.2242216E-2,5.908674E-1,7.863079E-2,-3.2617882E-2],"split_indices":[28,0,22,0,0],"split_type":[0,0,0,0,0],"sum_hessian":[3.994158E0,1.286879E0,2.707279E0,1.4142369E0,1.2930421E0],"tree_param":{"num_deleted":"0","num_feature":"34","num_nodes":"5","size_leaf_vector":"0"}},{"base_weights":[-3.1219763E-3,-1.0786839E-1,1.4971773E-1,9.552418E-2,-3.020421E-1],"categories":[],"categories_nodes":[],"categories_segments":[],"categories_sizes":[],"default_left":[true,true,false,false,false],"id":42,"left_children":[1,3,-1,-1,-1],"loss_changes":[9.502965E-2,1.6726685E-1,0E0,0E0,0E0],"parents":[2147483647,0,0,1,1],"right_children":[2,4,-1,-1,-1],"split_conditions":[6.410929E-1,4.5354024E-1,4.4915322E-2,2.8657254E-2,-9.0612635E-2],"split_indices":[28,14,0,0,0],"split_type":[0,0,0,0,0],"sum_hessian":[3.9270918E0,2.5047424E0,1.4223493E0,1.4714645E0,1.0332779E0],"tree_param":{"num_deleted":"0","num_feature":"34","num_nodes":"5","size_leaf_vector":"0"}},{"base_weights":[-6.0991696E-3,-1.6327347E-1,8.5520655E-2,2.2348687E-1,-9.874658E-2],"categories":[],"categories_nodes":[],"categories_segments":[],"categories_sizes":[],"default_left":[true,false,true,false,false],"id":43,"left_children":[1,-1,3,-1,-1],"loss_changes":[8.404019E-2,0E0,1.1690916E-1,0E0,0E0],"parents":[2147483647,0,0,2,2],"right_children":[2,-1,4,-1,-1],"split_conditions":[5.4704916E-1,-4.8982043E-2,5.846695E-1,6.704606E-2,-2.9623976E-2],"split_indices":[26,0,22,0,0],"split_type":[0,0,0,0,0],"sum_hessian":[3.8663585E0,1.1358043E0,2.730554E0,1.4397389E0,1.2908154E0],"tree_param":{"num_deleted":"0","num_feature":"34","num_nodes":"5","size_leaf_vector":"0"}},{"base_weights":[-6.575164E-3,1.4523487E-1,-9.406357E-2,-2.8508955E-1,8.8080555E-2],"categories":[],"categories_nodes":[],"categories_segments":[],"categories_sizes":[],"default_left":[true,false,true,false,false],"id":44,"left_children":[1,-1,3,-1,-1],"loss_changes":[7.7621885E-2,0E0,1.5252727E-1,0E0,0E0],"parents":[2147483647,0,0,2,2],"right_children":[2,-1,4,-1,-1],"split_conditions":[4.1422915E-1,4.3570463E-2,5.046693E-1,-8.552687E-2,2.6424168E-2],"split_indices":[23,0,5,0,0],"split_type":[0,0,0,0,0],"sum_hessian":[3.815722E0,1.1537267E0,2.6619954E0,1.0234512E0,1.6385441E0],"tree_param":{"num_deleted":"0","num_feature":"34","num_nodes":"5","size_leaf_vector":"0"}},{"base_weights":[-8.171511E-3,-1.4638591E-1,8.416785E-2,-6.870408E-2,2.2573899E-1],"categories":[],"categories_nodes":[],"categories_segments":[],"categories_sizes":[],"default_left":[true,false,true,false,false],"id":45,"left_children":[1,-1,3,-1,-1],"loss_changes":[7.3174305E-2,0E0,9.1113076E-2,0E0,0E0],"parents":[2147483647,0,0,2,2],"right_children":[2,-1,4,-1,-1],"split_conditions":[3.052044E-1,-4.3915775E-2,6.410929E-1,-2.0611227E-2,6.77217E-2],"split_indices":[2,0,28,0,0],"split_type":[0,0,0,0,0],"sum_hessian":[3.7680857E0,1.27474E0,2.4933457E0,1.4462994E0,1.0470464E0],"tree_param":{"num_deleted":"0","num_feature":"34","num_nodes":"5","size_leaf_vector":"0"}},{"base_weights":[-4.998557E-3,1.1109269E-1,-1.3092835E-1,-2.2661572E-2,1.8902752E-1],"categories":[],"categories_nodes":[],"categories_segments":[],"categories_sizes":[],"default_left":[true,true,false,false,false],"id":46,"left_children":[1,3,-1,-1,-1],"loss_changes":[8.3944455E-2,3.5670776E-2,0E0,0E0,0E0],"parents":[2147483647,0,0,1,1],"right_children":[2,4,-1,-1,-1],"split_conditions":[5.476513E-1,3.0086E-1,-3.9278507E-2,-6.798472E-3,5.6708258E-2],"split_indices":[22,4,0,0,0],"split_type":[0,0,0,0,0],"sum_hessian":[3.7470844E0,2.01101E0,1.7360746E0,1.0014733E0,1.0095365E0],"tree_param":{"num_deleted":"0","num_feature":"34","num_nodes":"5","size_leaf_vector":"0"}},{"base_weights":[-1.2548029E-3,8.667908E-2,-1.4798139E-1,2.1075992E-1,-8.758868E-2],"categories":[],"categories_nodes":[],"categories_segments":[],"categories_sizes":[],"default_left":[true,true,false,false,false],"id":47,"left_children":[1,3,-1,-1,-1],"loss_changes":[7.369208E-2,9.5877744E-2,0E0,0E0,0E0],"parents":[2147483647,0,0,1,1],"right_children":[2,4,-1,-1,-1],"split_conditions":[5.8260924E-1,5.476513E-1,-4.439442E-2,6.322798E-2,-2.6276605E-2],"split_indices":[29,22,0,0,0],"split_type":[0,0,0,0,0],"sum_hessian":[3.7174141E0,2.5802855E0,1.1371286E0,1.3848512E0,1.1954343E0],"tree_param":{"num_deleted":"0","num_feature":"34","num_nodes":"5","size_leaf_vector":"0"}},{"base_weights":[-2.3519357E-3,-9.961919E-2,1.3510883E-1,7.801941E-2,-2.4832799E-1],"categories":[],"categories_nodes":[],"categories_segments":[],"categories_sizes":[],"default_left":[true,true,false,false,false],"id":48,"left_children":[1,3,-1,-1,-1],"loss_changes":[7.584521E-2,1.0676147E-1,0E0,0E0,0E0],"parents":[2147483647,0,0,1,1],"right_children":[2,4,-1,-1,-1],"split_conditions":[6.410929E-1,4.341244E-1,4.053265E-2,2.3405824E-2,-7.44984E-2],"split_indices":[28,14,0,0,0],"split_type":[0,0,0,0,0],"sum_hessian":[3.6659513E0,2.3080587E0,1.3578926E0,1.2683356E0,1.0397232E0],"tree_param":{"num_deleted":"0","num_feature":"34","num_nodes":"5","size_leaf_vector":"0"}},{"base_weights":[-4.172242E-3,-1.4692178E-1,9.151145E-2,-7.162659E-2,2.1221079E-1],"categories":[],"categories_nodes":[],"categories_segments":[],"categories_sizes":[],"default_left":[true,false,true,false,false],"id":49,"left_children":[1,-1,3,-1,-1],"loss_changes":[7.659301E-2,0E0,8.183557E-2,0E0,0E0],"parents":[2147483647,0,0,2,2],"right_children":[2,-1,4,-1,-1],"split_conditions":[3.052044E-1,-4.4076536E-2,5.357417E-1,-2.1487977E-2,6.366324E-2],"split_indices":[2,0,33,0,0],"split_type":[0,0,0,0,0],"sum_hessian":[3.6232448E0,1.2391198E0,2.384125E0,1.1867185E0,1.1974065E0],"tree_param":{"num_deleted":"0","num_feature":"34","num_nodes":"5","size_leaf_vector":"0"}},{"base_weights":[-3.2798415E-3,-1.5274046E-1,8.433289E-2,2.4707761E-1,-8.572822E-2],"categories":[],"categories_nodes":[],"categories_segments":[],"categories_sizes":[],"default_left":[true,false,true,false,false],"id":50,"left_children":[1,-1,3,-1,-1],"loss_changes":[7.316862E-2,0E0,1.19345054E-1,0E0,0E0],"parents":[2147483647,0,0,2,2],"right_children":[2,-1,4,-1,-1],"split_conditions":[5.4704916E-1,-4.582214E-2,5.248368E-1,7.4123286E-2,-2.5718467E-2],"split_indices":[26,0,20,0,0],"split_type":[0,0,0,0,0],"sum_hessian":[3.6039839E0,1.0571712E0,2.5468125E0,1.069985E0,1.4768275E0],"tree_param":{"num_deleted":"0","num_feature":"34","num_nodes":"5","size_leaf_vector":"0"}},{"base_weights":[-1.5580807E-3,-1.18226506E-1,9.018516E-2,2.2271772E-1,-9.485586E-2],"categories":[],"categories_nodes":[],"categories_segments":[],"categories_sizes":[],"default_left":[true,false,true,false,false],"id":51,"left_children":[1,-1,3,-1,-1],"loss_changes":[5.9452012E-2,0E0,9.761607E-2,0E0,0E0],"parents":[2147483647,0,0,2,2],"right_children":[2,-1,4,-1,-1],"split_conditions":[4.907718E-1,-3.5467952E-2,6.118328E-1,6.681532E-2,-2.8456759E-2],"split_indices":[15,0,27,0,0],"split_type":[0,0,0,0,0],"sum_hessian":[3.5582805E0,1.4392904E0,2.1189902E0,1.1160355E0,1.0029546E0],"tree_param":{"num_deleted":"0","num_feature":"34","num_nodes":"5","size_leaf_vector":"0"}},{"base_weights":[-3.4751976E-4,1.3486858E-1,-9.330083E-2,-2.2669187E-1,7.556112E-2],"categories":[],"categories_nodes":[],"categories_segments":[],"categories_sizes":[],"default_left":[true,false,true,false,false],"id":52,"left_children":[1,-1,3,-1,-1],"loss_changes":[6.947615E-2,0E0,9.086497E-2,0E0,0E0],"parents":[2147483647,0,0,2,2],"right_children":[2,-1,4,-1,-1],"split_conditions":[4.1924053E-1,4.0460575E-2,5.283027E-1,-6.8007566E-2,2.2668337E-2],"split_indices":[23,0,9,0,0],"split_type":[0,0,0,0,0],"sum_hessian":[3.5265157E0,1.2529551E0,2.2735605E0,1.0788575E0,1.194703E0],"tree_param":{"num_deleted":"0","num_feature":"34","num_nodes":"5","size_leaf_vector":"0"}},{"base_weights":[-1.4663887E-3,-1.3057564E-1,8.155887E-2,1.9935492E-1,-9.056994E-2],"categories":[],"categories_nodes":[],"categories_segments":[],"categories_sizes":[],"default_left":[true,false,true,false,false],"id":53,"left_children":[1,-1,3,-1,-1],"loss_changes":[5.880231E-2,0E0,8.5971095E-2,0E0,0E0],"parents":[2147483647,0,0,2,2],"right_children":[2,-1,4,-1,-1],"split_conditions":[5.561655E-1,-3.9172694E-2,6.443772E-1,5.9806477E-2,-2.7170984E-2],"split_indices":[28,0,26,0,0],"split_type":[0,0,0,0,0],"sum_hessian":[3.4921389E0,1.1426021E0,2.3495367E0,1.3010159E0,1.0485209E0],"tree_param":{"num_deleted":"0","num_feature":"34","num_nodes":"5","size_leaf_vector":"0"}},{"base_weights":[-2.426928E-3,-8.99841E-2,1.20807715E-1,8.5646726E-2,-2.218082E-1],"categories":[],"categories_nodes":[],"categories_segments":[],"categories_sizes":[],"default_left":[true,true,false,false,false],"id":54,"left_children":[1,3,-1,-1,-1],"loss_changes":[5.9047766E-2,9.2701286E-2,0E0,0E0,0E0],"parents":[2147483647,0,0,1,1],"right_children":[2,4,-1,-1,-1],"split_conditions":[6.410929E-1,4.9698466E-1,3.6242317E-2,2.5694018E-2,-6.654246E-2],"split_indices":[28,24,0,0,0],"split_type":[0,0,0,0,0],"sum_hessian":[3.4649355E0,2.183437E0,1.2814984E0,1.0863609E0,1.0970762E0],"tree_param":{"num_deleted":"0","num_feature":"34","num_nodes":"5","size_leaf_vector":"0"}},{"base_weights":[-2.9063262E-3,-1.1650552E-1,8.772208E-2,1.8253207E-1,-4.8692897E-2],"categories":[],"categories_nodes":[],"categories_segments":[],"categories_sizes":[],"default_left":[true,false,true,false,false],"id":55,"left_children":[1,-1,3,-1,-1],"loss_changes":[5.584248E-2,0E0,4.8145957E-2,0E0,0E0],"parents":[2147483647,0,0,2,2],"right_children":[2,-1,4,-1,-1],"split_conditions":[4.907718E-1,-3.4951657E-2,6.011935E-1,5.4759625E-2,-1.460787E-2],"split_indices":[15,0,27,0,0],"split_type":[0,0,0,0,0],"sum_hessian":[3.4313734E0,1.3960052E0,2.0353682E0,1.0013521E0,1.0340161E0],"tree_param":{"num_deleted":"0","num_feature":"34","num_nodes":"5","size_leaf_vector":"0"}},{"base_weights":[-8.049717E-4,1.2118144E-1,-8.567173E-2,-2.0406483E-1,6.483382E-2],"categories":[],"categories_nodes":[],"categories_segments":[],"categories_sizes":[],"default_left":[true,false,true,false,false],"id":56,"left_children":[1,-1,3,-1,-1],"loss_changes":[5.605157E-2,0E0,7.002535E-2,0E0,0E0],"parents":[2147483647,0,0,2,2],"right_children":[2,-1,4,-1,-1],"split_conditions":[4.1924053E-1,3.6354434E-2,5.283027E-1,-6.121945E-2,1.9450147E-2],"split_indices":[23,0,9,0,0],"split_type":[0,0,0,0,0],"sum_hessian":[3.4114313E0,1.2240684E0,2.187363E0,1.0251111E0,1.162252E0],"tree_param":{"num_deleted":"0","num_feature":"34","num_nodes":"5","size_leaf_vector":"0"}},{"base_weights":[-1.9011921E-3,9.603181E-2,-1.07577816E-1],"categories":[],"categories_nodes":[],"categories_segments":[],"categories_sizes":[],"default_left":[true,false,false],"id":57,"left_children":[1,-1,-1],"loss_changes":[5.569448E-2,0E0,0E0],"parents":[2147483647,0,0],"right_children":[2,-1,-1],"split_conditions":[5.476513E-1,2.8809544E-2,-3.2273345E-2],"split_indices":[22,0,0],"split_type":[0,0,0],"sum_hessian":[3.3832822E0,1.8033463E0,1.5799359E0],"tree_param":{"num_deleted":"0","num_feature":"34","num_nodes":"3","size_leaf_vector":"0"}}]},"name":"gbtree"},"learner_model_param":{"base_score":"5E-1","num_class":"0","num_feature":"34"},"objective":{"name":"binary:logistic","reg_loss_param":{"scale_pos_weight":"1"}}},"version":[1,5,0]}